svm_type c_svc
kernel_type rbf
gamma 0.0078125
nr_class 19
total_sv 671
rho -0.174069 -0.0702071 0.166728 -0.329072 -0.221792 -0.307448 -0.0983057 0.0847449 -0.153357 -0.00615702 0.122762 -0.0845588 0.00222131 -0.118828 0.157818 -0.291563 -0.2403 -0.0972351 -0.001931 0.248307 -0.304918 -0.127305 -0.18218 -0.00154533 0.152863 -0.0797 0.0542585 0.152716 -0.0321923 0.0612338 -0.0581406 0.182678 -0.24018 -0.142438 -0.0406933 0.241768 -0.325481 -0.159186 -0.118321 0.0978203 0.168802 -0.0594192 0.0706589 0.145456 -0.030012 0.0678071 -0.0284549 0.22397 -0.284515 -0.120007 -0.0527181 -0.411848 -0.418141 -0.287021 -0.277894 -0.105484 -0.258347 -0.23705 -0.140334 -0.254661 -0.172581 -0.280376 -0.0493813 -0.424231 -0.278935 -0.262295 0.142494 0.14408 0.289366 0.366155 0.203216 0.293481 0.391764 0.233126 0.363468 0.253291 0.397859 0.00896938 0.127197 0.271801 0.00779591 0.12549 0.302707 0.0520879 0.23814 0.246121 0.126924 0.221964 0.112142 0.541671 -0.184982 -0.0173947 0.146828 0.1163 0.234766 0.0700152 0.171561 0.293773 0.104768 0.173377 0.0708327 0.312325 -0.143272 0.040727 0.0898509 0.192303 -0.0727932 0.066609 0.121984 -0.0187349 0.0724003 -0.0361097 0.191526 -0.224914 -0.105267 -0.0503228 -0.203584 -0.0919729 -0.0359362 -0.188087 -0.074228 -0.191112 0.0748853 -0.353124 -0.272216 -0.192451 0.114245 0.163972 0.0394998 0.12675 0.037429 0.23871 -0.154847 -0.0771543 0.0231231 0.0314215 -0.123693 0.0301624 -0.0853495 0.236023 -0.389546 -0.231025 -0.133525 -0.145546 -0.0338453 -0.176372 0.128311 -0.406024 -0.250452 -0.1938 0.116086 -0.014132 0.224516 -0.363032 -0.128118 -0.0210042 -0.0954627 0.178633 -0.378608 -0.18382 -0.16116 0.235062 -0.215495 -0.0790719 -0.027176 -0.476002 -0.34867 -0.291425 0.139519 0.280878 0.0927832
label 50 51 54 100 52 99 55 53 98 102 110 103 120 109 56 112 119 121 101
nr_sv 40 40 29 43 19 30 25 39 34 34 45 49 29 32 29 39 30 40 45
SV
0.01106332387871536 0 0 0 0 0 0 0 0 0 0 0 0 0 0 0 0 0 10:1 11:1 14:1 15:1 16:1 18:1 19:1 20:1 21:1 22:1 23:1 26:1 27:1 28:1 29:1 30:1 31:-1 32:-1 33:-1 34:1 35:1 38:1 39:1 40:-1 41:-1 42:-1 43:1 44:-1 45:-1 46:1 47:1 50:1 51:-1 52:-1 53:-1 54:1 55:1 56:1 57:-1 58:1 59:1 62:1 63:-1 64:-1 65:1 66:1 67:1 68:1 69:-1 70:1 71:1 74:1 75:1 76:1 77:1 78:1 79:1 80:-1 81:-1 82:1 83:1 86:1 87:1 88:1 89:1 90:1 91:-1 92:-1 93:1 94:1 95:1 98:1 99:1 100:1 101:1 102:1 103:-1 104:1 105:1 106:1 107:1 110:1 111:1 112:1 113:1 114:-1 115:1 116:1 117:-1 118:1 119:1 122:1 123:1 124:-1 125:-1 126:-1 127:-1 128:-1 129:-1 130:1 131:1 134:1 135:-1 136:-1 137:-1 138:-1 139:-1 140:-1 141:-1 142:1 143:1 146:1 147:-1 148:-1 149:-1 150:-1 151:1 152:1 153:1 154:1 155:1 158:1 159:1 160:1 161:1 162:1 163:1 164:1 165:1 166:1 167:1 170:1 171:1 172:1 176:1 177:1 178:1 179:1 
0 0 0 0 0 0 0 0 0.2338418009774295 0 0 0 0 0 0 0 0 0 10:1 11:1 14:1 15:1 16:1 18:1 19:1 20:1 21:1 22:1 23:1 26:1 27:1 28:1 29:1 30:1 31:1 32:1 33:-1 34:-1 35:1 38:1 39:1 40:1 41:-1 42:-1 43:-1 44:-1 45:-1 46:-1 47:1 50:1 51:1 52:-1 53:-1 54:-1 55:1 56:1 57:1 58:-1 59:1 62:1 63:1 64:-1 65:-1 66:1 67:1 68:1 69:-1 70:1 71:1 74:1 75:1 76:1 77:1 78:1 79:1 80:1 81:-1 82:1 83:1 86:1 87:1 88:1 89:1 90:1 91:1 92:-1 93:1 94:1 95:1 98:1 99:1 100:1 101:1 102:1 103:-1 104:-1 105:1 106:1 107:1 110:1 111:1 112:1 113:1 114:-1 115:-1 116:1 117:1 118:1 119:1 122:1 123:-1 124:-1 125:-1 126:1 127:1 128:-1 129:1 130:1 131:1 134:-1 135:-1 136:-1 137:-1 138:-1 139:-1 140:-1 141:1 142:1 143:1 146:-1 147:-1 148:-1 149:-1 150:-1 151:-1 152:-1 153:1 154:1 155:1 158:1 159:1 160:1 161:1 162:1 163:1 164:1 165:1 166:1 167:1 170:1 171:1 172:1 176:1 177:1 178:1 179:1 
0 0 0.03450180459522231 0 0.1188395721579291 0 0 0 0 0 0.0285419347280941 0 0 0 0 0 0 0.1298044495702787 10:1 11:1 14:1 15:1 16:1 18:1 19:1 20:1 21:1 22:1 23:1 26:1 27:1 28:1 29:1 30:1 31:-1 32:-1 33:-1 34:1 35:1 38:1 39:1 40:1 41:-1 42:-1 43:1 44:-1 45:-1 46:1 47:1 50:1 51:1 52:-1 53:-1 54:1 55:1 56:1 57:-1 58:1 59:1 62:1 63:-1 64:-1 65:1 66:1 67:1 68:1 69:-1 70:1 71:1 74:1 75:-1 76:-1 77:1 78:1 79:1 80:-1 81:-1 82:1 83:1 86:1 87:1 88:1 89:1 90:1 91:-1 92:-1 93:1 94:1 95:1 98:1 99:1 100:1 101:1 102:1 103:-1 104:1 105:1 106:1 107:1 110:1 111:1 112:1 113:1 114:-1 115:1 116:1 117:-1 118:1 119:1 122:1 123:1 124:1 125:-1 126:-1 127:-1 128:-1 129:-1 130:1 131:1 134:1 135:1 136:-1 137:-1 138:-1 139:-1 140:-1 141:-1 142:1 143:1 146:1 147:-1 148:-1 149:-1 150:-1 151:1 152:1 153:1 154:1 155:1 158:1 159:-1 160:-1 161:1 162:1 163:1 164:1 165:1 166:1 167:1 170:1 171:1 172:1 176:1 177:1 178:1 179:1 
0.1650772279951 0.1914207266136691 0.06857696379228512 0.06342386526150198 0.216096927145001 0.3979732231065721 0 0.1912387846196106 0.02925073537867835 0.116429982729536 0.1785494265821779 0.1611871676071706 0.106439070003549 0.1831449419963185 0.2739254807536533 0.02684537808777112 0.2984154867277388 0.06538567240093705 10:1 11:1 14:1 15:1 16:1 18:1 19:1 20:1 21:1 22:1 23:1 26:1 27:1 28:1 29:1 30:1 31:1 32:-1 33:-1 34:-1 35:1 38:1 39:1 40:1 41:-1 42:-1 43:-1 44:1 45:-1 46:-1 47:1 50:1 51:1 52:-1 53:-1 54:-1 55:1 56:1 57:1 58:-1 59:1 62:1 63:1 64:-1 65:-1 66:1 67:1 68:1 69:-1 70:1 71:1 74:1 75:1 76:1 77:1 78:1 79:1 80:-1 81:-1 82:1 83:1 86:1 87:1 88:1 89:1 90:1 91:1 92:-1 93:1 94:1 95:1 98:1 99:1 100:1 101:1 102:1 103:-1 104:1 105:1 106:1 107:1 110:1 111:1 112:1 113:1 114:-1 115:-1 116:-1 117:1 118:1 119:1 122:1 123:-1 124:-1 125:-1 126:1 127:1 128:-1 129:1 130:1 131:1 134:-1 135:-1 136:-1 137:-1 138:-1 139:-1 140:-1 141:1 142:1 143:1 146:-1 147:-1 148:-1 149:-1 150:-1 151:-1 152:1 153:1 154:1 155:1 158:1 159:1 160:1 161:1 162:1 163:1 164:1 165:1 166:1 167:1 170:1 171:1 172:1 176:1 177:1 178:1 179:1 
0.2585644890874862 0.01927812446346308 0 0.1431150105532899 0 0.3963962549300183 0.03604846029502282 0 0 0 0.1509288085071942 0 0 0.05567038359715181 0 0 0.07677515724081242 0 10:1 11:1 14:1 15:1 16:1 18:1 19:1 20:1 21:1 22:1 23:1 26:1 27:1 28:1 29:1 30:1 31:1 32:1 33:-1 34:1 35:1 38:1 39:1 40:-1 41:-1 42:-1 43:-1 44:-1 45:-1 46:1 47:1 50:1 51:-1 52:-1 53:-1 54:1 55:1 56:-1 57:-1 58:1 59:1 62:1 63:-1 64:-1 65:1 66:1 67:1 68:1 69:-1 70:1 71:1 74:1 75:1 76:1 77:1 78:1 79:1 80:1 81:-1 82:1 83:1 86:1 87:1 88:1 89:1 90:1 91:1 92:-1 93:1 94:1 95:1 98:1 99:1 100:1 101:1 102:1 103:-1 104:-1 105:1 106:1 107:1 110:1 111:1 112:1 113:1 114:-1 115:-1 116:1 117:-1 118:1 119:1 122:1 123:1 124:-1 125:-1 126:-1 127:1 128:1 129:-1 130:1 131:1 134:1 135:-1 136:-1 137:-1 138:-1 139:-1 140:-1 141:-1 142:1 143:1 146:1 147:-1 148:-1 149:-1 150:-1 151:-1 152:-1 153:1 154:1 155:1 158:1 159:1 160:1 161:1 162:1 163:1 164:1 165:1 166:1 167:1 170:1 171:1 172:1 176:1 177:1 178:1 179:1 
1.35957069267917 0.8344487730650229 0.5948382389570613 0.5150661778248922 0.5949782150446368 0.9331739244037418 0.8111987270138789 0.7794899903777262 0.8327127141097098 0.6933396801085724 0.6490170466599208 0.691387841941731 0.5595857894818083 0.7940204422517887 0.7046765280368361 0.472251879901622 0.9067437880807482 0.504396620554328 10:1 11:1 14:1 15:1 16:1 18:1 19:1 20:1 21:1 22:1 23:1 26:1 27:1 28:1 29:1 30:1 31:1 32:1 33:1 34:-1 35:1 38:1 39:1 40:1 41:1 42:1 43:-1 44:-1 45:-1 46:-1 47:1 50:1 51:1 52:1 53:-1 54:-1 55:1 56:1 57:-1 58:-1 59:1 62:1 63:1 64:-1 65:-1 66:-1 67:1 68:1 69:1 70:1 71:1 74:1 75:1 76:-1 77:-1 78:1 79:1 80:1 81:-1 82:1 83:1 86:1 87:1 88:1 89:1 90:1 91:1 92:-1 93:-1 94:1 95:1 98:1 99:1 100:1 101:1 102:1 103:-1 104:-1 105:1 106:1 107:1 110:1 111:1 112:1 113:1 114:1 115:-1 116:1 117:1 118:1 119:1 122:1 123:1 124:1 125:1 126:-1 127:1 128:-1 129:1 130:1 131:1 134:1 135:-1 136:-1 137:-1 138:1 139:-1 140:-1 141:1 142:1 143:1 146:-1 147:-1 148:-1 149:-1 150:-1 151:-1 152:-1 153:1 154:1 155:1 158:-1 159:-1 160:-1 161:-1 162:-1 163:1 164:1 165:1 166:1 167:1 170:1 171:1 172:1 176:1 177:1 178:1 179:1 
0.2538842412772533 0.01293321243141922 0.0063058517253672 0.2213876234926551 0 0 0.1008129295734529 0.07853437178348036 0.02956055244297189 0 0 0 0 0.06006970416720042 0 0 0 0 10:1 11:1 14:1 15:1 16:1 18:1 19:1 20:1 21:1 22:1 23:1 26:1 27:-1 28:-1 29:-1 30:1 31:1 32:1 33:1 34:1 35:1 38:1 39:-1 40:-1 41:-1 42:-1 43:-1 44:-1 45:-1 46:1 47:1 50:1 51:1 52:-1 53:1 54:1 55:1 56:-1 57:-1 58:1 59:1 62:1 63:1 64:1 65:1 66:1 67:1 68:1 69:-1 70:1 71:1 74:1 75:1 76:1 77:1 78:1 79:1 80:1 81:-1 82:1 83:1 86:1 87:1 88:1 89:1 90:1 91:1 92:-1 93:-1 94:1 95:1 98:1 99:1 100:1 101:1 102:1 103:-1 104:-1 105:1 106:1 107:1 110:1 111:-1 112:-1 113:-1 114:-1 115:-1 116:1 117:1 118:1 119:1 122:1 123:-1 124:-1 125:-1 126:-1 127:1 128:1 129:-1 130:1 131:1 134:1 135:1 136:-1 137:-1 138:-1 139:-1 140:-1 141:-1 142:1 143:1 146:1 147:1 148:1 149:1 150:-1 151:-1 152:-1 153:-1 154:1 155:1 158:1 159:1 160:1 161:1 162:1 163:1 164:1 165:1 166:1 167:1 170:1 171:1 172:1 176:1 177:1 178:1 179:1 
0.06150089066415915 0 0 0 0 0 0 0 0 0 0.01690986684949374 0 0 0.2250625743665838 0 0 0.03315225635582757 0 10:1 11:1 14:1 15:1 16:1 18:1 19:1 20:1 21:1 22:1 23:1 26:1 27:1 28:1 29:1 30:-1 31:-1 32:-1 33:-1 34:-1 35:1 38:1 39:1 40:1 41:-1 42:-1 43:1 44:1 45:-1 46:-1 47:1 50:1 51:1 52:-1 53:-1 54:1 55:1 56:1 57:1 58:-1 59:1 62:1 63:1 64:-1 65:-1 66:1 67:1 68:1 69:-1 70:1 71:1 74:1 75:1 76:1 77:1 78:1 79:1 80:-1 81:-1 82:1 83:1 86:1 87:1 88:1 89:1 90:1 91:-1 92:-1 93:1 94:1 95:1 98:1 99:1 100:1 101:1 102:-1 103:-1 104:1 105:1 106:1 107:1 110:1 111:1 112:1 113:1 114:1 115:1 116:-1 117:1 118:1 119:1 122:1 123:-1 124:-1 125:-1 126:-1 127:-1 128:-1 129:1 130:1 131:1 134:1 135:-1 136:-1 137:-1 138:-1 139:-1 140:-1 141:1 142:1 143:1 146:-1 147:-1 148:-1 149:-1 150:1 151:1 152:1 153:1 154:1 155:1 158:-1 159:1 160:1 161:1 162:1 163:1 164:1 165:1 166:1 167:1 170:1 171:1 172:1 176:1 177:1 178:1 179:1 
0.6153563467738703 0.4379722476851926 0.4880771375608381 0.2133843424948674 0.5695208401363541 1.077602321074078 0.8074787958481259 0.8563634610303881 0.4503266596074428 0.5988155031237692 0.3772806564312639 0.302876662537164 0.4197874404576023 0.3678710033368469 0.4713353679095721 0.2527278218520538 0.3345280351055973 0.4258558095360859 10:1 11:1 14:1 15:1 16:1 18:1 19:1 20:1 21:1 22:1 23:1 26:1 27:1 28:1 29:-1 30:1 31:1 32:1 33:1 34:1 35:1 38:1 39:1 40:-1 41:-1 42:-1 43:-1 44:1 45:1 46:1 47:1 50:1 51:1 52:-1 53:-1 54:-1 55:1 56:-1 57:-1 58:-1 59:1 62:1 63:-1 64:1 65:1 66:1 67:1 68:1 69:-1 70:-1 71:1 74:1 75:1 76:1 77:1 78:1 79:1 80:1 81:1 82:-1 83:1 86:1 87:1 88:1 89:1 90:1 91:1 92:1 93:1 94:-1 95:1 98:1 99:1 100:1 101:1 102:1 103:1 104:1 105:-1 106:-1 107:1 110:1 111:1 112:1 113:-1 114:1 115:-1 116:-1 117:-1 118:1 119:1 122:1 123:1 124:-1 125:-1 126:-1 127:-1 128:-1 129:1 130:1 131:1 134:1 135:1 136:-1 137:-1 138:-1 139:-1 140:1 141:1 142:-1 143:1 146:1 147:1 148:1 149:1 150:-1 151:-1 152:-1 153:-1 154:-1 155:1 158:1 159:1 160:1 161:1 162:1 163:1 164:-1 165:-1 166:-1 167:1 170:1 171:1 172:1 176:1 177:1 178:1 179:1 
0.5912987704823556 0.03668135693539636 0.2319844740694736 0.05150822753674697 0.2439103636842646 0.07801673338064004 0.2006141075690814 0.135003789432174 0.05267088956596129 0.05291899038522839 0 0.07570491640658134 0.00392089161905624 0.0424274166619777 0 0.04804420422436244 0.08388796887750449 0.1938535696512199 10:1 11:1 14:1 15:1 16:1 18:1 19:1 20:1 21:1 22:1 23:1 26:1 27:1 28:-1 29:-1 30:-1 31:-1 32:-1 33:1 34:1 35:1 38:1 39:-1 40:-1 41:-1 42:1 43:1 44:-1 45:-1 46:1 47:1 50:1 51:-1 52:-1 53:1 54:1 55:1 56:1 57:-1 58:1 59:1 62:1 63:1 64:1 65:1 66:1 67:1 68:1 69:-1 70:1 71:1 74:1 75:1 76:1 77:1 78:1 79:1 80:-1 81:-1 82:1 83:1 86:1 87:1 88:1 89:1 90:1 91:-1 92:-1 93:-1 94:1 95:1 98:1 99:1 100:1 101:1 102:-1 103:-1 104:1 105:1 106:1 107:1 110:1 111:1 112:-1 113:-1 114:-1 115:1 116:1 117:1 118:1 119:1 122:1 123:-1 124:-1 125:-1 126:-1 127:-1 128:-1 129:-1 130:1 131:1 134:1 135:-1 136:-1 137:-1 138:-1 139:-1 140:-1 141:-1 142:1 143:1 146:1 147:1 148:1 149:1 150:1 151:1 152:1 153:-1 154:1 155:1 158:1 159:1 160:1 161:1 162:1 163:1 164:1 165:1 166:1 167:1 170:1 171:1 172:1 176:1 177:1 178:1 179:1 
0 0.03223025569512242 0 0 0 0 0.05214580889179749 0.01034182164289364 0.1601131615319405 0 0.06212429501802675 0 0 0 0.1374446202039241 0.03728874479677182 0.04212704513481647 0 10:1 11:1 14:1 15:1 16:1 18:1 19:1 20:1 21:1 22:1 23:1 26:1 27:1 28:1 29:-1 30:-1 31:1 32:1 33:1 34:1 35:1 38:1 39:1 40:-1 41:-1 42:-1 43:-1 44:-1 45:-1 46:1 47:1 50:1 51:1 52:-1 53:-1 54:1 55:1 56:1 57:-1 58:-1 59:1 62:1 63:1 64:1 65:1 66:1 67:1 68:1 69:1 70:-1 71:1 74:1 75:1 76:1 77:1 78:1 79:1 80:1 81:-1 82:-1 83:1 86:1 87:1 88:1 89:1 90:1 91:1 92:-1 93:-1 94:1 95:1 98:1 99:1 100:1 101:1 102:-1 103:-1 104:-1 105:1 106:1 107:1 110:-1 111:-1 112:-1 113:-1 114:1 115:-1 116:1 117:1 118:1 119:1 122:-1 123:-1 124:-1 125:-1 126:-1 127:1 128:-1 129:1 130:1 131:1 134:1 135:-1 136:-1 137:-1 138:-1 139:-1 140:-1 141:1 142:1 143:1 146:1 147:1 148:1 149:1 150:1 151:-1 152:-1 153:1 154:1 155:1 158:1 159:1 160:1 161:1 162:1 163:1 164:1 165:1 166:1 167:1 170:1 171:1 172:1 176:1 177:1 178:1 179:1 
0.8863078193744516 0.7286448774106051 0.9974697293570062 0.5004548629204405 0.619283131041935 0.6223944698505821 0.9761695067313897 0.7593632910240497 0.6818534961502398 0.7424950343190817 0.4960395828602761 0.509516115262777 0.5286822117941132 1.005310174898306 0.8049181025607317 0.3486220269912956 0.5761206129367136 0.5746041027236677 10:1 11:1 14:1 15:1 16:1 18:1 19:1 20:1 21:1 22:-1 23:1 26:1 27:1 28:1 29:1 30:1 31:1 32:-1 33:-1 34:-1 35:1 38:1 39:1 40:1 41:1 42:-1 43:-1 44:1 45:-1 46:-1 47:1 50:1 51:1 52:1 53:-1 54:-1 55:1 56:1 57:1 58:-1 59:1 62:1 63:1 64:-1 65:-1 66:1 67:1 68:1 69:1 70:-1 71:1 74:1 75:1 76:-1 77:-1 78:1 79:1 80:1 81:-1 82:1 83:1 86:1 87:1 88:1 89:1 90:1 91:1 92:-1 93:-1 94:1 95:1 98:1 99:1 100:1 101:1 102:1 103:1 104:-1 105:1 106:-1 107:1 110:1 111:1 112:1 113:1 114:1 115:-1 116:1 117:1 118:-1 119:1 122:1 123:1 124:1 125:1 126:-1 127:-1 128:-1 129:-1 130:-1 131:1 134:1 135:1 136:1 137:-1 138:-1 139:-1 140:-1 141:-1 142:1 143:1 146:1 147:-1 148:-1 149:-1 150:-1 151:-1 152:1 153:1 154:1 155:1 158:1 159:-1 160:-1 161:-1 162:1 163:1 164:1 165:1 166:1 167:1 170:1 171:1 172:1 176:1 177:1 178:1 179:1 
0 0 0 0 0 0 0 0 0 0 0 0 0 0.1446998054395974 0 0 0 0 10:1 11:1 14:1 15:1 16:1 18:1 19:1 20:1 21:1 22:1 23:1 26:1 27:1 28:-1 29:1 30:1 31:1 32:1 33:1 34:1 35:1 38:1 39:-1 40:-1 41:-1 42:-1 43:-1 44:1 45:1 46:1 47:1 50:1 51:-1 52:-1 53:-1 54:1 55:1 56:-1 57:-1 58:1 59:1 62:1 63:1 64:1 65:1 66:1 67:1 68:-1 69:-1 70:1 71:1 74:1 75:1 76:1 77:1 78:1 79:1 80:1 81:-1 82:1 83:1 86:1 87:1 88:1 89:1 90:1 91:1 92:1 93:-1 94:1 95:1 98:1 99:1 100:1 101:1 102:1 103:-1 104:-1 105:-1 106:1 107:1 110:1 111:1 112:-1 113:1 114:-1 115:-1 116:-1 117:1 118:1 119:1 122:1 123:-1 124:-1 125:-1 126:-1 127:1 128:1 129:1 130:1 131:1 134:1 135:-1 136:-1 137:-1 138:-1 139:-1 140:1 141:-1 142:1 143:1 146:1 147:1 148:1 149:-1 150:-1 151:-1 152:-1 153:-1 154:1 155:1 158:1 159:1 160:1 161:1 162:1 163:1 164:-1 165:-1 166:1 167:1 170:1 171:1 172:1 176:1 177:1 178:1 179:1 
0.9289966734269235 0.8017831927342188 0.4823702111029082 0.3396553239621267 0.8035900321445664 1.172819630893162 0.6990585817099175 0.7452662579741912 0.5395381523847744 0.5347297482016424 0.9280328946608087 0.4695085085137616 0.4383915029471734 0.2909698234592442 0.6605756437192228 0.3302246596090641 0.8064037094663593 0.5807069482798369 10:1 11:1 14:1 15:1 16:1 18:1 19:1 20:1 21:1 22:1 23:1 26:1 27:1 28:-1 29:1 30:1 31:1 32:1 33:1 34:1 35:1 38:1 39:-1 40:-1 41:-1 42:-1 43:1 44:1 45:1 46:1 47:1 50:1 51:-1 52:-1 53:-1 54:1 55:-1 56:-1 57:-1 58:1 59:1 62:1 63:1 64:1 65:1 66:1 67:1 68:-1 69:-1 70:1 71:1 74:1 75:1 76:1 77:1 78:1 79:1 80:1 81:-1 82:1 83:1 86:1 87:1 88:1 89:1 90:1 91:1 92:1 93:-1 94:1 95:1 98:1 99:1 100:1 101:1 102:1 103:1 104:-1 105:-1 106:1 107:1 110:1 111:1 112:-1 113:1 114:-1 115:-1 116:-1 117:1 118:1 119:1 122:1 123:-1 124:-1 125:-1 126:-1 127:-1 128:1 129:1 130:1 131:1 134:1 135:-1 136:-1 137:-1 138:-1 139:1 140:1 141:-1 142:1 143:1 146:1 147:1 148:1 149:-1 150:-1 151:-1 152:-1 153:-1 154:1 155:1 158:1 159:1 160:1 161:1 162:1 163:-1 164:-1 165:-1 166:1 167:1 170:1 171:1 172:1 176:1 177:1 178:1 179:1 
0 0 0 0 0 0 0 0 0.02169605553249378 0 0 0 0 0 0 0 0 0 10:1 11:1 14:1 15:1 16:1 18:1 19:1 20:1 21:1 22:-1 23:1 26:1 27:1 28:1 29:1 30:1 31:1 32:-1 33:-1 34:-1 35:1 38:1 39:1 40:1 41:-1 42:-1 43:-1 44:1 45:-1 46:-1 47:1 50:1 51:1 52:-1 53:-1 54:-1 55:1 56:1 57:1 58:1 59:1 62:1 63:1 64:-1 65:-1 66:1 67:1 68:1 69:-1 70:1 71:1 74:1 75:1 76:1 77:1 78:1 79:1 80:-1 81:-1 82:1 83:1 86:1 87:1 88:1 89:1 90:1 91:1 92:-1 93:1 94:1 95:1 98:1 99:1 100:1 101:1 102:1 103:-1 104:1 105:1 106:1 107:1 110:1 111:1 112:1 113:1 114:-1 115:-1 116:-1 117:1 118:1 119:1 122:1 123:1 124:-1 125:-1 126:1 127:1 128:-1 129:1 130:1 131:1 134:1 135:-1 136:-1 137:-1 138:-1 139:-1 140:-1 141:1 142:1 143:1 146:-1 147:-1 148:-1 149:-1 150:-1 151:-1 152:1 153:1 154:1 155:1 158:-1 159:-1 160:1 161:1 162:1 163:1 164:1 165:1 166:1 167:1 170:1 171:1 172:1 176:1 177:1 178:1 179:1 
0.5508859864772184 0.4016486683149489 0.5956031460340067 0.4675079709294016 0.5555274494288266 0.02867851365884565 0.4734503289811096 0.5546260881790023 0.2577088124332964 0.6107287791863237 0.7714758978242777 0.3350507497985424 0.4398491345251278 0.4503732139246846 0.6140310416615081 0.3368577452721979 0.137604251211677 0.3433095709944007 10:1 11:1 14:1 15:1 16:1 18:1 19:1 20:1 21:1 22:1 23:1 26:1 27:1 28:-1 29:-1 30:-1 31:1 32:1 33:1 34:1 35:1 38:1 39:1 40:-1 41:-1 42:-1 43:-1 44:-1 45:1 46:1 47:1 50:1 51:1 52:1 53:-1 54:1 55:1 56:1 57:-1 58:-1 59:1 62:1 63:1 64:1 65:1 66:1 67:1 68:1 69:-1 70:-1 71:1 74:1 75:1 76:1 77:1 78:1 79:1 80:1 81:1 82:-1 83:1 86:1 87:1 88:1 89:1 90:1 91:1 92:1 93:1 94:-1 95:1 98:1 99:1 100:1 101:1 102:1 103:1 104:-1 105:-1 106:-1 107:1 110:1 111:-1 112:-1 113:-1 114:-1 115:-1 116:-1 117:-1 118:1 119:1 122:1 123:-1 124:-1 125:-1 126:-1 127:-1 128:1 129:1 130:1 131:1 134:1 135:1 136:1 137:-1 138:-1 139:-1 140:-1 141:1 142:-1 143:1 146:1 147:1 148:1 149:1 150:1 151:-1 152:-1 153:-1 154:-1 155:1 158:1 159:1 160:1 161:1 162:1 163:1 164:1 165:-1 166:-1 167:1 170:1 171:1 172:1 176:1 177:1 178:1 179:1 
0.5907721256109815 0.1457067467847688 0.002610816272784001 0.1263775702620144 0 0.3685755180448939 0.1252052290995603 0.163532710712176 0.0939214879900416 0.04266785032687918 0.3763889849245005 0.1809582829367692 0.08800917570636103 0.1615715081777652 0.009487368680053517 0.1578661821498465 0.3442258404089825 0.05147963197626845 10:1 11:1 14:1 15:1 16:1 18:1 19:1 20:1 21:1 22:1 23:1 26:1 27:-1 28:-1 29:-1 30:1 31:1 32:1 33:1 34:1 35:1 38:1 39:-1 40:-1 41:-1 42:-1 43:-1 44:1 45:1 46:1 47:1 50:1 51:1 52:-1 53:1 54:1 55:1 56:-1 57:-1 58:1 59:1 62:1 63:1 64:1 65:1 66:1 67:1 68:-1 69:-1 70:1 71:1 74:1 75:1 76:1 77:1 78:1 79:1 80:1 81:-1 82:1 83:1 86:1 87:1 88:1 89:1 90:1 91:1 92:1 93:-1 94:1 95:1 98:1 99:1 100:1 101:1 102:1 103:-1 104:-1 105:-1 106:1 107:1 110:1 111:-1 112:-1 113:-1 114:-1 115:-1 116:-1 117:1 118:1 119:1 122:1 123:-1 124:-1 125:-1 126:-1 127:1 128:1 129:1 130:1 131:1 134:1 135:1 136:-1 137:-1 138:-1 139:-1 140:1 141:-1 142:1 143:1 146:1 147:1 148:1 149:1 150:-1 151:-1 152:-1 153:-1 154:1 155:1 158:1 159:1 160:1 161:1 162:1 163:1 164:-1 165:-1 166:1 167:1 170:1 171:1 172:1 176:1 177:1 178:1 179:1 
0.0880300426518584 0 0.3223665098653529 0 0.1390797614183424 0.07066690662430826 0.2235624470453556 0.2196755861102148 0 0.2774222721739849 0.1691470010581206 0.1713270471419182 0.1551550543191831 0.08343324580019484 0.2096997282701841 0.1084392296620422 0.1162868709910909 0.1045625047342752 10:1 11:1 14:1 15:1 16:1 18:1 19:1 20:1 21:-1 22:-1 23:1 26:1 27:1 28:1 29:1 30:1 31:-1 32:-1 33:-1 34:-1 35:1 38:1 39:1 40:1 41:-1 42:-1 43:1 44:1 45:1 46:-1 47:1 50:1 51:1 52:-1 53:-1 54:-1 55:1 56:1 57:1 58:-1 59:1 62:1 63:1 64:-1 65:-1 66:1 67:1 68:1 69:-1 70:-1 71:1 74:1 75:1 76:1 77:1 78:1 79:1 80:1 81:-1 82:1 83:1 86:1 87:1 88:1 89:1 90:1 91:1 92:-1 93:1 94:1 95:1 98:1 99:1 100:1 101:1 102:1 103:-1 104:-1 105:1 106:-1 107:1 110:1 111:1 112:1 113:1 114:1 115:-1 116:1 117:-1 118:-1 119:1 122:1 123:1 124:1 125:-1 126:-1 127:-1 128:-1 129:-1 130:-1 131:1 134:1 135:1 136:-1 137:-1 138:-1 139:-1 140:-1 141:1 142:1 143:1 146:1 147:-1 148:-1 149:-1 150:-1 151:1 152:1 153:1 154:1 155:1 158:1 159:-1 160:1 161:1 162:1 163:1 164:1 165:1 166:1 167:1 170:1 171:1 172:1 176:1 177:1 178:1 179:1 
0.1766016065158301 0 0 0 0.2010082779078784 0.2196008329621969 0.1482744876232326 0 0.0105610872484735 0 0.2455428245210846 0 0 0 0.01743902945723111 0 0 0 10:1 11:1 14:1 15:1 16:1 18:1 19:1 20:1 21:1 22:-1 23:1 26:1 27:1 28:1 29:1 30:1 31:1 32:-1 33:-1 34:-1 35:1 38:1 39:1 40:1 41:-1 42:-1 43:-1 44:1 45:-1 46:-1 47:1 50:1 51:1 52:1 53:-1 54:-1 55:1 56:1 57:1 58:-1 59:1 62:1 63:1 64:-1 65:-1 66:1 67:1 68:1 69:1 70:-1 71:1 74:1 75:1 76:-1 77:1 78:1 79:1 80:1 81:-1 82:1 83:1 86:1 87:1 88:1 89:1 90:1 91:1 92:-1 93:-1 94:1 95:1 98:1 99:1 100:1 101:1 102:1 103:1 104:-1 105:1 106:-1 107:1 110:1 111:1 112:1 113:1 114:1 115:-1 116:1 117:1 118:-1 119:1 122:1 123:1 124:1 125:-1 126:-1 127:-1 128:-1 129:-1 130:-1 131:1 134:1 135:1 136:1 137:-1 138:-1 139:-1 140:-1 141:-1 142:1 143:1 146:1 147:-1 148:-1 149:-1 150:-1 151:-1 152:1 153:1 154:1 155:1 158:1 159:-1 160:-1 161:1 162:1 163:1 164:1 165:1 166:1 167:1 170:1 171:1 172:1 176:1 177:1 178:1 179:1 
0.3599210454090904 0 0 0 0 0 0 0 0 0 0 0 0 0 0 0 0 0 10:1 11:1 14:1 15:1 16:1 18:1 19:1 20:-1 21:-1 22:-1 23:1 26:1 27:1 28:1 29:1 30:-1 31:-1 32:1 33:-1 34:-1 35:1 38:1 39:1 40:1 41:-1 42:-1 43:1 44:1 45:1 46:-1 47:1 50:1 51:1 52:-1 53:-1 54:1 55:1 56:1 57:-1 58:1 59:1 62:1 63:1 64:-1 65:-1 66:1 67:1 68:-1 69:-1 70:1 71:1 74:1 75:1 76:1 77:1 78:1 79:1 80:-1 81:1 82:1 83:1 86:1 87:1 88:1 89:1 90:1 91:-1 92:1 93:1 94:1 95:1 98:1 99:1 100:1 101:1 102:-1 103:-1 104:-1 105:1 106:1 107:1 110:1 111:1 112:1 113:1 114:1 115:1 116:-1 117:1 118:1 119:1 122:1 123:-1 124:-1 125:-1 126:-1 127:-1 128:-1 129:1 130:1 131:1 134:1 135:-1 136:-1 137:-1 138:-1 139:-1 140:1 141:1 142:1 143:1 146:-1 147:-1 148:-1 149:-1 150:1 151:1 152:1 153:1 154:1 155:1 158:-1 159:1 160:1 161:1 162:1 163:1 164:1 165:1 166:1 167:1 170:1 171:1 172:1 176:1 177:1 178:1 179:1 
0.161204130574943 0 0 0 0 0 0 0 0 0 0 0 0 0 0 0 0 0 10:1 11:1 14:1 15:1 16:1 18:1 19:1 20:1 21:-1 22:1 23:1 26:1 27:1 28:1 29:1 30:1 31:-1 32:-1 33:-1 34:1 35:1 38:1 39:1 40:-1 41:-1 42:-1 43:1 44:-1 45:-1 46:1 47:1 50:1 51:1 52:-1 53:-1 54:1 55:1 56:1 57:-1 58:1 59:1 62:1 63:-1 64:-1 65:1 66:1 67:1 68:1 69:-1 70:1 71:1 74:1 75:-1 76:1 77:1 78:1 79:1 80:-1 81:1 82:1 83:1 86:1 87:1 88:1 89:1 90:1 91:-1 92:-1 93:1 94:1 95:1 98:1 99:1 100:1 101:1 102:1 103:-1 104:1 105:-1 106:1 107:1 110:1 111:1 112:1 113:1 114:-1 115:1 116:1 117:-1 118:1 119:1 122:1 123:1 124:-1 125:-1 126:-1 127:-1 128:-1 129:-1 130:1 131:1 134:1 135:1 136:-1 137:-1 138:-1 139:-1 140:-1 141:1 142:1 143:1 146:1 147:-1 148:-1 149:-1 150:-1 151:1 152:1 153:1 154:1 155:1 158:1 159:-1 160:1 161:1 162:1 163:1 164:1 165:1 166:1 167:1 170:1 171:1 172:1 176:1 177:1 178:1 179:1 
0.4273024271657147 0 0 0 0 0 0 0 0.09677328100059189 0.007601815128894366 0.02472869184043217 0 0 0 0 0 0.03614662024777002 0 10:1 11:1 14:1 15:1 16:1 18:1 19:1 20:1 21:1 22:1 23:1 26:1 27:1 28:1 29:-1 30:-1 31:-1 32:-1 33:-1 34:-1 35:1 38:1 39:1 40:1 41:-1 42:-1 43:1 44:1 45:-1 46:-1 47:1 50:1 51:1 52:-1 53:-1 54:1 55:1 56:1 57:1 58:-1 59:1 62:1 63:1 64:-1 65:1 66:1 67:1 68:1 69:-1 70:1 71:1 74:1 75:1 76:1 77:1 78:1 79:1 80:-1 81:-1 82:1 83:1 86:1 87:1 88:1 89:1 90:1 91:-1 92:-1 93:1 94:1 95:1 98:1 99:1 100:1 101:1 102:-1 103:-1 104:1 105:1 106:1 107:1 110:1 111:1 112:1 113:-1 114:1 115:1 116:-1 117:1 118:1 119:1 122:1 123:-1 124:-1 125:-1 126:-1 127:-1 128:-1 129:1 130:1 131:1 134:-1 135:-1 136:-1 137:-1 138:-1 139:-1 140:-1 141:1 142:1 143:1 146:-1 147:-1 148:-1 149:1 150:1 151:1 152:1 153:1 154:1 155:1 158:1 159:1 160:1 161:1 162:1 163:1 164:1 165:1 166:1 167:1 170:1 171:1 172:1 176:1 177:1 178:1 179:1 
0 0 0 0 0 0.1765764445615249 0 0 0 0 0 0 0 0.08594038190663016 0 0 0.1836894077488117 0 10:1 11:1 14:1 15:1 16:1 18:1 19:1 20:1 21:1 22:1 23:1 26:1 27:1 28:1 29:1 30:-1 31:-1 32:-1 33:-1 34:1 35:1 38:1 39:1 40:-1 41:-1 42:1 43:1 44:-1 45:-1 46:1 47:1 50:1 51:-1 52:-1 53:-1 54:1 55:1 56:1 57:-1 58:1 59:1 62:1 63:-1 64:-1 65:1 66:1 67:1 68:1 69:-1 70:1 71:1 74:1 75:1 76:1 77:1 78:1 79:1 80:-1 81:-1 82:1 83:1 86:1 87:1 88:1 89:1 90:1 91:-1 92:-1 93:1 94:1 95:1 98:1 99:1 100:1 101:1 102:-1 103:-1 104:1 105:1 106:1 107:1 110:1 111:1 112:1 113:1 114:-1 115:1 116:1 117:-1 118:1 119:1 122:1 123:1 124:-1 125:-1 126:-1 127:-1 128:-1 129:-1 130:1 131:1 134:1 135:-1 136:-1 137:-1 138:-1 139:-1 140:-1 141:-1 142:1 143:1 146:1 147:-1 148:-1 149:-1 150:1 151:1 152:1 153:1 154:1 155:1 158:1 159:1 160:1 161:1 162:1 163:1 164:1 165:1 166:1 167:1 170:1 171:1 172:1 176:1 177:1 178:1 179:1 
0.2637925750540511 0.3504147133416393 0.3028832949756568 0.1964811341044475 0.2099838561018464 0.2230036961953124 0.06454865873105076 0.2096199089113353 0.142306008760672 0.2206259617808724 0.4868701192826274 0.3843820041853908 0.3430882593334998 0.3003642100261272 0.2657738280262842 0.2142394733427327 0.1711017925923793 0.2906200981847701 10:1 11:1 14:1 15:1 16:1 18:1 19:1 20:1 21:1 22:1 23:1 26:1 27:1 28:1 29:-1 30:-1 31:-1 32:-1 33:-1 34:-1 35:1 38:1 39:1 40:-1 41:-1 42:-1 43:1 44:1 45:-1 46:-1 47:1 50:1 51:1 52:-1 53:-1 54:1 55:1 56:1 57:1 58:-1 59:1 62:1 63:1 64:1 65:1 66:1 67:1 68:1 69:-1 70:1 71:1 74:1 75:1 76:1 77:1 78:1 79:1 80:-1 81:-1 82:1 83:1 86:1 87:1 88:1 89:1 90:1 91:-1 92:-1 93:1 94:1 95:1 98:1 99:1 100:1 101:1 102:-1 103:-1 104:1 105:1 106:1 107:1 110:1 111:-1 112:-1 113:-1 114:1 115:1 116:-1 117:1 118:1 119:1 122:1 123:-1 124:-1 125:-1 126:-1 127:-1 128:-1 129:1 130:1 131:1 134:-1 135:-1 136:-1 137:-1 138:-1 139:-1 140:-1 141:1 142:1 143:1 146:-1 147:1 148:1 149:1 150:1 151:1 152:1 153:1 154:1 155:1 158:1 159:1 160:1 161:1 162:1 163:1 164:1 165:1 166:1 167:1 170:1 171:1 172:1 176:1 177:1 178:1 179:1 
0.05946508818526497 0 0.4024141701169295 0.1247334476901907 0.1901750803878813 0.2826293909947215 0.1584327145960039 0.1564964457344428 0.00256579659942758 0.3089990972106286 0.3114529125266488 0.1369285622820315 0.2007485432939107 0.01389124070516105 0.3143246388833882 0.2944231322883202 0.3255888887673468 0.1436774103272047 10:1 11:1 14:1 15:1 16:1 18:1 19:1 20:1 21:1 22:1 23:1 26:1 27:1 28:1 29:-1 30:-1 31:-1 32:-1 33:1 34:1 35:1 38:1 39:1 40:-1 41:-1 42:-1 43:1 44:1 45:-1 46:-1 47:1 50:1 51:1 52:-1 53:-1 54:1 55:1 56:1 57:-1 58:-1 59:1 62:1 63:-1 64:1 65:1 66:1 67:1 68:1 69:1 70:-1 71:1 74:1 75:1 76:1 77:1 78:1 79:1 80:1 81:1 82:-1 83:1 86:1 87:1 88:1 89:1 90:1 91:1 92:-1 93:-1 94:-1 95:1 98:1 99:1 100:1 101:1 102:1 103:-1 104:-1 105:-1 106:1 107:1 110:1 111:1 112:1 113:-1 114:-1 115:-1 116:1 117:1 118:1 119:1 122:1 123:1 124:-1 125:-1 126:-1 127:-1 128:-1 129:1 130:-1 131:1 134:1 135:1 136:-1 137:-1 138:-1 139:-1 140:-1 141:-1 142:-1 143:1 146:1 147:1 148:1 149:1 150:1 151:1 152:1 153:-1 154:-1 155:1 158:1 159:1 160:1 161:1 162:1 163:1 164:1 165:1 166:1 167:1 170:1 171:1 172:1 176:1 177:1 178:1 179:1 
0.1732948007184337 0 0 0 0 0.1053585633191199 0 0.01408527143551519 0 0 0.1542514866056329 0 0 0 0 0 0 0 10:1 11:1 14:1 15:1 16:1 18:1 19:1 20:1 21:1 22:1 23:1 26:1 27:1 28:1 29:1 30:1 31:-1 32:-1 33:-1 34:-1 35:1 38:1 39:1 40:1 41:-1 42:-1 43:1 44:1 45:-1 46:-1 47:1 50:1 51:1 52:-1 53:-1 54:-1 55:1 56:1 57:1 58:-1 59:1 62:1 63:1 64:-1 65:-1 66:1 67:1 68:1 69:-1 70:1 71:1 74:1 75:1 76:1 77:1 78:1 79:1 80:-1 81:-1 82:1 83:1 86:1 87:1 88:1 89:1 90:1 91:-1 92:-1 93:1 94:1 95:1 98:1 99:1 100:1 101:1 102:1 103:-1 104:1 105:1 106:1 107:1 110:1 111:1 112:1 113:1 114:-1 115:1 116:-1 117:1 118:1 119:1 122:1 123:1 124:-1 125:-1 126:1 127:-1 128:-1 129:1 130:1 131:1 134:1 135:-1 136:-1 137:-1 138:-1 139:-1 140:-1 141:1 142:1 143:1 146:-1 147:-1 148:-1 149:-1 150:-1 151:1 152:1 153:1 154:1 155:1 158:-1 159:-1 160:1 161:1 162:1 163:1 164:1 165:1 166:1 167:1 170:1 171:1 172:1 176:1 177:1 178:1 179:1 
0.2567232801927462 0.2467321603063762 0.1197242166679399 0.309775415224103 0.01676305956265471 0.4436326211533868 0.1901148498819565 0.1475323162955999 0.1661273465839538 0.1912257277451583 0.3227513352670494 0.2894590818250466 0.2169116589358619 0.4899909700515103 0.1171644080084759 0.2340468987516873 0.3837272147101512 0.1988777552313746 10:1 11:1 14:1 15:1 16:1 18:1 19:1 20:1 21:1 22:1 23:1 26:1 27:1 28:-1 29:-1 30:-1 31:-1 32:1 33:1 34:1 35:1 38:1 39:-1 40:-1 41:-1 42:1 43:1 44:-1 45:-1 46:1 47:1 50:1 51:-1 52:-1 53:1 54:1 55:1 56:-1 57:-1 58:1 59:1 62:1 63:1 64:1 65:1 66:1 67:1 68:1 69:-1 70:1 71:1 74:1 75:1 76:1 77:1 78:1 79:1 80:1 81:-1 82:1 83:1 86:1 87:1 88:1 89:1 90:1 91:-1 92:-1 93:-1 94:1 95:1 98:1 99:1 100:1 101:1 102:-1 103:-1 104:-1 105:1 106:1 107:1 110:1 111:1 112:-1 113:-1 114:-1 115:1 116:1 117:1 118:1 119:1 122:1 123:-1 124:-1 125:-1 126:-1 127:-1 128:1 129:-1 130:1 131:1 134:1 135:-1 136:-1 137:-1 138:-1 139:-1 140:-1 141:-1 142:1 143:1 146:1 147:1 148:1 149:1 150:1 151:1 152:-1 153:-1 154:1 155:1 158:1 159:1 160:1 161:1 162:1 163:1 164:1 165:1 166:1 167:1 170:1 171:1 172:1 176:1 177:1 178:1 179:1 
0.6532285758858196 0.3289281278946718 0.01974869758991124 0.2798451482100026 0.001582976790489191 0.2386912846226869 0.2609330539135825 0 0.1323610764881616 0 0.2200519369542599 0 0.05257630173793277 0.2138729895647218 0.1512864623044292 0 0.1076127076501816 0.1213413329235037 10:1 11:1 14:1 15:1 16:1 18:1 19:1 20:1 21:-1 22:1 23:1 26:1 27:1 28:1 29:1 30:1 31:-1 32:-1 33:-1 34:1 35:1 38:1 39:1 40:1 41:-1 42:-1 43:1 44:-1 45:-1 46:1 47:1 50:1 51:1 52:-1 53:-1 54:1 55:1 56:1 57:-1 58:1 59:1 62:1 63:-1 64:-1 65:1 66:1 67:1 68:1 69:-1 70:1 71:1 74:1 75:-1 76:-1 77:1 78:1 79:1 80:-1 81:1 82:1 83:1 86:1 87:1 88:1 89:1 90:1 91:-1 92:-1 93:1 94:1 95:1 98:1 99:1 100:1 101:1 102:1 103:-1 104:1 105:-1 106:1 107:1 110:1 111:1 112:1 113:1 114:-1 115:1 116:1 117:-1 118:1 119:1 122:1 123:1 124:1 125:-1 126:-1 127:-1 128:-1 129:-1 130:1 131:1 134:1 135:1 136:-1 137:-1 138:-1 139:-1 140:-1 141:1 142:1 143:1 146:1 147:-1 148:-1 149:-1 150:-1 151:1 152:1 153:1 154:1 155:1 158:1 159:-1 160:-1 161:1 162:1 163:1 164:1 165:1 166:1 167:1 170:1 171:1 172:1 176:1 177:1 178:1 179:1 
0.8141530932261317 0.2688102829785713 0.0386119578813092 0.00709608295290818 0.2381354561617539 0.1187788793511032 0.2050953860500613 0.1692561911813312 0.1892476321564703 0.1546441415770666 0.3443643813519849 0.2328639704967133 0.1735163689425122 0.4165520116693707 0.2006687782982616 0.2303733213569318 0.06608783035141527 0.2781866542123274 10:1 11:1 14:1 15:1 16:1 18:1 19:1 20:1 21:1 22:1 23:1 26:1 27:1 28:1 29:-1 30:-1 31:-1 32:1 33:1 34:1 35:1 38:1 39:1 40:-1 41:-1 42:-1 43:1 44:-1 45:-1 46:-1 47:1 50:1 51:1 52:-1 53:-1 54:1 55:1 56:1 57:-1 58:-1 59:1 62:1 63:1 64:1 65:1 66:1 67:1 68:1 69:1 70:-1 71:1 74:1 75:1 76:1 77:1 78:1 79:1 80:1 81:-1 82:1 83:1 86:1 87:1 88:1 89:1 90:1 91:-1 92:-1 93:-1 94:1 95:1 98:1 99:1 100:1 101:1 102:-1 103:-1 104:-1 105:1 106:1 107:1 110:1 111:-1 112:-1 113:-1 114:1 115:1 116:1 117:1 118:1 119:1 122:-1 123:-1 124:-1 125:-1 126:-1 127:-1 128:-1 129:1 130:1 131:1 134:-1 135:-1 136:-1 137:-1 138:-1 139:-1 140:-1 141:1 142:1 143:1 146:1 147:1 148:1 149:1 150:1 151:1 152:-1 153:1 154:1 155:1 158:1 159:1 160:1 161:1 162:1 163:1 164:1 165:1 166:1 167:1 170:1 171:1 172:1 176:1 177:1 178:1 179:1 
0 0 0 0 0 0 0 0.1030213488543895 0.2435482786916557 0 0.163042666580094 0 0 0 0.04996506418144033 0 0.2921311867606249 0 10:1 11:1 14:1 15:1 16:1 18:1 19:1 20:1 21:1 22:1 23:1 26:1 27:1 28:-1 29:-1 30:-1 31:1 32:1 33:1 34:1 35:1 38:1 39:-1 40:-1 41:-1 42:1 43:-1 44:-1 45:-1 46:1 47:1 50:1 51:-1 52:-1 53:1 54:1 55:1 56:-1 57:-1 58:1 59:1 62:1 63:1 64:1 65:1 66:1 67:1 68:1 69:-1 70:1 71:1 74:1 75:1 76:1 77:1 78:1 79:1 80:1 81:-1 82:1 83:1 86:1 87:1 88:1 89:1 90:1 91:1 92:-1 93:-1 94:1 95:1 98:1 99:1 100:1 101:1 102:-1 103:-1 104:-1 105:1 106:1 107:1 110:1 111:1 112:-1 113:-1 114:-1 115:-1 116:1 117:1 118:1 119:1 122:1 123:-1 124:-1 125:-1 126:-1 127:1 128:1 129:-1 130:1 131:1 134:1 135:-1 136:-1 137:-1 138:-1 139:-1 140:-1 141:-1 142:1 143:1 146:1 147:1 148:1 149:1 150:1 151:-1 152:-1 153:-1 154:1 155:1 158:1 159:1 160:1 161:1 162:1 163:1 164:1 165:1 166:1 167:1 170:1 171:1 172:1 176:1 177:1 178:1 179:1 
0 0 0 0 0 0.2101676845784342 0 0 0 0 0 0 0 0 0 0 0.03740644419926784 0 10:1 11:1 14:1 15:1 16:1 18:1 19:1 20:1 21:1 22:1 23:1 26:1 27:1 28:1 29:1 30:1 31:1 32:1 33:1 34:1 35:1 38:1 39:1 40:-1 41:-1 42:-1 43:-1 44:-1 45:-1 46:1 47:1 50:1 51:-1 52:-1 53:-1 54:1 55:1 56:-1 57:-1 58:1 59:1 62:1 63:-1 64:-1 65:1 66:1 67:1 68:1 69:-1 70:1 71:1 74:1 75:1 76:1 77:1 78:1 79:1 80:1 81:-1 82:1 83:1 86:1 87:1 88:1 89:1 90:1 91:1 92:-1 93:-1 94:1 95:1 98:1 99:1 100:1 101:1 102:1 103:-1 104:-1 105:1 106:1 107:1 110:1 111:1 112:1 113:1 114:-1 115:-1 116:1 117:1 118:1 119:1 122:1 123:1 124:-1 125:-1 126:-1 127:1 128:1 129:-1 130:1 131:1 134:1 135:-1 136:-1 137:-1 138:-1 139:-1 140:-1 141:-1 142:1 143:1 146:1 147:-1 148:-1 149:-1 150:-1 151:-1 152:-1 153:-1 154:1 155:1 158:1 159:1 160:1 161:1 162:1 163:1 164:1 165:1 166:1 167:1 170:1 171:1 172:1 176:1 177:1 178:1 179:1 
2 0.5364983249492472 0.2323484602159539 0.322555500774124 0.3021392412499832 0.1755040975650209 0.4956178241972815 0.1896718232791757 0.383017438350547 0.2841572093840207 0.3784661334658703 0.4481098419995703 0.4071638106031016 0.4093141864993347 0.4842143534077115 0.2028914322017959 0.3676257268578393 0.3031334159379474 10:1 11:1 14:1 15:1 16:1 18:1 19:1 20:-1 21:-1 22:-1 23:1 26:1 27:1 28:1 29:1 30:-1 31:-1 32:1 33:-1 34:-1 35:1 38:1 39:1 40:1 41:-1 42:-1 43:1 44:1 45:1 46:-1 47:1 50:1 51:1 52:-1 53:-1 54:1 55:1 56:1 57:-1 58:1 59:1 62:1 63:1 64:-1 65:-1 66:1 67:1 68:-1 69:-1 70:1 71:1 74:1 75:1 76:1 77:1 78:1 79:1 80:-1 81:1 82:1 83:1 86:1 87:1 88:1 89:1 90:1 91:-1 92:1 93:1 94:1 95:1 98:1 99:1 100:1 101:1 102:-1 103:-1 104:-1 105:1 106:1 107:1 110:1 111:1 112:1 113:1 114:1 115:1 116:-1 117:1 118:1 119:1 122:1 123:-1 124:-1 125:-1 126:-1 127:-1 128:-1 129:1 130:1 131:1 134:1 135:-1 136:-1 137:-1 138:-1 139:-1 140:1 141:1 142:1 143:1 146:-1 147:-1 148:-1 149:-1 150:1 151:1 152:1 153:1 154:1 155:1 158:-1 159:1 160:1 161:1 162:1 163:1 164:1 165:1 166:1 167:1 170:1 171:1 172:1 176:1 177:1 178:1 179:1 
0.6187785602811725 0.2874124034095242 0.1984306221738623 0.1586890588567535 0.09750584686211258 0.1567536737516838 0.3673517967460386 0.2280282429854043 0.6452252943596807 0.1259063400497095 0.1340664280832526 0.1162452843256842 0.2327091033905489 0.3996623578308656 0.2226398443204624 0.09814358721018618 0.3359510500966704 0.07925935478467507 10:1 11:1 14:1 15:1 16:1 18:1 19:1 20:1 21:-1 22:-1 23:1 26:1 27:1 28:1 29:1 30:1 31:-1 32:-1 33:-1 34:-1 35:1 38:1 39:1 40:1 41:-1 42:-1 43:1 44:1 45:1 46:-1 47:1 50:1 51:1 52:1 53:-1 54:-1 55:1 56:1 57:-1 58:1 59:1 62:1 63:1 64:-1 65:-1 66:1 67:1 68:1 69:-1 70:1 71:1 74:1 75:1 76:-1 77:1 78:1 79:1 80:-1 81:1 82:1 83:1 86:1 87:1 88:1 89:1 90:1 91:-1 92:-1 93:1 94:1 95:1 98:1 99:1 100:1 101:1 102:1 103:-1 104:1 105:1 106:1 107:1 110:1 111:1 112:1 113:1 114:-1 115:1 116:-1 117:1 118:1 119:1 122:1 123:1 124:1 125:-1 126:1 127:-1 128:-1 129:1 130:1 131:1 134:1 135:-1 136:-1 137:-1 138:-1 139:-1 140:-1 141:1 142:1 143:1 146:-1 147:-1 148:-1 149:-1 150:-1 151:1 152:1 153:1 154:1 155:1 158:-1 159:-1 160:-1 161:1 162:1 163:1 164:1 165:1 166:1 167:1 170:1 171:1 172:1 176:1 177:1 178:1 179:1 
0.6320434127164228 0.5814513326272215 0.3235077889261753 0.2531296311895543 0.7531425954219414 0.8232018274191586 0.3392059336605192 0.1699379028323463 0.2613080424691296 0.4032428543532135 1.396680918412687 0.4487549453552869 0.3431532435638934 0.5683018490419904 0.6270152315964773 0.4149922918670203 0.3429153791193975 0.5572877193081178 10:1 11:1 14:1 15:1 16:1 18:1 19:1 20:1 21:1 22:1 23:1 26:1 27:1 28:1 29:-1 30:1 31:1 32:1 33:1 34:1 35:1 38:1 39:1 40:-1 41:-1 42:-1 43:-1 44:-1 45:1 46:1 47:1 50:1 51:1 52:-1 53:-1 54:-1 55:1 56:1 57:-1 58:-1 59:1 62:1 63:1 64:1 65:1 66:1 67:1 68:1 69:-1 70:-1 71:1 74:1 75:1 76:1 77:1 78:1 79:1 80:1 81:1 82:-1 83:1 86:1 87:1 88:1 89:1 90:1 91:1 92:-1 93:-1 94:1 95:1 98:1 99:-1 100:1 101:1 102:1 103:-1 104:-1 105:-1 106:1 107:1 110:-1 111:-1 112:-1 113:-1 114:-1 115:-1 116:1 117:1 118:1 119:1 122:-1 123:-1 124:-1 125:-1 126:1 127:1 128:-1 129:1 130:1 131:1 134:1 135:1 136:-1 137:-1 138:-1 139:-1 140:-1 141:1 142:1 143:1 146:1 147:1 148:1 149:1 150:-1 151:-1 152:-1 153:1 154:1 155:1 158:1 159:1 160:1 161:1 162:1 163:1 164:1 165:1 166:1 167:1 170:1 171:1 172:1 176:1 177:1 178:1 179:1 
0.6140057769595859 0 0 0 0 0.3865914175665636 0 0.1832917114148487 0.05555281059217545 0 0 0 0 0 0 0 0.4749691475297359 0 10:1 11:1 14:1 15:1 16:1 18:1 19:1 20:-1 21:-1 22:-1 23:1 26:1 27:1 28:1 29:1 30:-1 31:-1 32:1 33:-1 34:-1 35:1 38:1 39:1 40:1 41:-1 42:-1 43:1 44:1 45:1 46:-1 47:1 50:1 51:1 52:-1 53:-1 54:1 55:1 56:1 57:-1 58:1 59:1 62:1 63:1 64:-1 65:-1 66:1 67:1 68:-1 69:-1 70:1 71:1 74:1 75:1 76:1 77:1 78:1 79:1 80:-1 81:1 82:1 83:1 86:1 87:1 88:1 89:1 90:1 91:-1 92:1 93:1 94:1 95:1 98:1 99:1 100:1 101:1 102:-1 103:-1 104:-1 105:1 106:1 107:1 110:1 111:1 112:1 113:1 114:1 115:1 116:-1 117:1 118:1 119:1 122:1 123:1 124:-1 125:-1 126:-1 127:-1 128:-1 129:1 130:1 131:1 134:1 135:-1 136:-1 137:-1 138:-1 139:-1 140:1 141:1 142:1 143:1 146:-1 147:-1 148:-1 149:-1 150:1 151:1 152:1 153:1 154:1 155:1 158:-1 159:-1 160:1 161:1 162:1 163:1 164:1 165:1 166:1 167:1 170:1 171:1 172:1 176:1 177:1 178:1 179:1 
0.534955811299265 0.3414268912774524 0.2909661662536985 0.2850359150230817 0.2442686553946786 0.6546055278141661 0.313743217651513 0.008991320747393762 0.3155583476130473 0.149011788207825 0.4044785555370086 0.1980244425967291 0.1792822692356792 0.2889691387674804 0.3562275484063311 0.1989805271136049 0.5875920261688938 0.1684213522566281 10:1 11:1 14:1 15:1 16:1 18:1 19:1 20:1 21:1 22:1 23:1 26:1 27:1 28:1 29:1 30:1 31:1 32:-1 33:-1 34:1 35:1 38:1 39:1 40:1 41:1 42:-1 43:-1 44:-1 45:-1 46:1 47:1 50:1 51:1 52:-1 53:-1 54:1 55:1 56:1 57:-1 58:1 59:1 62:1 63:-1 64:-1 65:-1 66:1 67:1 68:1 69:-1 70:1 71:1 74:1 75:-1 76:-1 77:1 78:1 79:1 80:-1 81:-1 82:1 83:1 86:1 87:1 88:1 89:1 90:1 91:1 92:-1 93:1 94:1 95:1 98:1 99:1 100:1 101:1 102:1 103:-1 104:1 105:1 106:1 107:1 110:1 111:1 112:1 113:1 114:-1 115:-1 116:1 117:-1 118:1 119:1 122:1 123:1 124:1 125:1 126:-1 127:1 128:-1 129:-1 130:1 131:1 134:1 135:1 136:-1 137:-1 138:-1 139:-1 140:-1 141:-1 142:1 143:1 146:1 147:-1 148:-1 149:-1 150:-1 151:-1 152:1 153:1 154:1 155:1 158:1 159:-1 160:-1 161:-1 162:1 163:1 164:1 165:1 166:1 167:1 170:1 171:1 172:1 176:1 177:1 178:1 179:1 
0 0.06238529590423391 0 0 0 0 0.048011768792818 0 0 0 0 0 0 0.003629470404731619 0 0 0 0 10:1 11:1 14:1 15:1 16:1 18:1 19:1 20:1 21:1 22:-1 23:1 26:1 27:1 28:1 29:1 30:-1 31:-1 32:-1 33:-1 34:-1 35:1 38:1 39:1 40:1 41:-1 42:-1 43:1 44:1 45:-1 46:-1 47:1 50:1 51:1 52:-1 53:-1 54:1 55:1 56:1 57:1 58:1 59:1 62:1 63:1 64:-1 65:-1 66:1 67:1 68:1 69:-1 70:1 71:1 74:1 75:1 76:1 77:1 78:1 79:1 80:-1 81:-1 82:1 83:1 86:1 87:1 88:1 89:1 90:1 91:-1 92:-1 93:1 94:1 95:1 98:1 99:1 100:1 101:1 102:-1 103:-1 104:1 105:1 106:1 107:1 110:1 111:1 112:1 113:1 114:1 115:1 116:-1 117:1 118:1 119:1 122:1 123:-1 124:-1 125:-1 126:-1 127:-1 128:-1 129:1 130:1 131:1 134:1 135:-1 136:-1 137:-1 138:-1 139:-1 140:-1 141:1 142:1 143:1 146:-1 147:-1 148:-1 149:-1 150:1 151:1 152:1 153:1 154:1 155:1 158:-1 159:1 160:1 161:1 162:1 163:1 164:1 165:1 166:1 167:1 170:1 171:1 172:1 176:1 177:1 178:1 179:1 
0.2150142704251348 0 0 0 0.03648344511458276 0.06378485008088131 0 0.1431702581435276 0.009587995325593512 0.03964083171991072 0.09348939958279087 0 0 0.08088766296882155 0.04642725098490944 0 0 0 10:1 11:1 14:1 15:1 16:1 18:1 19:1 20:1 21:1 22:1 23:1 26:1 27:1 28:1 29:1 30:1 31:1 32:1 33:1 34:1 35:1 38:1 39:1 40:1 41:-1 42:-1 43:-1 44:-1 45:-1 46:-1 47:1 50:1 51:1 52:-1 53:-1 54:-1 55:1 56:1 57:-1 58:-1 59:1 62:1 63:1 64:-1 65:-1 66:1 67:1 68:1 69:1 70:-1 71:1 74:1 75:1 76:1 77:1 78:1 79:1 80:1 81:-1 82:1 83:1 86:1 87:1 88:1 89:1 90:1 91:1 92:-1 93:-1 94:1 95:1 98:1 99:1 100:1 101:1 102:1 103:-1 104:-1 105:1 106:1 107:1 110:1 111:1 112:1 113:1 114:-1 115:-1 116:1 117:1 118:1 119:1 122:1 123:-1 124:-1 125:-1 126:1 127:1 128:-1 129:1 130:1 131:1 134:-1 135:-1 136:-1 137:-1 138:-1 139:-1 140:-1 141:1 142:1 143:1 146:-1 147:-1 148:-1 149:-1 150:-1 151:-1 152:-1 153:1 154:1 155:1 158:1 159:1 160:1 161:1 162:1 163:1 164:1 165:1 166:1 167:1 170:1 171:1 172:1 176:1 177:1 178:1 179:1 
0.4304592545108418 0.2561596623996661 0.1930588408629604 0.3047503169760162 0.1138195096765325 0.1579581789249029 0.2042139685530687 0.4558175690617195 0.2624885332835709 0.2732301405059147 0.5112515438599583 0.2881282477140936 0.2313804387262211 0.1805692395408519 0.2273070458757029 0.1894403205473498 0.1038491304768363 0.2064136405905937 10:1 11:1 14:1 15:1 16:1 18:1 19:1 20:1 21:1 22:1 23:1 26:1 27:1 28:-1 29:-1 30:-1 31:-1 32:-1 33:-1 34:1 35:1 38:1 39:1 40:-1 41:-1 42:1 43:1 44:-1 45:-1 46:1 47:1 50:1 51:-1 52:-1 53:1 54:1 55:1 56:1 57:-1 58:1 59:1 62:1 63:-1 64:1 65:1 66:1 67:1 68:1 69:-1 70:1 71:1 74:1 75:1 76:1 77:1 78:1 79:1 80:-1 81:-1 82:1 83:1 86:1 87:1 88:1 89:1 90:1 91:-1 92:-1 93:1 94:1 95:1 98:1 99:1 100:1 101:1 102:-1 103:-1 104:1 105:1 106:1 107:1 110:1 111:1 112:-1 113:-1 114:-1 115:1 116:1 117:-1 118:1 119:1 122:1 123:1 124:-1 125:-1 126:-1 127:-1 128:-1 129:-1 130:1 131:1 134:1 135:-1 136:-1 137:-1 138:-1 139:-1 140:-1 141:-1 142:1 143:1 146:1 147:-1 148:1 149:1 150:1 151:1 152:1 153:1 154:1 155:1 158:1 159:1 160:1 161:1 162:1 163:1 164:1 165:1 166:1 167:1 170:1 171:1 172:1 176:1 177:1 178:1 179:1 
0.9126110986300647 0.4913347097780231 0.4126472087113993 0.3386820809027219 0.3946869746326548 1.099039089218853 0.4538638482430921 0.3418136472577256 0.470951048995457 0.468318197256672 0.7651334329525948 0.44336830363858 0.3651166479418608 0.4571616908053098 0.6069982229952814 0.4651938627707727 0.6894003465545384 0.4688152616528203 10:1 11:1 14:1 15:1 16:1 18:1 19:1 20:-1 21:-1 22:1 23:1 26:1 27:1 28:1 29:1 30:-1 31:-1 32:-1 33:-1 34:1 35:1 38:1 39:1 40:-1 41:-1 42:1 43:1 44:1 45:-1 46:1 47:1 50:1 51:1 52:-1 53:-1 54:1 55:1 56:1 57:-1 58:1 59:1 62:1 63:-1 64:-1 65:1 66:1 67:1 68:-1 69:-1 70:1 71:1 74:1 75:-1 76:1 77:1 78:1 79:1 80:-1 81:1 82:1 83:1 86:1 87:1 88:1 89:1 90:1 91:-1 92:1 93:1 94:1 95:1 98:1 99:1 100:1 101:1 102:-1 103:-1 104:1 105:-1 106:1 107:1 110:1 111:1 112:1 113:1 114:-1 115:1 116:-1 117:-1 118:1 119:1 122:1 123:1 124:-1 125:-1 126:-1 127:-1 128:-1 129:-1 130:1 131:1 134:1 135:1 136:-1 137:-1 138:-1 139:-1 140:1 141:1 142:1 143:1 146:1 147:-1 148:-1 149:-1 150:1 151:1 152:1 153:1 154:1 155:1 158:1 159:-1 160:1 161:1 162:1 163:1 164:1 165:1 166:1 167:1 170:1 171:1 172:1 176:1 177:1 178:1 179:1 
-0.02968863342851657 0 0.06172264230220212 0.09707147381533875 0.17327997848857 0 0.1277287402028427 0 0.01492752395024288 0.1026301176757487 0.0414654417299839 0.05614205315316519 0.04481369592623631 0 0 0 0.1681458875601593 0.006581330411136433 10:1 11:1 14:1 15:1 16:1 18:1 19:1 20:1 21:1 22:1 23:1 26:1 27:1 28:1 29:1 30:1 31:-1 32:-1 33:-1 34:1 35:1 38:1 39:1 40:1 41:-1 42:-1 43:1 44:-1 45:-1 46:1 47:1 50:1 51:1 52:-1 53:1 54:1 55:1 56:-1 57:-1 58:1 59:1 62:1 63:-1 64:-1 65:1 66:1 67:-1 68:-1 69:-1 70:1 71:1 74:1 75:1 76:1 77:1 78:1 79:-1 80:-1 81:1 82:1 83:1 86:1 87:1 88:1 89:1 90:-1 91:-1 92:-1 93:-1 94:-1 95:1 98:1 99:1 100:1 101:1 102:1 103:1 104:1 105:-1 106:1 107:1 110:1 111:1 112:1 113:1 114:1 115:1 116:1 117:-1 118:1 119:1 122:1 123:1 124:1 125:1 126:1 127:-1 128:-1 129:-1 130:1 131:1 134:1 135:1 136:1 137:-1 138:-1 139:-1 140:-1 141:-1 142:1 143:1 146:1 147:-1 148:-1 149:-1 150:-1 151:1 152:1 153:1 154:1 155:1 158:1 159:1 160:-1 161:1 162:1 163:1 164:1 165:1 166:1 167:1 170:1 171:1 172:1 176:1 177:1 178:1 179:1 
-0.8513467657294612 0.2212947772749462 0.1727294847645086 0 0.04812801659071909 0.2082442403392978 0.478523154385382 0 0.3945612693632786 0 0 0 0 0.1271536472453684 0.1479077989517253 0.08590898712720588 0.2429989222586422 0 10:1 11:1 14:1 15:1 16:1 18:1 19:1 20:1 21:-1 22:-1 23:1 26:1 27:1 28:1 29:1 30:1 31:-1 32:-1 33:-1 34:-1 35:1 38:1 39:1 40:1 41:-1 42:-1 43:1 44:1 45:-1 46:-1 47:1 50:1 51:1 52:1 53:-1 54:1 55:1 56:1 57:-1 58:1 59:1 62:1 63:1 64:-1 65:1 66:1 67:-1 68:-1 69:1 70:1 71:1 74:1 75:1 76:1 77:1 78:1 79:-1 80:-1 81:-1 82:1 83:1 86:1 87:1 88:1 89:1 90:-1 91:-1 92:-1 93:-1 94:-1 95:1 98:1 99:1 100:1 101:1 102:1 103:1 104:1 105:1 106:1 107:1 110:1 111:1 112:1 113:1 114:1 115:1 116:-1 117:1 118:1 119:1 122:1 123:1 124:1 125:1 126:1 127:-1 128:-1 129:1 130:1 131:1 134:1 135:1 136:1 137:-1 138:-1 139:-1 140:-1 141:1 142:1 143:1 146:1 147:-1 148:-1 149:-1 150:-1 151:1 152:1 153:1 154:1 155:1 158:-1 159:-1 160:-1 161:1 162:1 163:1 164:1 165:1 166:1 167:1 170:1 171:1 172:1 176:1 177:1 178:1 179:1 
-0.4640825549563801 0.0671949494657022 0 0 0 0 0 0 0.1988409855941285 0 0 0 0 0 0 0 0 0 10:1 11:1 14:1 15:1 16:1 18:1 19:1 20:1 21:1 22:1 23:1 26:1 27:1 28:1 29:1 30:1 31:1 32:1 33:-1 34:-1 35:1 38:1 39:1 40:1 41:-1 42:-1 43:-1 44:-1 45:-1 46:-1 47:1 50:1 51:1 52:-1 53:-1 54:1 55:1 56:1 57:-1 58:-1 59:1 62:1 63:1 64:1 65:1 66:1 67:1 68:1 69:-1 70:1 71:1 74:1 75:1 76:1 77:1 78:1 79:-1 80:-1 81:1 82:1 83:1 86:1 87:1 88:1 89:1 90:-1 91:-1 92:-1 93:-1 94:1 95:1 98:1 99:1 100:1 101:1 102:1 103:-1 104:-1 105:-1 106:-1 107:1 110:1 111:1 112:1 113:1 114:1 115:1 116:1 117:1 118:1 119:1 122:1 123:1 124:1 125:1 126:1 127:1 128:-1 129:1 130:1 131:1 134:-1 135:-1 136:-1 137:-1 138:-1 139:-1 140:-1 141:1 142:1 143:1 146:1 147:-1 148:-1 149:-1 150:-1 151:-1 152:-1 153:1 154:1 155:1 158:1 159:1 160:1 161:1 162:1 163:1 164:1 165:1 166:1 167:1 170:1 171:1 172:1 176:1 177:1 178:1 179:1 
-0 0.07666975828897657 0 0.03893215919330661 0.06100312701998229 0.1092899090061421 0 0 0 0 0.1731086588398426 0.1211146789490882 0.03557927432216314 0.2597651481200394 0.02311200566128956 0 0 0.04903859496576041 10:1 11:1 14:1 15:1 16:1 18:1 19:1 20:1 21:1 22:1 23:1 26:1 27:1 28:1 29:1 30:1 31:1 32:-1 33:-1 34:-1 35:1 38:1 39:1 40:1 41:-1 42:-1 43:-1 44:1 45:-1 46:-1 47:1 50:1 51:1 52:-1 53:-1 54:1 55:1 56:1 57:-1 58:-1 59:1 62:1 63:1 64:1 65:1 66:1 67:1 68:-1 69:-1 70:1 71:1 74:1 75:1 76:1 77:1 78:1 79:-1 80:-1 81:1 82:1 83:1 86:1 87:1 88:1 89:1 90:-1 91:-1 92:-1 93:-1 94:1 95:1 98:1 99:1 100:1 101:1 102:1 103:-1 104:1 105:-1 106:-1 107:1 110:1 111:1 112:1 113:1 114:1 115:1 116:-1 117:1 118:1 119:1 122:1 123:1 124:1 125:1 126:1 127:1 128:-1 129:1 130:1 131:1 134:-1 135:-1 136:-1 137:-1 138:-1 139:-1 140:-1 141:1 142:1 143:1 146:1 147:-1 148:-1 149:-1 150:-1 151:-1 152:1 153:1 154:1 155:1 158:1 159:1 160:1 161:1 162:1 163:1 164:1 165:1 166:1 167:1 170:1 171:1 172:1 176:1 177:1 178:1 179:1 
-0 0.07937733943792188 0 0 0 0.04658095343185698 0 0.02591530983350064 0 0 0 0 0 0.1509713064353906 0 0 0 0 10:1 11:1 14:1 15:1 16:1 18:1 19:1 20:1 21:1 22:1 23:1 26:1 27:1 28:1 29:1 30:1 31:-1 32:-1 33:-1 34:1 35:1 38:1 39:1 40:-1 41:-1 42:-1 43:1 44:-1 45:-1 46:1 47:1 50:1 51:-1 52:-1 53:1 54:1 55:1 56:-1 57:-1 58:1 59:1 62:1 63:1 64:1 65:1 66:1 67:-1 68:-1 69:-1 70:1 71:1 74:1 75:1 76:1 77:1 78:1 79:-1 80:-1 81:1 82:1 83:1 86:1 87:1 88:1 89:1 90:-1 91:-1 92:-1 93:-1 94:-1 95:1 98:1 99:1 100:1 101:1 102:1 103:1 104:1 105:-1 106:1 107:1 110:1 111:1 112:1 113:1 114:1 115:1 116:1 117:-1 118:1 119:1 122:1 123:1 124:1 125:1 126:1 127:-1 128:-1 129:-1 130:1 131:1 134:1 135:-1 136:-1 137:-1 138:-1 139:-1 140:-1 141:-1 142:1 143:1 146:1 147:1 148:-1 149:-1 150:-1 151:1 152:1 153:1 154:1 155:1 158:1 159:1 160:1 161:1 162:1 163:1 164:1 165:1 166:1 167:1 170:1 171:1 172:1 176:1 177:1 178:1 179:1 
-0 0 0 0.004222452867484936 0 0 0 0 0 0 0 0 0 0 0 0 0 0 10:1 11:1 14:1 15:1 16:1 18:1 19:1 20:1 21:1 22:1 23:1 26:1 27:1 28:1 29:1 30:1 31:1 32:1 33:-1 34:1 35:1 38:1 39:1 40:-1 41:-1 42:-1 43:-1 44:-1 45:-1 46:1 47:1 50:1 51:-1 52:-1 53:1 54:1 55:1 56:-1 57:-1 58:1 59:1 62:1 63:1 64:1 65:1 66:1 67:1 68:-1 69:-1 70:1 71:1 74:1 75:1 76:1 77:1 78:1 79:-1 80:-1 81:1 82:1 83:1 86:1 87:1 88:1 89:1 90:-1 91:-1 92:-1 93:-1 94:1 95:1 98:1 99:1 100:1 101:1 102:1 103:-1 104:-1 105:-1 106:-1 107:1 110:1 111:1 112:1 113:1 114:1 115:1 116:1 117:-1 118:1 119:1 122:1 123:1 124:1 125:1 126:1 127:1 128:1 129:-1 130:1 131:1 134:1 135:-1 136:-1 137:-1 138:-1 139:-1 140:-1 141:-1 142:1 143:1 146:1 147:1 148:-1 149:-1 150:-1 151:-1 152:-1 153:1 154:1 155:1 158:1 159:1 160:1 161:1 162:1 163:1 164:1 165:1 166:1 167:1 170:1 171:1 172:1 176:1 177:1 178:1 179:1 
-1.294209855636327 0.5343119786162554 0.5730706040844196 0.3285827167158604 0.3637812543662246 0.5627954466525305 0.6398482944446813 0.4354922598530572 0.5300297221501277 0.4927667182473189 0.5207211690937179 0.5877759011158733 0.3355977086824134 0.6387498550922325 0.4568075862764517 0.3627580629303645 0.5046730027877721 0.302519104925957 10:1 11:1 14:1 15:1 16:1 18:1 19:1 20:1 21:1 22:1 23:1 26:1 27:1 28:1 29:1 30:1 31:1 32:1 33:1 34:-1 35:1 38:1 39:1 40:1 41:1 42:1 43:-1 44:-1 45:-1 46:-1 47:1 50:1 51:1 52:1 53:-1 54:-1 55:1 56:1 57:-1 58:-1 59:1 62:1 63:1 64:-1 65:-1 66:1 67:1 68:1 69:-1 70:1 71:1 74:1 75:1 76:1 77:1 78:1 79:-1 80:-1 81:-1 82:1 83:1 86:1 87:1 88:1 89:1 90:1 91:-1 92:-1 93:1 94:1 95:1 98:1 99:1 100:1 101:1 102:-1 103:-1 104:-1 105:-1 106:-1 107:1 110:1 111:1 112:1 113:1 114:1 115:1 116:1 117:-1 118:1 119:1 122:1 123:1 124:1 125:1 126:1 127:1 128:-1 129:1 130:1 131:1 134:1 135:1 136:1 137:1 138:1 139:-1 140:-1 141:1 142:1 143:1 146:-1 147:-1 148:-1 149:-1 150:-1 151:-1 152:-1 153:1 154:1 155:1 158:1 159:-1 160:-1 161:-1 162:-1 163:1 164:1 165:1 166:1 167:1 170:1 171:1 172:1 176:1 177:1 178:1 179:1 
-0.4815240936915401 0.2676949464512721 0.3973341545727222 0.08082686447602226 0.2591504672236526 0.41612058957048 0.3821599010320511 0.2466058783171359 0.2818964327611184 0.2640335658500123 0.2853563166805181 0.347134321481061 0.241237979001534 0.4810570054507043 0.302403753714901 0.2659517700944023 0.495857017720683 0.1838689495648205 10:1 11:1 14:1 15:1 16:1 18:1 19:1 20:1 21:1 22:1 23:1 26:1 27:1 28:1 29:1 30:1 31:1 32:-1 33:-1 34:-1 35:1 38:1 39:1 40:1 41:1 42:-1 43:-1 44:1 45:-1 46:-1 47:1 50:1 51:1 52:1 53:-1 54:1 55:1 56:1 57:-1 58:-1 59:1 62:1 63:1 64:-1 65:-1 66:1 67:1 68:-1 69:-1 70:1 71:1 74:1 75:1 76:1 77:1 78:1 79:-1 80:-1 81:1 82:1 83:1 86:1 87:1 88:1 89:1 90:-1 91:-1 92:-1 93:-1 94:1 95:1 98:1 99:1 100:1 101:1 102:1 103:-1 104:1 105:-1 106:-1 107:1 110:1 111:1 112:1 113:1 114:1 115:1 116:-1 117:1 118:1 119:1 122:1 123:1 124:1 125:1 126:1 127:1 128:-1 129:1 130:1 131:1 134:1 135:1 136:1 137:1 138:-1 139:-1 140:-1 141:1 142:1 143:1 146:1 147:-1 148:-1 149:-1 150:-1 151:-1 152:1 153:1 154:1 155:1 158:-1 159:-1 160:-1 161:-1 162:1 163:1 164:1 165:1 166:1 167:1 170:1 171:1 172:1 176:1 177:1 178:1 179:1 
-0.1688937604118564 0 0.2303246700173617 0.2173562160517768 0 0 0.347002018985551 0.1515218738038286 0.1687775980671752 0.1928144717875104 0.3547382697572293 0.1452797559103634 0.1699804473129013 0 0.242538693940894 0 0.1149434141279942 0.07804229337346882 10:1 11:1 14:1 15:1 16:1 18:1 19:1 20:1 21:-1 22:1 23:1 26:1 27:1 28:1 29:1 30:1 31:-1 32:-1 33:-1 34:1 35:1 38:1 39:1 40:1 41:-1 42:-1 43:1 44:-1 45:-1 46:1 47:1 50:1 51:1 52:-1 53:1 54:1 55:1 56:-1 57:-1 58:1 59:1 62:1 63:-1 64:-1 65:1 66:1 67:-1 68:-1 69:1 70:1 71:1 74:1 75:1 76:1 77:1 78:1 79:-1 80:-1 81:-1 82:1 83:1 86:1 87:1 88:1 89:1 90:-1 91:-1 92:-1 93:-1 94:-1 95:1 98:1 99:1 100:1 101:1 102:1 103:1 104:1 105:-1 106:1 107:1 110:1 111:1 112:1 113:1 114:1 115:1 116:1 117:-1 118:1 119:1 122:1 123:1 124:1 125:1 126:1 127:-1 128:-1 129:-1 130:1 131:1 134:1 135:1 136:1 137:-1 138:-1 139:-1 140:-1 141:1 142:1 143:1 146:-1 147:-1 148:-1 149:-1 150:-1 151:1 152:1 153:1 154:1 155:1 158:-1 159:1 160:-1 161:1 162:1 163:1 164:1 165:1 166:1 167:1 170:1 171:1 172:1 176:1 177:1 178:1 179:1 
-0.0391809097011381 0 0 0.2402985372603812 0 0 0 0 0 0 0 0 0 0.01997809634768441 0 0 0 0 10:1 11:1 14:1 15:1 16:1 18:1 19:1 20:1 21:1 22:1 23:1 26:1 27:1 28:-1 29:-1 30:-1 31:1 32:1 33:1 34:1 35:1 38:1 39:-1 40:-1 41:1 42:1 43:-1 44:-1 45:-1 46:1 47:1 50:1 51:1 52:1 53:1 54:1 55:1 56:-1 57:-1 58:1 59:1 62:1 63:1 64:1 65:1 66:1 67:1 68:-1 69:-1 70:1 71:1 74:1 75:1 76:1 77:1 78:-1 79:-1 80:-1 81:-1 82:1 83:1 86:1 87:1 88:1 89:1 90:1 91:-1 92:-1 93:1 94:1 95:1 98:1 99:1 100:1 101:1 102:1 103:-1 104:-1 105:-1 106:1 107:1 110:1 111:1 112:1 113:1 114:1 115:1 116:1 117:-1 118:1 119:1 122:1 123:-1 124:-1 125:-1 126:-1 127:1 128:1 129:-1 130:-1 131:1 134:1 135:1 136:-1 137:-1 138:-1 139:-1 140:-1 141:-1 142:1 143:1 146:1 147:1 148:1 149:1 150:1 151:-1 152:-1 153:-1 154:1 155:1 158:1 159:1 160:1 161:1 162:1 163:1 164:1 165:1 166:1 167:1 170:1 171:1 172:1 176:1 177:1 178:1 179:1 
-0.4087125370598396 0 0 0 0 0.06133424088755451 0.06886475503028766 0 0 0 0 0 0 0 0 0 0.05905787892445871 0 10:1 11:1 14:1 15:1 16:1 18:1 19:1 20:1 21:1 22:-1 23:1 26:1 27:1 28:1 29:1 30:1 31:1 32:-1 33:-1 34:-1 35:1 38:1 39:1 40:1 41:-1 42:-1 43:-1 44:1 45:-1 46:-1 47:1 50:1 51:1 52:-1 53:-1 54:1 55:1 56:1 57:-1 58:1 59:1 62:1 63:1 64:1 65:1 66:1 67:1 68:-1 69:-1 70:1 71:1 74:1 75:1 76:1 77:1 78:1 79:-1 80:-1 81:1 82:1 83:1 86:1 87:1 88:1 89:1 90:-1 91:-1 92:-1 93:-1 94:-1 95:1 98:1 99:1 100:1 101:1 102:1 103:-1 104:1 105:-1 106:1 107:1 110:1 111:1 112:1 113:1 114:1 115:1 116:-1 117:1 118:1 119:1 122:1 123:1 124:1 125:1 126:1 127:1 128:-1 129:1 130:1 131:1 134:1 135:1 136:-1 137:-1 138:-1 139:-1 140:-1 141:1 142:1 143:1 146:-1 147:-1 148:-1 149:-1 150:-1 151:-1 152:1 153:1 154:1 155:1 158:1 159:-1 160:1 161:1 162:1 163:1 164:1 165:1 166:1 167:1 170:1 171:1 172:1 176:1 177:1 178:1 179:1 
-0.7821529526084401 0.4677880587871922 0.6003650697826416 0.490524186592021 0.6683532152812644 0.3828293691959194 0.4771118915569671 0.4176379036984042 0.3939595603716773 0.5419632343173479 0.936618470326448 0.625054054602064 0.5328620734626045 0.7421400945486114 0.5262168126917665 0.575593691714393 0.3054600053045293 0.5750475330708815 10:1 11:1 14:1 15:1 16:1 18:1 19:1 20:1 21:1 22:1 23:1 26:1 27:1 28:-1 29:-1 30:-1 31:-1 32:1 33:1 34:1 35:1 38:1 39:1 40:1 41:-1 42:1 43:1 44:-1 45:-1 46:-1 47:1 50:1 51:1 52:1 53:1 54:1 55:1 56:1 57:-1 58:-1 59:1 62:1 63:1 64:1 65:1 66:1 67:-1 68:1 69:-1 70:-1 71:1 74:1 75:1 76:1 77:1 78:-1 79:-1 80:-1 81:-1 82:1 83:1 86:1 87:1 88:1 89:1 90:1 91:-1 92:-1 93:1 94:1 95:1 98:1 99:1 100:1 101:1 102:1 103:1 104:-1 105:-1 106:1 107:1 110:-1 111:-1 112:-1 113:1 114:1 115:1 116:1 117:-1 118:-1 119:1 122:1 123:-1 124:-1 125:-1 126:-1 127:-1 128:-1 129:1 130:1 131:1 134:1 135:1 136:1 137:-1 138:-1 139:-1 140:-1 141:1 142:1 143:1 146:1 147:1 148:1 149:1 150:1 151:1 152:-1 153:1 154:1 155:1 158:1 159:1 160:1 161:1 162:1 163:1 164:1 165:1 166:1 167:1 170:1 171:1 172:1 176:1 177:1 178:1 179:1 
-0.204791727036139 0 0.00374944812718886 0 0.03367233113873823 0 0 0 0 0 0.004196264937662606 0 0.003579223583270773 0.1183872334779684 0 0 0 0 10:1 11:1 14:1 15:1 16:1 18:1 19:1 20:1 21:1 22:1 23:1 26:1 27:1 28:1 29:1 30:-1 31:-1 32:-1 33:-1 34:-1 35:1 38:1 39:1 40:1 41:-1 42:1 43:1 44:1 45:-1 46:-1 47:1 50:1 51:1 52:-1 53:-1 54:1 55:1 56:1 57:-1 58:-1 59:1 62:1 63:1 64:1 65:1 66:1 67:-1 68:-1 69:-1 70:1 71:1 74:1 75:1 76:1 77:1 78:-1 79:-1 80:-1 81:1 82:1 83:1 86:1 87:1 88:1 89:1 90:1 91:-1 92:-1 93:-1 94:1 95:1 98:1 99:1 100:1 101:1 102:1 103:1 104:1 105:-1 106:-1 107:1 110:1 111:1 112:1 113:1 114:1 115:1 116:-1 117:1 118:1 119:1 122:1 123:1 124:1 125:1 126:-1 127:-1 128:-1 129:1 130:1 131:1 134:1 135:-1 136:-1 137:-1 138:-1 139:-1 140:-1 141:1 142:1 143:1 146:-1 147:-1 148:-1 149:-1 150:1 151:1 152:1 153:1 154:1 155:1 158:1 159:1 160:1 161:1 162:1 163:1 164:1 165:1 166:1 167:1 170:1 171:1 172:1 176:1 177:1 178:1 179:1 
-0 0.07877704771834081 0.02820225200954767 0 0 0 0.1591891199459633 0 0 0 0 0 0 0 0 0 0 0.009177665789851955 10:1 11:1 14:1 15:1 16:1 18:1 19:1 20:1 21:1 22:1 23:1 26:1 27:1 28:1 29:1 30:1 31:1 32:-1 33:-1 34:1 35:1 38:1 39:1 40:1 41:1 42:-1 43:-1 44:-1 45:-1 46:1 47:1 50:1 51:1 52:-1 53:-1 54:1 55:1 56:-1 57:-1 58:1 59:1 62:1 63:1 64:-1 65:1 66:1 67:1 68:-1 69:-1 70:1 71:1 74:1 75:-1 76:1 77:1 78:1 79:-1 80:-1 81:1 82:1 83:1 86:1 87:1 88:1 89:1 90:-1 91:-1 92:-1 93:-1 94:1 95:1 98:1 99:1 100:1 101:1 102:1 103:-1 104:1 105:-1 106:-1 107:1 110:1 111:1 112:1 113:1 114:1 115:1 116:1 117:-1 118:1 119:1 122:1 123:1 124:1 125:1 126:1 127:1 128:-1 129:-1 130:1 131:1 134:1 135:1 136:1 137:1 138:-1 139:-1 140:-1 141:-1 142:1 143:1 146:1 147:1 148:-1 149:-1 150:-1 151:-1 152:1 153:1 154:1 155:1 158:1 159:-1 160:-1 161:-1 162:1 163:1 164:1 165:1 166:1 167:1 170:1 171:1 172:1 176:1 177:1 178:1 179:1 
-0 0.05572090892573817 0.1813209924124554 0.2478213271752575 0 0 0.1222540039304127 0.07700724565828136 0.1662403015021866 0 0.205125328037506 0 0.03180745245265308 0.2207317219835357 0.09525683212003058 0 0.018043362186871 0 10:1 11:1 14:1 15:1 16:1 18:1 19:1 20:1 21:1 22:1 23:1 26:1 27:-1 28:-1 29:-1 30:1 31:1 32:1 33:1 34:1 35:1 38:1 39:1 40:-1 41:1 42:-1 43:-1 44:-1 45:-1 46:1 47:1 50:1 51:1 52:1 53:1 54:1 55:1 56:-1 57:-1 58:1 59:1 62:1 63:1 64:1 65:1 66:1 67:1 68:-1 69:-1 70:1 71:1 74:1 75:1 76:1 77:1 78:1 79:-1 80:-1 81:-1 82:1 83:1 86:1 87:1 88:1 89:1 90:-1 91:-1 92:-1 93:1 94:1 95:1 98:1 99:1 100:1 101:1 102:1 103:-1 104:-1 105:-1 106:1 107:1 110:-1 111:-1 112:1 113:1 114:1 115:1 116:1 117:-1 118:1 119:1 122:-1 123:1 124:-1 125:-1 126:1 127:1 128:1 129:-1 130:-1 131:1 134:1 135:1 136:-1 137:-1 138:-1 139:-1 140:-1 141:-1 142:1 143:1 146:1 147:1 148:1 149:1 150:-1 151:-1 152:-1 153:-1 154:1 155:1 158:1 159:1 160:1 161:1 162:1 163:1 164:1 165:1 166:1 167:1 170:1 171:1 172:1 176:1 177:1 178:1 179:1 
-0.1302398773847411 0.09228291596167977 0 0 0 0 0 0.0595096025156087 0.1505580702625436 0 0 0 0 0 0 0.009971919088048009 0 0 10:1 11:1 14:1 15:1 16:1 18:1 19:1 20:1 21:-1 22:-1 23:1 26:1 27:1 28:1 29:1 30:1 31:-1 32:-1 33:-1 34:-1 35:1 38:1 39:1 40:1 41:-1 42:-1 43:1 44:1 45:-1 46:-1 47:1 50:1 51:1 52:-1 53:-1 54:1 55:1 56:1 57:-1 58:1 59:1 62:1 63:1 64:1 65:1 66:1 67:-1 68:-1 69:1 70:1 71:1 74:1 75:1 76:1 77:1 78:1 79:-1 80:-1 81:-1 82:1 83:1 86:1 87:1 88:1 89:1 90:-1 91:-1 92:-1 93:-1 94:-1 95:1 98:1 99:1 100:1 101:1 102:1 103:1 104:1 105:1 106:1 107:1 110:1 111:1 112:1 113:1 114:1 115:1 116:-1 117:1 118:1 119:1 122:1 123:1 124:1 125:1 126:1 127:-1 128:-1 129:1 130:1 131:1 134:1 135:1 136:-1 137:-1 138:-1 139:-1 140:-1 141:1 142:1 143:1 146:-1 147:-1 148:-1 149:-1 150:-1 151:1 152:1 153:1 154:1 155:1 158:1 159:-1 160:1 161:1 162:1 163:1 164:1 165:1 166:1 167:1 170:1 171:1 172:1 176:1 177:1 178:1 179:1 
-0.1992233509405906 0 0.2044981076565136 0 0.1045234530811915 0 0 0 0.05313594394956216 0.07457889328701849 0 0.04644727689089378 0.07800763206085672 0 0.060484702933803 0.017889855543103 0.1967071585362046 0.1007117636643923 10:1 11:1 14:1 15:1 16:1 18:1 19:1 20:1 21:1 22:1 23:1 26:1 27:1 28:1 29:-1 30:-1 31:-1 32:-1 33:-1 34:-1 35:1 38:1 39:1 40:1 41:-1 42:1 43:1 44:1 45:-1 46:-1 47:1 50:1 51:1 52:-1 53:1 54:1 55:1 56:1 57:-1 58:-1 59:1 62:1 63:1 64:1 65:1 66:1 67:-1 68:-1 69:-1 70:1 71:1 74:1 75:1 76:1 77:1 78:-1 79:-1 80:-1 81:1 82:1 83:1 86:1 87:1 88:1 89:1 90:1 91:-1 92:-1 93:-1 94:1 95:1 98:1 99:1 100:1 101:1 102:1 103:1 104:1 105:-1 106:-1 107:1 110:1 111:1 112:1 113:1 114:1 115:1 116:-1 117:1 118:1 119:1 122:1 123:1 124:1 125:-1 126:-1 127:-1 128:-1 129:1 130:1 131:1 134:-1 135:-1 136:-1 137:-1 138:-1 139:-1 140:-1 141:1 142:1 143:1 146:1 147:-1 148:-1 149:1 150:1 151:1 152:1 153:1 154:1 155:1 158:1 159:1 160:1 161:1 162:1 163:1 164:1 165:1 166:1 167:1 170:1 171:1 172:1 176:1 177:1 178:1 179:1 
-0 0 0 0.07777495640353156 0 0 0 0 0 0 0 0 0 0 0 0 0 0 10:1 11:1 14:1 15:1 16:1 18:1 19:1 20:1 21:1 22:1 23:1 26:1 27:1 28:-1 29:-1 30:-1 31:-1 32:1 33:1 34:1 35:1 38:1 39:-1 40:-1 41:1 42:1 43:1 44:-1 45:-1 46:1 47:1 50:1 51:1 52:1 53:1 54:1 55:1 56:-1 57:-1 58:1 59:1 62:1 63:1 64:1 65:1 66:1 67:-1 68:-1 69:-1 70:1 71:1 74:1 75:1 76:1 77:1 78:-1 79:-1 80:-1 81:-1 82:1 83:1 86:1 87:1 88:1 89:1 90:1 91:-1 92:-1 93:1 94:1 95:1 98:1 99:1 100:1 101:1 102:1 103:1 104:-1 105:-1 106:1 107:1 110:1 111:1 112:1 113:1 114:1 115:1 116:1 117:-1 118:-1 119:1 122:1 123:-1 124:-1 125:-1 126:-1 127:-1 128:1 129:-1 130:1 131:1 134:1 135:1 136:-1 137:-1 138:-1 139:-1 140:-1 141:-1 142:1 143:1 146:1 147:1 148:1 149:1 150:1 151:1 152:-1 153:-1 154:1 155:1 158:1 159:1 160:1 161:1 162:1 163:1 164:1 165:1 166:1 167:1 170:1 171:1 172:1 176:1 177:1 178:1 179:1 
-0 0 0.2207475854811529 0.102918753637507 0.0393084143361596 0 0 0.1016696827250016 0 0.05737892437358754 0.07515638201021856 0.02364967499091476 0.1040543479590357 0.3717203816268436 0.00549451547564273 0 0 0.06577249292213455 10:1 11:1 14:1 15:1 16:1 18:1 19:1 20:1 21:-1 22:-1 23:1 26:1 27:1 28:1 29:1 30:1 31:-1 32:-1 33:-1 34:-1 35:1 38:1 39:1 40:1 41:-1 42:-1 43:1 44:1 45:-1 46:-1 47:1 50:1 51:1 52:1 53:-1 54:1 55:1 56:1 57:-1 58:1 59:1 62:1 63:1 64:-1 65:1 66:1 67:-1 68:-1 69:1 70:1 71:1 74:1 75:1 76:1 77:1 78:1 79:-1 80:-1 81:-1 82:1 83:1 86:1 87:1 88:1 89:1 90:-1 91:-1 92:-1 93:-1 94:-1 95:1 98:1 99:1 100:1 101:1 102:1 103:1 104:1 105:1 106:1 107:1 110:1 111:1 112:1 113:1 114:1 115:1 116:-1 117:1 118:1 119:1 122:1 123:1 124:1 125:1 126:1 127:-1 128:-1 129:1 130:1 131:1 134:1 135:1 136:1 137:-1 138:-1 139:-1 140:-1 141:1 142:1 143:1 146:-1 147:-1 148:-1 149:-1 150:-1 151:1 152:1 153:1 154:1 155:1 158:1 159:-1 160:-1 161:1 162:1 163:1 164:1 165:1 166:1 167:1 170:1 171:1 172:1 176:1 177:1 178:1 179:1 
-0.5139018756062396 0.5304116137423535 0.4320566205142486 0.3402508661740988 0.2710959572118811 0.4234806608475507 0.6900272577333591 0.4953357968054785 0.3155660795846855 0.3790216895927126 0.5607445817021032 0.2659915998895577 0.2398493348603848 0.5824045862771745 0.399657468588926 0.2626145305142967 0.2096570072011045 0.322720933637013 10:1 11:1 14:1 15:1 16:1 18:1 19:1 20:-1 21:-1 22:1 23:1 26:1 27:1 28:1 29:1 30:-1 31:-1 32:-1 33:-1 34:1 35:1 38:1 39:1 40:-1 41:-1 42:1 43:1 44:-1 45:-1 46:1 47:1 50:1 51:-1 52:-1 53:1 54:1 55:1 56:-1 57:-1 58:1 59:1 62:1 63:1 64:1 65:1 66:1 67:-1 68:-1 69:1 70:1 71:1 74:1 75:1 76:1 77:1 78:-1 79:-1 80:-1 81:-1 82:1 83:1 86:1 87:1 88:1 89:1 90:1 91:-1 92:1 93:-1 94:-1 95:1 98:1 99:1 100:1 101:1 102:1 103:1 104:1 105:-1 106:1 107:1 110:1 111:1 112:1 113:1 114:1 115:1 116:-1 117:-1 118:1 119:1 122:1 123:1 124:1 125:1 126:-1 127:-1 128:-1 129:-1 130:1 131:1 134:1 135:-1 136:-1 137:-1 138:-1 139:-1 140:1 141:1 142:1 143:1 146:-1 147:1 148:-1 149:-1 150:1 151:1 152:1 153:1 154:1 155:1 158:-1 159:1 160:1 161:1 162:1 163:1 164:1 165:1 166:1 167:1 170:1 171:1 172:1 176:1 177:1 178:1 179:1 
-0.4624178362227263 0.09722488254694262 0.1027648008586307 0.3702298369927818 0.1031484916783398 0.4248187399441997 0.3440412455624946 0.1211044100445323 0.1973852361739145 0.07300736307388993 0.06918852691126411 0.06682129549538382 0.059438191493654 0.007656330642849533 0.03180870649701925 0.04161760914149645 0.2275585308189336 0.129683031257085 10:1 11:1 14:1 15:1 16:1 18:1 19:1 20:1 21:1 22:1 23:1 26:1 27:1 28:1 29:-1 30:-1 31:-1 32:-1 33:-1 34:1 35:1 38:1 39:1 40:-1 41:1 42:1 43:1 44:-1 45:-1 46:1 47:1 50:1 51:-1 52:-1 53:1 54:1 55:1 56:-1 57:-1 58:1 59:1 62:1 63:1 64:1 65:1 66:1 67:-1 68:-1 69:-1 70:1 71:1 74:1 75:1 76:1 77:1 78:-1 79:-1 80:-1 81:1 82:1 83:1 86:1 87:1 88:1 89:1 90:1 91:-1 92:-1 93:-1 94:1 95:1 98:1 99:1 100:1 101:1 102:1 103:1 104:1 105:-1 106:-1 107:1 110:1 111:1 112:1 113:1 114:1 115:1 116:1 117:-1 118:1 119:1 122:1 123:1 124:1 125:-1 126:-1 127:-1 128:-1 129:-1 130:1 131:1 134:1 135:-1 136:-1 137:-1 138:-1 139:-1 140:-1 141:-1 142:1 143:1 146:1 147:1 148:-1 149:1 150:1 151:1 152:1 153:1 154:1 155:1 158:1 159:1 160:1 161:1 162:1 163:1 164:1 165:1 166:1 167:1 170:1 171:1 172:1 176:1 177:1 178:1 179:1 
-0 0.2936667581895084 0 0 0.04146415768020075 0.6445797424104923 0 0 0 0 0 0 0 0.189617610941001 0 0.1226386844677977 0 0.2513194692364064 10:1 11:1 14:1 15:1 16:1 18:1 19:1 20:1 21:-1 22:1 23:1 26:1 27:1 28:1 29:1 30:1 31:-1 32:-1 33:-1 34:1 35:1 38:1 39:1 40:1 41:-1 42:-1 43:1 44:-1 45:-1 46:1 47:1 50:1 51:1 52:-1 53:1 54:1 55:1 56:-1 57:-1 58:1 59:1 62:1 63:-1 64:-1 65:1 66:1 67:-1 68:-1 69:1 70:1 71:1 74:1 75:1 76:1 77:1 78:1 79:-1 80:-1 81:-1 82:1 83:1 86:1 87:1 88:1 89:1 90:-1 91:-1 92:-1 93:-1 94:-1 95:1 98:1 99:1 100:1 101:1 102:1 103:1 104:1 105:-1 106:1 107:1 110:1 111:1 112:1 113:1 114:1 115:1 116:1 117:-1 118:1 119:1 122:1 123:1 124:1 125:1 126:1 127:-1 128:-1 129:-1 130:1 131:1 134:1 135:1 136:1 137:-1 138:-1 139:-1 140:-1 141:1 142:1 143:1 146:1 147:-1 148:-1 149:-1 150:-1 151:1 152:1 153:1 154:1 155:1 158:1 159:1 160:-1 161:1 162:1 163:1 164:1 165:1 166:1 167:1 170:1 171:1 172:1 176:1 177:1 178:1 179:1 
-0 0 0 0 0 0 0 0 0 0 0 0 0 0.002716921690406751 0 0 0 0 10:1 11:1 14:1 15:1 16:1 18:1 19:1 20:1 21:1 22:1 23:1 26:1 27:1 28:1 29:1 30:-1 31:-1 32:-1 33:-1 34:1 35:1 38:1 39:1 40:-1 41:-1 42:1 43:1 44:-1 45:-1 46:1 47:1 50:1 51:-1 52:-1 53:1 54:1 55:1 56:-1 57:-1 58:1 59:1 62:1 63:1 64:1 65:1 66:1 67:-1 68:-1 69:-1 70:1 71:1 74:1 75:1 76:1 77:1 78:-1 79:-1 80:-1 81:1 82:1 83:1 86:1 87:1 88:1 89:1 90:1 91:-1 92:-1 93:-1 94:1 95:1 98:1 99:1 100:1 101:1 102:1 103:1 104:1 105:-1 106:-1 107:1 110:1 111:1 112:1 113:1 114:1 115:1 116:1 117:-1 118:1 119:1 122:1 123:1 124:1 125:1 126:-1 127:-1 128:-1 129:-1 130:1 131:1 134:1 135:-1 136:-1 137:-1 138:-1 139:-1 140:-1 141:-1 142:1 143:1 146:1 147:1 148:-1 149:-1 150:1 151:1 152:1 153:1 154:1 155:1 158:1 159:1 160:1 161:1 162:1 163:1 164:1 165:1 166:1 167:1 170:1 171:1 172:1 176:1 177:1 178:1 179:1 
-0.4774816379601456 0.3556824040192144 0.06907439242350076 0.1591454995465886 0.123939911088082 0.3905613929215509 0.4779309641318987 0.4797393569815949 0.1960935544556978 0.1541011375655431 0.1479227197981356 0.4039854600633795 0.1813838615716211 0.348376230321858 0.04750324826145706 0.2677227949522975 0.2192326388315801 0.2223746058651697 10:1 11:1 14:1 15:1 16:1 18:1 19:1 20:1 21:1 22:1 23:1 26:1 27:-1 28:-1 29:-1 30:1 31:1 32:1 33:1 34:1 35:1 38:1 39:1 40:-1 41:1 42:-1 43:-1 44:1 45:1 46:1 47:1 50:1 51:1 52:1 53:1 54:1 55:1 56:-1 57:-1 58:1 59:1 62:1 63:1 64:1 65:1 66:1 67:1 68:-1 69:-1 70:1 71:1 74:1 75:1 76:1 77:1 78:1 79:-1 80:-1 81:-1 82:1 83:1 86:1 87:1 88:1 89:1 90:-1 91:-1 92:-1 93:-1 94:1 95:1 98:1 99:1 100:1 101:1 102:1 103:-1 104:-1 105:1 106:1 107:1 110:1 111:-1 112:1 113:1 114:1 115:1 116:-1 117:-1 118:1 119:1 122:1 123:1 124:-1 125:-1 126:1 127:1 128:1 129:-1 130:-1 131:1 134:1 135:1 136:-1 137:-1 138:-1 139:-1 140:1 141:-1 142:1 143:1 146:1 147:1 148:1 149:1 150:-1 151:-1 152:-1 153:-1 154:1 155:1 158:1 159:1 160:1 161:1 162:1 163:1 164:-1 165:-1 166:1 167:1 170:1 171:1 172:1 176:1 177:1 178:1 179:1 
-0 0 0 0 0 0.02383274784474839 0 0 0 0 0 0 0 0 0 0 0 0 10:1 11:1 14:1 15:1 16:1 18:1 19:1 20:1 21:1 22:1 23:1 26:1 27:1 28:1 29:1 30:1 31:1 32:1 33:1 34:1 35:1 38:1 39:1 40:-1 41:-1 42:-1 43:-1 44:-1 45:-1 46:1 47:1 50:1 51:1 52:-1 53:1 54:1 55:1 56:-1 57:-1 58:1 59:1 62:1 63:-1 64:1 65:1 66:1 67:1 68:-1 69:-1 70:1 71:1 74:1 75:1 76:1 77:1 78:1 79:-1 80:-1 81:-1 82:1 83:1 86:1 87:1 88:1 89:1 90:-1 91:-1 92:-1 93:1 94:1 95:1 98:1 99:1 100:1 101:1 102:1 103:-1 104:-1 105:-1 106:1 107:1 110:1 111:1 112:1 113:1 114:1 115:1 116:1 117:-1 118:-1 119:1 122:1 123:1 124:1 125:1 126:1 127:1 128:1 129:-1 130:1 131:1 134:1 135:1 136:-1 137:-1 138:-1 139:-1 140:-1 141:-1 142:1 143:1 146:1 147:-1 148:-1 149:-1 150:-1 151:-1 152:-1 153:-1 154:1 155:1 158:1 159:1 160:1 161:1 162:1 163:1 164:1 165:1 166:1 167:1 170:1 171:1 172:1 176:1 177:1 178:1 179:1 
-0.5934515110622326 0.3437046764263959 0.455689098371841 0.3936738512815733 0.3339075586532838 0.2462452715597075 0.6092679142779701 0.4983256526960187 0.2924418108515615 0.4059738632334955 0.3692274914996302 0.4492674654123013 0.4070901385724877 0.3607172234877603 0.3012938572342637 0.1276594210011558 0.2400973150599678 0.3944352286326222 10:1 11:1 14:1 15:1 16:1 18:1 19:1 20:1 21:1 22:1 23:1 26:1 27:1 28:-1 29:-1 30:-1 31:-1 32:-1 33:1 34:1 35:1 38:1 39:-1 40:-1 41:1 42:1 43:1 44:-1 45:-1 46:1 47:1 50:1 51:1 52:1 53:1 54:1 55:1 56:-1 57:-1 58:1 59:1 62:1 63:1 64:1 65:1 66:1 67:-1 68:-1 69:-1 70:1 71:1 74:1 75:1 76:1 77:1 78:-1 79:-1 80:-1 81:-1 82:1 83:1 86:1 87:1 88:1 89:1 90:1 91:-1 92:-1 93:1 94:1 95:1 98:1 99:1 100:1 101:1 102:1 103:1 104:1 105:-1 106:1 107:1 110:1 111:1 112:1 113:1 114:1 115:1 116:1 117:-1 118:-1 119:1 122:-1 123:-1 124:-1 125:-1 126:-1 127:-1 128:-1 129:-1 130:1 131:1 134:-1 135:1 136:-1 137:-1 138:-1 139:-1 140:-1 141:-1 142:1 143:1 146:1 147:1 148:1 149:1 150:1 151:1 152:1 153:-1 154:1 155:1 158:1 159:1 160:1 161:1 162:1 163:1 164:1 165:1 166:1 167:1 170:1 171:1 172:1 176:1 177:1 178:1 179:1 
-0.9636339955242217 0.3231674107113775 0.1895266019838438 0.1350306395644038 0.1547900234055082 0.3666142214279782 0.4923887533973384 0.374241539287688 0.2300954065331861 0.216448008458827 0.2979473849851412 0.2236218763179556 0.2058564853089571 0.2826399372902248 0.2565844546929302 0.2425017985069687 0.4386589853872356 0.2241055083999179 10:1 11:1 14:1 15:1 16:1 18:1 19:1 20:1 21:1 22:1 23:1 26:1 27:1 28:1 29:-1 30:-1 31:1 32:1 33:1 34:1 35:1 38:1 39:1 40:-1 41:-1 42:1 43:-1 44:-1 45:-1 46:1 47:1 50:1 51:1 52:1 53:1 54:1 55:1 56:1 57:-1 58:-1 59:1 62:1 63:1 64:1 65:1 66:1 67:1 68:1 69:-1 70:-1 71:1 74:1 75:1 76:1 77:1 78:-1 79:-1 80:-1 81:-1 82:-1 83:1 86:1 87:1 88:1 89:1 90:1 91:-1 92:-1 93:1 94:1 95:1 98:1 99:1 100:1 101:1 102:1 103:-1 104:-1 105:-1 106:1 107:1 110:1 111:1 112:1 113:1 114:1 115:1 116:1 117:-1 118:1 119:1 122:-1 123:-1 124:-1 125:-1 126:-1 127:1 128:-1 129:1 130:-1 131:1 134:1 135:-1 136:-1 137:-1 138:-1 139:-1 140:-1 141:1 142:1 143:1 146:1 147:1 148:1 149:1 150:1 151:-1 152:-1 153:1 154:1 155:1 158:1 159:1 160:1 161:1 162:1 163:1 164:1 165:1 166:1 167:1 170:1 171:1 172:1 176:1 177:1 178:1 179:1 
-1.677774678696778 0.6965420471863216 0.6490879337586177 0.5700784542575518 0.5693638046645348 1.189113452715125 0.814430407495197 0.7922682896038664 0.5539895584233764 0.6054966469202469 0.9292911664631869 0.7840338684916549 0.5465281395266717 0.6678651593793571 0.5901629958691819 0.4891246580610365 0.8638237303138827 0.632460045689499 10:1 11:1 14:1 15:1 16:1 18:1 19:1 20:1 21:1 22:1 23:1 26:1 27:1 28:-1 29:1 30:1 31:1 32:1 33:1 34:1 35:1 38:1 39:-1 40:-1 41:-1 42:-1 43:1 44:1 45:1 46:1 47:1 50:1 51:1 52:1 53:1 54:1 55:-1 56:-1 57:-1 58:1 59:1 62:1 63:1 64:1 65:1 66:1 67:1 68:-1 69:-1 70:1 71:1 74:1 75:1 76:1 77:1 78:1 79:1 80:-1 81:-1 82:1 83:1 86:1 87:1 88:1 89:1 90:-1 91:-1 92:-1 93:-1 94:1 95:1 98:1 99:1 100:1 101:1 102:1 103:-1 104:-1 105:1 106:1 107:1 110:1 111:1 112:1 113:1 114:1 115:-1 116:-1 117:-1 118:1 119:1 122:1 123:-1 124:-1 125:1 126:1 127:1 128:1 129:-1 130:1 131:1 134:1 135:1 136:-1 137:-1 138:-1 139:1 140:1 141:-1 142:-1 143:1 146:1 147:1 148:1 149:-1 150:-1 151:-1 152:-1 153:-1 154:1 155:1 158:1 159:1 160:1 161:1 162:1 163:-1 164:-1 165:-1 166:1 167:1 170:1 171:1 172:1 176:1 177:1 178:1 179:1 
-0 0 0 0.07586030046367376 0 0.09167909001903611 0.09973844990731971 0.04959837842618914 0 0 0 0 0 0.05227758527662681 0 0 0.1238158285641469 0 10:1 11:1 14:1 15:1 16:1 18:1 19:1 20:1 21:1 22:1 23:1 26:1 27:1 28:1 29:1 30:1 31:1 32:1 33:1 34:1 35:1 38:1 39:1 40:-1 41:-1 42:-1 43:-1 44:-1 45:-1 46:1 47:1 50:1 51:-1 52:-1 53:1 54:1 55:1 56:-1 57:-1 58:1 59:1 62:1 63:1 64:1 65:1 66:1 67:1 68:-1 69:-1 70:1 71:1 74:1 75:1 76:1 77:1 78:1 79:-1 80:-1 81:-1 82:1 83:1 86:1 87:1 88:1 89:1 90:-1 91:-1 92:-1 93:1 94:1 95:1 98:1 99:1 100:1 101:1 102:1 103:-1 104:-1 105:-1 106:1 107:1 110:1 111:1 112:1 113:1 114:1 115:1 116:1 117:-1 118:-1 119:1 122:1 123:1 124:1 125:1 126:1 127:1 128:1 129:-1 130:1 131:1 134:1 135:-1 136:-1 137:-1 138:-1 139:-1 140:-1 141:-1 142:1 143:1 146:1 147:1 148:-1 149:-1 150:-1 151:-1 152:-1 153:-1 154:1 155:1 158:1 159:1 160:1 161:1 162:1 163:1 164:1 165:1 166:1 167:1 170:1 171:1 172:1 176:1 177:1 178:1 179:1 
-0 0 0 0 0 0 0.1361453238542915 0 0 0 0 0 0 0 0 0 0 0 10:1 11:1 14:1 15:1 16:1 18:1 19:1 20:1 21:1 22:1 23:1 26:1 27:1 28:1 29:1 30:1 31:1 32:1 33:1 34:-1 35:1 38:1 39:1 40:1 41:1 42:-1 43:-1 44:-1 45:-1 46:-1 47:1 50:1 51:1 52:1 53:-1 54:1 55:1 56:1 57:-1 58:-1 59:1 62:1 63:1 64:-1 65:-1 66:1 67:1 68:1 69:-1 70:1 71:1 74:1 75:1 76:1 77:1 78:1 79:-1 80:-1 81:-1 82:1 83:1 86:1 87:1 88:1 89:1 90:-1 91:-1 92:-1 93:1 94:1 95:1 98:1 99:1 100:1 101:1 102:1 103:-1 104:-1 105:-1 106:-1 107:1 110:1 111:1 112:1 113:1 114:1 115:1 116:1 117:-1 118:1 119:1 122:1 123:1 124:1 125:1 126:1 127:1 128:-1 129:1 130:1 131:1 134:1 135:1 136:1 137:1 138:-1 139:-1 140:-1 141:1 142:1 143:1 146:1 147:-1 148:-1 149:-1 150:-1 151:-1 152:-1 153:1 154:1 155:1 158:-1 159:-1 160:-1 161:-1 162:1 163:1 164:1 165:1 166:1 167:1 170:1 171:1 172:1 176:1 177:1 178:1 179:1 
-0.08257824816653044 0 0 0 0 0 0 0 0 0 0 0 0 0 0 0 0 0 10:1 11:1 14:1 15:1 16:1 18:1 19:1 20:1 21:1 22:1 23:1 26:1 27:1 28:1 29:-1 30:-1 31:-1 32:1 33:1 34:1 35:1 38:1 39:1 40:-1 41:-1 42:1 43:1 44:-1 45:-1 46:-1 47:1 50:1 51:1 52:1 53:1 54:1 55:1 56:1 57:-1 58:-1 59:1 62:1 63:1 64:1 65:1 66:1 67:-1 68:1 69:-1 70:-1 71:1 74:1 75:1 76:1 77:1 78:-1 79:-1 80:-1 81:-1 82:1 83:1 86:1 87:1 88:1 89:1 90:1 91:-1 92:-1 93:1 94:1 95:1 98:1 99:1 100:1 101:1 102:1 103:1 104:-1 105:-1 106:1 107:1 110:1 111:1 112:1 113:1 114:1 115:1 116:1 117:-1 118:-1 119:1 122:-1 123:-1 124:-1 125:-1 126:-1 127:-1 128:-1 129:1 130:1 131:1 134:1 135:-1 136:-1 137:-1 138:-1 139:-1 140:-1 141:1 142:1 143:1 146:1 147:1 148:1 149:1 150:1 151:1 152:-1 153:1 154:1 155:1 158:1 159:1 160:1 161:1 162:1 163:1 164:1 165:1 166:1 167:1 170:1 171:1 172:1 176:1 177:1 178:1 179:1 
-0 0 0 0 0 0.1550110856257015 0 0 0 0 0 0 0 0 0 0 0 0 10:1 11:1 14:1 15:1 16:1 18:1 19:1 20:1 21:1 22:1 23:1 26:1 27:1 28:1 29:1 30:1 31:1 32:-1 33:-1 34:1 35:1 38:1 39:1 40:-1 41:-1 42:-1 43:-1 44:-1 45:-1 46:1 47:1 50:1 51:1 52:-1 53:1 54:1 55:1 56:-1 57:-1 58:1 59:1 62:1 63:-1 64:1 65:1 66:1 67:1 68:-1 69:-1 70:1 71:1 74:1 75:1 76:1 77:1 78:1 79:-1 80:-1 81:1 82:1 83:1 86:1 87:1 88:1 89:1 90:-1 91:-1 92:-1 93:-1 94:-1 95:1 98:1 99:1 100:1 101:1 102:1 103:-1 104:1 105:-1 106:1 107:1 110:1 111:1 112:1 113:1 114:1 115:1 116:1 117:-1 118:1 119:1 122:1 123:1 124:1 125:1 126:1 127:1 128:-1 129:-1 130:1 131:1 134:1 135:1 136:-1 137:-1 138:-1 139:-1 140:-1 141:-1 142:1 143:1 146:1 147:-1 148:-1 149:-1 150:-1 151:-1 152:1 153:1 154:1 155:1 158:1 159:1 160:1 161:1 162:1 163:1 164:1 165:1 166:1 167:1 170:1 171:1 172:1 176:1 177:1 178:1 179:1 
-0.6594260522252566 0.385201541811224 0.1484292583460952 0.1423957663882146 0.2776940775223318 0.2568645751148656 0.2712973386756256 0.4339492115029429 0.1779701123406777 0.3174760194533977 0.31637332961909 0.4543590297214001 0.2822297696197051 0.1942874780789521 0.2121906217847673 0.2239448674435988 0.1194248519853224 0.1766481353856984 10:1 11:1 14:1 15:1 16:1 18:1 19:1 20:1 21:1 22:1 23:1 26:1 27:1 28:1 29:-1 30:-1 31:-1 32:-1 33:-1 34:-1 35:1 38:1 39:1 40:-1 41:-1 42:1 43:1 44:1 45:-1 46:-1 47:1 50:1 51:1 52:1 53:1 54:1 55:1 56:1 57:-1 58:-1 59:1 62:1 63:1 64:1 65:1 66:1 67:-1 68:-1 69:-1 70:1 71:1 74:1 75:1 76:1 77:1 78:-1 79:-1 80:-1 81:1 82:1 83:1 86:1 87:1 88:1 89:1 90:1 91:-1 92:-1 93:-1 94:1 95:1 98:1 99:1 100:1 101:1 102:1 103:1 104:1 105:-1 106:-1 107:1 110:1 111:1 112:1 113:1 114:1 115:1 116:-1 117:1 118:1 119:1 122:1 123:1 124:-1 125:-1 126:-1 127:-1 128:-1 129:1 130:1 131:1 134:-1 135:-1 136:-1 137:-1 138:-1 139:-1 140:-1 141:1 142:1 143:1 146:1 147:-1 148:1 149:1 150:1 151:1 152:1 153:1 154:1 155:1 158:1 159:1 160:1 161:1 162:1 163:1 164:1 165:1 166:1 167:1 170:1 171:1 172:1 176:1 177:1 178:1 179:1 
-2 0.8190881665886411 0.3390262593819917 0.5317798838552412 0.6306589442632578 1.051207499075316 0.5119260922041899 0.5942098872672904 0.8380735347834898 0.5747914013449026 1.081045949869287 0.6572882807309814 0.6525568763955835 0.9392823890690525 0.9586688346670161 0.4060569749991425 1.295415018032776 0.6250932175531564 10:1 11:1 14:1 15:1 16:1 18:1 19:1 20:-1 21:-1 22:-1 23:1 26:1 27:1 28:1 29:1 30:-1 31:-1 32:1 33:-1 34:-1 35:1 38:1 39:1 40:1 41:-1 42:-1 43:1 44:1 45:1 46:-1 47:1 50:1 51:1 52:-1 53:-1 54:1 55:1 56:1 57:-1 58:1 59:1 62:1 63:1 64:-1 65:-1 66:1 67:1 68:-1 69:-1 70:1 71:1 74:1 75:1 76:1 77:1 78:1 79:1 80:-1 81:1 82:1 83:1 86:1 87:1 88:1 89:1 90:1 91:-1 92:1 93:1 94:1 95:1 98:1 99:1 100:1 101:1 102:-1 103:-1 104:-1 105:1 106:1 107:1 110:1 111:1 112:1 113:1 114:1 115:1 116:-1 117:1 118:1 119:1 122:1 123:-1 124:-1 125:-1 126:-1 127:-1 128:-1 129:1 130:1 131:1 134:1 135:-1 136:-1 137:-1 138:-1 139:-1 140:1 141:1 142:1 143:1 146:-1 147:-1 148:-1 149:-1 150:1 151:1 152:1 153:1 154:1 155:1 158:-1 159:1 160:1 161:1 162:1 163:1 164:1 165:1 166:1 167:1 170:1 171:1 172:1 176:1 177:1 178:1 179:1 
-0 0 0 0 0 0 0 0.03790374936256496 0 0 0.02998470873973208 0 0 0 0 0 0 0 10:1 11:1 14:1 15:1 16:1 18:1 19:1 20:1 21:1 22:1 23:1 26:1 27:1 28:1 29:1 30:1 31:-1 32:-1 33:-1 34:-1 35:1 38:1 39:1 40:1 41:-1 42:-1 43:1 44:1 45:-1 46:-1 47:1 50:1 51:1 52:-1 53:-1 54:1 55:1 56:1 57:-1 58:-1 59:1 62:1 63:1 64:1 65:1 66:1 67:-1 68:-1 69:-1 70:1 71:1 74:1 75:1 76:1 77:1 78:1 79:-1 80:-1 81:1 82:1 83:1 86:1 87:1 88:1 89:1 90:-1 91:-1 92:-1 93:-1 94:1 95:1 98:1 99:1 100:1 101:1 102:1 103:1 104:1 105:-1 106:-1 107:1 110:1 111:1 112:1 113:1 114:1 115:1 116:-1 117:1 118:1 119:1 122:1 123:1 124:1 125:1 126:1 127:-1 128:-1 129:1 130:1 131:1 134:1 135:1 136:-1 137:-1 138:-1 139:-1 140:-1 141:1 142:1 143:1 146:-1 147:-1 148:-1 149:-1 150:-1 151:1 152:1 153:1 154:1 155:1 158:1 159:-1 160:1 161:1 162:1 163:1 164:1 165:1 166:1 167:1 170:1 171:1 172:1 176:1 177:1 178:1 179:1 
-0.2552548394118927 0.1243233226685613 0.08188181483828241 0.2564206076678648 0.003002935644443994 0.1442572585578427 0.2113155913973698 0 0 0.01281396887699095 0.1009556019898951 0.008979765589368366 0 0.1418760469000183 0.09247598044301546 0.005040664667129473 0 0.03106252740218131 10:1 11:1 14:1 15:1 16:1 18:1 19:1 20:1 21:1 22:1 23:1 26:1 27:1 28:1 29:1 30:1 31:1 32:-1 33:-1 34:1 35:1 38:1 39:1 40:1 41:1 42:-1 43:-1 44:-1 45:-1 46:1 47:1 50:1 51:1 52:-1 53:-1 54:1 55:1 56:-1 57:-1 58:1 59:1 62:1 63:-1 64:-1 65:1 66:1 67:1 68:-1 69:-1 70:1 71:1 74:1 75:1 76:1 77:1 78:1 79:-1 80:-1 81:1 82:1 83:1 86:1 87:1 88:1 89:1 90:-1 91:-1 92:-1 93:-1 94:1 95:1 98:1 99:1 100:1 101:1 102:1 103:-1 104:1 105:-1 106:-1 107:1 110:1 111:1 112:1 113:1 114:1 115:1 116:1 117:-1 118:1 119:1 122:1 123:1 124:1 125:1 126:1 127:1 128:-1 129:-1 130:1 131:1 134:1 135:1 136:1 137:1 138:-1 139:-1 140:-1 141:-1 142:1 143:1 146:1 147:-1 148:-1 149:-1 150:-1 151:-1 152:1 153:1 154:1 155:1 158:1 159:1 160:-1 161:-1 162:1 163:1 164:1 165:1 166:1 167:1 170:1 171:1 172:1 176:1 177:1 178:1 179:1 
-0.5511342237683233 0.5103489260085973 0.6052963740768583 0.5873814279471102 0.3657997934563728 1.189500383871898 0.613116473978486 0.3052386904725304 0.456059208221317 0.3950655231750303 0.5581714864712269 0.505458381405421 0.3960912458753665 0.632864727010524 0.4239151980883441 0.4098000796188174 0.4676723140572082 0.4950576788273675 10:1 11:1 14:1 15:1 16:1 18:1 19:1 20:1 21:1 22:1 23:1 26:1 27:1 28:1 29:1 30:1 31:1 32:1 33:-1 34:1 35:1 38:1 39:1 40:1 41:1 42:1 43:-1 44:-1 45:-1 46:1 47:1 50:1 51:1 52:-1 53:-1 54:-1 55:1 56:-1 57:-1 58:1 59:1 62:1 63:1 64:-1 65:1 66:1 67:1 68:-1 69:-1 70:1 71:1 74:1 75:-1 76:1 77:1 78:1 79:-1 80:-1 81:1 82:1 83:1 86:1 87:1 88:1 89:1 90:1 91:-1 92:-1 93:-1 94:1 95:1 98:1 99:1 100:1 101:1 102:-1 103:-1 104:-1 105:-1 106:-1 107:1 110:1 111:1 112:1 113:1 114:1 115:1 116:1 117:-1 118:1 119:1 122:1 123:1 124:1 125:1 126:1 127:1 128:1 129:-1 130:1 131:1 134:1 135:1 136:1 137:1 138:1 139:-1 140:-1 141:-1 142:1 143:1 146:1 147:1 148:-1 149:-1 150:-1 151:-1 152:-1 153:1 154:1 155:1 158:1 159:-1 160:-1 161:-1 162:-1 163:1 164:1 165:1 166:1 167:1 170:1 171:1 172:1 176:1 177:1 178:1 179:1 
-0.5336761891196424 0.1081546125501494 0.04555565603116983 0 0.1741960674168593 0.1835777165361463 0.1780574989444846 0.3608279916595361 0.01838909079899399 0.1387939479004494 0.01036570238905725 0.2105906915828408 0.1557589666204557 0.3821195952051393 0.0811291010709391 0.09394693197016685 0.1103934892863636 0.1323776315731366 10:1 11:1 14:1 15:1 16:1 18:1 19:1 20:1 21:1 22:1 23:1 26:1 27:1 28:1 29:1 30:1 31:1 32:1 33:1 34:1 35:1 38:1 39:1 40:1 41:-1 42:-1 43:-1 44:-1 45:-1 46:-1 47:1 50:1 51:1 52:-1 53:-1 54:1 55:1 56:1 57:-1 58:-1 59:1 62:1 63:1 64:1 65:1 66:1 67:1 68:1 69:-1 70:-1 71:1 74:1 75:1 76:1 77:1 78:1 79:-1 80:-1 81:-1 82:1 83:1 86:1 87:1 88:1 89:1 90:-1 91:-1 92:-1 93:1 94:1 95:1 98:1 99:1 100:1 101:1 102:1 103:-1 104:-1 105:-1 106:1 107:1 110:1 111:1 112:1 113:1 114:1 115:1 116:1 117:-1 118:-1 119:1 122:1 123:1 124:1 125:1 126:1 127:1 128:-1 129:1 130:1 131:1 134:-1 135:-1 136:-1 137:-1 138:-1 139:-1 140:-1 141:1 142:1 143:1 146:1 147:-1 148:-1 149:-1 150:-1 151:-1 152:-1 153:1 154:1 155:1 158:1 159:1 160:1 161:1 162:1 163:1 164:1 165:1 166:1 167:1 170:1 171:1 172:1 176:1 177:1 178:1 179:1 
-0.7880120259379977 0.4580871414500395 0.4888175917040304 0.1489221219422171 0.4410796144611901 0.3714246043611504 0.4318928136429734 0.2481590662857581 0.2337479011562257 0.4106413933678902 0.7652806739882925 0.3720332534933948 0.2729646429535488 0.6508486138211318 0.3268674386303 0.3898041047867198 0.1739920787117509 0.4591956230298531 10:1 11:1 14:1 15:1 16:1 18:1 19:1 20:1 21:1 22:1 23:1 26:1 27:1 28:1 29:-1 30:1 31:1 32:1 33:1 34:1 35:1 38:1 39:1 40:-1 41:-1 42:-1 43:-1 44:-1 45:1 46:1 47:1 50:1 51:1 52:1 53:1 54:1 55:1 56:1 57:-1 58:-1 59:1 62:1 63:1 64:1 65:1 66:1 67:1 68:1 69:-1 70:-1 71:1 74:1 75:1 76:1 77:1 78:1 79:-1 80:-1 81:-1 82:-1 83:1 86:1 87:1 88:1 89:1 90:-1 91:-1 92:-1 93:-1 94:1 95:1 98:1 99:1 100:1 101:1 102:1 103:-1 104:-1 105:1 106:1 107:1 110:-1 111:-1 112:1 113:1 114:1 115:1 116:1 117:-1 118:1 119:1 122:1 123:-1 124:-1 125:-1 126:1 127:1 128:-1 129:-1 130:-1 131:1 134:1 135:1 136:-1 137:-1 138:-1 139:-1 140:-1 141:1 142:1 143:1 146:1 147:1 148:1 149:1 150:-1 151:-1 152:-1 153:1 154:1 155:1 158:1 159:1 160:1 161:1 162:1 163:1 164:1 165:1 166:1 167:1 170:1 171:1 172:1 176:1 177:1 178:1 179:1 
-1.052073305843101 0.2644902220448857 0.2508596685330224 0.1044970208487922 0.1677150409208295 0.5573410554896363 0.3820533195767755 0.1865573663873945 0.1765073571372643 0.1856213959627679 0.05815132437636386 0.2186134620929449 0.2868745129892736 0 0.1569000413944969 0.2001412941566439 0.2652326578631656 0.1303236736203492 10:1 11:1 14:1 15:1 16:1 18:1 19:1 20:-1 21:-1 22:-1 23:1 26:1 27:1 28:1 29:1 30:-1 31:-1 32:1 33:-1 34:-1 35:1 38:1 39:1 40:1 41:-1 42:1 43:1 44:1 45:-1 46:-1 47:1 50:1 51:1 52:-1 53:-1 54:1 55:1 56:-1 57:-1 58:1 59:1 62:1 63:1 64:1 65:1 66:1 67:-1 68:-1 69:1 70:1 71:1 74:1 75:1 76:1 77:1 78:-1 79:-1 80:-1 81:-1 82:1 83:1 86:1 87:1 88:1 89:1 90:1 91:-1 92:1 93:-1 94:-1 95:1 98:1 99:1 100:1 101:1 102:1 103:1 104:-1 105:1 106:1 107:1 110:1 111:1 112:1 113:1 114:1 115:1 116:-1 117:1 118:1 119:1 122:1 123:1 124:1 125:1 126:-1 127:-1 128:-1 129:1 130:1 131:1 134:1 135:1 136:-1 137:-1 138:-1 139:-1 140:1 141:1 142:1 143:1 146:-1 147:-1 148:-1 149:-1 150:1 151:1 152:1 153:1 154:1 155:1 158:1 159:-1 160:1 161:1 162:1 163:1 164:1 165:1 166:1 167:1 170:1 171:1 172:1 176:1 177:1 178:1 179:1 
-0.4118906330040442 -0.5110886982241192 0.4410919343913153 0.002577666141401033 0.0655027843147479 0.2399053437081158 0.9420997613663835 0.3333924650993243 0.7146396918625838 0.06765601494282363 0.3197076878419307 0.3978702816990081 0.1211525693637922 1.018396743753925 0.1355429189307862 0.1858774272598489 0.2639875001976764 0.2161254448906821 10:1 11:1 14:1 15:1 16:1 18:1 19:1 20:1 21:-1 22:-1 23:1 26:1 27:1 28:1 29:1 30:1 31:-1 32:-1 33:1 34:1 35:1 38:1 39:1 40:1 41:1 42:-1 43:-1 44:1 45:1 46:1 47:1 50:1 51:1 52:1 53:-1 54:-1 55:1 56:1 57:1 58:1 59:1 62:1 63:1 64:1 65:-1 66:-1 67:-1 68:-1 69:-1 70:1 71:1 74:1 75:1 76:1 77:-1 78:-1 79:-1 80:-1 81:-1 82:-1 83:1 86:1 87:1 88:-1 89:-1 90:-1 91:1 92:1 93:-1 94:-1 95:1 98:1 99:1 100:-1 101:-1 102:1 103:1 104:1 105:-1 106:1 107:1 110:1 111:1 112:-1 113:-1 114:1 115:1 116:-1 117:-1 118:1 119:1 122:1 123:1 124:-1 125:1 126:1 127:-1 128:-1 129:1 130:1 131:1 134:1 135:-1 136:-1 137:-1 138:-1 139:-1 140:-1 141:1 142:1 143:1 146:1 147:-1 148:-1 149:-1 150:-1 151:1 152:1 153:1 154:1 155:1 158:1 159:-1 160:-1 161:1 162:1 163:1 164:1 165:1 166:1 167:1 170:1 171:1 172:1 176:1 177:1 178:1 179:1 
-0.09305385390368434 -0.1886585801332698 0.1257698347366098 0.3742709074214776 0.03169491525633687 0 0.2507661064022208 0.1250118804620347 0 0.3260569172721412 0.3193215116671556 0.11078333316781 0.07156771889456168 0.3436421163813301 0.4137559850030323 0.2001499334366173 0 0.2141545223511603 10:1 11:1 14:1 15:1 16:1 18:1 19:1 20:1 21:1 22:1 23:1 26:1 27:1 28:-1 29:1 30:1 31:1 32:1 33:1 34:1 35:1 38:1 39:-1 40:-1 41:-1 42:-1 43:1 44:1 45:1 46:1 47:1 50:1 51:-1 52:-1 53:-1 54:1 55:-1 56:-1 57:-1 58:1 59:1 62:1 63:-1 64:-1 65:1 66:1 67:1 68:1 69:1 70:1 71:1 74:1 75:-1 76:-1 77:-1 78:-1 79:1 80:1 81:1 82:1 83:1 86:1 87:-1 88:-1 89:-1 90:-1 91:-1 92:1 93:1 94:1 95:1 98:1 99:-1 100:-1 101:1 102:1 103:-1 104:-1 105:1 106:1 107:1 110:1 111:-1 112:-1 113:1 114:1 115:1 116:-1 117:-1 118:1 119:1 122:1 123:-1 124:-1 125:1 126:1 127:1 128:-1 129:-1 130:1 131:1 134:1 135:-1 136:-1 137:-1 138:-1 139:1 140:-1 141:-1 142:1 143:1 146:1 147:1 148:1 149:-1 150:-1 151:-1 152:-1 153:-1 154:1 155:1 158:1 159:1 160:1 161:1 162:1 163:-1 164:-1 165:1 166:1 167:1 170:1 171:1 172:1 176:1 177:1 178:1 179:1 
-0.4560778002311772 -0.3695956732647047 0.1618021470845881 0.1567901527065146 0.4312804358087584 0.3504207261445544 0.2040220045146898 0.2557662128097611 0.2226460354371209 0.261369796695887 0.3727959800302091 0.4942522618010588 0.3639017101050893 0.4048660231924731 0.3574297844902194 0.2254804833322098 0.2150628187027956 0.6151972179033007 10:1 11:1 14:1 15:1 16:1 18:1 19:1 20:1 21:1 22:1 23:1 26:1 27:1 28:1 29:-1 30:1 31:1 32:1 33:1 34:1 35:1 38:1 39:1 40:-1 41:-1 42:-1 43:-1 44:-1 45:1 46:1 47:1 50:1 51:1 52:-1 53:-1 54:-1 55:1 56:1 57:-1 58:-1 59:1 62:1 63:-1 64:-1 65:-1 66:1 67:1 68:1 69:1 70:1 71:1 74:1 75:-1 76:-1 77:-1 78:-1 79:-1 80:1 81:1 82:1 83:1 86:1 87:-1 88:-1 89:1 90:-1 91:-1 92:-1 93:1 94:1 95:1 98:1 99:-1 100:-1 101:1 102:1 103:1 104:-1 105:1 106:1 107:1 110:-1 111:-1 112:1 113:1 114:1 115:1 116:-1 117:-1 118:1 119:1 122:-1 123:-1 124:-1 125:-1 126:1 127:-1 128:-1 129:-1 130:1 131:1 134:-1 135:-1 136:-1 137:-1 138:-1 139:-1 140:-1 141:1 142:1 143:1 146:1 147:1 148:1 149:1 150:-1 151:-1 152:1 153:1 154:1 155:1 158:1 159:1 160:1 161:1 162:1 163:1 164:1 165:1 166:1 167:1 170:1 171:1 172:1 176:1 177:1 178:1 179:1 
-0.7217942862136347 -0.9068665947633754 1.021308921546492 0.8710018281913556 0.5741645736875705 0.6427876514017279 1.902638342247656 1.066871802324441 1.30781221399882 0.9547351770629349 0.5800123186251179 0.9255179252286808 0.7789343040945308 1.157397830967988 0.7717611828577073 0.6392301480323334 0.660612693101888 0.7401471745949322 10:1 11:1 14:1 15:1 16:1 18:1 19:1 20:1 21:1 22:1 23:1 26:1 27:1 28:1 29:1 30:1 31:1 32:1 33:1 34:-1 35:1 38:1 39:1 40:1 41:1 42:1 43:-1 44:-1 45:-1 46:1 47:1 50:1 51:1 52:1 53:1 54:-1 55:-1 56:1 57:1 58:1 59:1 62:1 63:1 64:1 65:-1 66:-1 67:1 68:1 69:1 70:1 71:1 74:1 75:1 76:1 77:-1 78:-1 79:-1 80:-1 81:1 82:1 83:1 86:1 87:1 88:-1 89:-1 90:-1 91:-1 92:-1 93:-1 94:-1 95:1 98:1 99:1 100:-1 101:-1 102:-1 103:1 104:1 105:-1 106:-1 107:1 110:1 111:1 112:-1 113:-1 114:1 115:1 116:1 117:-1 118:1 119:1 122:1 123:1 124:-1 125:-1 126:1 127:1 128:-1 129:-1 130:1 131:1 134:1 135:-1 136:-1 137:1 138:1 139:-1 140:-1 141:-1 142:1 143:1 146:1 147:-1 148:-1 149:-1 150:-1 151:-1 152:-1 153:1 154:1 155:1 158:1 159:-1 160:-1 161:-1 162:-1 163:1 164:1 165:1 166:1 167:1 170:1 171:1 172:1 176:1 177:1 178:1 179:1 
-0.5091008428216708 -0.4884761060493293 0.3884315219821961 0.454216188734822 0.4839477572290005 0.2819053878312738 2 0.5261268662219677 0.4792531959746759 0.8693300829408287 0.5143600818471332 0.3249290667057974 0.3581142429295245 1.507535997413629 0.5078176733671069 0.1016044830999994 0.3125828268209311 0.5521102227860838 10:1 11:1 14:1 15:1 16:1 18:1 19:1 20:1 21:1 22:1 23:1 26:1 27:1 28:1 29:1 30:-1 31:-1 32:-1 33:-1 34:-1 35:1 38:1 39:1 40:1 41:-1 42:-1 43:-1 44:1 45:1 46:1 47:1 50:1 51:1 52:1 53:-1 54:-1 55:1 56:1 57:1 58:1 59:1 62:1 63:1 64:-1 65:-1 66:-1 67:-1 68:-1 69:1 70:1 71:1 74:1 75:1 76:-1 77:-1 78:-1 79:-1 80:-1 81:-1 82:1 83:1 86:1 87:1 88:-1 89:-1 90:1 91:1 92:1 93:-1 94:-1 95:1 98:1 99:1 100:-1 101:-1 102:1 103:1 104:1 105:-1 106:-1 107:1 110:1 111:1 112:-1 113:1 114:1 115:1 116:-1 117:-1 118:1 119:1 122:1 123:-1 124:-1 125:-1 126:-1 127:-1 128:-1 129:-1 130:1 131:1 134:1 135:-1 136:-1 137:-1 138:-1 139:-1 140:-1 141:1 142:1 143:1 146:1 147:-1 148:1 149:1 150:1 151:1 152:1 153:1 154:1 155:1 158:1 159:1 160:1 161:1 162:1 163:1 164:1 165:1 166:1 167:1 170:1 171:1 172:1 176:1 177:1 178:1 179:1 
-0.06947429223626804 -0.08150848274553667 0.1817506562660844 0.05982000672927143 0.06882400302486672 0 0.9302501640599048 0.3036378552569418 0.370350494174187 0.0369769249527616 0.005375787046437175 0 0.04841983346431694 1.002040217107025 0 0 0 0.3110752619111331 10:1 11:1 14:1 15:1 16:1 18:1 19:1 20:1 21:1 22:1 23:1 26:1 27:1 28:1 29:1 30:1 31:1 32:1 33:-1 34:-1 35:1 38:1 39:1 40:1 41:1 42:-1 43:-1 44:-1 45:1 46:1 47:1 50:1 51:1 52:1 53:-1 54:-1 55:-1 56:1 57:1 58:1 59:1 62:1 63:1 64:1 65:-1 66:-1 67:1 68:1 69:1 70:1 71:1 74:1 75:1 76:-1 77:-1 78:-1 79:-1 80:-1 81:-1 82:1 83:1 86:1 87:1 88:-1 89:-1 90:-1 91:-1 92:-1 93:-1 94:-1 95:1 98:1 99:1 100:-1 101:-1 102:1 103:1 104:1 105:-1 106:-1 107:1 110:1 111:1 112:-1 113:-1 114:1 115:1 116:1 117:-1 118:1 119:1 122:1 123:-1 124:-1 125:1 126:1 127:1 128:-1 129:-1 130:1 131:1 134:1 135:-1 136:-1 137:-1 138:-1 139:-1 140:-1 141:1 142:1 143:1 146:1 147:-1 148:-1 149:-1 150:-1 151:-1 152:-1 153:1 154:1 155:1 158:1 159:1 160:1 161:1 162:1 163:1 164:1 165:1 166:1 167:1 170:1 171:1 172:1 176:1 177:1 178:1 179:1 
-0 -0 0 0.007457340100317383 0.192204856601282 0 0 0 0 0.0388884104122347 0 0.2378074644833787 0.1563318243346741 0.6675360657360306 0 0.1360101659956093 0 0 10:1 11:1 14:1 15:1 16:1 18:1 19:1 20:1 21:1 22:1 23:1 26:1 27:1 28:1 29:1 30:1 31:1 32:-1 33:-1 34:-1 35:1 38:1 39:1 40:1 41:1 42:-1 43:-1 44:1 45:1 46:1 47:1 50:1 51:1 52:1 53:-1 54:-1 55:-1 56:1 57:1 58:1 59:1 62:1 63:1 64:1 65:-1 66:-1 67:1 68:-1 69:1 70:1 71:1 74:1 75:1 76:-1 77:-1 78:-1 79:-1 80:-1 81:-1 82:1 83:1 86:1 87:1 88:-1 89:-1 90:-1 91:-1 92:1 93:-1 94:-1 95:1 98:1 99:1 100:-1 101:-1 102:1 103:1 104:1 105:-1 106:-1 107:1 110:1 111:1 112:-1 113:-1 114:1 115:1 116:-1 117:-1 118:1 119:1 122:1 123:-1 124:-1 125:1 126:1 127:1 128:-1 129:-1 130:1 131:1 134:1 135:-1 136:-1 137:-1 138:-1 139:-1 140:-1 141:1 142:1 143:1 146:1 147:-1 148:-1 149:-1 150:-1 151:-1 152:1 153:1 154:1 155:1 158:1 159:1 160:1 161:1 162:1 163:1 164:1 165:1 166:1 167:1 170:1 171:1 172:1 176:1 177:1 178:1 179:1 
-0.1259984549755513 -0.1118456298554201 0.04282409662775175 0.0706232277377922 0 0.1506510964166448 0.3476702421214281 0 0.06255695236791235 0 0 0 0 0.2239920538308683 0 0 0 0 10:1 11:1 14:1 15:1 16:1 18:1 19:1 20:1 21:1 22:-1 23:1 26:1 27:1 28:1 29:1 30:1 31:1 32:-1 33:-1 34:1 35:1 38:1 39:1 40:1 41:1 42:-1 43:-1 44:1 45:1 46:1 47:1 50:1 51:1 52:1 53:-1 54:-1 55:-1 56:1 57:1 58:1 59:1 62:1 63:1 64:1 65:-1 66:-1 67:1 68:-1 69:1 70:1 71:1 74:1 75:1 76:1 77:-1 78:-1 79:-1 80:-1 81:-1 82:-1 83:1 86:1 87:1 88:-1 89:-1 90:-1 91:-1 92:1 93:-1 94:-1 95:1 98:1 99:1 100:-1 101:-1 102:1 103:1 104:1 105:-1 106:1 107:1 110:1 111:1 112:-1 113:-1 114:1 115:1 116:-1 117:-1 118:1 119:1 122:1 123:1 124:-1 125:1 126:1 127:1 128:-1 129:-1 130:1 131:1 134:1 135:-1 136:-1 137:-1 138:-1 139:-1 140:-1 141:1 142:1 143:1 146:1 147:-1 148:-1 149:-1 150:-1 151:-1 152:1 153:1 154:1 155:1 158:1 159:-1 160:-1 161:1 162:1 163:1 164:1 165:1 166:1 167:1 170:1 171:1 172:1 176:1 177:1 178:1 179:1 
-0 -0 0 0 0 0 0 0 0 0 0 0 0 0.01809906569746698 0 0.01265453817782046 0 0 10:1 11:1 14:1 15:1 16:1 18:1 19:1 20:1 21:-1 22:1 23:1 26:1 27:1 28:1 29:1 30:1 31:-1 32:-1 33:1 34:1 35:1 38:1 39:1 40:-1 41:-1 42:-1 43:1 44:1 45:1 46:1 47:1 50:1 51:1 52:-1 53:-1 54:1 55:1 56:1 57:1 58:1 59:1 62:1 63:-1 64:-1 65:1 66:1 67:-1 68:1 69:1 70:1 71:1 74:1 75:-1 76:-1 77:-1 78:-1 79:-1 80:-1 81:-1 82:1 83:1 86:1 87:-1 88:-1 89:-1 90:-1 91:1 92:-1 93:-1 94:1 95:1 98:1 99:-1 100:-1 101:1 102:1 103:1 104:-1 105:-1 106:1 107:1 110:1 111:-1 112:-1 113:1 114:1 115:1 116:-1 117:-1 118:1 119:1 122:1 123:-1 124:-1 125:1 126:1 127:-1 128:-1 129:1 130:1 131:1 134:1 135:-1 136:-1 137:-1 138:-1 139:-1 140:-1 141:1 142:1 143:1 146:1 147:-1 148:-1 149:-1 150:-1 151:1 152:1 153:1 154:1 155:1 158:1 159:-1 160:1 161:1 162:1 163:1 164:1 165:1 166:1 167:1 170:1 171:1 172:1 176:1 177:1 178:1 179:1 
-0 -0 0.1218895125574388 0.1928410018350353 0 0 0 0 0 0 0 0 0 0 0 0 0 0 10:1 11:1 14:1 15:1 16:1 18:1 19:1 20:1 21:1 22:-1 23:1 26:1 27:1 28:1 29:1 30:1 31:-1 32:-1 33:-1 34:1 35:1 38:1 39:1 40:1 41:1 42:-1 43:-1 44:1 45:1 46:1 47:1 50:1 51:1 52:1 53:-1 54:-1 55:1 56:1 57:1 58:1 59:1 62:1 63:1 64:1 65:-1 66:-1 67:-1 68:-1 69:1 70:1 71:1 74:1 75:1 76:1 77:-1 78:-1 79:-1 80:-1 81:-1 82:-1 83:1 86:1 87:1 88:-1 89:-1 90:-1 91:1 92:1 93:-1 94:-1 95:1 98:1 99:1 100:-1 101:-1 102:1 103:1 104:1 105:-1 106:1 107:1 110:1 111:1 112:-1 113:-1 114:1 115:1 116:-1 117:-1 118:1 119:1 122:1 123:1 124:-1 125:1 126:1 127:-1 128:-1 129:-1 130:1 131:1 134:1 135:-1 136:-1 137:-1 138:-1 139:-1 140:-1 141:1 142:1 143:1 146:1 147:-1 148:-1 149:-1 150:-1 151:1 152:1 153:1 154:1 155:1 158:1 159:-1 160:-1 161:1 162:1 163:1 164:1 165:1 166:1 167:1 170:1 171:1 172:1 176:1 177:1 178:1 179:1 
-0.6986098138917306 -0.554959365183095 0.4213498829425806 0.5914720290925412 0.7801955844618861 0.6835890431416523 1.756646334073404 0.7976589381465289 0.765169920947788 1.002545899421727 0.7439865465740621 0.645280919316931 0.7235448476228846 0.5295688310576699 0.9394075380011731 0.4951872982785783 0.6766722194667185 0.703422610793364 10:1 11:1 14:1 15:1 16:1 18:1 19:1 20:-1 21:-1 22:-1 23:1 26:1 27:1 28:1 29:1 30:-1 31:-1 32:1 33:1 34:1 35:1 38:1 39:1 40:1 41:1 42:-1 43:-1 44:1 45:1 46:1 47:1 50:1 51:1 52:1 53:-1 54:-1 55:1 56:-1 57:1 58:1 59:1 62:1 63:1 64:1 65:-1 66:-1 67:-1 68:-1 69:-1 70:1 71:1 74:1 75:1 76:-1 77:-1 78:-1 79:-1 80:1 81:-1 82:-1 83:1 86:1 87:1 88:-1 89:-1 90:1 91:1 92:1 93:-1 94:-1 95:1 98:1 99:1 100:-1 101:-1 102:1 103:1 104:-1 105:-1 106:1 107:1 110:1 111:1 112:-1 113:-1 114:1 115:1 116:-1 117:-1 118:1 119:1 122:1 123:1 124:-1 125:1 126:-1 127:-1 128:-1 129:1 130:1 131:1 134:1 135:-1 136:-1 137:-1 138:-1 139:-1 140:1 141:1 142:1 143:1 146:1 147:-1 148:-1 149:-1 150:1 151:1 152:1 153:1 154:1 155:1 158:1 159:-1 160:1 161:1 162:1 163:1 164:1 165:1 166:1 167:1 170:1 171:1 172:1 176:1 177:1 178:1 179:1 
-0.1741621107093756 -0.3846435137869225 0.2000740928429465 0 0.2444029156014202 0.2228836560618944 0 0.1856896070261493 0 0 0.3037836591686616 0.3431075978472306 0.1253285175088233 0.2844949653538638 0.07518674487112634 0.212429023581404 0.1838411745218995 0.5153945741149385 10:1 11:1 14:1 15:1 16:1 18:1 19:1 20:-1 21:-1 22:1 23:1 26:1 27:1 28:1 29:1 30:-1 31:-1 32:1 33:1 34:1 35:1 38:1 39:1 40:-1 41:-1 42:1 43:1 44:1 45:1 46:1 47:1 50:1 51:1 52:-1 53:-1 54:1 55:1 56:1 57:1 58:1 59:1 62:1 63:-1 64:-1 65:1 66:-1 67:-1 68:-1 69:1 70:1 71:1 74:1 75:-1 76:-1 77:-1 78:-1 79:-1 80:-1 81:-1 82:1 83:1 86:1 87:-1 88:-1 89:-1 90:1 91:1 92:-1 93:-1 94:1 95:1 98:1 99:-1 100:-1 101:1 102:1 103:1 104:-1 105:-1 106:1 107:1 110:1 111:-1 112:-1 113:1 114:1 115:1 116:-1 117:-1 118:1 119:1 122:1 123:-1 124:-1 125:1 126:-1 127:-1 128:-1 129:1 130:1 131:1 134:1 135:-1 136:-1 137:-1 138:-1 139:-1 140:1 141:1 142:1 143:1 146:1 147:-1 148:-1 149:-1 150:1 151:1 152:1 153:1 154:1 155:1 158:1 159:-1 160:1 161:1 162:1 163:1 164:1 165:1 166:1 167:1 170:1 171:1 172:1 176:1 177:1 178:1 179:1 
-0 -0 0 0 0.2546860269498515 0 0 0 0 0.2047511274152647 0 0 0.1008151431909842 0.08581038617620473 0 0.1485147389238786 0 0.0598920233795724 10:1 11:1 14:1 15:1 16:1 18:1 19:1 20:1 21:-1 22:-1 23:1 26:1 27:1 28:1 29:1 30:1 31:-1 32:-1 33:1 34:1 35:1 38:1 39:1 40:1 41:1 42:-1 43:-1 44:1 45:1 46:1 47:1 50:1 51:1 52:1 53:-1 54:-1 55:1 56:1 57:1 58:1 59:1 62:1 63:1 64:1 65:-1 66:-1 67:-1 68:-1 69:-1 70:1 71:1 74:1 75:1 76:-1 77:-1 78:-1 79:-1 80:-1 81:-1 82:-1 83:1 86:1 87:1 88:-1 89:-1 90:-1 91:1 92:1 93:-1 94:-1 95:1 98:1 99:1 100:-1 101:-1 102:1 103:1 104:1 105:-1 106:1 107:1 110:1 111:1 112:-1 113:-1 114:1 115:1 116:-1 117:-1 118:1 119:1 122:1 123:1 124:-1 125:1 126:1 127:-1 128:-1 129:1 130:1 131:1 134:1 135:-1 136:-1 137:-1 138:-1 139:-1 140:-1 141:1 142:1 143:1 146:1 147:-1 148:-1 149:-1 150:-1 151:1 152:1 153:1 154:1 155:1 158:1 159:-1 160:1 161:1 162:1 163:1 164:1 165:1 166:1 167:1 170:1 171:1 172:1 176:1 177:1 178:1 179:1 
-1.020874275430971 -0.6690256191058054 0.5970382680484253 0.2236166466675806 0.8382595827886999 0.7755314736374394 0.6030284759079276 1.008179413650397 0.7680849280795032 0.4887575695914469 0.7211145878811837 0.8003424139795403 0.7078684427822278 0.6700991204167943 0.6444158908424367 0.5955241995529544 0.842993558097917 0.7701089156289095 10:1 11:1 14:1 15:1 16:1 18:1 19:1 20:1 21:1 22:1 23:1 26:1 27:1 28:-1 29:1 30:1 31:1 32:1 33:1 34:1 35:1 38:1 39:-1 40:-1 41:-1 42:-1 43:1 44:1 45:1 46:1 47:1 50:1 51:-1 52:-1 53:-1 54:1 55:-1 56:-1 57:1 58:1 59:1 62:1 63:-1 64:-1 65:1 66:1 67:1 68:1 69:-1 70:1 71:1 74:1 75:-1 76:-1 77:-1 78:-1 79:1 80:1 81:1 82:1 83:1 86:1 87:-1 88:-1 89:-1 90:-1 91:-1 92:1 93:1 94:1 95:1 98:1 99:-1 100:-1 101:1 102:1 103:-1 104:-1 105:1 106:1 107:1 110:1 111:-1 112:-1 113:1 114:1 115:1 116:-1 117:1 118:1 119:1 122:1 123:-1 124:-1 125:1 126:1 127:1 128:-1 129:-1 130:1 131:1 134:1 135:-1 136:-1 137:-1 138:-1 139:1 140:-1 141:-1 142:1 143:1 146:1 147:1 148:1 149:-1 150:-1 151:-1 152:-1 153:-1 154:1 155:1 158:1 159:1 160:1 161:1 162:1 163:-1 164:-1 165:-1 166:1 167:1 170:1 171:1 172:1 176:1 177:1 178:1 179:1 
-0 -0 0.02277647329095042 0.3934976231639141 0 0 0 0 0 0 0 0 0 0 0 0 0 0 10:1 11:1 14:1 15:1 16:1 18:1 19:1 20:1 21:1 22:1 23:1 26:1 27:1 28:1 29:1 30:-1 31:-1 32:-1 33:-1 34:-1 35:1 38:1 39:1 40:1 41:1 42:-1 43:-1 44:1 45:1 46:1 47:1 50:1 51:1 52:1 53:-1 54:-1 55:1 56:1 57:1 58:1 59:1 62:1 63:1 64:1 65:-1 66:-1 67:-1 68:-1 69:1 70:1 71:1 74:1 75:1 76:-1 77:-1 78:-1 79:-1 80:-1 81:-1 82:1 83:1 86:1 87:1 88:-1 89:-1 90:1 91:1 92:1 93:-1 94:-1 95:1 98:1 99:1 100:-1 101:-1 102:1 103:1 104:1 105:-1 106:-1 107:1 110:1 111:1 112:-1 113:-1 114:1 115:1 116:-1 117:-1 118:1 119:1 122:1 123:-1 124:-1 125:1 126:-1 127:-1 128:-1 129:-1 130:1 131:1 134:1 135:-1 136:-1 137:-1 138:-1 139:-1 140:-1 141:1 142:1 143:1 146:1 147:-1 148:-1 149:-1 150:1 151:1 152:1 153:1 154:1 155:1 158:1 159:1 160:1 161:1 162:1 163:1 164:1 165:1 166:1 167:1 170:1 171:1 172:1 176:1 177:1 178:1 179:1 
-0.6003162841892531 -0.4410247745341032 0.3047773264837164 0.3254283165668952 0.3743187856698324 0.4477082853815232 0.4852343170242942 0.2634025429413499 0.3474015613875764 0.3111981795956129 0.5325379282240363 0.2852653405667405 0.4079551540608533 0.3868405364296496 0.6372468407661891 0.3117207105387989 0.3096917406409571 0.4562692412558981 10:1 11:1 14:1 15:1 16:1 18:1 19:1 20:1 21:1 22:1 23:1 26:1 27:1 28:1 29:-1 30:-1 31:1 32:1 33:1 34:1 35:1 38:1 39:1 40:-1 41:-1 42:-1 43:-1 44:-1 45:-1 46:1 47:1 50:1 51:1 52:-1 53:-1 54:1 55:1 56:1 57:1 58:-1 59:1 62:1 63:-1 64:-1 65:-1 66:-1 67:1 68:1 69:1 70:1 71:1 74:1 75:-1 76:-1 77:-1 78:-1 79:-1 80:1 81:1 82:1 83:1 86:1 87:-1 88:-1 89:1 90:1 91:-1 92:-1 93:1 94:1 95:1 98:1 99:-1 100:-1 101:1 102:1 103:1 104:-1 105:-1 106:1 107:1 110:-1 111:-1 112:1 113:1 114:1 115:1 116:-1 117:-1 118:1 119:1 122:-1 123:-1 124:-1 125:-1 126:-1 127:-1 128:-1 129:1 130:1 131:1 134:-1 135:-1 136:-1 137:-1 138:-1 139:-1 140:-1 141:1 142:1 143:1 146:1 147:1 148:1 149:1 150:1 151:-1 152:1 153:1 154:1 155:1 158:1 159:1 160:1 161:1 162:1 163:1 164:1 165:1 166:1 167:1 170:1 171:1 172:1 176:1 177:1 178:1 179:1 
