svm_type c_svc
kernel_type rbf
gamma 0.00012207
nr_class 20
total_sv 363
rho -0.149965 0.197837 -0.0787976 -0.0814139 0.0500033 -0.0869843 0.0485785 -0.0304093 -0.199238 0.321894 -0.261601 -0.0265801 -0.0701575 0.347955 -0.102015 -0.117077 -0.0705095 -0.489246 0.105523 0.236018 -0.0479494 -0.128723 0.200515 -0.0108164 0.0806825 -0.0159176 -0.141736 0.400117 -0.207438 0.0103187 -0.00487338 0.476929 -0.0508124 -0.0188555 -0.025339 -0.401101 0.127436 -0.20546 -0.122267 -0.0264663 -0.188287 -0.0654786 -0.129829 -0.471923 0.244561 -0.313091 -0.30969 -0.400074 0.218285 -0.296195 -0.26334 -0.261863 -0.676869 -0.0699884 0.0515494 0.364359 0.0791332 0.222744 0.171624 -0.0697425 0.229275 -0.0705113 0.171287 0.217945 0.35254 0.0403475 0.0324539 0.0929126 -0.447922 0.339016 0.14682 0.00474049 0.0750432 0.067123 -0.21779 0.261395 -0.278967 0.0068097 -0.0399443 0.388171 -0.103439 -0.11538 -0.0336491 -0.473599 0.193571 -0.20697 0.0125535 -0.170235 -0.242951 0.184876 -0.293951 -0.081042 -0.344219 0.187499 -0.167316 -0.191202 -0.143419 -0.675958 0.13687 0.115656 0.00639494 -0.130194 0.308166 -0.166387 0.0855784 -0.0607564 0.376935 -0.0524806 -0.0163593 0.0201841 -0.473419 0.23204 -0.0577115 -0.353396 0.133272 -0.188826 -0.173197 -0.228932 0.146517 -0.304831 -0.338078 -0.114847 -0.634294 -0.180228 -0.130382 0.249288 -0.2077 0.00256714 -0.116813 0.292175 -0.0918735 -0.0630648 -0.0275857 -0.44521 0.119939 0.370246 -0.0642867 0.296503 0.0841008 0.357142 0.0963094 0.203206 0.236838 -0.419533 0.335786 -0.357149 -0.297613 -0.251093 -0.0158036 -0.363368 -0.491856 -0.29379 -0.517448 -0.110437 0.326976 0.0871394 0.470692 0.0741035 0.180939 0.188846 -0.317306 0.346895 -0.154777 0.285068 -0.163153 -0.079091 -0.0808687 -0.574384 0.143224 0.368281 -0.0228385 0.107399 0.146014 -0.771514 0.247978 -0.305476 -0.279263 -0.372679 -0.604896 -0.0966005 0.0579442 0.0873712 -0.3407 0.21348 0.0300134 -0.595006 0.161127 -0.611565 0.171517 0.632629
label 56 53 110 55 54 50 51 112 102 119 100 52 101 121 98 109 99 120 118 103
nr_sv 20 17 28 16 16 21 15 17 19 21 17 12 31 20 17 17 22 17 1 19
SV
26.44668678171406 9.685786356363282 22.10228819976878 71.93962030775393 34.60615087709058 41.83237049784044 8.151980571457358 48.23615863486164 30.35224110872402 37.69985471998166 29.27752735399639 26.59629173922738 13.47515071265021 29.14805054103178 9.064156732712453 12.50469375027761 40.98958589750055 14.65561170487863 30.13586681177447 14:1 15:1 16:1 18:1 19:1 20:1 21:1 22:1 23:1 26:1 27:1 28:1 29:1 30:1 31:1 32:-1 33:-1 34:-1 35:1 38:1 39:1 40:1 41:1 42:-1 43:-1 44:1 45:-1 46:-1 47:1 50:1 51:1 52:1 53:-1 54:-1 55:1 56:1 57:1 58:-1 59:1 62:1 63:1 64:1 65:-1 66:-1 67:1 68:-1 69:-1 70:1 71:1 74:1 75:1 76:1 77:-1 78:1 79:1 80:-1 81:-1 82:1 83:1 86:1 87:1 88:-1 89:-1 90:-1 91:-1 92:-1 93:-1 94:1 95:1 98:1 99:1 100:-1 101:-1 102:-1 103:-1 104:1 105:-1 106:-1 107:1 110:1 111:1 112:-1 113:-1 114:1 115:1 116:-1 117:-1 118:1 119:1 122:1 123:-1 124:-1 125:1 126:1 127:1 128:-1 129:-1 130:1 131:1 134:1 135:-1 136:1 137:1 138:-1 139:-1 140:-1 141:1 142:1 143:1 146:-1 147:-1 148:-1 149:-1 150:-1 151:-1 152:1 153:1 154:1 155:1 158:1 159:-1 160:-1 161:-1 162:1 163:1 164:1 165:1 166:1 167:1 170:1 171:1 172:1 176:1 177:1 178:1 179:1 
34.41780578871133 0 25.34059634587954 18.51707635949446 18.91321689994029 46.17995952325142 5.634268897163337 22.44153939654593 28.53769874872705 18.38350898630406 28.42617951088698 36.77510266077063 24.68509554082899 43.3359241009756 3.878648213220755 0 45.20307798201764 17.26489132284014 27.29952588763056 14:1 15:1 16:1 18:1 19:1 20:1 21:1 22:1 23:1 26:1 27:1 28:-1 29:-1 30:-1 31:-1 32:1 33:1 34:1 35:1 38:1 39:1 40:-1 41:-1 42:1 43:1 44:-1 45:-1 46:1 47:1 50:1 51:1 52:-1 53:-1 54:1 55:1 56:-1 57:-1 58:-1 59:1 62:1 63:1 64:-1 65:-1 66:1 67:1 68:1 69:-1 70:-1 71:1 74:1 75:1 76:-1 77:-1 78:-1 79:-1 80:-1 81:-1 82:1 83:1 86:1 87:1 88:-1 89:-1 90:-1 91:-1 92:-1 93:-1 94:1 95:1 98:1 99:-1 100:-1 101:1 102:1 103:1 104:-1 105:-1 106:1 107:1 110:1 111:-1 112:-1 113:1 114:1 115:1 116:1 117:-1 118:-1 119:1 122:1 123:1 124:-1 125:-1 126:-1 127:-1 128:1 129:-1 130:-1 131:1 134:1 135:1 136:-1 137:-1 138:-1 139:-1 140:-1 141:-1 142:-1 143:1 146:1 147:1 148:1 149:1 150:1 151:1 152:-1 153:-1 154:1 155:1 158:1 159:1 160:1 161:1 162:1 163:1 164:1 165:1 166:1 167:1 170:1 171:1 172:1 176:1 177:1 178:1 179:1 
17.07597245362305 35.54840067088736 0 0 15.74591004702712 0 11.37461247095233 0 1.427227918912553 7.379728931405955 5.925756025843844 0.1850272407971993 3.494064719939225 17.22046650707561 15.65322286663303 30.24541666985304 12.20277680811125 6.064754520168532 0 14:1 15:1 16:1 18:1 19:1 20:1 21:1 22:1 23:1 26:1 27:1 28:-1 29:-1 30:-1 31:-1 32:-1 33:1 34:1 35:1 38:1 39:1 40:-1 41:-1 42:1 43:1 44:-1 45:-1 46:1 47:1 50:1 51:1 52:-1 53:-1 54:1 55:1 56:1 57:-1 58:-1 59:1 62:1 63:1 64:-1 65:-1 66:1 67:1 68:-1 69:-1 70:-1 71:1 74:1 75:1 76:-1 77:-1 78:-1 79:-1 80:-1 81:-1 82:1 83:1 86:1 87:1 88:-1 89:-1 90:-1 91:-1 92:-1 93:-1 94:1 95:1 98:1 99:-1 100:-1 101:1 102:1 103:1 104:1 105:-1 106:1 107:1 110:1 111:-1 112:-1 113:1 114:1 115:1 116:1 117:-1 118:-1 119:1 122:1 123:1 124:-1 125:-1 126:-1 127:-1 128:-1 129:-1 130:-1 131:1 134:1 135:1 136:-1 137:-1 138:-1 139:-1 140:-1 141:-1 142:-1 143:1 146:1 147:1 148:1 149:1 150:1 151:1 152:1 153:-1 154:1 155:1 158:1 159:1 160:1 161:1 162:1 163:1 164:1 165:1 166:1 167:1 170:1 171:1 172:1 176:1 177:1 178:1 179:1 
0 0 0 0 2.938793514053097 12.77803570719966 0 6.058689945965877 0 0 0 0 0 0.9228660886280394 0 6.635547507654573 0 0 0 14:1 15:1 16:1 18:1 19:1 20:1 21:1 22:1 23:1 26:1 27:1 28:1 29:1 30:1 31:1 32:1 33:1 34:1 35:1 38:1 39:1 40:1 41:-1 42:-1 43:-1 44:-1 45:-1 46:-1 47:1 50:1 51:1 52:1 53:-1 54:-1 55:1 56:1 57:-1 58:-1 59:1 62:1 63:1 64:1 65:-1 66:-1 67:1 68:1 69:1 70:-1 71:1 74:1 75:1 76:-1 77:-1 78:1 79:1 80:-1 81:-1 82:1 83:1 86:1 87:1 88:-1 89:-1 90:-1 91:-1 92:-1 93:-1 94:1 95:1 98:1 99:1 100:-1 101:-1 102:-1 103:-1 104:-1 105:-1 106:1 107:1 110:1 111:-1 112:-1 113:1 114:1 115:1 116:1 117:-1 118:-1 119:1 122:1 123:-1 124:1 125:1 126:1 127:1 128:-1 129:-1 130:1 131:1 134:-1 135:-1 136:-1 137:-1 138:-1 139:-1 140:-1 141:-1 142:1 143:1 146:1 147:-1 148:-1 149:-1 150:-1 151:-1 152:-1 153:1 154:1 155:1 158:1 159:1 160:1 161:1 162:1 163:1 164:1 165:1 166:1 167:1 170:1 171:1 172:1 176:1 177:1 178:1 179:1 
39.6567615980137 0 0 0 6.620386525797023 20.90429122321104 0 0 0 0 0 0 0 0 0 0 0 0 0 14:1 15:1 16:1 18:1 19:1 20:1 21:1 22:1 23:1 26:1 27:1 28:1 29:1 30:1 31:1 32:-1 33:-1 34:-1 35:1 38:1 39:1 40:1 41:-1 42:-1 43:-1 44:-1 45:-1 46:-1 47:1 50:1 51:1 52:-1 53:-1 54:1 55:1 56:1 57:-1 58:1 59:1 62:1 63:1 64:-1 65:-1 66:1 67:1 68:-1 69:-1 70:1 71:1 74:1 75:1 76:-1 77:-1 78:1 79:1 80:-1 81:-1 82:1 83:1 86:1 87:1 88:-1 89:-1 90:-1 91:-1 92:-1 93:-1 94:-1 95:1 98:1 99:1 100:-1 101:-1 102:-1 103:-1 104:1 105:-1 106:-1 107:1 110:1 111:1 112:-1 113:1 114:1 115:1 116:1 117:-1 118:-1 119:1 122:1 123:-1 124:-1 125:1 126:1 127:1 128:-1 129:-1 130:1 131:1 134:1 135:-1 136:-1 137:-1 138:-1 139:-1 140:-1 141:-1 142:1 143:1 146:1 147:1 148:-1 149:-1 150:-1 151:-1 152:1 153:1 154:1 155:1 158:1 159:1 160:-1 161:1 162:1 163:1 164:1 165:1 166:1 167:1 170:1 171:1 172:1 176:1 177:1 178:1 179:1 
9.416477744729075 0 2.735478757314048 15.38339416048248 0 0 0 0 0 0 0 0 13.98050626289238 0 0 5.720480133034009 0 0 0 14:1 15:1 16:1 18:1 19:1 20:1 21:1 22:1 23:1 26:1 27:1 28:1 29:1 30:1 31:1 32:-1 33:-1 34:-1 35:1 38:1 39:1 40:1 41:-1 42:-1 43:-1 44:1 45:-1 46:-1 47:1 50:1 51:1 52:1 53:-1 54:-1 55:1 56:1 57:1 58:-1 59:1 62:1 63:1 64:1 65:-1 66:-1 67:1 68:-1 69:-1 70:1 71:1 74:1 75:1 76:-1 77:-1 78:1 79:1 80:-1 81:-1 82:1 83:1 86:1 87:1 88:-1 89:-1 90:-1 91:-1 92:-1 93:-1 94:1 95:1 98:1 99:1 100:-1 101:-1 102:-1 103:-1 104:1 105:-1 106:-1 107:1 110:1 111:-1 112:-1 113:1 114:1 115:1 116:-1 117:-1 118:1 119:1 122:-1 123:-1 124:1 125:1 126:1 127:1 128:-1 129:-1 130:1 131:1 134:1 135:-1 136:-1 137:-1 138:-1 139:-1 140:-1 141:1 142:1 143:1 146:1 147:-1 148:-1 149:-1 150:-1 151:-1 152:1 153:1 154:1 155:1 158:1 159:1 160:1 161:1 162:1 163:1 164:1 165:1 166:1 167:1 170:1 171:1 172:1 176:1 177:1 178:1 179:1 
66.36904797972173 25.01794228319324 0.529688210476972 73.88015445227741 16.95295651649501 17.52900173757687 20.98182755357568 18.85698803554583 7.255114024515549 12.62143322816338 17.72052501084671 36.21781468020526 6.132043299671089 16.63581857851361 15.89507904571106 25.07538119519478 27.06096258087742 11.48816509166617 18.27966563467484 14:1 15:1 16:1 18:1 19:1 20:1 21:1 22:1 23:1 26:1 27:1 28:1 29:1 30:-1 31:-1 32:-1 33:-1 34:-1 35:1 38:1 39:1 40:1 41:-1 42:-1 43:1 44:1 45:-1 46:-1 47:1 50:1 51:1 52:1 53:-1 54:-1 55:1 56:1 57:1 58:-1 59:1 62:1 63:1 64:1 65:-1 66:1 67:1 68:-1 69:-1 70:1 71:1 74:1 75:1 76:-1 77:-1 78:-1 79:-1 80:-1 81:-1 82:1 83:1 86:1 87:1 88:-1 89:-1 90:-1 91:-1 92:-1 93:-1 94:1 95:1 98:1 99:1 100:-1 101:-1 102:1 103:1 104:1 105:-1 106:-1 107:1 110:1 111:-1 112:-1 113:1 114:1 115:1 116:-1 117:-1 118:1 119:1 122:1 123:-1 124:1 125:1 126:-1 127:-1 128:-1 129:-1 130:1 131:1 134:-1 135:-1 136:-1 137:-1 138:-1 139:-1 140:-1 141:1 142:1 143:1 146:1 147:-1 148:-1 149:-1 150:1 151:1 152:1 153:1 154:1 155:1 158:1 159:1 160:1 161:1 162:1 163:1 164:1 165:1 166:1 167:1 170:1 171:1 172:1 176:1 177:1 178:1 179:1 
0 0 0 0 0 5.983791760760407 0 0 0 0 0 0 2.866611713093116 3.224937176812222 0 0 0 0 0 14:1 15:1 16:1 18:1 19:1 20:1 21:1 22:1 23:1 26:1 27:1 28:1 29:1 30:1 31:1 32:1 33:1 34:1 35:1 38:1 39:1 40:-1 41:-1 42:-1 43:-1 44:-1 45:-1 46:1 47:1 50:1 51:1 52:-1 53:-1 54:1 55:1 56:-1 57:-1 58:-1 59:1 62:1 63:1 64:-1 65:-1 66:1 67:1 68:1 69:-1 70:-1 71:1 74:1 75:1 76:-1 77:-1 78:1 79:1 80:-1 81:-1 82:1 83:1 86:1 87:1 88:-1 89:-1 90:-1 91:-1 92:-1 93:-1 94:1 95:1 98:1 99:1 100:-1 101:-1 102:-1 103:-1 104:-1 105:-1 106:1 107:1 110:1 111:1 112:-1 113:1 114:1 115:1 116:1 117:-1 118:-1 119:1 122:1 123:-1 124:-1 125:1 126:1 127:1 128:1 129:-1 130:-1 131:1 134:1 135:-1 136:-1 137:-1 138:-1 139:-1 140:-1 141:-1 142:-1 143:1 146:1 147:1 148:-1 149:-1 150:-1 151:-1 152:-1 153:-1 154:1 155:1 158:1 159:1 160:1 161:1 162:1 163:1 164:1 165:1 166:1 167:1 170:1 171:1 172:1 176:1 177:1 178:1 179:1 
0.02671856854850096 0 0 0 0 0 0 0 0 0 0 0 0 0 0 0 0 0 0 14:1 15:1 16:1 18:1 19:1 20:1 21:1 22:1 23:1 26:1 27:1 28:1 29:1 30:1 31:1 32:1 33:-1 34:1 35:1 38:1 39:1 40:1 41:1 42:1 43:-1 44:-1 45:-1 46:-1 47:1 50:1 51:1 52:-1 53:-1 54:-1 55:1 56:-1 57:-1 58:-1 59:1 62:1 63:1 64:-1 65:-1 66:1 67:1 68:1 69:-1 70:1 71:1 74:1 75:1 76:-1 77:-1 78:1 79:1 80:-1 81:-1 82:1 83:1 86:1 87:1 88:-1 89:-1 90:1 91:-1 92:-1 93:-1 94:1 95:1 98:1 99:1 100:-1 101:-1 102:-1 103:-1 104:-1 105:-1 106:-1 107:1 110:1 111:1 112:-1 113:-1 114:-1 115:1 116:1 117:-1 118:-1 119:1 122:1 123:1 124:-1 125:1 126:1 127:1 128:1 129:-1 130:-1 131:1 134:1 135:-1 136:-1 137:1 138:1 139:-1 140:-1 141:-1 142:1 143:1 146:1 147:-1 148:-1 149:-1 150:-1 151:-1 152:-1 153:1 154:1 155:1 158:1 159:1 160:-1 161:-1 162:-1 163:1 164:1 165:1 166:1 167:1 170:1 171:1 172:1 176:1 177:1 178:1 179:1 
0 0 0 0 0 0 0 0 0 0 0 0 0 0 0 0 0 0 8.139723494412262 14:1 15:1 16:1 18:1 19:1 20:1 21:1 22:1 23:1 26:1 27:1 28:1 29:1 30:1 31:-1 32:-1 33:-1 34:-1 35:1 38:1 39:1 40:-1 41:-1 42:-1 43:1 44:-1 45:-1 46:-1 47:1 50:1 51:1 52:-1 53:-1 54:1 55:1 56:1 57:-1 58:1 59:1 62:1 63:1 64:-1 65:-1 66:1 67:1 68:-1 69:-1 70:1 71:1 74:1 75:1 76:-1 77:-1 78:1 79:-1 80:-1 81:-1 82:1 83:1 86:1 87:1 88:-1 89:-1 90:-1 91:-1 92:-1 93:-1 94:-1 95:1 98:1 99:1 100:-1 101:-1 102:-1 103:1 104:1 105:-1 106:-1 107:1 110:1 111:-1 112:-1 113:1 114:1 115:1 116:1 117:-1 118:-1 119:1 122:1 123:-1 124:-1 125:1 126:1 127:-1 128:-1 129:-1 130:1 131:1 134:1 135:1 136:-1 137:-1 138:-1 139:-1 140:-1 141:-1 142:1 143:1 146:1 147:1 148:-1 149:-1 150:-1 151:1 152:1 153:1 154:1 155:1 158:1 159:1 160:1 161:1 162:1 163:1 164:1 165:1 166:1 167:1 170:1 171:1 172:1 176:1 177:1 178:1 179:1 
0.1583855744336462 0 0 0 0 0 0 0 0 0 0 0 0 0 0 0 0 0 0 14:1 15:1 16:1 18:1 19:1 20:1 21:1 22:1 23:1 26:1 27:1 28:1 29:1 30:-1 31:-1 32:-1 33:-1 34:-1 35:1 38:1 39:1 40:-1 41:-1 42:1 43:1 44:-1 45:-1 46:-1 47:1 50:1 51:1 52:-1 53:-1 54:1 55:1 56:1 57:-1 58:1 59:1 62:1 63:1 64:-1 65:-1 66:1 67:1 68:-1 69:-1 70:1 71:1 74:1 75:1 76:-1 77:-1 78:-1 79:-1 80:-1 81:-1 82:1 83:1 86:1 87:1 88:-1 89:-1 90:-1 91:-1 92:-1 93:-1 94:-1 95:1 98:1 99:1 100:-1 101:-1 102:1 103:1 104:1 105:-1 106:-1 107:1 110:1 111:-1 112:-1 113:1 114:1 115:1 116:1 117:-1 118:-1 119:1 122:1 123:-1 124:-1 125:1 126:-1 127:-1 128:-1 129:-1 130:1 131:1 134:1 135:1 136:-1 137:-1 138:-1 139:-1 140:-1 141:-1 142:1 143:1 146:1 147:1 148:-1 149:-1 150:1 151:1 152:1 153:1 154:1 155:1 158:1 159:1 160:1 161:1 162:1 163:1 164:1 165:1 166:1 167:1 170:1 171:1 172:1 176:1 177:1 178:1 179:1 
20.7240436355473 0 0 2.373356000708906 12.8095901080799 0 1.280545641450097 15.1768849776943 0 12.09468745729785 0 0 0 0 6.908909261988961 5.047808357134104 1.334398911706725 3.673899872931334 2.703321292784136 14:1 15:1 16:1 18:1 19:1 20:1 21:1 22:1 23:1 26:1 27:1 28:1 29:-1 30:-1 31:-1 32:1 33:1 34:1 35:1 38:1 39:1 40:1 41:-1 42:-1 43:1 44:-1 45:-1 46:-1 47:1 50:1 51:1 52:1 53:-1 54:-1 55:1 56:1 57:-1 58:-1 59:1 62:1 63:1 64:-1 65:-1 66:1 67:1 68:1 69:1 70:-1 71:-1 74:1 75:1 76:-1 77:-1 78:-1 79:-1 80:-1 81:-1 82:1 83:-1 86:1 87:1 88:-1 89:-1 90:-1 91:-1 92:-1 93:-1 94:1 95:1 98:1 99:-1 100:-1 101:1 102:1 103:1 104:-1 105:-1 106:1 107:1 110:-1 111:-1 112:1 113:1 114:1 115:1 116:1 117:-1 118:-1 119:1 122:1 123:-1 124:-1 125:-1 126:-1 127:-1 128:-1 129:-1 130:1 131:1 134:1 135:-1 136:-1 137:-1 138:-1 139:-1 140:-1 141:-1 142:1 143:1 146:1 147:1 148:1 149:1 150:1 151:1 152:-1 153:1 154:1 155:1 158:1 159:1 160:1 161:1 162:1 163:1 164:1 165:1 166:1 167:1 170:1 171:1 172:1 176:1 177:1 178:1 179:1 
0 8.730361925587609 0 0 0 0 0 0 0 0 0 0 3.26432759174188 8.43374148519549 0 0 1.664569252199926 0 0.3335414264907703 14:1 15:1 16:1 18:1 19:1 20:1 21:1 22:1 23:1 26:1 27:1 28:1 29:1 30:1 31:1 32:1 33:1 34:1 35:1 38:1 39:1 40:-1 41:-1 42:-1 43:-1 44:-1 45:-1 46:1 47:1 50:1 51:1 52:-1 53:-1 54:1 55:1 56:-1 57:-1 58:-1 59:1 62:1 63:1 64:-1 65:-1 66:1 67:1 68:1 69:-1 70:-1 71:1 74:1 75:1 76:-1 77:-1 78:1 79:1 80:-1 81:-1 82:1 83:1 86:1 87:1 88:-1 89:-1 90:-1 91:-1 92:-1 93:-1 94:1 95:1 98:1 99:1 100:-1 101:-1 102:-1 103:-1 104:-1 105:-1 106:1 107:1 110:1 111:-1 112:-1 113:1 114:1 115:1 116:1 117:-1 118:-1 119:1 122:1 123:-1 124:-1 125:1 126:1 127:1 128:1 129:-1 130:-1 131:1 134:-1 135:1 136:-1 137:-1 138:-1 139:-1 140:-1 141:-1 142:-1 143:1 146:-1 147:1 148:-1 149:-1 150:-1 151:-1 152:-1 153:-1 154:1 155:1 158:1 159:1 160:1 161:1 162:1 163:1 164:1 165:1 166:1 167:1 170:1 171:1 172:1 176:1 177:1 178:1 179:1 
66.12156626541244 29.81894464347606 13.8176768391451 53.59732818410211 17.4944237184026 11.83411043813692 33.28234934896075 16.55416200363309 25.4084366120612 23.23895479759286 26.79231504580886 55.9979121641697 10.80707687932926 8.809284282970799 23.89222643939217 30.87766655144876 11.08675352425774 3.632148630059297 31.60943854292625 14:1 15:1 16:1 18:1 19:1 20:1 21:1 22:1 23:1 26:1 27:1 28:1 29:-1 30:1 31:1 32:1 33:1 34:1 35:1 38:1 39:1 40:1 41:-1 42:-1 43:-1 44:-1 45:-1 46:1 47:1 50:1 51:1 52:1 53:-1 54:-1 55:1 56:1 57:-1 58:-1 59:1 62:1 63:1 64:-1 65:-1 66:-1 67:1 68:1 69:1 70:-1 71:-1 74:1 75:1 76:-1 77:-1 78:1 79:1 80:-1 81:-1 82:-1 83:-1 86:1 87:-1 88:-1 89:-1 90:-1 91:-1 92:-1 93:-1 94:1 95:1 98:-1 99:-1 100:-1 101:1 102:-1 103:-1 104:-1 105:-1 106:1 107:1 110:1 111:-1 112:1 113:1 114:1 115:1 116:1 117:-1 118:1 119:1 122:1 123:-1 124:-1 125:-1 126:1 127:1 128:-1 129:-1 130:-1 131:1 134:1 135:1 136:-1 137:-1 138:-1 139:-1 140:-1 141:-1 142:1 143:1 146:1 147:1 148:1 149:1 150:-1 151:-1 152:-1 153:1 154:1 155:1 158:1 159:1 160:1 161:1 162:1 163:1 164:1 165:1 166:1 167:1 170:1 171:1 172:1 176:1 177:1 178:1 179:1 
25.55431437924732 11.16392308134749 9.517165559750504 13.49988722884147 0 0 6.800889750833989 5.473351463379178 8.608508392354592 23.82386617776183 5.85097665091171 19.33637606115128 7.033546650409358 0 5.4516403949458 5.66482082085607 0.8750112511475872 0 0 14:1 15:1 16:1 18:1 19:1 20:1 21:1 22:1 23:1 26:1 27:1 28:1 29:1 30:-1 31:-1 32:-1 33:-1 34:-1 35:1 38:1 39:1 40:-1 41:-1 42:1 43:1 44:-1 45:-1 46:-1 47:1 50:1 51:1 52:-1 53:-1 54:1 55:1 56:1 57:-1 58:1 59:1 62:1 63:1 64:-1 65:-1 66:1 67:1 68:-1 69:-1 70:1 71:1 74:1 75:1 76:-1 77:-1 78:-1 79:-1 80:-1 81:-1 82:1 83:1 86:1 87:1 88:-1 89:-1 90:-1 91:-1 92:-1 93:-1 94:-1 95:1 98:1 99:1 100:-1 101:-1 102:1 103:1 104:1 105:-1 106:-1 107:1 110:1 111:-1 112:-1 113:1 114:1 115:1 116:1 117:-1 118:-1 119:1 122:1 123:-1 124:-1 125:1 126:-1 127:-1 128:-1 129:-1 130:1 131:1 134:1 135:1 136:-1 137:-1 138:-1 139:-1 140:-1 141:-1 142:1 143:1 146:1 147:1 148:-1 149:-1 150:1 151:1 152:1 153:1 154:1 155:1 158:1 159:1 160:1 161:1 162:1 163:1 164:1 165:1 166:1 167:1 170:1 171:1 172:1 176:1 177:1 178:1 179:1 
2.241638743645468 0 0 0 0 0 0 0 0 0 0 0 0 0 0.04284541557171832 0 0 0 0 14:1 15:1 16:1 18:1 19:1 20:1 21:1 22:1 23:1 26:1 27:1 28:1 29:1 30:1 31:1 32:1 33:-1 34:1 35:1 38:1 39:1 40:1 41:1 42:1 43:-1 44:-1 45:-1 46:-1 47:1 50:1 51:1 52:-1 53:-1 54:-1 55:1 56:-1 57:-1 58:-1 59:1 62:1 63:1 64:-1 65:-1 66:1 67:1 68:1 69:-1 70:1 71:1 74:1 75:1 76:-1 77:-1 78:1 79:1 80:-1 81:-1 82:1 83:1 86:1 87:1 88:-1 89:-1 90:1 91:-1 92:-1 93:-1 94:1 95:1 98:1 99:1 100:-1 101:-1 102:-1 103:-1 104:-1 105:-1 106:-1 107:1 110:1 111:1 112:-1 113:-1 114:-1 115:1 116:1 117:-1 118:-1 119:1 122:1 123:1 124:-1 125:1 126:1 127:1 128:1 129:-1 130:-1 131:1 134:1 135:-1 136:-1 137:1 138:1 139:-1 140:-1 141:-1 142:1 143:1 146:1 147:-1 148:-1 149:-1 150:-1 151:-1 152:-1 153:1 154:1 155:1 158:1 159:1 160:-1 161:-1 162:-1 163:1 164:1 165:1 166:1 167:1 170:1 171:1 172:1 176:1 177:1 178:1 179:1 
1.780985649416467 0 0 0 0 0 0 0 0 0 0 0 0 0 0 0 0 0 0 14:1 15:1 16:1 18:1 19:1 20:1 21:-1 22:1 23:1 26:1 27:1 28:1 29:1 30:1 31:-1 32:-1 33:-1 34:-1 35:1 38:1 39:1 40:1 41:-1 42:-1 43:1 44:-1 45:-1 46:-1 47:1 50:1 51:1 52:-1 53:-1 54:1 55:1 56:1 57:-1 58:1 59:1 62:1 63:1 64:-1 65:-1 66:1 67:1 68:-1 69:-1 70:1 71:1 74:1 75:1 76:-1 77:-1 78:1 79:-1 80:-1 81:-1 82:1 83:1 86:1 87:1 88:-1 89:-1 90:-1 91:-1 92:-1 93:-1 94:-1 95:1 98:1 99:1 100:-1 101:-1 102:-1 103:1 104:1 105:-1 106:-1 107:1 110:1 111:1 112:-1 113:1 114:1 115:1 116:1 117:-1 118:-1 119:1 122:1 123:-1 124:-1 125:1 126:1 127:-1 128:-1 129:-1 130:1 131:1 134:1 135:-1 136:-1 137:-1 138:-1 139:-1 140:-1 141:1 142:1 143:1 146:1 147:1 148:-1 149:-1 150:-1 151:1 152:1 153:1 154:1 155:1 158:1 159:1 160:-1 161:1 162:1 163:1 164:1 165:1 166:1 167:1 170:1 171:1 172:1 176:1 177:1 178:1 179:1 
0 0 0 0 0 0 0 0 0 0 0 0 0 3.51565794239735 0 0 0 0 0 14:1 15:1 16:1 18:1 19:1 20:1 21:1 22:1 23:1 26:1 27:1 28:1 29:1 30:1 31:-1 32:-1 33:-1 34:1 35:1 38:1 39:1 40:-1 41:-1 42:-1 43:1 44:-1 45:-1 46:-1 47:1 50:1 51:1 52:-1 53:-1 54:1 55:1 56:1 57:-1 58:-1 59:1 62:1 63:1 64:-1 65:-1 66:1 67:1 68:-1 69:-1 70:1 71:1 74:1 75:1 76:-1 77:-1 78:1 79:-1 80:-1 81:-1 82:1 83:1 86:1 87:1 88:-1 89:-1 90:-1 91:-1 92:-1 93:-1 94:1 95:1 98:1 99:1 100:-1 101:-1 102:-1 103:1 104:1 105:-1 106:-1 107:1 110:1 111:1 112:-1 113:1 114:1 115:1 116:1 117:-1 118:-1 119:1 122:1 123:-1 124:-1 125:1 126:1 127:-1 128:-1 129:-1 130:-1 131:1 134:1 135:-1 136:-1 137:-1 138:-1 139:-1 140:-1 141:-1 142:1 143:1 146:1 147:1 148:-1 149:-1 150:-1 151:1 152:1 153:1 154:1 155:1 158:1 159:1 160:1 161:1 162:1 163:1 164:1 165:1 166:1 167:1 170:1 171:1 172:1 176:1 177:1 178:1 179:1 
24.97385378931915 39.09471869164818 18.62905573736956 0 38.50247958494794 14.97262873069196 22.17187942866476 5.912991448031031 6.963665149535066 22.61479186549412 16.95153090264936 11.36717290911515 21.57250996408165 14.92631831132848 8.629350219126701 17.28966900192308 24.55683382548225 12.32266100428161 25.43871369771805 14:1 15:1 16:1 18:1 19:1 20:1 21:1 22:1 23:1 26:1 27:1 28:1 29:1 30:1 31:1 32:1 33:-1 34:1 35:1 38:1 39:1 40:1 41:1 42:1 43:-1 44:-1 45:-1 46:-1 47:1 50:1 51:1 52:-1 53:-1 54:-1 55:1 56:-1 57:-1 58:-1 59:1 62:1 63:1 64:-1 65:-1 66:1 67:1 68:1 69:-1 70:1 71:1 74:1 75:1 76:-1 77:-1 78:1 79:1 80:-1 81:-1 82:1 83:1 86:1 87:1 88:-1 89:-1 90:1 91:-1 92:-1 93:-1 94:1 95:1 98:1 99:1 100:-1 101:-1 102:-1 103:-1 104:-1 105:-1 106:-1 107:1 110:1 111:1 112:-1 113:-1 114:-1 115:1 116:1 117:-1 118:-1 119:1 122:1 123:1 124:-1 125:1 126:1 127:1 128:1 129:-1 130:-1 131:1 134:1 135:-1 136:-1 137:1 138:1 139:-1 140:-1 141:-1 142:1 143:1 146:1 147:-1 148:-1 149:-1 150:-1 151:-1 152:-1 153:1 154:1 155:1 158:1 159:1 160:-1 161:-1 162:-1 163:1 164:1 165:1 166:1 167:1 170:1 171:1 172:1 176:1 177:1 178:1 179:1 
18.1042042457655 6.203606874567607 5.684571451546975 31.21275062015914 5.98436512948474 12.99616607508218 10.89673821889791 0 0 0 0 0 18.15141299270876 0 0 0 0 0 0 14:1 15:1 16:1 18:1 19:1 20:1 21:-1 22:1 23:1 26:1 27:1 28:1 29:1 30:1 31:-1 32:-1 33:-1 34:-1 35:1 38:1 39:1 40:1 41:-1 42:-1 43:1 44:-1 45:-1 46:-1 47:1 50:1 51:1 52:-1 53:-1 54:1 55:1 56:1 57:-1 58:1 59:1 62:1 63:1 64:-1 65:-1 66:1 67:1 68:-1 69:-1 70:1 71:1 74:1 75:1 76:-1 77:-1 78:1 79:-1 80:-1 81:-1 82:1 83:1 86:1 87:1 88:-1 89:-1 90:-1 91:-1 92:-1 93:-1 94:-1 95:1 98:1 99:1 100:-1 101:-1 102:-1 103:1 104:1 105:-1 106:-1 107:1 110:1 111:1 112:-1 113:1 114:1 115:1 116:1 117:-1 118:-1 119:1 122:1 123:-1 124:-1 125:1 126:1 127:-1 128:-1 129:-1 130:1 131:1 134:1 135:-1 136:-1 137:-1 138:-1 139:-1 140:-1 141:1 142:1 143:1 146:1 147:1 148:-1 149:-1 150:-1 151:1 152:1 153:1 154:1 155:1 158:1 159:1 160:-1 161:1 162:1 163:1 164:1 165:1 166:1 167:1 170:1 171:1 172:1 176:1 177:1 178:1 179:1 
-24.91234399828824 21.73390233672627 0 14.14263158198585 19.79679951411121 6.496969652066538 13.11195294598554 14.92473396002505 0 1.540442165010356 21.51152970606018 13.43012491240738 0 12.83729592663289 3.134536656571707 12.4573697871158 7.092237543032913 8.232254776238792 15.1687303019805 14:1 15:1 16:1 18:1 19:1 20:1 21:1 22:1 23:1 26:1 27:1 28:1 29:-1 30:-1 31:1 32:1 33:1 34:1 35:1 38:1 39:1 40:1 41:-1 42:-1 43:-1 44:-1 45:-1 46:1 47:1 50:1 51:1 52:1 53:-1 54:-1 55:-1 56:-1 57:-1 58:-1 59:1 62:1 63:1 64:-1 65:-1 66:-1 67:1 68:1 69:1 70:-1 71:1 74:1 75:1 76:-1 77:-1 78:-1 79:-1 80:-1 81:-1 82:1 83:1 86:1 87:1 88:-1 89:1 90:1 91:-1 92:-1 93:-1 94:1 95:1 98:1 99:1 100:1 101:1 102:1 103:1 104:1 105:-1 106:-1 107:1 110:1 111:1 112:1 113:1 114:1 115:1 116:1 117:-1 118:-1 119:1 122:1 123:-1 124:-1 125:-1 126:-1 127:1 128:-1 129:-1 130:-1 131:1 134:-1 135:-1 136:-1 137:-1 138:-1 139:-1 140:-1 141:-1 142:1 143:1 146:1 147:1 148:1 149:1 150:1 151:-1 152:-1 153:1 154:1 155:1 158:1 159:1 160:1 161:1 162:1 163:1 164:1 165:1 166:1 167:1 170:1 171:1 172:1 176:1 177:1 178:1 179:1 
-81.1516569449787 18.79416719459474 10.7894484155111 22.49358217096508 0 17.29460124857905 22.74576016088891 22.9989243554849 24.22675959013178 47.0846600772107 14.05207947700694 43.10622055816062 4.687519023301002 2.525182150921615 25.72387357500841 42.6405009563826 18.17899116831837 2.936422293434555 16.79174985494518 14:1 15:1 16:1 18:1 19:1 20:1 21:1 22:1 23:1 26:1 27:1 28:1 29:-1 30:1 31:1 32:1 33:1 34:1 35:1 38:1 39:1 40:1 41:-1 42:-1 43:-1 44:-1 45:-1 46:1 47:1 50:1 51:1 52:1 53:-1 54:-1 55:-1 56:-1 57:-1 58:-1 59:1 62:1 63:1 64:-1 65:-1 66:-1 67:1 68:1 69:1 70:-1 71:1 74:1 75:1 76:-1 77:-1 78:-1 79:-1 80:-1 81:-1 82:1 83:1 86:1 87:1 88:-1 89:1 90:-1 91:-1 92:-1 93:-1 94:1 95:1 98:1 99:1 100:1 101:1 102:1 103:1 104:1 105:-1 106:-1 107:1 110:1 111:-1 112:1 113:1 114:1 115:1 116:1 117:-1 118:-1 119:1 122:-1 123:-1 124:-1 125:-1 126:1 127:1 128:-1 129:-1 130:-1 131:1 134:1 135:1 136:-1 137:-1 138:-1 139:-1 140:-1 141:-1 142:1 143:1 146:1 147:1 148:1 149:1 150:-1 151:-1 152:-1 153:1 154:1 155:1 158:1 159:1 160:1 161:1 162:1 163:1 164:1 165:1 166:1 167:1 170:1 171:1 172:1 176:1 177:1 178:1 179:1 
-3.338890137855898 0 0 0 0 0 0 0 0 2.95436546706702 0 0 0 0 0 0 0 0 0 14:1 15:1 16:1 18:1 19:1 20:1 21:1 22:1 23:1 26:1 27:1 28:1 29:1 30:-1 31:-1 32:-1 33:-1 34:1 35:1 38:1 39:1 40:-1 41:-1 42:-1 43:-1 44:-1 45:-1 46:1 47:1 50:1 51:1 52:-1 53:-1 54:1 55:1 56:1 57:1 58:1 59:1 62:1 63:1 64:-1 65:-1 66:-1 67:-1 68:-1 69:-1 70:-1 71:1 74:1 75:1 76:-1 77:-1 78:-1 79:-1 80:-1 81:-1 82:-1 83:1 86:1 87:1 88:-1 89:-1 90:1 91:1 92:1 93:-1 94:-1 95:1 98:1 99:1 100:-1 101:1 102:1 103:1 104:1 105:-1 106:-1 107:1 110:1 111:1 112:1 113:1 114:1 115:1 116:1 117:-1 118:-1 119:1 122:1 123:1 124:1 125:1 126:-1 127:-1 128:-1 129:-1 130:1 131:1 134:1 135:1 136:-1 137:-1 138:-1 139:-1 140:-1 141:-1 142:1 143:1 146:1 147:-1 148:-1 149:-1 150:1 151:1 152:1 153:1 154:1 155:1 158:1 159:1 160:1 161:1 162:1 163:1 164:1 165:1 166:1 167:1 170:1 171:1 172:1 176:1 177:1 178:1 179:1 
-0 0 3.057452424474184 0 15.80636537505155 37.12067857252048 0 1.412153234429681 0.8437864469706845 14.00448598832922 15.07481730626341 0 0 37.34227197913951 0 0 0 0 6.310954406744624 14:1 15:1 16:1 18:1 19:1 20:1 21:1 22:1 23:1 26:1 27:1 28:-1 29:-1 30:-1 31:-1 32:1 33:1 34:1 35:1 38:1 39:1 40:-1 41:-1 42:-1 43:-1 44:-1 45:-1 46:1 47:1 50:1 51:1 52:-1 53:-1 54:1 55:1 56:-1 57:-1 58:1 59:1 62:1 63:1 64:-1 65:-1 66:-1 67:-1 68:1 69:1 70:1 71:1 74:1 75:1 76:-1 77:-1 78:-1 79:-1 80:-1 81:-1 82:1 83:1 86:1 87:1 88:-1 89:1 90:1 91:1 92:-1 93:-1 94:-1 95:1 98:1 99:1 100:1 101:1 102:1 103:1 104:1 105:-1 106:-1 107:1 110:1 111:1 112:1 113:1 114:1 115:1 116:1 117:-1 118:-1 119:1 122:1 123:1 124:-1 125:-1 126:-1 127:-1 128:1 129:-1 130:-1 131:1 134:1 135:-1 136:-1 137:-1 138:-1 139:-1 140:-1 141:-1 142:-1 143:1 146:1 147:1 148:1 149:1 150:1 151:1 152:-1 153:-1 154:1 155:1 158:1 159:1 160:1 161:1 162:1 163:1 164:1 165:1 166:1 167:1 170:1 171:1 172:1 176:1 177:1 178:1 179:1 
-35.02559036887509 17.32309033750459 26.06185773787773 38.36845151926242 30.50771497215179 42.59173710872977 9.692001674212593 26.60322400706047 7.068157988358778 7.775152595790818 23.10346643655538 16.10785850210706 30.21183549844462 51.72504047685421 10.0619705004062 10.93649862807756 28.68918248360093 13.1507344472736 10.63293611548032 14:1 15:1 16:1 18:1 19:1 20:1 21:1 22:1 23:1 26:1 27:1 28:-1 29:1 30:1 31:1 32:1 33:1 34:1 35:1 38:1 39:1 40:-1 41:-1 42:-1 43:-1 44:1 45:1 46:1 47:1 50:1 51:1 52:-1 53:-1 54:-1 55:-1 56:-1 57:-1 58:1 59:1 62:1 63:1 64:-1 65:-1 66:1 67:1 68:-1 69:-1 70:1 71:1 74:1 75:1 76:-1 77:-1 78:-1 79:-1 80:1 81:1 82:1 83:1 86:1 87:1 88:-1 89:-1 90:-1 91:-1 92:-1 93:-1 94:1 95:1 98:1 99:1 100:1 101:1 102:1 103:1 104:-1 105:-1 106:-1 107:1 110:1 111:1 112:1 113:1 114:1 115:1 116:1 117:-1 118:-1 119:1 122:1 123:1 124:-1 125:1 126:1 127:1 128:1 129:-1 130:-1 131:1 134:1 135:-1 136:-1 137:-1 138:-1 139:-1 140:1 141:-1 142:-1 143:1 146:1 147:1 148:1 149:-1 150:-1 151:-1 152:-1 153:-1 154:-1 155:1 158:1 159:1 160:1 161:1 162:1 163:1 164:-1 165:-1 166:1 167:1 170:1 171:1 172:1 176:1 177:1 178:1 179:1 
-0 0 9.890582635173649 0 4.564516510289636 0 0 0 0 0 0 0 4.087745998343396 0 0 0 0 0 0 14:1 15:1 16:1 18:1 19:1 20:1 21:1 22:1 23:1 26:1 27:1 28:-1 29:-1 30:-1 31:1 32:1 33:1 34:1 35:1 38:1 39:1 40:-1 41:-1 42:-1 43:-1 44:-1 45:-1 46:1 47:1 50:1 51:1 52:-1 53:-1 54:1 55:-1 56:-1 57:-1 58:1 59:1 62:1 63:1 64:-1 65:-1 66:-1 67:1 68:1 69:1 70:1 71:1 74:1 75:1 76:-1 77:-1 78:-1 79:-1 80:-1 81:-1 82:1 83:1 86:1 87:1 88:-1 89:1 90:1 91:-1 92:-1 93:-1 94:1 95:1 98:1 99:1 100:1 101:1 102:1 103:1 104:1 105:-1 106:-1 107:1 110:1 111:1 112:1 113:1 114:1 115:1 116:1 117:-1 118:-1 119:1 122:1 123:1 124:-1 125:-1 126:-1 127:1 128:1 129:-1 130:-1 131:1 134:1 135:-1 136:-1 137:-1 138:-1 139:-1 140:-1 141:-1 142:-1 143:1 146:1 147:1 148:1 149:1 150:1 151:-1 152:-1 153:-1 154:-1 155:1 158:1 159:1 160:1 161:1 162:1 163:1 164:1 165:1 166:1 167:1 170:1 171:1 172:1 176:1 177:1 178:1 179:1 
-0 0 0 0 0 0 0 0 0 0 0 0 0 0.7321548363100014 0 0 0 0 0 14:1 15:1 16:1 18:1 19:1 20:1 21:1 22:1 23:1 26:1 27:1 28:1 29:1 30:1 31:-1 32:-1 33:-1 34:1 35:1 38:1 39:1 40:-1 41:-1 42:-1 43:-1 44:-1 45:-1 46:1 47:1 50:1 51:1 52:-1 53:-1 54:-1 55:1 56:1 57:1 58:1 59:1 62:1 63:1 64:-1 65:-1 66:1 67:-1 68:-1 69:-1 70:-1 71:1 74:1 75:1 76:-1 77:-1 78:-1 79:-1 80:-1 81:-1 82:-1 83:1 86:1 87:1 88:-1 89:-1 90:-1 91:1 92:1 93:-1 94:-1 95:1 98:1 99:1 100:-1 101:1 102:1 103:1 104:1 105:-1 106:-1 107:1 110:1 111:1 112:1 113:1 114:1 115:1 116:1 117:-1 118:-1 119:1 122:1 123:1 124:1 125:1 126:1 127:-1 128:-1 129:-1 130:1 131:1 134:1 135:1 136:-1 137:-1 138:-1 139:-1 140:-1 141:-1 142:1 143:1 146:1 147:-1 148:-1 149:-1 150:-1 151:1 152:1 153:1 154:1 155:1 158:1 159:1 160:1 161:1 162:1 163:1 164:1 165:1 166:1 167:1 170:1 171:1 172:1 176:1 177:1 178:1 179:1 
-74.33167012188484 3.545359977571142 0 49.27369600938269 6.066595085053053 5.527967204685217 2.733957370229932 21.79149894733034 0 34.03189897228699 31.64546586197406 17.81384110751104 4.163979340870162 0 0 24.74840277721703 0 6.535175265920598 1.213798347631928 14:1 15:1 16:1 18:1 19:1 20:1 21:1 22:1 23:1 26:1 27:1 28:1 29:1 30:-1 31:-1 32:-1 33:-1 34:-1 35:1 38:1 39:1 40:1 41:-1 42:-1 43:-1 44:-1 45:-1 46:-1 47:1 50:1 51:1 52:1 53:-1 54:-1 55:1 56:1 57:1 58:1 59:1 62:1 63:1 64:1 65:-1 66:-1 67:-1 68:-1 69:-1 70:1 71:1 74:1 75:1 76:-1 77:-1 78:-1 79:-1 80:-1 81:-1 82:-1 83:1 86:1 87:1 88:-1 89:-1 90:1 91:1 92:1 93:-1 94:-1 95:1 98:1 99:1 100:-1 101:1 102:1 103:1 104:1 105:-1 106:-1 107:1 110:1 111:1 112:1 113:1 114:1 115:1 116:-1 117:-1 118:1 119:1 122:1 123:1 124:1 125:1 126:-1 127:-1 128:-1 129:-1 130:1 131:1 134:1 135:-1 136:-1 137:-1 138:-1 139:-1 140:-1 141:1 142:1 143:1 146:1 147:-1 148:-1 149:-1 150:1 151:1 152:1 153:1 154:1 155:1 158:-1 159:1 160:1 161:1 162:1 163:1 164:1 165:1 166:1 167:1 170:1 171:1 172:1 176:1 177:1 178:1 179:1 
-0 46.71243589228877 32.56317943606094 30.93550003392091 20.19925677524393 5.113551996184808 29.87860040201629 10.20425471215734 22.98632328326147 0.03430090037635764 0 23.01723592673951 29.15148145217135 18.16130074066319 13.03943013716134 27.0168857190339 15.25338135742614 22.34348303750643 16.69751337778107 14:1 15:1 16:1 18:1 19:1 20:-1 21:-1 22:1 23:1 26:1 27:1 28:1 29:1 30:-1 31:-1 32:-1 33:-1 34:1 35:1 38:1 39:1 40:-1 41:-1 42:-1 43:-1 44:1 45:1 46:1 47:1 50:1 51:1 52:-1 53:-1 54:1 55:1 56:-1 57:-1 58:1 59:1 62:1 63:1 64:-1 65:-1 66:-1 67:-1 68:-1 69:-1 70:-1 71:1 74:1 75:1 76:-1 77:-1 78:-1 79:-1 80:1 81:-1 82:-1 83:1 86:1 87:1 88:-1 89:-1 90:1 91:1 92:1 93:-1 94:-1 95:1 98:1 99:1 100:-1 101:1 102:1 103:1 104:1 105:-1 106:-1 107:1 110:1 111:1 112:1 113:1 114:1 115:1 116:-1 117:-1 118:-1 119:1 122:1 123:1 124:1 125:1 126:-1 127:-1 128:-1 129:-1 130:1 131:1 134:1 135:1 136:-1 137:-1 138:-1 139:-1 140:1 141:1 142:1 143:1 146:1 147:1 148:-1 149:-1 150:1 151:1 152:1 153:1 154:1 155:1 158:1 159:-1 160:1 161:1 162:1 163:1 164:1 165:1 166:1 167:1 170:1 171:1 172:1 176:1 177:1 178:1 179:1 
-0 0 16.24289448262522 53.40686649061341 30.26608925381752 58.55334680559866 0 34.92700550768959 10.26674447722634 4.876769065534614 11.06334043681222 0 15.03072590476375 22.02013547687563 0 1.216696703097397 7.322068476661235 0 19.12073319405381 14:1 15:1 16:1 18:1 19:1 20:1 21:1 22:1 23:1 26:1 27:1 28:1 29:1 30:1 31:1 32:-1 33:-1 34:-1 35:1 38:1 39:1 40:1 41:-1 42:-1 43:-1 44:-1 45:-1 46:-1 47:1 50:1 51:1 52:1 53:-1 54:-1 55:-1 56:1 57:1 58:1 59:1 62:1 63:1 64:1 65:-1 66:-1 67:1 68:-1 69:-1 70:1 71:1 74:1 75:1 76:1 77:-1 78:-1 79:-1 80:-1 81:-1 82:-1 83:1 86:1 87:1 88:-1 89:-1 90:-1 91:-1 92:1 93:-1 94:-1 95:1 98:1 99:1 100:-1 101:1 102:1 103:1 104:1 105:-1 106:-1 107:1 110:1 111:1 112:-1 113:1 114:1 115:1 116:-1 117:-1 118:1 119:1 122:1 123:1 124:1 125:1 126:1 127:1 128:-1 129:-1 130:1 131:1 134:1 135:1 136:1 137:-1 138:-1 139:-1 140:-1 141:1 142:1 143:1 146:1 147:-1 148:-1 149:-1 150:-1 151:-1 152:1 153:1 154:1 155:1 158:-1 159:-1 160:-1 161:1 162:1 163:1 164:1 165:1 166:1 167:1 170:1 171:1 172:1 176:1 177:1 178:1 179:1 
-29.31213984593324 5.327052911221334 0 19.65544814280096 0 8.934996010409048 0 0 0 7.782238932010475 0 0 0 14.86620900750427 0 0 3.908053849390638 0 0 14:1 15:1 16:1 18:1 19:1 20:1 21:1 22:1 23:1 26:1 27:1 28:1 29:1 30:1 31:1 32:1 33:1 34:1 35:1 38:1 39:1 40:1 41:-1 42:-1 43:-1 44:-1 45:-1 46:-1 47:1 50:1 51:1 52:1 53:-1 54:-1 55:-1 56:-1 57:-1 58:-1 59:1 62:1 63:1 64:1 65:-1 66:-1 67:1 68:1 69:1 70:1 71:1 74:1 75:1 76:-1 77:-1 78:-1 79:-1 80:-1 81:-1 82:1 83:1 86:1 87:1 88:-1 89:-1 90:-1 91:-1 92:-1 93:-1 94:-1 95:1 98:1 99:1 100:-1 101:1 102:1 103:1 104:1 105:-1 106:-1 107:1 110:1 111:1 112:1 113:1 114:1 115:1 116:1 117:-1 118:-1 119:1 122:1 123:1 124:1 125:1 126:1 127:1 128:-1 129:-1 130:1 131:1 134:1 135:-1 136:-1 137:-1 138:-1 139:-1 140:-1 141:-1 142:1 143:1 146:-1 147:-1 148:-1 149:-1 150:-1 151:-1 152:-1 153:1 154:1 155:1 158:1 159:1 160:1 161:1 162:1 163:1 164:1 165:1 166:1 167:1 170:1 171:1 172:1 176:1 177:1 178:1 179:1 
-53.81328287984761 31.04396913031039 7.7025092186172 22.50038789987591 0 0 12.03743074557561 1.855003032419424 14.42781935457859 34.83175021814604 14.51716468446224 20.93762973392468 5.515168251450629 0 7.864635841912057 3.495618632611938 17.81676843213265 6.386451470593093 0 14:1 15:1 16:1 18:1 19:1 20:1 21:1 22:1 23:1 26:1 27:1 28:1 29:1 30:1 31:1 32:-1 33:-1 34:1 35:1 38:1 39:1 40:1 41:1 42:-1 43:-1 44:-1 45:-1 46:1 47:1 50:1 51:1 52:-1 53:-1 54:-1 55:-1 56:1 57:1 58:1 59:1 62:1 63:1 64:-1 65:-1 66:1 67:1 68:-1 69:-1 70:1 71:1 74:1 75:1 76:-1 77:-1 78:-1 79:-1 80:-1 81:-1 82:-1 83:1 86:1 87:1 88:-1 89:-1 90:-1 91:-1 92:1 93:-1 94:-1 95:1 98:1 99:1 100:-1 101:-1 102:1 103:1 104:1 105:-1 106:-1 107:1 110:1 111:1 112:-1 113:1 114:1 115:1 116:1 117:-1 118:-1 119:1 122:1 123:1 124:1 125:1 126:1 127:1 128:-1 129:-1 130:-1 131:1 134:1 135:1 136:1 137:1 138:-1 139:-1 140:-1 141:-1 142:1 143:1 146:1 147:1 148:-1 149:-1 150:-1 151:-1 152:1 153:1 154:1 155:1 158:1 159:-1 160:-1 161:-1 162:1 163:1 164:1 165:1 166:1 167:1 170:1 171:1 172:1 176:1 177:1 178:1 179:1 
-0 0 0 0 0 4.327462281574267 0 0 0 0 0 0 0 17.98291580765598 0 0 0 0 0 14:1 15:1 16:1 18:1 19:1 20:1 21:1 22:1 23:1 26:1 27:1 28:1 29:-1 30:-1 31:-1 32:-1 33:-1 34:1 35:1 38:1 39:1 40:-1 41:-1 42:-1 43:-1 44:-1 45:-1 46:1 47:1 50:1 51:1 52:-1 53:-1 54:1 55:1 56:1 57:1 58:1 59:1 62:1 63:1 64:-1 65:-1 66:-1 67:-1 68:-1 69:-1 70:1 71:1 74:1 75:1 76:-1 77:-1 78:-1 79:-1 80:-1 81:-1 82:-1 83:1 86:1 87:1 88:-1 89:1 90:1 91:1 92:1 93:-1 94:-1 95:1 98:1 99:1 100:-1 101:1 102:1 103:1 104:1 105:-1 106:-1 107:1 110:1 111:1 112:1 113:1 114:1 115:1 116:1 117:-1 118:-1 119:1 122:1 123:1 124:1 125:-1 126:-1 127:-1 128:-1 129:-1 130:-1 131:1 134:1 135:1 136:-1 137:-1 138:-1 139:-1 140:-1 141:-1 142:1 143:1 146:1 147:-1 148:-1 149:1 150:1 151:1 152:1 153:1 154:1 155:1 158:1 159:1 160:1 161:1 162:1 163:1 164:1 165:1 166:1 167:1 170:1 171:1 172:1 176:1 177:1 178:1 179:1 
-0 0 0 0 0 0 0 0 0 0 0 0 0.4596083342409418 0 0 0 0 0 0 14:1 15:1 16:1 18:1 19:1 20:1 21:1 22:1 23:1 26:1 27:1 28:1 29:1 30:1 31:1 32:1 33:1 34:1 35:1 38:1 39:1 40:-1 41:-1 42:-1 43:-1 44:-1 45:-1 46:1 47:1 50:1 51:1 52:-1 53:-1 54:-1 55:-1 56:-1 57:-1 58:1 59:1 62:1 63:1 64:-1 65:-1 66:1 67:1 68:1 69:1 70:1 71:1 74:1 75:1 76:-1 77:-1 78:-1 79:-1 80:-1 81:-1 82:1 83:1 86:1 87:1 88:-1 89:-1 90:-1 91:-1 92:-1 93:-1 94:-1 95:1 98:1 99:1 100:-1 101:1 102:1 103:1 104:1 105:-1 106:-1 107:1 110:1 111:1 112:1 113:1 114:1 115:1 116:1 117:-1 118:-1 119:1 122:1 123:1 124:1 125:1 126:1 127:1 128:1 129:-1 130:-1 131:1 134:1 135:1 136:-1 137:-1 138:-1 139:-1 140:-1 141:-1 142:-1 143:1 146:1 147:-1 148:-1 149:-1 150:-1 151:-1 152:-1 153:-1 154:1 155:1 158:1 159:1 160:1 161:1 162:1 163:1 164:1 165:1 166:1 167:1 170:1 171:1 172:1 176:1 177:1 178:1 179:1 
-0 0 0 0 0 19.0016265265853 0 0 0 0 0 0 0 0 0 0 0 0 0 14:1 15:1 16:1 18:1 19:1 20:1 21:-1 22:1 23:1 26:1 27:1 28:1 29:1 30:1 31:-1 32:-1 33:-1 34:1 35:1 38:1 39:1 40:-1 41:-1 42:-1 43:-1 44:-1 45:1 46:1 47:1 50:1 51:1 52:-1 53:-1 54:-1 55:1 56:1 57:-1 58:1 59:1 62:1 63:1 64:-1 65:-1 66:1 67:-1 68:-1 69:-1 70:-1 71:1 74:1 75:1 76:-1 77:-1 78:-1 79:-1 80:-1 81:-1 82:-1 83:1 86:1 87:1 88:-1 89:-1 90:-1 91:1 92:1 93:-1 94:-1 95:1 98:1 99:1 100:-1 101:1 102:1 103:1 104:1 105:-1 106:-1 107:1 110:1 111:1 112:1 113:1 114:1 115:1 116:1 117:-1 118:-1 119:1 122:1 123:1 124:1 125:1 126:1 127:-1 128:-1 129:-1 130:1 131:1 134:1 135:1 136:-1 137:-1 138:-1 139:-1 140:-1 141:1 142:1 143:1 146:1 147:1 148:-1 149:-1 150:-1 151:1 152:1 153:1 154:1 155:1 158:1 159:-1 160:1 161:1 162:1 163:1 164:1 165:1 166:1 167:1 170:1 171:1 172:1 176:1 177:1 178:1 179:1 
-22.76080313962196 16.71903718157552 13.42398049357146 45.05471278213786 26.10897033103023 0.5164438339682292 26.60200755982317 9.519749925402678 13.80758549631389 13.4439349596274 5.742306699486822 8.441387789157215 17.9284819782134 10.04166195822119 27.37801399273517 12.49223777588385 17.27750416343898 1.995237300237895 15.06538823074674 14:1 15:1 16:1 18:1 19:1 20:1 21:1 22:1 23:1 26:1 27:1 28:1 29:-1 30:-1 31:-1 32:-1 33:-1 34:-1 35:1 38:1 39:1 40:1 41:-1 42:-1 43:-1 44:-1 45:-1 46:-1 47:1 50:1 51:1 52:1 53:-1 54:-1 55:1 56:1 57:1 58:1 59:1 62:1 63:1 64:-1 65:-1 66:-1 67:-1 68:-1 69:-1 70:1 71:1 74:1 75:1 76:-1 77:-1 78:-1 79:-1 80:-1 81:-1 82:-1 83:1 86:1 87:1 88:-1 89:1 90:1 91:1 92:1 93:-1 94:-1 95:1 98:1 99:1 100:1 101:1 102:1 103:1 104:1 105:-1 106:-1 107:1 110:1 111:1 112:1 113:1 114:1 115:1 116:-1 117:-1 118:1 119:1 122:1 123:-1 124:-1 125:-1 126:-1 127:-1 128:-1 129:-1 130:1 131:1 134:1 135:-1 136:-1 137:-1 138:-1 139:-1 140:-1 141:1 142:1 143:1 146:-1 147:1 148:1 149:1 150:1 151:1 152:1 153:1 154:1 155:1 158:1 159:1 160:1 161:1 162:1 163:1 164:1 165:1 166:1 167:1 170:1 171:1 172:1 176:1 177:1 178:1 179:1 
-28.42208576056312 0 0 0 0 0 1.935563026797196 0 0 3.970628255778913 0 4.450120843992055 0 0 2.752347385580771 11.61747888316479 0 1.544988090126404 7.212485761536098 14:1 15:1 16:1 18:1 19:1 20:1 21:-1 22:1 23:1 26:1 27:1 28:1 29:1 30:1 31:-1 32:-1 33:-1 34:1 35:1 38:1 39:1 40:1 41:-1 42:-1 43:-1 44:-1 45:1 46:1 47:1 50:1 51:1 52:-1 53:-1 54:-1 55:1 56:1 57:-1 58:1 59:1 62:1 63:1 64:-1 65:-1 66:1 67:-1 68:-1 69:-1 70:-1 71:1 74:1 75:1 76:-1 77:-1 78:-1 79:-1 80:-1 81:-1 82:-1 83:1 86:1 87:1 88:-1 89:-1 90:-1 91:1 92:1 93:-1 94:-1 95:1 98:1 99:1 100:-1 101:1 102:1 103:1 104:1 105:-1 106:-1 107:1 110:1 111:1 112:-1 113:1 114:1 115:1 116:1 117:-1 118:-1 119:1 122:1 123:1 124:1 125:1 126:1 127:-1 128:-1 129:-1 130:1 131:1 134:1 135:1 136:1 137:-1 138:-1 139:-1 140:-1 141:1 142:1 143:1 146:1 147:1 148:-1 149:-1 150:-1 151:1 152:1 153:1 154:1 155:1 158:1 159:-1 160:-1 161:1 162:1 163:1 164:1 165:1 166:1 167:1 170:1 171:1 172:1 176:1 177:1 178:1 179:1 
-22.40662864285204 -23.05980059403621 12.39997991192102 8.094391574438735 3.919726290569174 13.08819252976076 18.95865042566141 8.649012883206478 28.17141205043929 0 0 8.948273425238794 20.25192503303373 0 0 0 28.79411253150609 2.327019760663202 25.87678666016197 14:1 15:1 16:1 18:1 19:1 20:1 21:1 22:1 23:1 26:1 27:1 28:1 29:1 30:1 31:1 32:1 33:1 34:1 35:1 38:-1 39:-1 40:-1 41:-1 42:-1 43:-1 44:-1 45:-1 46:1 47:1 50:1 51:1 52:-1 53:-1 54:1 55:-1 56:-1 57:-1 58:1 59:1 62:1 63:1 64:-1 65:-1 66:1 67:1 68:1 69:-1 70:-1 71:1 74:1 75:1 76:-1 77:-1 78:1 79:1 80:1 81:-1 82:-1 83:1 86:1 87:1 88:-1 89:-1 90:1 91:1 92:1 93:-1 94:-1 95:1 98:-1 99:-1 100:-1 101:-1 102:-1 103:1 104:1 105:-1 106:-1 107:1 110:-1 111:-1 112:-1 113:-1 114:-1 115:1 116:-1 117:-1 118:-1 119:1 122:1 123:1 124:1 125:1 126:1 127:1 128:-1 129:-1 130:-1 131:1 134:1 135:1 136:1 137:1 138:1 139:1 140:1 141:1 142:-1 143:1 146:1 147:1 148:1 149:1 150:1 151:1 152:1 153:1 154:1 155:1 158:1 159:1 160:1 161:1 162:1 163:1 164:1 165:1 166:1 167:1 170:1 171:1 172:1 176:1 177:1 178:1 179:1 
-0 -9.622074416180025 0 0 0 0 14.60840973460873 0 0 0 0 0 0 0 0 0 0 0 0 14:1 15:1 16:1 18:1 19:1 20:1 21:1 22:1 23:1 26:1 27:1 28:1 29:1 30:1 31:1 32:1 33:1 34:1 35:1 38:1 39:1 40:1 41:1 42:1 43:-1 44:-1 45:-1 46:-1 47:1 50:1 51:1 52:1 53:1 54:1 55:-1 56:-1 57:-1 58:-1 59:1 62:-1 63:-1 64:-1 65:-1 66:-1 67:1 68:1 69:-1 70:-1 71:1 74:1 75:1 76:-1 77:-1 78:1 79:1 80:1 81:-1 82:-1 83:1 86:1 87:1 88:-1 89:-1 90:1 91:1 92:1 93:-1 94:-1 95:1 98:1 99:1 100:-1 101:-1 102:1 103:1 104:1 105:-1 106:-1 107:1 110:1 111:1 112:-1 113:-1 114:1 115:1 116:-1 117:-1 118:-1 119:1 122:-1 123:-1 124:-1 125:-1 126:-1 127:1 128:-1 129:-1 130:1 131:1 134:-1 135:-1 136:-1 137:-1 138:-1 139:1 140:1 141:1 142:1 143:1 146:1 147:1 148:1 149:1 150:1 151:1 152:1 153:1 154:1 155:1 158:1 159:1 160:1 161:1 162:1 163:1 164:1 165:1 166:1 167:1 170:1 171:1 172:1 176:1 177:1 178:1 179:1 
-8.810989832111613 -0 10.08642320106834 0 10.326694776778 0 59.79579563283311 0 27.82425470835108 0.8386739043183035 5.637175002246548 44.40539659880196 3.630190634841074 11.45869241308634 23.9703011672163 55.28999362516026 50.31722211236863 9.75901336017637 29.11178650017164 14:1 15:1 16:1 18:1 19:1 20:1 21:1 22:1 23:1 26:1 27:1 28:1 29:1 30:1 31:1 32:1 33:1 34:1 35:1 38:1 39:1 40:1 41:1 42:1 43:1 44:-1 45:-1 46:-1 47:1 50:1 51:-1 52:-1 53:-1 54:-1 55:-1 56:-1 57:-1 58:-1 59:1 62:-1 63:1 64:-1 65:-1 66:1 67:1 68:1 69:-1 70:-1 71:1 74:1 75:1 76:-1 77:-1 78:1 79:1 80:1 81:-1 82:-1 83:1 86:1 87:1 88:-1 89:-1 90:1 91:1 92:1 93:-1 94:-1 95:1 98:1 99:-1 100:-1 101:1 102:1 103:1 104:-1 105:-1 106:1 107:1 110:1 111:-1 112:-1 113:-1 114:1 115:-1 116:-1 117:-1 118:-1 119:1 122:-1 123:-1 124:-1 125:-1 126:1 127:-1 128:-1 129:-1 130:-1 131:1 134:-1 135:1 136:1 137:1 138:1 139:1 140:1 141:1 142:1 143:1 146:1 147:1 148:1 149:1 150:1 151:1 152:1 153:1 154:1 155:1 158:1 159:1 160:1 161:1 162:1 163:1 164:1 165:1 166:1 167:1 170:1 171:1 172:1 176:1 177:1 178:1 179:1 
-0 -0 0 0 0 0 10.97446451227493 0 0 0 0 0 0 0 0 0 0 0 0 14:1 15:1 16:1 18:1 19:1 20:1 21:1 22:1 23:1 26:1 27:1 28:1 29:1 30:1 31:1 32:1 33:1 34:1 35:1 38:1 39:1 40:1 41:1 42:1 43:-1 44:-1 45:-1 46:1 47:1 50:1 51:1 52:1 53:-1 54:-1 55:-1 56:-1 57:-1 58:-1 59:1 62:-1 63:-1 64:-1 65:-1 66:1 67:1 68:1 69:-1 70:-1 71:1 74:1 75:1 76:-1 77:-1 78:1 79:1 80:1 81:-1 82:-1 83:1 86:1 87:1 88:-1 89:-1 90:1 91:1 92:1 93:-1 94:-1 95:1 98:1 99:1 100:-1 101:-1 102:1 103:1 104:1 105:-1 106:-1 107:1 110:1 111:1 112:-1 113:-1 114:-1 115:1 116:-1 117:-1 118:-1 119:1 122:-1 123:-1 124:-1 125:-1 126:-1 127:1 128:-1 129:-1 130:-1 131:1 134:-1 135:-1 136:-1 137:1 138:1 139:1 140:1 141:1 142:1 143:1 146:1 147:1 148:1 149:1 150:1 151:1 152:1 153:1 154:1 155:1 158:1 159:1 160:1 161:1 162:1 163:1 164:1 165:1 166:1 167:1 170:1 171:1 172:1 176:1 177:1 178:1 179:1 
-0 -0 0 0 0 0 6.53478787421412 9.771475668397162 1.58352837883061 0 0 0 0 2.119839788053393 19.42451627451067 0 28.10296397304759 0 0 14:1 15:1 16:1 18:1 19:1 20:1 21:1 22:1 23:1 26:1 27:1 28:1 29:1 30:1 31:1 32:1 33:1 34:1 35:1 38:1 39:1 40:1 41:1 42:1 43:1 44:1 45:-1 46:-1 47:-1 50:1 51:1 52:1 53:1 54:1 55:1 56:1 57:-1 58:-1 59:-1 62:1 63:-1 64:-1 65:-1 66:-1 67:-1 68:-1 69:1 70:-1 71:-1 74:1 75:1 76:1 77:-1 78:-1 79:1 80:1 81:1 82:-1 83:-1 86:1 87:1 88:1 89:-1 90:-1 91:1 92:1 93:1 94:-1 95:-1 98:1 99:1 100:1 101:-1 102:-1 103:1 104:1 105:-1 106:-1 107:1 110:1 111:1 112:-1 113:-1 114:1 115:1 116:1 117:-1 118:-1 119:-1 122:-1 123:-1 124:-1 125:-1 126:-1 127:1 128:-1 129:-1 130:-1 131:-1 134:-1 135:-1 136:-1 137:-1 138:-1 139:1 140:-1 141:1 142:1 143:1 146:1 147:1 148:1 149:1 150:1 151:1 152:1 153:1 154:1 155:1 158:1 159:1 160:1 161:1 162:1 163:1 164:1 165:1 166:1 167:1 170:1 171:1 172:1 176:1 177:1 178:1 179:1 
-0 -0 0.3756148591112926 0 0 0 0 4.794637391059298 6.137382278619099 8.442298764542638 0 0 0 0 8.630715739987547 0 0 0 0 14:1 15:1 16:1 18:1 19:1 20:1 21:1 22:1 23:1 26:1 27:1 28:1 29:1 30:1 31:1 32:1 33:-1 34:-1 35:-1 38:1 39:1 40:1 41:1 42:1 43:1 44:1 45:-1 46:-1 47:-1 50:1 51:1 52:1 53:1 54:-1 55:-1 56:-1 57:1 58:-1 59:-1 62:1 63:1 64:-1 65:-1 66:-1 67:1 68:1 69:1 70:-1 71:-1 74:1 75:-1 76:1 77:-1 78:-1 79:1 80:1 81:1 82:-1 83:-1 86:1 87:1 88:1 89:-1 90:-1 91:1 92:1 93:-1 94:-1 95:1 98:1 99:1 100:1 101:-1 102:1 103:1 104:1 105:-1 106:-1 107:-1 110:1 111:1 112:-1 113:-1 114:-1 115:1 116:-1 117:-1 118:-1 119:-1 122:1 123:1 124:-1 125:-1 126:-1 127:1 128:-1 129:1 130:1 131:1 134:-1 135:-1 136:-1 137:-1 138:1 139:1 140:1 141:1 142:1 143:1 146:-1 147:-1 148:1 149:1 150:1 151:1 152:1 153:1 154:1 155:1 158:1 159:1 160:1 161:1 162:1 163:1 164:1 165:1 166:1 167:1 170:1 171:1 172:1 176:1 177:1 178:1 179:1 
-0 -0 0 0 0 0 0 0 0 0 0.7252998212802778 0 0 37.75958631023786 0 0 0 0 0 14:1 15:1 16:1 18:1 19:1 20:1 21:1 22:1 23:1 26:1 27:1 28:1 29:1 30:1 31:1 32:1 33:1 34:1 35:1 38:1 39:1 40:1 41:1 42:1 43:1 44:-1 45:-1 46:1 47:1 50:1 51:1 52:1 53:1 54:1 55:-1 56:-1 57:-1 58:-1 59:1 62:1 63:1 64:1 65:-1 66:-1 67:-1 68:1 69:-1 70:-1 71:1 74:-1 75:-1 76:-1 77:-1 78:1 79:1 80:1 81:-1 82:-1 83:1 86:1 87:1 88:-1 89:-1 90:1 91:1 92:1 93:-1 94:-1 95:1 98:1 99:1 100:-1 101:-1 102:1 103:1 104:1 105:-1 106:-1 107:1 110:1 111:1 112:-1 113:-1 114:1 115:1 116:-1 117:-1 118:-1 119:1 122:1 123:1 124:-1 125:-1 126:-1 127:1 128:-1 129:-1 130:-1 131:1 134:-1 135:-1 136:-1 137:-1 138:-1 139:1 140:1 141:1 142:1 143:1 146:-1 147:-1 148:-1 149:1 150:1 151:1 152:1 153:1 154:1 155:1 158:1 159:1 160:1 161:1 162:1 163:1 164:1 165:1 166:1 167:1 170:1 171:1 172:1 176:1 177:1 178:1 179:1 
-27.27771623171738 -15.44960121084627 12.01112921430471 10.98360641867929 21.9733108476953 25.58581553236646 25.05392216349836 16.015271428535 33.47756855839708 25.02620597142772 16.5284775913792 16.31691793001074 37.71363893421923 40.28800036428459 28.99804198689888 23.76124950979635 31.04580294530411 11.8027024383226 23.11007228380418 14:1 15:1 16:1 18:1 19:1 20:1 21:1 22:1 23:1 26:1 27:1 28:1 29:1 30:1 31:1 32:1 33:1 34:1 35:1 38:1 39:1 40:1 41:1 42:1 43:1 44:1 45:1 46:1 47:-1 50:1 51:1 52:1 53:1 54:1 55:1 56:1 57:-1 58:-1 59:-1 62:1 63:1 64:1 65:1 66:1 67:1 68:-1 69:-1 70:-1 71:-1 74:1 75:-1 76:-1 77:-1 78:-1 79:-1 80:1 81:1 82:-1 83:-1 86:1 87:1 88:1 89:-1 90:-1 91:1 92:1 93:1 94:-1 95:-1 98:1 99:1 100:1 101:-1 102:-1 103:1 104:1 105:1 106:-1 107:1 110:1 111:1 112:1 113:-1 114:-1 115:1 116:1 117:-1 118:-1 119:-1 122:1 123:1 124:-1 125:-1 126:1 127:1 128:-1 129:-1 130:-1 131:-1 134:-1 135:-1 136:-1 137:-1 138:-1 139:1 140:-1 141:-1 142:-1 143:1 146:-1 147:-1 148:-1 149:-1 150:-1 151:1 152:1 153:1 154:1 155:1 158:1 159:1 160:1 161:1 162:1 163:1 164:1 165:1 166:1 167:1 170:1 171:1 172:1 176:1 177:1 178:1 179:1 
-0 -0 9.747211822598963 24.66525885873093 16.13730322652018 0 0.5863271957488782 22.70456514519433 13.49398642079642 0 0 0 19.12194908894526 0 0 0 0 7.491599406941969 16.59585071945505 14:1 15:1 16:1 18:1 19:1 20:1 21:1 22:1 23:1 26:1 27:1 28:1 29:1 30:1 31:1 32:-1 33:-1 34:-1 35:1 38:1 39:1 40:1 41:1 42:1 43:-1 44:-1 45:-1 46:-1 47:1 50:1 51:1 52:1 53:-1 54:-1 55:-1 56:1 57:-1 58:-1 59:1 62:1 63:-1 64:-1 65:-1 66:1 67:1 68:1 69:-1 70:-1 71:1 74:-1 75:1 76:-1 77:-1 78:1 79:1 80:1 81:-1 82:-1 83:1 86:1 87:1 88:-1 89:-1 90:1 91:1 92:1 93:-1 94:-1 95:1 98:1 99:1 100:-1 101:-1 102:1 103:1 104:-1 105:-1 106:-1 107:1 110:1 111:1 112:-1 113:-1 114:-1 115:1 116:-1 117:-1 118:1 119:1 122:1 123:-1 124:-1 125:-1 126:-1 127:1 128:1 129:1 130:1 131:1 134:-1 135:-1 136:-1 137:1 138:1 139:1 140:1 141:1 142:1 143:1 146:-1 147:1 148:1 149:1 150:1 151:1 152:1 153:1 154:1 155:1 158:1 159:1 160:1 161:1 162:1 163:1 164:1 165:1 166:1 167:1 170:1 171:1 172:1 176:1 177:1 178:1 179:1 
-0 -0 0 0 0 0 0 0 0 0 3.655501762163513 0 13.66067101775129 0 0 0 0 0 0 14:1 15:1 16:1 18:1 19:1 20:1 21:1 22:1 23:1 26:1 27:1 28:1 29:1 30:1 31:1 32:1 33:1 34:1 35:1 38:1 39:1 40:1 41:1 42:1 43:1 44:1 45:1 46:1 47:1 50:1 51:1 52:1 53:1 54:1 55:-1 56:-1 57:-1 58:1 59:1 62:-1 63:-1 64:-1 65:-1 66:-1 67:-1 68:-1 69:-1 70:-1 71:1 74:1 75:1 76:-1 77:-1 78:1 79:1 80:1 81:-1 82:-1 83:1 86:1 87:1 88:-1 89:-1 90:1 91:1 92:1 93:-1 94:-1 95:1 98:1 99:1 100:-1 101:-1 102:1 103:1 104:1 105:-1 106:-1 107:1 110:1 111:1 112:-1 113:-1 114:1 115:1 116:1 117:-1 118:-1 119:1 122:-1 123:-1 124:-1 125:-1 126:-1 127:1 128:-1 129:-1 130:-1 131:1 134:-1 135:-1 136:-1 137:-1 138:-1 139:1 140:-1 141:-1 142:-1 143:1 146:1 147:1 148:1 149:1 150:1 151:1 152:1 153:1 154:1 155:1 158:1 159:1 160:1 161:1 162:1 163:1 164:1 165:1 166:1 167:1 170:1 171:1 172:1 176:1 177:1 178:1 179:1 
-0 -0 0 0 0 0 0 0 0 0 8.501943725935261 0 0 21.30365715863744 6.38253487975078 0 0 0 0 14:1 15:1 16:1 18:1 19:1 20:1 21:1 22:1 23:1 26:-1 27:-1 28:1 29:1 30:1 31:1 32:1 33:1 34:1 35:1 38:1 39:1 40:-1 41:-1 42:1 43:-1 44:-1 45:1 46:1 47:1 50:1 51:1 52:-1 53:-1 54:-1 55:-1 56:-1 57:-1 58:1 59:1 62:1 63:1 64:-1 65:-1 66:1 67:1 68:1 69:-1 70:-1 71:1 74:1 75:1 76:-1 77:-1 78:1 79:1 80:1 81:-1 82:-1 83:1 86:-1 87:-1 88:-1 89:-1 90:1 91:1 92:1 93:-1 94:-1 95:1 98:-1 99:-1 100:-1 101:-1 102:1 103:1 104:1 105:-1 106:-1 107:1 110:1 111:1 112:-1 113:-1 114:-1 115:1 116:-1 117:-1 118:-1 119:1 122:1 123:1 124:1 125:1 126:-1 127:1 128:-1 129:-1 130:-1 131:1 134:1 135:1 136:1 137:1 138:1 139:1 140:1 141:-1 142:-1 143:-1 146:1 147:1 148:1 149:1 150:1 151:1 152:1 153:1 154:1 155:-1 158:1 159:1 160:1 161:1 162:1 163:1 164:1 165:1 166:1 167:1 170:1 171:1 172:1 176:1 177:1 178:1 179:1 
-9.439107741530561 -18.73059200535671 14.39678857329805 16.79247579167739 16.45356786486511 12.71631083281524 18.65474679014295 23.43606128451841 16.86629667057398 25.39515778042721 10.71991533616771 24.08121247067894 8.437595574432812 62.72153313206164 8.20994912493026 13.73147955924165 2.950882640868593 0 4.683757018043854 14:1 15:1 16:1 18:1 19:1 20:1 21:1 22:1 23:1 26:1 27:1 28:1 29:1 30:1 31:1 32:1 33:1 34:1 35:-1 38:1 39:1 40:1 41:1 42:1 43:1 44:1 45:-1 46:-1 47:-1 50:1 51:1 52:1 53:1 54:1 55:1 56:-1 57:-1 58:-1 59:-1 62:1 63:1 64:1 65:1 66:-1 67:-1 68:1 69:1 70:-1 71:-1 74:1 75:1 76:-1 77:-1 78:-1 79:1 80:1 81:1 82:-1 83:-1 86:1 87:-1 88:1 89:-1 90:-1 91:1 92:1 93:1 94:-1 95:1 98:1 99:1 100:1 101:-1 102:-1 103:1 104:1 105:-1 106:-1 107:-1 110:1 111:1 112:1 113:-1 114:1 115:1 116:-1 117:-1 118:-1 119:-1 122:1 123:1 124:-1 125:-1 126:-1 127:1 128:-1 129:-1 130:-1 131:1 134:1 135:1 136:-1 137:-1 138:-1 139:1 140:1 141:1 142:1 143:1 146:-1 147:-1 148:-1 149:-1 150:1 151:1 152:1 153:1 154:1 155:1 158:-1 159:-1 160:1 161:1 162:1 163:1 164:1 165:1 166:1 167:1 170:1 171:1 172:1 176:1 177:1 178:1 179:1 
-0 -0 0 0 0 0 0 0 0 0 0 0 0 0 0 11.02263053559783 0 0 0 14:1 15:1 16:1 18:1 19:1 20:1 21:1 22:1 23:1 26:1 27:1 28:1 29:1 30:1 31:1 32:1 33:1 34:1 35:1 38:1 39:1 40:1 41:1 42:1 43:1 44:-1 45:-1 46:-1 47:1 50:1 51:1 52:1 53:1 54:1 55:-1 56:-1 57:-1 58:-1 59:1 62:1 63:1 64:-1 65:-1 66:-1 67:-1 68:1 69:-1 70:-1 71:1 74:-1 75:-1 76:-1 77:-1 78:1 79:1 80:1 81:-1 82:-1 83:1 86:1 87:1 88:-1 89:-1 90:1 91:1 92:1 93:-1 94:-1 95:1 98:1 99:1 100:-1 101:-1 102:1 103:1 104:1 105:-1 106:-1 107:1 110:1 111:1 112:-1 113:-1 114:1 115:1 116:-1 117:-1 118:-1 119:1 122:1 123:1 124:-1 125:-1 126:-1 127:1 128:-1 129:-1 130:1 131:1 134:-1 135:-1 136:-1 137:-1 138:-1 139:1 140:1 141:1 142:1 143:1 146:-1 147:-1 148:1 149:1 150:1 151:1 152:1 153:1 154:1 155:1 158:1 159:1 160:1 161:1 162:1 163:1 164:1 165:1 166:1 167:1 170:1 171:1 172:1 176:1 177:1 178:1 179:1 
-0 -0 0 0 0 0 0 0 0 0 0 0 0 0 0.1495096688160803 0 0 0 0 14:1 15:1 16:1 18:1 19:1 20:1 21:1 22:1 23:1 26:1 27:1 28:1 29:1 30:1 31:1 32:1 33:1 34:1 35:1 38:1 39:1 40:1 41:1 42:1 43:-1 44:1 45:1 46:1 47:1 50:-1 51:-1 52:-1 53:-1 54:-1 55:-1 56:-1 57:-1 58:1 59:1 62:1 63:1 64:-1 65:-1 66:1 67:1 68:-1 69:-1 70:-1 71:1 74:1 75:1 76:-1 77:-1 78:1 79:1 80:1 81:-1 82:-1 83:1 86:1 87:1 88:-1 89:-1 90:1 91:1 92:1 93:-1 94:-1 95:1 98:1 99:1 100:-1 101:-1 102:1 103:1 104:1 105:-1 106:-1 107:1 110:-1 111:-1 112:-1 113:-1 114:-1 115:1 116:1 117:-1 118:-1 119:1 122:-1 123:-1 124:-1 125:-1 126:-1 127:1 128:-1 129:-1 130:-1 131:1 134:1 135:1 136:1 137:1 138:1 139:1 140:-1 141:-1 142:-1 143:-1 146:1 147:1 148:1 149:1 150:1 151:1 152:1 153:1 154:1 155:-1 158:1 159:1 160:1 161:1 162:1 163:1 164:1 165:1 166:1 167:1 170:1 171:1 172:1 176:1 177:1 178:1 179:1 
-0 -0 0 0 0 0 0.2233057397164477 0 0 0 0 0 0 0 0 0 0 0 0 14:1 15:1 16:1 18:1 19:1 20:1 21:1 22:1 23:1 26:1 27:1 28:1 29:1 30:1 31:1 32:1 33:-1 34:1 35:1 38:1 39:1 40:1 41:1 42:1 43:-1 44:-1 45:-1 46:-1 47:1 50:1 51:1 52:1 53:1 54:1 55:-1 56:-1 57:-1 58:-1 59:1 62:1 63:1 64:-1 65:-1 66:-1 67:1 68:1 69:-1 70:-1 71:1 74:-1 75:-1 76:-1 77:-1 78:1 79:1 80:1 81:-1 82:-1 83:1 86:1 87:1 88:-1 89:-1 90:1 91:1 92:1 93:-1 94:-1 95:1 98:1 99:1 100:-1 101:-1 102:1 103:1 104:1 105:-1 106:-1 107:1 110:1 111:1 112:-1 113:-1 114:1 115:1 116:-1 117:-1 118:-1 119:1 122:1 123:1 124:-1 125:-1 126:-1 127:1 128:-1 129:1 130:1 131:1 134:-1 135:-1 136:-1 137:-1 138:-1 139:1 140:1 141:1 142:1 143:1 146:-1 147:-1 148:1 149:1 150:1 151:1 152:1 153:1 154:1 155:1 158:1 159:1 160:1 161:1 162:1 163:1 164:1 165:1 166:1 167:1 170:1 171:1 172:1 176:1 177:1 178:1 179:1 
-0 -0 0 0 0 0 0 10.87306949505742 0 0.4060677634493233 0 0 0 0 10.25039902928862 0 0 0 0 14:1 15:1 16:1 18:1 19:1 20:1 21:1 22:1 23:1 26:1 27:1 28:1 29:1 30:1 31:1 32:1 33:1 34:1 35:1 38:1 39:1 40:1 41:1 42:1 43:-1 44:1 45:1 46:1 47:1 50:-1 51:-1 52:-1 53:-1 54:-1 55:-1 56:-1 57:-1 58:1 59:1 62:1 63:1 64:-1 65:-1 66:1 67:1 68:-1 69:-1 70:-1 71:1 74:1 75:1 76:-1 77:-1 78:1 79:1 80:1 81:-1 82:-1 83:1 86:1 87:1 88:-1 89:-1 90:1 91:1 92:1 93:-1 94:-1 95:1 98:1 99:1 100:-1 101:-1 102:1 103:1 104:1 105:-1 106:-1 107:1 110:-1 111:-1 112:-1 113:-1 114:-1 115:1 116:1 117:-1 118:-1 119:1 122:-1 123:-1 124:-1 125:-1 126:-1 127:1 128:-1 129:-1 130:-1 131:1 134:1 135:1 136:1 137:1 138:1 139:1 140:-1 141:-1 142:-1 143:-1 146:1 147:1 148:1 149:1 150:1 151:1 152:1 153:1 154:1 155:-1 158:1 159:1 160:1 161:1 162:1 163:1 164:1 165:1 166:1 167:1 170:1 171:1 172:1 176:1 177:1 178:1 179:1 
-0 -0 0 10.12654314293198 10.89787593231047 3.881636194850445 0 0 4.16244320498154 0 6.364333430340547 0 0 5.91404127972968 0 24.97985945707127 16.14011141384342 0 12.05781263481637 14:1 15:1 16:1 18:1 19:1 20:1 21:1 22:1 23:1 26:1 27:1 28:1 29:1 30:1 31:1 32:1 33:-1 34:-1 35:1 38:1 39:1 40:1 41:1 42:1 43:1 44:-1 45:-1 46:-1 47:1 50:1 51:1 52:1 53:1 54:1 55:-1 56:-1 57:-1 58:-1 59:1 62:1 63:1 64:1 65:-1 66:-1 67:1 68:1 69:-1 70:-1 71:1 74:-1 75:-1 76:-1 77:-1 78:1 79:1 80:1 81:-1 82:-1 83:1 86:1 87:1 88:-1 89:-1 90:1 91:1 92:1 93:-1 94:1 95:1 98:1 99:1 100:-1 101:-1 102:1 103:1 104:-1 105:-1 106:-1 107:1 110:1 111:1 112:-1 113:1 114:1 115:-1 116:-1 117:-1 118:-1 119:1 122:1 123:-1 124:-1 125:-1 126:1 127:-1 128:-1 129:1 130:1 131:1 134:-1 135:-1 136:-1 137:-1 138:1 139:1 140:1 141:1 142:1 143:1 146:-1 147:-1 148:-1 149:1 150:1 151:1 152:1 153:1 154:1 155:1 158:1 159:1 160:1 161:1 162:1 163:1 164:1 165:1 166:1 167:1 170:1 171:1 172:1 176:1 177:1 178:1 179:1 
-0 -0 0 0 0 0 0 0 0 0 0 0 0 0.1836878668348078 0 0 0 0 0 14:1 15:1 16:1 18:1 19:1 20:1 21:1 22:1 23:1 26:-1 27:-1 28:1 29:1 30:1 31:1 32:1 33:1 34:1 35:1 38:1 39:1 40:-1 41:-1 42:1 43:-1 44:1 45:1 46:1 47:1 50:1 51:1 52:-1 53:-1 54:-1 55:-1 56:-1 57:-1 58:1 59:1 62:1 63:1 64:-1 65:-1 66:1 67:1 68:-1 69:-1 70:-1 71:1 74:1 75:1 76:-1 77:-1 78:1 79:1 80:1 81:-1 82:-1 83:1 86:-1 87:-1 88:-1 89:-1 90:1 91:1 92:1 93:-1 94:-1 95:1 98:-1 99:-1 100:-1 101:-1 102:1 103:1 104:1 105:-1 106:-1 107:1 110:1 111:1 112:-1 113:-1 114:-1 115:1 116:1 117:-1 118:-1 119:1 122:1 123:1 124:1 125:1 126:-1 127:1 128:-1 129:-1 130:-1 131:1 134:1 135:1 136:1 137:1 138:1 139:1 140:-1 141:-1 142:-1 143:-1 146:1 147:1 148:1 149:1 150:1 151:1 152:1 153:1 154:1 155:-1 158:1 159:1 160:1 161:1 162:1 163:1 164:1 165:1 166:1 167:1 170:1 171:1 172:1 176:1 177:1 178:1 179:1 
-24.22949700600701 -30.87222203913603 14.15805899479239 9.410496175425378 15.10863485324841 12.22771932177 32.04663857412273 0 0 10.70773796941483 0.5689132535265534 47.50195896473153 13.76869503880641 6.73212310926024 0 50.89789300305144 0 15.87969554385528 24.74554439849812 14:1 15:1 16:1 18:1 19:1 20:1 21:1 22:1 23:1 26:-1 27:-1 28:1 29:1 30:1 31:1 32:1 33:1 34:1 35:1 38:1 39:1 40:-1 41:-1 42:1 43:-1 44:1 45:1 46:1 47:1 50:1 51:1 52:-1 53:-1 54:-1 55:-1 56:-1 57:-1 58:1 59:1 62:1 63:1 64:-1 65:-1 66:1 67:1 68:-1 69:-1 70:-1 71:1 74:1 75:1 76:-1 77:-1 78:1 79:1 80:1 81:-1 82:-1 83:1 86:-1 87:-1 88:-1 89:-1 90:1 91:1 92:1 93:-1 94:-1 95:1 98:-1 99:-1 100:-1 101:-1 102:1 103:1 104:1 105:-1 106:-1 107:1 110:1 111:1 112:-1 113:-1 114:-1 115:1 116:1 117:-1 118:-1 119:1 122:1 123:1 124:1 125:1 126:-1 127:1 128:-1 129:-1 130:-1 131:1 134:1 135:1 136:1 137:1 138:1 139:1 140:-1 141:-1 142:-1 143:-1 146:1 147:1 148:1 149:1 150:1 151:1 152:1 153:1 154:1 155:-1 158:1 159:1 160:1 161:1 162:1 163:1 164:1 165:1 166:1 167:1 170:1 171:1 172:1 176:1 177:1 178:1 179:1 
-0 -0 0 0 0 0 0 0 0 0 3.737877507782512 6.996716900618671 0 0 1.710939455822116 0 0 0 0 14:1 15:1 16:1 18:1 19:1 20:1 21:1 22:1 23:1 26:1 27:1 28:1 29:1 30:1 31:1 32:1 33:1 34:1 35:1 38:1 39:1 40:1 41:1 42:1 43:-1 44:-1 45:1 46:1 47:1 50:-1 51:-1 52:-1 53:-1 54:-1 55:-1 56:-1 57:-1 58:1 59:1 62:1 63:1 64:-1 65:-1 66:1 67:1 68:1 69:-1 70:-1 71:1 74:1 75:1 76:-1 77:-1 78:1 79:1 80:1 81:-1 82:-1 83:1 86:1 87:1 88:-1 89:-1 90:1 91:1 92:1 93:-1 94:-1 95:1 98:1 99:1 100:-1 101:-1 102:1 103:1 104:1 105:-1 106:-1 107:1 110:-1 111:-1 112:-1 113:-1 114:-1 115:1 116:-1 117:-1 118:-1 119:1 122:-1 123:-1 124:-1 125:-1 126:-1 127:1 128:-1 129:-1 130:-1 131:1 134:1 135:1 136:1 137:1 138:1 139:1 140:1 141:-1 142:-1 143:1 146:1 147:1 148:1 149:1 150:1 151:1 152:1 153:1 154:1 155:1 158:1 159:1 160:1 161:1 162:1 163:1 164:1 165:1 166:1 167:1 170:1 171:1 172:1 176:1 177:1 178:1 179:1 
-0 -0 0 0 0 0 0 0 0 0 0 0 0 0 0 0.8623939579615151 0 0 0 14:1 15:1 16:1 18:1 19:1 20:1 21:1 22:1 23:1 26:1 27:1 28:1 29:1 30:1 31:1 32:1 33:1 34:-1 35:1 38:1 39:1 40:1 41:1 42:1 43:1 44:-1 45:-1 46:-1 47:1 50:1 51:1 52:1 53:1 54:-1 55:-1 56:-1 57:-1 58:-1 59:1 62:1 63:-1 64:-1 65:-1 66:1 67:1 68:1 69:-1 70:-1 71:1 74:-1 75:1 76:-1 77:-1 78:1 79:1 80:1 81:-1 82:-1 83:1 86:1 87:1 88:-1 89:-1 90:1 91:1 92:1 93:-1 94:1 95:1 98:1 99:1 100:-1 101:-1 102:1 103:1 104:-1 105:-1 106:-1 107:1 110:1 111:-1 112:-1 113:1 114:1 115:-1 116:-1 117:-1 118:-1 119:1 122:1 123:-1 124:-1 125:-1 126:1 127:-1 128:-1 129:-1 130:1 131:1 134:-1 135:-1 136:-1 137:-1 138:1 139:1 140:1 141:1 142:1 143:1 146:-1 147:1 148:1 149:1 150:1 151:1 152:1 153:1 154:1 155:1 158:1 159:1 160:1 161:1 162:1 163:1 164:1 165:1 166:1 167:1 170:1 171:1 172:1 176:1 177:1 178:1 179:1 
-0 -0 0 0 0 0 0 0 0 0 0 0 0 0 0.08632491751248914 0 0 0 0 14:1 15:1 16:1 18:1 19:1 20:1 21:1 22:1 23:1 26:1 27:1 28:1 29:1 30:1 31:1 32:-1 33:-1 34:-1 35:1 38:1 39:1 40:1 41:1 42:1 43:1 44:-1 45:-1 46:-1 47:1 50:1 51:1 52:1 53:1 54:-1 55:-1 56:1 57:-1 58:-1 59:1 62:1 63:-1 64:-1 65:-1 66:1 67:1 68:1 69:-1 70:-1 71:1 74:-1 75:1 76:-1 77:-1 78:1 79:1 80:1 81:-1 82:-1 83:1 86:1 87:1 88:-1 89:-1 90:1 91:1 92:-1 93:-1 94:1 95:1 98:1 99:1 100:-1 101:-1 102:1 103:1 104:-1 105:-1 106:-1 107:1 110:1 111:-1 112:-1 113:1 114:1 115:-1 116:-1 117:-1 118:-1 119:1 122:1 123:-1 124:-1 125:-1 126:1 127:-1 128:1 129:1 130:1 131:1 134:-1 135:-1 136:-1 137:-1 138:1 139:1 140:1 141:1 142:1 143:1 146:-1 147:1 148:1 149:1 150:1 151:1 152:1 153:1 154:1 155:1 158:1 159:1 160:1 161:1 162:1 163:1 164:1 165:1 166:1 167:1 170:1 171:1 172:1 176:1 177:1 178:1 179:1 
-0 -0 0 0 0 0 2.347433772904749 0 0 0 0 0 0 0 0 0 0 0 0 14:1 15:1 16:1 18:1 19:1 20:1 21:1 22:1 23:1 26:1 27:1 28:1 29:1 30:1 31:1 32:1 33:-1 34:1 35:1 38:1 39:1 40:1 41:1 42:1 43:-1 44:-1 45:-1 46:-1 47:1 50:1 51:1 52:1 53:1 54:1 55:-1 56:-1 57:-1 58:-1 59:1 62:1 63:1 64:-1 65:-1 66:-1 67:1 68:1 69:-1 70:-1 71:1 74:-1 75:-1 76:-1 77:-1 78:1 79:1 80:1 81:-1 82:-1 83:1 86:1 87:1 88:-1 89:-1 90:1 91:1 92:1 93:-1 94:-1 95:1 98:1 99:1 100:-1 101:-1 102:1 103:1 104:1 105:-1 106:-1 107:1 110:1 111:1 112:-1 113:-1 114:1 115:1 116:-1 117:-1 118:-1 119:1 122:1 123:1 124:-1 125:-1 126:-1 127:1 128:-1 129:1 130:1 131:1 134:-1 135:-1 136:-1 137:-1 138:-1 139:1 140:1 141:1 142:1 143:1 146:-1 147:-1 148:1 149:1 150:1 151:1 152:1 153:1 154:1 155:1 158:1 159:1 160:1 161:1 162:1 163:1 164:1 165:1 166:1 167:1 170:1 171:1 172:1 176:1 177:1 178:1 179:1 
-48.57671144876454 -24.10863555072422 16.91599534540692 0 19.55454897349965 21.20394566577139 39.25730509444556 11.20563194647927 3.210435905624449 37.58930727976158 14.38068871498685 44.72313740128887 39.31893966221031 17.48196208115672 13.94018654353448 20.30643102415024 35.82627002643055 19.66279868180694 12.46922096177168 14:1 15:1 16:1 18:1 19:1 20:1 21:1 22:1 23:1 26:1 27:1 28:1 29:1 30:1 31:1 32:-1 33:-1 34:-1 35:1 38:1 39:1 40:1 41:1 42:1 43:1 44:-1 45:-1 46:-1 47:1 50:1 51:1 52:1 53:1 54:-1 55:-1 56:1 57:-1 58:-1 59:1 62:1 63:-1 64:-1 65:-1 66:1 67:1 68:1 69:-1 70:-1 71:1 74:-1 75:1 76:-1 77:-1 78:1 79:1 80:1 81:-1 82:-1 83:1 86:1 87:1 88:-1 89:-1 90:1 91:1 92:-1 93:-1 94:1 95:1 98:1 99:1 100:-1 101:-1 102:1 103:1 104:-1 105:-1 106:-1 107:1 110:1 111:-1 112:-1 113:1 114:1 115:-1 116:-1 117:-1 118:-1 119:1 122:1 123:-1 124:-1 125:-1 126:1 127:-1 128:1 129:1 130:1 131:1 134:-1 135:-1 136:-1 137:-1 138:1 139:1 140:1 141:1 142:1 143:1 146:-1 147:1 148:1 149:1 150:1 151:1 152:1 153:1 154:1 155:1 158:1 159:1 160:1 161:1 162:1 163:1 164:1 165:1 166:1 167:1 170:1 171:1 172:1 176:1 177:1 178:1 179:1 
-19.06539036723757 -23.41307539755412 0 32.89676825443773 4.360797036903115 9.613004170564407 29.39644751322737 0 15.31873044956369 32.62607202036241 13.10300095034252 28.05761006123021 0 29.76928236331368 5.348789406374046 47.02409521871871 27.49949870365965 19.33399415319364 3.349774034861496 14:1 15:1 16:1 18:1 19:1 20:1 21:1 22:1 23:1 26:1 27:1 28:1 29:1 30:1 31:1 32:1 33:1 34:1 35:1 38:1 39:1 40:1 41:1 42:1 43:1 44:1 45:1 46:1 47:1 50:1 51:1 52:1 53:1 54:1 55:1 56:-1 57:-1 58:-1 59:1 62:-1 63:-1 64:-1 65:-1 66:-1 67:-1 68:-1 69:-1 70:-1 71:1 74:1 75:1 76:-1 77:-1 78:1 79:1 80:1 81:-1 82:-1 83:1 86:1 87:1 88:-1 89:-1 90:1 91:1 92:1 93:-1 94:-1 95:1 98:1 99:1 100:-1 101:-1 102:1 103:1 104:1 105:-1 106:-1 107:1 110:1 111:-1 112:-1 113:1 114:1 115:1 116:-1 117:-1 118:1 119:1 122:-1 123:-1 124:-1 125:-1 126:1 127:-1 128:-1 129:-1 130:-1 131:1 134:-1 135:-1 136:-1 137:-1 138:1 139:-1 140:-1 141:-1 142:-1 143:1 146:1 147:1 148:1 149:1 150:1 151:1 152:1 153:1 154:1 155:1 158:1 159:1 160:1 161:1 162:1 163:1 164:1 165:1 166:1 167:1 170:1 171:1 172:1 176:1 177:1 178:1 179:1 
-0 -0 0 0 0 0 0.277759413573022 0 0 0 1.423387513758621 0 4.194155258561844 0 0 0 0 8.013171224071796 0 14:1 15:1 16:1 18:1 19:1 20:1 21:1 22:1 23:1 26:1 27:1 28:1 29:1 30:1 31:1 32:-1 33:-1 34:1 35:1 38:1 39:1 40:1 41:1 42:1 43:-1 44:-1 45:-1 46:-1 47:1 50:1 51:1 52:1 53:1 54:-1 55:-1 56:1 57:-1 58:-1 59:1 62:1 63:1 64:-1 65:-1 66:1 67:1 68:1 69:-1 70:-1 71:1 74:-1 75:-1 76:-1 77:-1 78:1 79:1 80:1 81:-1 82:-1 83:1 86:1 87:1 88:-1 89:-1 90:1 91:1 92:1 93:-1 94:-1 95:1 98:1 99:1 100:-1 101:-1 102:1 103:1 104:-1 105:-1 106:-1 107:1 110:1 111:1 112:-1 113:-1 114:-1 115:1 116:-1 117:-1 118:-1 119:1 122:1 123:1 124:-1 125:-1 126:-1 127:1 128:1 129:1 130:1 131:1 134:-1 135:-1 136:-1 137:-1 138:1 139:1 140:1 141:1 142:1 143:1 146:-1 147:-1 148:1 149:1 150:1 151:1 152:1 153:1 154:1 155:1 158:1 159:1 160:1 161:1 162:1 163:1 164:1 165:1 166:1 167:1 170:1 171:1 172:1 176:1 177:1 178:1 179:1 
-5.45764325685011 -5.85640037700227 3.833567034246017 11.67647883131141 2.390128268374511 0 0 4.208871890786891 12.21573641548528 32.40987368330094 18.83126974924399 8.154281162387763 9.35311909648574 19.67034125067589 11.45651091236851 9.702064034358058 29.71356916557497 0 0 14:1 15:1 16:1 18:1 19:1 20:1 21:1 22:1 23:1 26:1 27:1 28:1 29:1 30:1 31:1 32:1 33:1 34:1 35:1 38:-1 39:-1 40:1 41:1 42:1 43:1 44:1 45:1 46:1 47:1 50:1 51:1 52:-1 53:-1 54:1 55:-1 56:-1 57:-1 58:1 59:1 62:1 63:1 64:-1 65:-1 66:-1 67:-1 68:-1 69:-1 70:1 71:1 74:1 75:1 76:-1 77:-1 78:1 79:1 80:1 81:-1 82:-1 83:1 86:1 87:1 88:-1 89:-1 90:1 91:1 92:1 93:-1 94:-1 95:1 98:-1 99:-1 100:-1 101:-1 102:1 103:1 104:1 105:-1 106:-1 107:1 110:-1 111:-1 112:-1 113:-1 114:1 115:1 116:1 117:-1 118:-1 119:1 122:1 123:1 124:-1 125:-1 126:-1 127:1 128:-1 129:-1 130:-1 131:1 134:1 135:1 136:1 137:1 138:-1 139:1 140:-1 141:-1 142:-1 143:-1 146:1 147:1 148:1 149:1 150:1 151:1 152:1 153:1 154:-1 155:-1 158:1 159:1 160:1 161:1 162:1 163:1 164:1 165:1 166:1 167:1 170:1 171:1 172:1 176:1 177:1 178:1 179:1 
-0 -10.08661337095688 0 17.00071931469994 0 0 0.2574042139819586 0 0 0 0 19.51495294220178 0 0 0 14.2942660240985 0 0 0 14:1 15:1 16:1 18:1 19:1 20:1 21:1 22:1 23:1 26:1 27:1 28:1 29:1 30:1 31:1 32:1 33:-1 34:1 35:1 38:1 39:1 40:1 41:1 42:1 43:-1 44:-1 45:-1 46:-1 47:1 50:1 51:1 52:1 53:1 54:1 55:-1 56:-1 57:-1 58:-1 59:1 62:1 63:1 64:1 65:-1 66:-1 67:1 68:1 69:-1 70:-1 71:1 74:-1 75:-1 76:-1 77:-1 78:1 79:1 80:1 81:-1 82:-1 83:1 86:1 87:1 88:-1 89:-1 90:1 91:1 92:1 93:-1 94:-1 95:1 98:1 99:1 100:-1 101:-1 102:1 103:1 104:1 105:-1 106:-1 107:1 110:1 111:1 112:-1 113:-1 114:1 115:1 116:-1 117:-1 118:-1 119:1 122:1 123:1 124:-1 125:-1 126:-1 127:1 128:-1 129:1 130:1 131:1 134:-1 135:-1 136:-1 137:-1 138:-1 139:1 140:1 141:1 142:1 143:1 146:-1 147:-1 148:-1 149:1 150:1 151:1 152:1 153:1 154:1 155:1 158:1 159:1 160:1 161:1 162:1 163:1 164:1 165:1 166:1 167:1 170:1 171:1 172:1 176:1 177:1 178:1 179:1 
-7.23565220008282 -0 -9.143412790969617 0 2.090666637022198 0 0 0 0 0 0 3.588879937276697 0 8.22779593001067 7.394854872280749 5.903785203089341 15.79409505353423 0 11.80374722697094 14:1 15:1 16:1 18:1 19:1 20:1 21:1 22:1 23:1 26:1 27:1 28:1 29:1 30:1 31:1 32:1 33:1 34:1 35:1 38:1 39:-1 40:-1 41:-1 42:-1 43:-1 44:-1 45:-1 46:1 47:1 50:1 51:-1 52:-1 53:-1 54:-1 55:-1 56:-1 57:-1 58:1 59:1 62:1 63:-1 64:-1 65:1 66:1 67:1 68:-1 69:-1 70:1 71:1 74:1 75:1 76:1 77:1 78:1 79:-1 80:-1 81:1 82:1 83:1 86:1 87:1 88:1 89:1 90:-1 91:-1 92:1 93:1 94:1 95:1 98:1 99:1 100:1 101:1 102:-1 103:-1 104:1 105:1 106:1 107:1 110:1 111:1 112:1 113:-1 114:-1 115:1 116:1 117:1 118:1 119:1 122:1 123:1 124:-1 125:-1 126:1 127:1 128:1 129:1 130:1 131:1 134:1 135:1 136:-1 137:-1 138:1 139:1 140:1 141:1 142:1 143:1 146:1 147:-1 148:-1 149:1 150:1 151:1 152:1 153:1 154:1 155:1 158:1 159:1 160:1 161:1 162:1 163:1 164:1 165:1 166:1 167:1 170:1 171:1 172:1 176:1 177:1 178:1 179:1 
-0 -0 -0 0 27.96759309900691 0 5.555162747986049 0 0 0 0 0 0 0 0 0 0 0 0 14:1 15:1 16:1 18:1 19:1 20:1 21:1 22:1 23:1 26:1 27:1 28:1 29:1 30:1 31:1 32:-1 33:-1 34:1 35:1 38:1 39:1 40:1 41:-1 42:-1 43:-1 44:-1 45:-1 46:1 47:1 50:1 51:-1 52:-1 53:-1 54:-1 55:-1 56:-1 57:-1 58:1 59:1 62:1 63:-1 64:-1 65:1 66:1 67:1 68:-1 69:-1 70:1 71:1 74:1 75:-1 76:-1 77:1 78:1 79:1 80:-1 81:1 82:1 83:1 86:1 87:1 88:1 89:1 90:1 91:-1 92:-1 93:1 94:1 95:1 98:1 99:1 100:1 101:1 102:1 103:-1 104:1 105:1 106:1 107:1 110:1 111:1 112:1 113:1 114:-1 115:-1 116:1 117:1 118:1 119:1 122:1 123:1 124:1 125:1 126:-1 127:-1 128:1 129:1 130:1 131:1 134:1 135:1 136:1 137:1 138:-1 139:-1 140:1 141:1 142:1 143:1 146:1 147:1 148:1 149:-1 150:-1 151:1 152:1 153:1 154:1 155:1 158:1 159:1 160:1 161:1 162:1 163:1 164:1 165:1 166:1 167:1 170:1 171:1 172:1 176:1 177:1 178:1 179:1 
-0 -0 -0 0 0 0 0 0 0 0 2.340206537984471 0 0 0 0 0 0 0 0 14:1 15:1 16:1 18:1 19:1 20:1 21:1 22:1 23:1 26:1 27:1 28:1 29:1 30:1 31:-1 32:-1 33:-1 34:1 35:1 38:1 39:1 40:1 41:-1 42:-1 43:-1 44:-1 45:-1 46:1 47:1 50:1 51:-1 52:-1 53:-1 54:-1 55:1 56:-1 57:-1 58:1 59:1 62:1 63:-1 64:-1 65:1 66:1 67:1 68:-1 69:-1 70:1 71:1 74:1 75:-1 76:-1 77:1 78:1 79:-1 80:-1 81:1 82:1 83:1 86:1 87:1 88:1 89:1 90:1 91:-1 92:-1 93:1 94:1 95:1 98:1 99:1 100:1 101:1 102:1 103:-1 104:1 105:1 106:1 107:1 110:1 111:1 112:1 113:1 114:-1 115:-1 116:1 117:1 118:1 119:1 122:1 123:1 124:1 125:1 126:-1 127:-1 128:1 129:1 130:1 131:1 134:1 135:1 136:1 137:1 138:-1 139:1 140:1 141:1 142:1 143:1 146:1 147:1 148:1 149:-1 150:-1 151:1 152:1 153:1 154:1 155:1 158:1 159:1 160:1 161:1 162:1 163:1 164:1 165:1 166:1 167:1 170:1 171:1 172:1 176:1 177:1 178:1 179:1 
-0 -0 -0 0 4.934889277159353 27.39579432882816 0 11.87677687605331 0 0 0 0 0 32.83681020431768 0 0 0 0 0 14:1 15:1 16:1 18:1 19:1 20:1 21:1 22:1 23:1 26:1 27:-1 28:1 29:1 30:1 31:1 32:1 33:1 34:1 35:1 38:1 39:-1 40:-1 41:-1 42:1 43:1 44:1 45:1 46:1 47:1 50:1 51:-1 52:-1 53:-1 54:-1 55:-1 56:-1 57:-1 58:1 59:1 62:1 63:1 64:-1 65:1 66:-1 67:-1 68:-1 69:-1 70:1 71:1 74:1 75:1 76:1 77:1 78:1 79:1 80:-1 81:-1 82:1 83:1 86:1 87:1 88:1 89:1 90:1 91:1 92:-1 93:-1 94:1 95:1 98:1 99:1 100:1 101:1 102:1 103:-1 104:-1 105:1 106:1 107:1 110:1 111:1 112:1 113:1 114:1 115:-1 116:-1 117:1 118:1 119:1 122:1 123:1 124:1 125:1 126:-1 127:-1 128:1 129:1 130:1 131:1 134:1 135:1 136:1 137:1 138:-1 139:-1 140:1 141:1 142:1 143:1 146:1 147:1 148:1 149:-1 150:-1 151:-1 152:1 153:1 154:1 155:1 158:1 159:1 160:1 161:1 162:-1 163:1 164:1 165:1 166:1 167:1 170:1 171:1 172:1 176:1 177:1 178:1 179:1 
-0 -0 -0 0 5.620386667941434 0 0 0 0 0 0 0 0 0 0 0 0 0 11.86429032071 14:1 15:1 16:1 18:1 19:1 20:1 21:1 22:1 23:1 26:1 27:1 28:1 29:1 30:1 31:1 32:1 33:1 34:1 35:1 38:1 39:1 40:-1 41:-1 42:-1 43:-1 44:-1 45:-1 46:1 47:1 50:1 51:-1 52:-1 53:-1 54:-1 55:-1 56:-1 57:-1 58:1 59:1 62:1 63:-1 64:-1 65:1 66:1 67:1 68:-1 69:-1 70:1 71:1 74:1 75:-1 76:1 77:1 78:1 79:1 80:-1 81:-1 82:1 83:1 86:1 87:1 88:1 89:1 90:1 91:-1 92:-1 93:1 94:1 95:1 98:1 99:1 100:1 101:1 102:1 103:-1 104:-1 105:1 106:1 107:1 110:1 111:1 112:1 113:1 114:-1 115:-1 116:1 117:1 118:1 119:1 122:1 123:1 124:1 125:1 126:-1 127:-1 128:1 129:1 130:1 131:1 134:1 135:1 136:1 137:1 138:-1 139:-1 140:1 141:1 142:1 143:1 146:1 147:1 148:1 149:-1 150:-1 151:1 152:1 153:1 154:1 155:1 158:1 159:1 160:1 161:1 162:1 163:1 164:1 165:1 166:1 167:1 170:1 171:1 172:1 176:1 177:1 178:1 179:1 
-0 -7.36190226112454 -0 0 0 3.376418141984979 0 0 0 0 0 12.84708704406751 0 0 0 0 0 0 13.09989084189489 14:1 15:1 16:1 18:1 19:1 20:1 21:1 22:1 23:1 26:1 27:1 28:1 29:1 30:1 31:1 32:1 33:1 34:1 35:1 38:1 39:-1 40:-1 41:-1 42:-1 43:-1 44:1 45:1 46:1 47:1 50:1 51:-1 52:-1 53:-1 54:-1 55:-1 56:-1 57:-1 58:1 59:1 62:1 63:-1 64:-1 65:1 66:1 67:1 68:-1 69:-1 70:1 71:1 74:1 75:1 76:1 77:1 78:1 79:1 80:-1 81:-1 82:1 83:1 86:1 87:1 88:1 89:1 90:1 91:-1 92:-1 93:-1 94:1 95:1 98:1 99:1 100:1 101:1 102:1 103:-1 104:-1 105:1 106:1 107:1 110:1 111:1 112:1 113:1 114:-1 115:-1 116:-1 117:1 118:1 119:1 122:1 123:1 124:1 125:1 126:-1 127:-1 128:1 129:1 130:1 131:1 134:1 135:1 136:1 137:1 138:-1 139:-1 140:1 141:1 142:1 143:1 146:1 147:1 148:1 149:-1 150:-1 151:1 152:1 153:1 154:1 155:1 158:1 159:1 160:1 161:1 162:1 163:1 164:1 165:1 166:1 167:1 170:1 171:1 172:1 176:1 177:1 178:1 179:1 
-22.5195313496056 -40.79546563496734 -21.85363764568933 30.38405156130885 16.78902519391139 45.65830020304739 0 12.82741227113643 15.75606067840319 17.69103957528674 21.12053686301457 14.80193388880635 15.36543108161225 4.699974796463636 0 14.28985125130835 21.83331841185613 0 9.742840402154197 14:1 15:1 16:1 18:1 19:1 20:1 21:1 22:1 23:1 26:1 27:-1 28:1 29:1 30:1 31:1 32:1 33:1 34:1 35:1 38:1 39:-1 40:-1 41:-1 42:1 43:1 44:1 45:1 46:1 47:1 50:1 51:-1 52:-1 53:-1 54:-1 55:-1 56:-1 57:1 58:1 59:1 62:1 63:1 64:-1 65:1 66:-1 67:-1 68:-1 69:-1 70:1 71:1 74:1 75:1 76:1 77:1 78:1 79:1 80:-1 81:-1 82:1 83:1 86:1 87:1 88:1 89:1 90:1 91:1 92:-1 93:-1 94:1 95:1 98:1 99:1 100:1 101:1 102:1 103:-1 104:-1 105:-1 106:1 107:1 110:1 111:1 112:1 113:1 114:1 115:-1 116:-1 117:1 118:1 119:1 122:1 123:1 124:1 125:1 126:-1 127:-1 128:1 129:1 130:1 131:1 134:1 135:1 136:1 137:1 138:-1 139:-1 140:1 141:1 142:1 143:1 146:1 147:1 148:1 149:-1 150:-1 151:-1 152:1 153:1 154:1 155:1 158:1 159:1 160:1 161:1 162:-1 163:1 164:1 165:1 166:1 167:1 170:1 171:1 172:1 176:1 177:1 178:1 179:1 
-0 -0 -0 0 57.9141743135467 0 16.77828545391895 0 0 0 2.884013696799185 0 10.72903804038227 0 5.362025863570654 20.37441358063492 0 40.38965162629823 31.77435236245553 14:1 15:1 16:1 18:1 19:1 20:1 21:1 22:1 23:1 26:1 27:1 28:1 29:1 30:1 31:1 32:1 33:1 34:1 35:1 38:1 39:-1 40:-1 41:-1 42:-1 43:1 44:1 45:1 46:1 47:1 50:1 51:-1 52:-1 53:-1 54:-1 55:-1 56:-1 57:-1 58:1 59:1 62:1 63:-1 64:-1 65:1 66:1 67:-1 68:-1 69:-1 70:1 71:1 74:1 75:1 76:1 77:1 78:1 79:1 80:-1 81:-1 82:1 83:1 86:1 87:1 88:1 89:1 90:1 91:1 92:-1 93:-1 94:1 95:1 98:1 99:1 100:1 101:1 102:1 103:-1 104:-1 105:1 106:1 107:1 110:1 111:1 112:1 113:1 114:-1 115:-1 116:-1 117:1 118:1 119:1 122:1 123:1 124:1 125:1 126:-1 127:-1 128:1 129:1 130:1 131:1 134:1 135:1 136:1 137:1 138:-1 139:-1 140:1 141:1 142:1 143:1 146:1 147:1 148:1 149:-1 150:-1 151:-1 152:1 153:1 154:1 155:1 158:1 159:1 160:1 161:1 162:1 163:1 164:1 165:1 166:1 167:1 170:1 171:1 172:1 176:1 177:1 178:1 179:1 
-9.282689953557926 -22.76473920704425 -8.836553822182694 0.3285633528200114 18.10102256595319 21.90644297111891 6.384985639616357 17.50180314212478 0 0 0 1.076053651137879 15.08863185858409 0 5.598326257759596 0 0 0 0 14:1 15:1 16:1 18:1 19:1 20:1 21:1 22:1 23:1 26:1 27:1 28:1 29:1 30:1 31:1 32:-1 33:-1 34:1 35:1 38:1 39:1 40:1 41:1 42:-1 43:-1 44:-1 45:-1 46:1 47:1 50:1 51:-1 52:-1 53:-1 54:-1 55:-1 56:-1 57:-1 58:1 59:1 62:1 63:-1 64:-1 65:-1 66:1 67:1 68:-1 69:1 70:1 71:1 74:1 75:-1 76:-1 77:1 78:1 79:-1 80:1 81:1 82:1 83:1 86:1 87:1 88:1 89:1 90:-1 91:-1 92:1 93:1 94:1 95:1 98:1 99:1 100:1 101:1 102:-1 103:-1 104:1 105:1 106:1 107:1 110:1 111:1 112:1 113:1 114:-1 115:1 116:1 117:1 118:1 119:1 122:1 123:1 124:1 125:-1 126:1 127:1 128:1 129:1 130:1 131:1 134:1 135:1 136:-1 137:-1 138:1 139:1 140:1 141:1 142:1 143:1 146:1 147:1 148:-1 149:-1 150:1 151:1 152:1 153:1 154:1 155:1 158:1 159:-1 160:-1 161:1 162:1 163:1 164:1 165:1 166:1 167:1 170:1 171:1 172:1 176:1 177:1 178:1 179:1 
-0 -0 -0 0 11.13176316653537 13.2568973414536 0 0 0 0 3.41348715594241 0 42.92135439582866 0 0 0 0 0 0 14:1 15:1 16:1 18:1 19:1 20:1 21:1 22:1 23:1 26:1 27:1 28:1 29:1 30:-1 31:-1 32:-1 33:-1 34:1 35:1 38:1 39:-1 40:-1 41:-1 42:-1 43:-1 44:-1 45:-1 46:1 47:1 50:1 51:-1 52:-1 53:-1 54:1 55:1 56:-1 57:-1 58:1 59:1 62:1 63:-1 64:-1 65:1 66:1 67:1 68:-1 69:-1 70:1 71:1 74:1 75:1 76:1 77:1 78:1 79:-1 80:-1 81:1 82:1 83:1 86:1 87:1 88:1 89:1 90:1 91:-1 92:-1 93:1 94:1 95:1 98:1 99:1 100:1 101:1 102:-1 103:-1 104:1 105:1 106:1 107:1 110:1 111:1 112:1 113:1 114:-1 115:-1 116:1 117:1 118:1 119:1 122:1 123:1 124:1 125:1 126:-1 127:-1 128:1 129:1 130:1 131:1 134:1 135:1 136:1 137:1 138:-1 139:1 140:1 141:1 142:1 143:1 146:1 147:1 148:1 149:-1 150:1 151:1 152:1 153:1 154:1 155:1 158:1 159:1 160:1 161:1 162:1 163:1 164:1 165:1 166:1 167:1 170:1 171:1 172:1 176:1 177:1 178:1 179:1 
-19.80148973944669 -36.57352059214093 -10.61848092442255 51.15645673108045 63.5010088600842 37.10425278294811 26.21636777913817 54.35801861433012 38.74077578333513 18.60786449737836 11.04744294544525 10.91698937352094 2.036720740346586 39.08705498810271 13.86012699888623 5.921371532327806 22.36176978852879 0 21.68685044341032 14:1 15:1 16:1 18:1 19:1 20:-1 21:-1 22:1 23:1 26:1 27:1 28:1 29:1 30:-1 31:-1 32:-1 33:-1 34:1 35:1 38:1 39:1 40:-1 41:-1 42:-1 43:-1 44:-1 45:-1 46:1 47:1 50:1 51:-1 52:-1 53:-1 54:1 55:1 56:-1 57:1 58:1 59:1 62:1 63:-1 64:-1 65:1 66:1 67:-1 68:1 69:1 70:1 71:1 74:1 75:-1 76:1 77:1 78:-1 79:-1 80:1 81:1 82:1 83:1 86:1 87:1 88:1 89:1 90:-1 91:-1 92:1 93:1 94:1 95:1 98:1 99:1 100:1 101:1 102:-1 103:1 104:1 105:1 106:1 107:1 110:1 111:1 112:1 113:-1 114:1 115:1 116:1 117:1 118:1 119:1 122:1 123:1 124:-1 125:-1 126:1 127:1 128:1 129:1 130:1 131:1 134:1 135:1 136:-1 137:-1 138:1 139:1 140:1 141:1 142:1 143:1 146:1 147:1 148:-1 149:1 150:1 151:1 152:1 153:1 154:1 155:1 158:1 159:-1 160:1 161:1 162:1 163:1 164:1 165:1 166:1 167:1 170:1 171:1 172:1 176:1 177:1 178:1 179:1 
-25.24426396910013 -12.2362771486344 -15.38870734138355 24.10334410276358 9.919979269102013 21.12469473884201 29.40722206340161 19.85183656131217 14.98244107805175 23.63351419938723 34.65990922363374 30.9731042946812 22.26958763034005 6.040274384875539 28.76694339952501 31.69039849824772 26.68432863210579 33.63646215745661 5.791384021176579 14:1 15:1 16:1 18:1 19:1 20:1 21:1 22:1 23:1 26:1 27:1 28:1 29:1 30:1 31:1 32:1 33:-1 34:1 35:1 38:1 39:1 40:1 41:1 42:1 43:-1 44:-1 45:-1 46:1 47:1 50:1 51:1 52:-1 53:-1 54:-1 55:-1 56:-1 57:-1 58:1 59:1 62:1 63:-1 64:-1 65:-1 66:-1 67:1 68:-1 69:-1 70:1 71:1 74:1 75:-1 76:-1 77:1 78:1 79:1 80:-1 81:1 82:1 83:1 86:1 87:-1 88:1 89:1 90:1 91:-1 92:-1 93:1 94:1 95:1 98:1 99:1 100:1 101:1 102:1 103:-1 104:-1 105:1 106:1 107:1 110:1 111:1 112:1 113:1 114:1 115:-1 116:1 117:1 118:1 119:1 122:1 123:1 124:1 125:1 126:-1 127:-1 128:1 129:1 130:1 131:1 134:1 135:1 136:1 137:1 138:-1 139:-1 140:1 141:1 142:1 143:1 146:1 147:1 148:1 149:1 150:-1 151:1 152:1 153:1 154:1 155:1 158:1 159:1 160:1 161:-1 162:-1 163:1 164:1 165:1 166:1 167:1 170:1 171:1 172:1 176:1 177:1 178:1 179:1 
-0 -0 -0 0 0 15.15200284888043 0 0 0 0 0 0 0 0 0 0 0 0 0 14:1 15:1 16:1 18:1 19:1 20:1 21:1 22:1 23:1 26:1 27:1 28:1 29:1 30:1 31:-1 32:-1 33:-1 34:1 35:1 38:1 39:1 40:-1 41:-1 42:-1 43:-1 44:-1 45:-1 46:1 47:1 50:1 51:-1 52:-1 53:-1 54:-1 55:1 56:-1 57:-1 58:1 59:1 62:1 63:-1 64:-1 65:1 66:1 67:1 68:-1 69:-1 70:1 71:1 74:1 75:-1 76:1 77:1 78:1 79:-1 80:-1 81:1 82:1 83:1 86:1 87:1 88:1 89:1 90:1 91:-1 92:-1 93:1 94:1 95:1 98:1 99:1 100:1 101:1 102:1 103:-1 104:1 105:1 106:1 107:1 110:1 111:1 112:1 113:1 114:-1 115:-1 116:1 117:1 118:1 119:1 122:1 123:1 124:1 125:1 126:-1 127:-1 128:1 129:1 130:1 131:1 134:1 135:1 136:1 137:1 138:-1 139:1 140:1 141:1 142:1 143:1 146:1 147:1 148:1 149:-1 150:-1 151:1 152:1 153:1 154:1 155:1 158:1 159:1 160:1 161:1 162:1 163:1 164:1 165:1 166:1 167:1 170:1 171:1 172:1 176:1 177:1 178:1 179:1 
-3.371257846781693 -0 -14.9234794971562 0 0 27.03525175404511 10.19279060921981 13.73046943821782 2.227874930273125 5.710817100364775 19.28356904873972 15.02086971189998 39.35118225345156 0.4833304698601144 16.94474598039452 25.81734773782334 0.3808269470780843 12.23986058881674 6.74278375600197 14:1 15:1 16:1 18:1 19:1 20:1 21:1 22:1 23:1 26:1 27:1 28:1 29:1 30:1 31:-1 32:-1 33:-1 34:1 35:1 38:1 39:1 40:1 41:-1 42:-1 43:-1 44:-1 45:-1 46:1 47:1 50:1 51:-1 52:-1 53:-1 54:-1 55:1 56:-1 57:-1 58:1 59:1 62:1 63:-1 64:-1 65:1 66:1 67:-1 68:-1 69:1 70:1 71:1 74:1 75:-1 76:-1 77:1 78:1 79:-1 80:1 81:1 82:1 83:1 86:1 87:1 88:1 89:1 90:-1 91:-1 92:1 93:1 94:1 95:1 98:1 99:1 100:1 101:1 102:-1 103:1 104:1 105:1 106:1 107:1 110:1 111:1 112:1 113:-1 114:-1 115:1 116:1 117:1 118:1 119:1 122:1 123:1 124:1 125:-1 126:1 127:1 128:1 129:1 130:1 131:1 134:1 135:1 136:-1 137:-1 138:1 139:1 140:1 141:1 142:1 143:1 146:1 147:1 148:-1 149:1 150:1 151:1 152:1 153:1 154:1 155:1 158:1 159:-1 160:-1 161:1 162:1 163:1 164:1 165:1 166:1 167:1 170:1 171:1 172:1 176:1 177:1 178:1 179:1 
-10.90163604267663 -0 -13.16049693494377 12.60585329138221 54.99146638204967 0 15.67032337735313 19.21277764272668 33.93858522102492 13.92341403168086 8.731394505843415 32.37663244599477 75.93342211507452 11.2554664131191 19.65873223115736 19.01334895300797 23.86452569246737 9.997845045696666 13.66300958621857 14:1 15:1 16:1 18:1 19:1 20:1 21:1 22:1 23:1 26:1 27:1 28:1 29:1 30:1 31:1 32:1 33:1 34:1 35:1 38:1 39:-1 40:-1 41:1 42:1 43:1 44:1 45:1 46:1 47:1 50:1 51:-1 52:-1 53:-1 54:-1 55:-1 56:1 57:1 58:1 59:1 62:1 63:-1 64:-1 65:-1 66:-1 67:-1 68:-1 69:-1 70:1 71:1 74:1 75:1 76:1 77:1 78:1 79:1 80:-1 81:-1 82:1 83:1 86:1 87:1 88:1 89:1 90:1 91:-1 92:-1 93:-1 94:1 95:1 98:1 99:1 100:1 101:1 102:-1 103:-1 104:-1 105:1 106:1 107:1 110:1 111:1 112:1 113:1 114:-1 115:-1 116:1 117:1 118:1 119:1 122:1 123:1 124:-1 125:-1 126:-1 127:1 128:1 129:1 130:1 131:1 134:1 135:1 136:-1 137:-1 138:1 139:1 140:1 141:1 142:1 143:1 146:1 147:-1 148:-1 149:-1 150:1 151:1 152:1 153:1 154:1 155:1 158:1 159:1 160:1 161:1 162:1 163:1 164:1 165:1 166:1 167:1 170:1 171:1 172:1 176:1 177:1 178:1 179:1 
-0 -0 -0 0 0 0 1.107048789193673 0.1112919864281918 0 0 0 0 23.95006961686669 0 0 0 0 1.581571725432308 0 14:1 15:1 16:1 18:1 19:1 20:1 21:1 22:1 23:1 26:1 27:1 28:1 29:1 30:1 31:1 32:-1 33:-1 34:1 35:1 38:1 39:1 40:1 41:1 42:-1 43:-1 44:-1 45:-1 46:1 47:1 50:1 51:-1 52:-1 53:-1 54:-1 55:-1 56:-1 57:-1 58:1 59:1 62:1 63:-1 64:-1 65:-1 66:1 67:1 68:-1 69:-1 70:1 71:1 74:1 75:-1 76:-1 77:1 78:1 79:1 80:-1 81:1 82:1 83:1 86:1 87:1 88:1 89:1 90:1 91:-1 92:-1 93:1 94:1 95:1 98:1 99:1 100:1 101:1 102:1 103:-1 104:1 105:1 106:1 107:1 110:1 111:1 112:1 113:1 114:-1 115:-1 116:1 117:1 118:1 119:1 122:1 123:1 124:1 125:1 126:-1 127:-1 128:1 129:1 130:1 131:1 134:1 135:1 136:1 137:1 138:-1 139:-1 140:1 141:1 142:1 143:1 146:1 147:1 148:1 149:1 150:-1 151:1 152:1 153:1 154:1 155:1 158:1 159:1 160:1 161:-1 162:1 163:1 164:1 165:1 166:1 167:1 170:1 171:1 172:1 176:1 177:1 178:1 179:1 
-120.4562495308636 -124.5551680822877 -39.5579357854461 -1.404211240880256 15.90939694190854 26.61460047794262 11.37355961375041 39.37403212558554 4.399312183439652 32.24456310672905 55.00643493607078 34.2176633038882 11.43034861273301 33.38782279572693 20.10341295284096 25.50729339545188 20.58738473589879 1.134675077453919 6.924294246199167 14:1 15:1 16:1 18:1 19:1 20:1 21:1 22:1 23:1 26:1 27:1 28:1 29:1 30:1 31:1 32:-1 33:-1 34:-1 35:1 38:1 39:1 40:1 41:1 42:-1 43:-1 44:1 45:1 46:1 47:1 50:1 51:1 52:1 53:-1 54:-1 55:-1 56:1 57:1 58:1 59:1 62:1 63:1 64:1 65:-1 66:-1 67:1 68:-1 69:1 70:1 71:1 74:1 75:1 76:-1 77:-1 78:-1 79:-1 80:-1 81:-1 82:1 83:1 86:1 87:1 88:-1 89:-1 90:-1 91:-1 92:1 93:-1 94:-1 95:1 98:1 99:1 100:-1 101:-1 102:1 103:1 104:1 105:-1 106:-1 107:1 110:1 111:1 112:-1 113:-1 114:1 115:1 116:-1 117:-1 118:1 119:1 122:1 123:-1 124:-1 125:1 126:1 127:1 128:-1 129:-1 130:1 131:1 134:1 135:-1 136:-1 137:-1 138:-1 139:-1 140:-1 141:1 142:1 143:1 146:1 147:-1 148:-1 149:-1 150:-1 151:-1 152:1 153:1 154:1 155:1 158:1 159:1 160:1 161:1 162:1 163:1 164:1 165:1 166:1 167:1 170:1 171:1 172:1 176:1 177:1 178:1 179:1 
-0 -0.2874020791430829 -0 -0 0 0 0 0 0 0 0 0 0 0 0 0 0 0 0 14:1 15:1 16:1 18:1 19:1 20:1 21:1 22:1 23:1 26:1 27:1 28:1 29:1 30:1 31:-1 32:-1 33:-1 34:1 35:1 38:1 39:1 40:1 41:-1 42:-1 43:1 44:1 45:1 46:1 47:1 50:1 51:1 52:-1 53:-1 54:1 55:1 56:1 57:1 58:1 59:1 62:1 63:-1 64:-1 65:1 66:1 67:-1 68:1 69:1 70:1 71:1 74:1 75:-1 76:-1 77:-1 78:-1 79:-1 80:-1 81:1 82:1 83:1 86:1 87:-1 88:-1 89:-1 90:-1 91:1 92:-1 93:-1 94:1 95:1 98:1 99:-1 100:-1 101:1 102:1 103:1 104:-1 105:-1 106:1 107:1 110:1 111:-1 112:-1 113:1 114:1 115:1 116:-1 117:-1 118:1 119:1 122:1 123:-1 124:-1 125:1 126:1 127:-1 128:-1 129:-1 130:1 131:1 134:1 135:-1 136:-1 137:-1 138:-1 139:-1 140:-1 141:1 142:1 143:1 146:1 147:-1 148:-1 149:-1 150:-1 151:1 152:1 153:1 154:1 155:1 158:1 159:-1 160:-1 161:1 162:1 163:1 164:1 165:1 166:1 167:1 170:1 171:1 172:1 176:1 177:1 178:1 179:1 
-0 -42.1035823453402 -47.93621390866063 -31.66251444383782 27.8763394751593 4.674719569528201 36.0376686558533 25.51797295488077 10.48802510507309 0 32.1193798796476 25.14273273096455 28.14947610574336 26.59612931536938 14.69606510448187 32.14003288348101 19.81698031352606 27.86069141169352 31.53014519490756 14:1 15:1 16:1 18:1 19:1 20:-1 21:-1 22:-1 23:1 26:1 27:1 28:1 29:1 30:-1 31:-1 32:1 33:1 34:1 35:1 38:1 39:1 40:1 41:1 42:-1 43:-1 44:1 45:1 46:1 47:1 50:1 51:1 52:1 53:-1 54:-1 55:1 56:-1 57:1 58:1 59:1 62:1 63:1 64:1 65:-1 66:-1 67:-1 68:-1 69:-1 70:1 71:1 74:1 75:1 76:-1 77:-1 78:-1 79:-1 80:1 81:-1 82:-1 83:1 86:1 87:1 88:-1 89:-1 90:1 91:1 92:1 93:-1 94:-1 95:1 98:1 99:1 100:-1 101:-1 102:1 103:1 104:-1 105:-1 106:1 107:1 110:1 111:1 112:-1 113:-1 114:1 115:1 116:-1 117:-1 118:1 119:1 122:1 123:1 124:-1 125:1 126:-1 127:-1 128:-1 129:1 130:1 131:1 134:1 135:-1 136:-1 137:-1 138:-1 139:-1 140:1 141:1 142:1 143:1 146:1 147:-1 148:-1 149:-1 150:1 151:1 152:1 153:1 154:1 155:1 158:1 159:-1 160:1 161:1 162:1 163:1 164:1 165:1 166:1 167:1 170:1 171:1 172:1 176:1 177:1 178:1 179:1 
-11.69445493560242 -38.65126065278911 -19.40815585593546 -15.72803261190676 23.8152665999202 18.33938136602924 6.983131639684308 16.89300850608356 22.7593088777753 9.914475607332623 42.82921191369112 3.459172222271327 13.44023901279586 49.60041967887342 0 18.93282246518105 22.56338899528606 0.3370468039359222 21.29249402968997 14:1 15:1 16:1 18:1 19:1 20:1 21:1 22:1 23:1 26:1 27:1 28:-1 29:-1 30:-1 31:1 32:1 33:1 34:1 35:1 38:1 39:-1 40:-1 41:-1 42:1 43:-1 44:-1 45:-1 46:1 47:1 50:1 51:-1 52:-1 53:1 54:1 55:1 56:1 57:1 58:1 59:1 62:1 63:-1 64:-1 65:-1 66:-1 67:1 68:1 69:1 70:1 71:1 74:1 75:-1 76:-1 77:-1 78:-1 79:-1 80:1 81:1 82:1 83:1 86:1 87:-1 88:-1 89:1 90:1 91:-1 92:-1 93:1 94:1 95:1 98:1 99:-1 100:-1 101:1 102:1 103:1 104:-1 105:-1 106:1 107:1 110:1 111:-1 112:-1 113:1 114:1 115:1 116:-1 117:-1 118:1 119:1 122:1 123:-1 124:-1 125:-1 126:-1 127:1 128:-1 129:-1 130:1 131:1 134:1 135:-1 136:-1 137:-1 138:-1 139:-1 140:-1 141:-1 142:1 143:1 146:1 147:1 148:1 149:1 150:1 151:-1 152:-1 153:1 154:1 155:1 158:1 159:1 160:1 161:1 162:1 163:1 164:1 165:1 166:1 167:1 170:1 171:1 172:1 176:1 177:1 178:1 179:1 
-36.56403914494159 -39.23422137796603 -1.851356153137741 -2.843142448710343 10.85926276532311 33.3586879272953 0 36.92384724578362 31.28818883270853 28.93591464485337 0.2157870572628145 11.68180394134569 9.738772893519617 18.94532513286024 3.999263813304137 14.28568521697296 16.04044109841871 1.008515459449894 0 14:1 15:1 16:1 18:1 19:1 20:1 21:-1 22:-1 23:1 26:1 27:1 28:1 29:1 30:1 31:-1 32:-1 33:1 34:1 35:1 38:1 39:1 40:1 41:1 42:-1 43:-1 44:1 45:1 46:1 47:1 50:1 51:1 52:1 53:-1 54:-1 55:1 56:1 57:1 58:1 59:1 62:1 63:1 64:1 65:-1 66:-1 67:-1 68:-1 69:-1 70:1 71:1 74:1 75:1 76:-1 77:-1 78:-1 79:-1 80:-1 81:-1 82:-1 83:1 86:1 87:1 88:-1 89:-1 90:-1 91:1 92:1 93:-1 94:-1 95:1 98:1 99:1 100:-1 101:-1 102:1 103:1 104:1 105:-1 106:1 107:1 110:1 111:1 112:-1 113:-1 114:1 115:1 116:-1 117:-1 118:1 119:1 122:1 123:1 124:-1 125:1 126:1 127:-1 128:-1 129:1 130:1 131:1 134:1 135:-1 136:-1 137:-1 138:-1 139:-1 140:-1 141:1 142:1 143:1 146:1 147:-1 148:-1 149:-1 150:-1 151:1 152:1 153:1 154:1 155:1 158:1 159:-1 160:1 161:1 162:1 163:1 164:1 165:1 166:1 167:1 170:1 171:1 172:1 176:1 177:1 178:1 179:1 
-32.34763299674664 -0 -10.65866393237368 -18.2693414976481 22.95522264683133 3.111555541243736 28.32088219425894 12.10045515237965 34.55119010348921 15.14559245692986 0 33.95789797717568 11.82930949924243 0 10.36604475227965 15.26263799524478 21.1885272157222 13.66279155761633 26.03137827398358 14:1 15:1 16:1 18:1 19:1 20:1 21:1 22:1 23:1 26:1 27:1 28:1 29:1 30:1 31:1 32:1 33:-1 34:1 35:1 38:1 39:1 40:1 41:1 42:1 43:-1 44:-1 45:1 46:1 47:1 50:1 51:1 52:-1 53:-1 54:-1 55:1 56:1 57:1 58:1 59:1 62:1 63:-1 64:-1 65:-1 66:1 67:1 68:1 69:1 70:1 71:1 74:1 75:-1 76:-1 77:1 78:1 79:-1 80:1 81:1 82:1 83:1 86:1 87:-1 88:-1 89:-1 90:-1 91:-1 92:-1 93:-1 94:1 95:1 98:1 99:-1 100:-1 101:-1 102:-1 103:1 104:-1 105:-1 106:1 107:1 110:1 111:-1 112:-1 113:1 114:1 115:1 116:-1 117:-1 118:1 119:1 122:1 123:-1 124:-1 125:1 126:1 127:1 128:-1 129:-1 130:1 131:1 134:1 135:-1 136:-1 137:1 138:1 139:-1 140:-1 141:1 142:1 143:1 146:1 147:-1 148:-1 149:-1 150:-1 151:-1 152:-1 153:1 154:1 155:1 158:1 159:-1 160:-1 161:-1 162:-1 163:1 164:1 165:1 166:1 167:1 170:1 171:1 172:1 176:1 177:1 178:1 179:1 
-0 -0 -2.303025944208709 -0 5.120096918740598 0 27.04681023073279 0 16.60589881748537 3.953055722695161 3.923757890954772 11.29008242739946 4.853553908363488 0 11.33772505726921 22.86574401402507 0 4.579543489063172 0 14:1 15:1 16:1 18:1 19:1 20:1 21:1 22:1 23:1 26:1 27:1 28:1 29:-1 30:-1 31:-1 32:-1 33:-1 34:1 35:1 38:1 39:1 40:-1 41:-1 42:1 43:1 44:1 45:1 46:1 47:1 50:1 51:-1 52:-1 53:1 54:1 55:1 56:1 57:1 58:1 59:1 62:1 63:-1 64:-1 65:-1 66:-1 67:-1 68:1 69:1 70:1 71:1 74:1 75:-1 76:-1 77:-1 78:-1 79:-1 80:-1 81:1 82:1 83:1 86:1 87:-1 88:-1 89:1 90:1 91:1 92:-1 93:-1 94:1 95:1 98:1 99:-1 100:-1 101:1 102:1 103:1 104:-1 105:-1 106:1 107:1 110:1 111:-1 112:-1 113:1 114:1 115:1 116:-1 117:-1 118:1 119:1 122:1 123:-1 124:-1 125:-1 126:-1 127:-1 128:-1 129:-1 130:1 131:1 134:1 135:-1 136:-1 137:-1 138:-1 139:-1 140:-1 141:1 142:1 143:1 146:1 147:-1 148:-1 149:1 150:1 151:1 152:1 153:1 154:1 155:1 158:1 159:1 160:1 161:1 162:1 163:1 164:1 165:1 166:1 167:1 170:1 171:1 172:1 176:1 177:1 178:1 179:1 
-49.87537609645801 -40.99816930741278 -19.93138678257045 -22.60813618525044 22.41497416328091 17.63533449334958 37.34674918317127 26.09801182544087 14.82723842553277 24.22877067780756 15.1237908858714 48.16751527259924 17.61332081829136 9.295874940024101 35.95409151428687 29.73209037572096 22.79040063370413 17.00246512724031 23.50959452323666 14:1 15:1 16:1 18:1 19:1 20:1 21:1 22:1 23:1 26:1 27:1 28:1 29:-1 30:-1 31:1 32:1 33:1 34:1 35:1 38:1 39:1 40:-1 41:-1 42:-1 43:-1 44:-1 45:-1 46:1 47:1 50:1 51:1 52:-1 53:-1 54:1 55:1 56:1 57:1 58:-1 59:1 62:1 63:-1 64:-1 65:-1 66:-1 67:1 68:1 69:1 70:1 71:1 74:1 75:-1 76:-1 77:-1 78:-1 79:-1 80:1 81:1 82:1 83:1 86:1 87:-1 88:-1 89:1 90:1 91:-1 92:-1 93:1 94:1 95:1 98:1 99:-1 100:-1 101:1 102:1 103:1 104:-1 105:-1 106:1 107:1 110:-1 111:-1 112:1 113:1 114:1 115:1 116:-1 117:-1 118:1 119:1 122:-1 123:-1 124:-1 125:-1 126:-1 127:-1 128:-1 129:1 130:1 131:1 134:-1 135:-1 136:-1 137:-1 138:-1 139:-1 140:-1 141:1 142:1 143:1 146:1 147:1 148:1 149:1 150:1 151:-1 152:1 153:1 154:1 155:1 158:1 159:1 160:1 161:1 162:1 163:1 164:1 165:1 166:1 167:1 170:1 171:1 172:1 176:1 177:1 178:1 179:1 
-0 -0 -0 -17.31092975874773 0 4.116282186874007 4.094720049572809 0 0 0 0 0 9.014228822318483 0 0 0 9.765812971598461 0 24.52012387584443 14:1 15:1 16:1 18:1 19:1 20:1 21:1 22:1 23:1 26:1 27:1 28:1 29:1 30:1 31:-1 32:-1 33:-1 34:1 35:1 38:1 39:1 40:-1 41:-1 42:-1 43:1 44:1 45:1 46:1 47:1 50:1 51:-1 52:-1 53:-1 54:1 55:1 56:1 57:1 58:1 59:1 62:1 63:-1 64:-1 65:1 66:1 67:-1 68:1 69:1 70:1 71:1 74:1 75:-1 76:-1 77:-1 78:-1 79:-1 80:-1 81:1 82:1 83:1 86:1 87:-1 88:-1 89:-1 90:-1 91:1 92:-1 93:-1 94:1 95:1 98:1 99:-1 100:-1 101:1 102:1 103:1 104:-1 105:-1 106:1 107:1 110:1 111:-1 112:-1 113:1 114:1 115:1 116:-1 117:-1 118:1 119:1 122:1 123:-1 124:-1 125:1 126:1 127:-1 128:-1 129:-1 130:1 131:1 134:1 135:-1 136:-1 137:-1 138:-1 139:-1 140:-1 141:1 142:1 143:1 146:1 147:-1 148:-1 149:-1 150:-1 151:1 152:1 153:1 154:1 155:1 158:1 159:1 160:1 161:1 162:1 163:1 164:1 165:1 166:1 167:1 170:1 171:1 172:1 176:1 177:1 178:1 179:1 
-0 -0 -0 -6.425109516397657 13.2073895372486 0 0 0 0 6.342738599115691 0 15.25763136082689 3.638882605831274 0 0 2.979081985585045 1.594960274203804 4.558418757977832 0 14:1 15:1 16:1 18:1 19:1 20:-1 21:-1 22:1 23:1 26:1 27:1 28:1 29:1 30:-1 31:-1 32:1 33:1 34:1 35:1 38:1 39:1 40:-1 41:-1 42:1 43:1 44:1 45:1 46:1 47:1 50:1 51:1 52:-1 53:-1 54:1 55:1 56:1 57:1 58:1 59:1 62:1 63:-1 64:-1 65:1 66:-1 67:-1 68:-1 69:1 70:1 71:1 74:1 75:-1 76:-1 77:-1 78:-1 79:-1 80:-1 81:-1 82:1 83:1 86:1 87:-1 88:-1 89:-1 90:1 91:1 92:-1 93:-1 94:1 95:1 98:1 99:-1 100:-1 101:1 102:1 103:1 104:-1 105:-1 106:1 107:1 110:1 111:-1 112:-1 113:1 114:1 115:1 116:-1 117:-1 118:1 119:1 122:1 123:-1 124:-1 125:1 126:-1 127:-1 128:-1 129:1 130:1 131:1 134:1 135:-1 136:-1 137:-1 138:-1 139:-1 140:1 141:1 142:1 143:1 146:1 147:-1 148:-1 149:-1 150:1 151:1 152:1 153:1 154:1 155:1 158:1 159:-1 160:1 161:1 162:1 163:1 164:1 165:1 166:1 167:1 170:1 171:1 172:1 176:1 177:1 178:1 179:1 
-0 -0 -0 -2.326851335975994 0 0 0 0 0 0 0 0 2.527506422756877 0 0 0 0 0 0 14:1 15:1 16:1 18:1 19:1 20:1 21:1 22:-1 23:1 26:1 27:1 28:1 29:1 30:1 31:1 32:-1 33:-1 34:1 35:1 38:1 39:1 40:1 41:1 42:-1 43:-1 44:1 45:1 46:1 47:1 50:1 51:1 52:1 53:-1 54:-1 55:-1 56:1 57:1 58:1 59:1 62:1 63:1 64:1 65:-1 66:-1 67:1 68:-1 69:1 70:1 71:1 74:1 75:1 76:-1 77:-1 78:-1 79:-1 80:-1 81:-1 82:-1 83:1 86:1 87:1 88:-1 89:-1 90:-1 91:-1 92:1 93:-1 94:-1 95:1 98:1 99:1 100:-1 101:-1 102:1 103:1 104:1 105:-1 106:1 107:1 110:1 111:1 112:-1 113:-1 114:1 115:1 116:-1 117:-1 118:1 119:1 122:1 123:1 124:-1 125:1 126:1 127:1 128:-1 129:-1 130:1 131:1 134:1 135:-1 136:-1 137:-1 138:-1 139:-1 140:-1 141:1 142:1 143:1 146:1 147:-1 148:-1 149:-1 150:-1 151:-1 152:1 153:1 154:1 155:1 158:1 159:-1 160:1 161:1 162:1 163:1 164:1 165:1 166:1 167:1 170:1 171:1 172:1 176:1 177:1 178:1 179:1 
-0 -0.6531959218898286 -0 -0 0 0 0 0 0 0 0 0 0 0 0 0 0 0 0 14:1 15:1 16:1 18:1 19:1 20:1 21:1 22:1 23:1 26:1 27:1 28:1 29:1 30:1 31:1 32:1 33:-1 34:1 35:1 38:1 39:1 40:1 41:-1 42:-1 43:-1 44:-1 45:1 46:1 47:1 50:1 51:1 52:-1 53:-1 54:1 55:1 56:1 57:1 58:1 59:1 62:1 63:-1 64:-1 65:1 66:1 67:1 68:1 69:1 70:1 71:1 74:1 75:-1 76:-1 77:-1 78:-1 79:-1 80:1 81:1 82:1 83:1 86:1 87:-1 88:-1 89:-1 90:-1 91:-1 92:-1 93:-1 94:1 95:1 98:1 99:-1 100:-1 101:1 102:1 103:1 104:-1 105:-1 106:1 107:1 110:1 111:-1 112:-1 113:1 114:1 115:1 116:-1 117:-1 118:1 119:1 122:1 123:-1 124:-1 125:1 126:1 127:1 128:-1 129:-1 130:1 131:1 134:1 135:-1 136:-1 137:-1 138:-1 139:-1 140:-1 141:1 142:1 143:1 146:1 147:-1 148:-1 149:-1 150:-1 151:-1 152:-1 153:1 154:1 155:1 158:1 159:-1 160:-1 161:1 162:1 163:1 164:1 165:1 166:1 167:1 170:1 171:1 172:1 176:1 177:1 178:1 179:1 
-0 -0 -0 -0 0 0 0 0 0 0 0 0 0 10.67869258446654 0 0 0 0 0 14:1 15:1 16:1 18:1 19:1 20:1 21:1 22:1 23:1 26:1 27:1 28:1 29:1 30:1 31:-1 32:-1 33:-1 34:1 35:1 38:1 39:1 40:-1 41:-1 42:-1 43:1 44:1 45:1 46:1 47:1 50:1 51:1 52:-1 53:-1 54:1 55:1 56:1 57:1 58:1 59:1 62:1 63:-1 64:-1 65:1 66:1 67:-1 68:1 69:1 70:1 71:1 74:1 75:-1 76:-1 77:-1 78:-1 79:-1 80:-1 81:1 82:1 83:1 86:1 87:-1 88:-1 89:-1 90:-1 91:1 92:-1 93:-1 94:1 95:1 98:1 99:-1 100:-1 101:1 102:1 103:1 104:-1 105:-1 106:1 107:1 110:1 111:-1 112:-1 113:1 114:1 115:1 116:-1 117:-1 118:1 119:1 122:1 123:-1 124:-1 125:1 126:1 127:-1 128:-1 129:-1 130:1 131:1 134:1 135:-1 136:-1 137:-1 138:-1 139:-1 140:-1 141:1 142:1 143:1 146:1 147:-1 148:-1 149:-1 150:-1 151:1 152:1 153:1 154:1 155:1 158:1 159:-1 160:1 161:1 162:1 163:1 164:1 165:1 166:1 167:1 170:1 171:1 172:1 176:1 177:1 178:1 179:1 
-0 -0 -0 -0 0 19.78370087566141 0 0 0 0 0 0 0 0 0 0 0 0 0 14:1 15:1 16:1 18:1 19:1 20:1 21:1 22:1 23:1 26:1 27:1 28:1 29:1 30:1 31:1 32:1 33:1 34:1 35:1 38:1 39:1 40:-1 41:-1 42:-1 43:-1 44:-1 45:-1 46:1 47:1 50:1 51:-1 52:-1 53:-1 54:1 55:1 56:1 57:1 58:1 59:1 62:1 63:-1 64:-1 65:1 66:1 67:1 68:1 69:1 70:1 71:1 74:1 75:-1 76:-1 77:-1 78:-1 79:-1 80:1 81:1 82:1 83:1 86:1 87:-1 88:-1 89:-1 90:-1 91:-1 92:-1 93:1 94:1 95:1 98:1 99:-1 100:-1 101:1 102:1 103:1 104:-1 105:-1 106:1 107:1 110:1 111:-1 112:-1 113:1 114:1 115:1 116:-1 117:-1 118:1 119:1 122:1 123:-1 124:-1 125:1 126:1 127:1 128:-1 129:-1 130:1 131:1 134:1 135:-1 136:-1 137:-1 138:-1 139:-1 140:-1 141:-1 142:1 143:1 146:1 147:-1 148:-1 149:-1 150:-1 151:-1 152:-1 153:1 154:1 155:1 158:1 159:1 160:1 161:1 162:1 163:1 164:1 165:1 166:1 167:1 170:1 171:1 172:1 176:1 177:1 178:1 179:1 
-0 -0 -0 -0 0 0 0 0 0 0 0 0 0 0 0 0 0 2.056256085115491 0 14:1 15:1 16:1 18:1 19:1 20:1 21:1 22:1 23:1 26:1 27:1 28:1 29:1 30:1 31:1 32:-1 33:-1 34:1 35:1 38:1 39:1 40:1 41:1 42:-1 43:-1 44:1 45:1 46:1 47:1 50:1 51:1 52:-1 53:-1 54:1 55:1 56:1 57:1 58:1 59:1 62:1 63:-1 64:-1 65:-1 66:1 67:1 68:1 69:1 70:1 71:1 74:1 75:-1 76:-1 77:1 78:-1 79:-1 80:-1 81:1 82:1 83:1 86:1 87:-1 88:-1 89:-1 90:-1 91:-1 92:-1 93:-1 94:1 95:1 98:1 99:-1 100:-1 101:-1 102:1 103:1 104:-1 105:-1 106:1 107:1 110:1 111:-1 112:-1 113:1 114:1 115:1 116:-1 117:-1 118:1 119:1 122:1 123:-1 124:-1 125:1 126:1 127:1 128:-1 129:-1 130:1 131:1 134:1 135:-1 136:-1 137:1 138:-1 139:-1 140:-1 141:1 142:1 143:1 146:1 147:-1 148:-1 149:-1 150:-1 151:-1 152:1 153:1 154:1 155:1 158:1 159:-1 160:-1 161:-1 162:1 163:1 164:1 165:1 166:1 167:1 170:1 171:1 172:1 176:1 177:1 178:1 179:1 
-29.46581460920771 -9.34827686411637 -0 -0 6.14164950986232 13.78672910461992 0 0 0 0.3547890462446965 9.566789919323401 0 0 0 0 0 0 0 0 14:1 15:1 16:1 18:1 19:1 20:1 21:1 22:1 23:1 26:1 27:1 28:1 29:1 30:1 31:-1 32:-1 33:-1 34:1 35:1 38:1 39:1 40:1 41:-1 42:-1 43:1 44:1 45:1 46:1 47:1 50:1 51:1 52:-1 53:-1 54:1 55:1 56:1 57:1 58:1 59:1 62:1 63:-1 64:-1 65:1 66:1 67:-1 68:1 69:1 70:1 71:1 74:1 75:-1 76:-1 77:-1 78:-1 79:-1 80:-1 81:1 82:1 83:1 86:1 87:-1 88:-1 89:-1 90:-1 91:1 92:-1 93:-1 94:1 95:1 98:1 99:-1 100:-1 101:1 102:1 103:1 104:-1 105:-1 106:1 107:1 110:1 111:-1 112:-1 113:1 114:1 115:1 116:-1 117:-1 118:1 119:1 122:1 123:-1 124:-1 125:1 126:1 127:-1 128:-1 129:-1 130:1 131:1 134:1 135:-1 136:-1 137:-1 138:-1 139:-1 140:-1 141:1 142:1 143:1 146:1 147:-1 148:-1 149:-1 150:-1 151:1 152:1 153:1 154:1 155:1 158:1 159:-1 160:-1 161:1 162:1 163:1 164:1 165:1 166:1 167:1 170:1 171:1 172:1 176:1 177:1 178:1 179:1 
-28.10194899259349 -0 -0 -8.637237602902903 -0 40.98468376336463 0 18.50114258939606 12.00481267399534 0 18.63092092156407 7.299615291186908 14.14262254955071 1.332952994598991 0.2176077435955557 0 12.62543812223897 5.308105608263786 24.31854939723726 14:1 15:1 16:1 18:1 19:1 20:1 21:1 22:1 23:1 26:1 27:1 28:-1 29:-1 30:-1 31:-1 32:1 33:1 34:1 35:1 38:1 39:-1 40:-1 41:-1 42:1 43:1 44:-1 45:-1 46:1 47:1 50:1 51:-1 52:-1 53:1 54:1 55:1 56:-1 57:-1 58:1 59:1 62:1 63:1 64:1 65:1 66:1 67:1 68:1 69:-1 70:1 71:1 74:1 75:1 76:1 77:1 78:1 79:1 80:1 81:-1 82:1 83:1 86:1 87:1 88:1 89:1 90:1 91:-1 92:-1 93:-1 94:1 95:1 98:1 99:1 100:1 101:1 102:-1 103:-1 104:-1 105:1 106:1 107:1 110:1 111:1 112:-1 113:-1 114:-1 115:1 116:1 117:1 118:1 119:1 122:1 123:-1 124:-1 125:-1 126:-1 127:-1 128:1 129:-1 130:1 131:1 134:1 135:-1 136:-1 137:-1 138:-1 139:-1 140:-1 141:-1 142:1 143:1 146:1 147:1 148:1 149:1 150:1 151:1 152:-1 153:-1 154:1 155:1 158:1 159:1 160:1 161:1 162:1 163:1 164:1 165:1 166:1 167:1 170:1 171:1 172:1 176:1 177:1 178:1 179:1 
-3.318207391032021 -31.5973687485147 -23.52180714702422 -59.72578165138839 -25.87861287799633 37.55447073809677 18.58432697624744 24.6815526204759 14.71708242583844 12.40872497673773 19.31169423868207 23.01523031513795 44.58782711068331 34.58039421295056 11.38798931117148 38.81002179292828 16.723882536601 18.12775088007673 26.75717144576538 14:1 15:1 16:1 18:1 19:1 20:1 21:1 22:1 23:1 26:1 27:1 28:-1 29:1 30:1 31:1 32:1 33:1 34:1 35:1 38:1 39:-1 40:-1 41:-1 42:-1 43:1 44:1 45:1 46:1 47:1 50:1 51:-1 52:-1 53:-1 54:1 55:-1 56:-1 57:-1 58:1 59:1 62:1 63:1 64:1 65:1 66:1 67:1 68:-1 69:-1 70:1 71:1 74:1 75:1 76:1 77:1 78:1 79:1 80:1 81:-1 82:1 83:1 86:1 87:1 88:1 89:1 90:1 91:1 92:1 93:-1 94:1 95:1 98:1 99:1 100:1 101:1 102:1 103:1 104:-1 105:-1 106:1 107:1 110:1 111:1 112:-1 113:1 114:-1 115:-1 116:-1 117:1 118:1 119:1 122:1 123:-1 124:-1 125:-1 126:-1 127:-1 128:1 129:1 130:1 131:1 134:1 135:-1 136:-1 137:-1 138:-1 139:1 140:1 141:-1 142:1 143:1 146:1 147:1 148:1 149:-1 150:-1 151:-1 152:-1 153:-1 154:1 155:1 158:1 159:1 160:1 161:1 162:1 163:-1 164:-1 165:-1 166:1 167:1 170:1 171:1 172:1 176:1 177:1 178:1 179:1 
-0 -0 -0 -0 -0 0 1.979169901080152 0 0 0 0 0 17.02397560501516 0 0 0 0 0 8.7483362283558 14:1 15:1 16:1 18:1 19:1 20:1 21:1 22:1 23:1 26:1 27:1 28:1 29:1 30:1 31:1 32:-1 33:-1 34:-1 35:1 38:1 39:1 40:1 41:-1 42:-1 43:-1 44:1 45:-1 46:-1 47:1 50:1 51:1 52:1 53:-1 54:-1 55:1 56:1 57:1 58:-1 59:1 62:1 63:1 64:-1 65:-1 66:1 67:1 68:1 69:-1 70:1 71:1 74:1 75:1 76:-1 77:1 78:1 79:1 80:-1 81:-1 82:1 83:1 86:1 87:1 88:1 89:1 90:1 91:1 92:-1 93:1 94:1 95:1 98:1 99:1 100:1 101:1 102:1 103:-1 104:1 105:1 106:1 107:1 110:1 111:1 112:1 113:1 114:-1 115:-1 116:-1 117:1 118:1 119:1 122:1 123:1 124:1 125:-1 126:1 127:1 128:-1 129:1 130:1 131:1 134:1 135:-1 136:-1 137:-1 138:-1 139:-1 140:-1 141:1 142:1 143:1 146:-1 147:-1 148:-1 149:-1 150:-1 151:-1 152:1 153:1 154:1 155:1 158:-1 159:-1 160:-1 161:1 162:1 163:1 164:1 165:1 166:1 167:1 170:1 171:1 172:1 176:1 177:1 178:1 179:1 
-0 -0 -0 -39.66799371173843 -0 0 0 0 0 0 0 0 0 0 0 0 0 0 0 14:1 15:1 16:1 18:1 19:1 20:1 21:1 22:1 23:1 26:1 27:1 28:1 29:1 30:1 31:1 32:1 33:1 34:1 35:1 38:1 39:1 40:-1 41:-1 42:-1 43:-1 44:-1 45:-1 46:1 47:1 50:1 51:-1 52:-1 53:-1 54:1 55:1 56:-1 57:-1 58:1 59:1 62:1 63:-1 64:-1 65:1 66:1 67:1 68:1 69:-1 70:1 71:1 74:1 75:1 76:1 77:1 78:1 79:1 80:1 81:-1 82:1 83:1 86:1 87:1 88:1 89:1 90:1 91:1 92:-1 93:-1 94:1 95:1 98:1 99:1 100:1 101:1 102:1 103:-1 104:-1 105:1 106:1 107:1 110:1 111:1 112:1 113:1 114:-1 115:-1 116:1 117:1 118:1 119:1 122:1 123:1 124:-1 125:-1 126:-1 127:1 128:1 129:-1 130:1 131:1 134:1 135:-1 136:-1 137:-1 138:-1 139:-1 140:-1 141:-1 142:1 143:1 146:1 147:-1 148:-1 149:-1 150:-1 151:-1 152:-1 153:-1 154:1 155:1 158:1 159:1 160:1 161:1 162:1 163:1 164:1 165:1 166:1 167:1 170:1 171:1 172:1 176:1 177:1 178:1 179:1 
