svm_type c_svc
kernel_type rbf
gamma 0.00012207
nr_class 10
total_sv 172
rho -0.132555 0.00982516 -0.227363 -0.0484664 0.397727 0.0100377 0.0659068 0.0642888 -0.14368 0.441826 -0.141065 0.179444 0.455624 0.30426 0.191215 0.24919 -0.0291863 -0.479883 -0.0239811 0.270351 0.013682 0.0717285 0.0913758 -0.177271 0.312503 0.412664 0.403519 0.2708 0.300172 0.0406016 0.370786 0.0413306 0.16352 0.187982 -0.159781 -0.38226 -0.188095 -0.237694 -0.373655 0.0921914 0.184052 -0.233175 0.0167832 -0.284821 -0.266
label 48 55 50 49 53 57 51 54 56 52
nr_sv 16 13 17 12 20 23 20 21 23 7
SV
4.936131235822992 13.92140194513742 5.716665656587032 19.33184076012956 18.75602521139943 6.228154675080139 0 0 0 2:1 3:1 4:1 5:1 6:1 7:1 8:1 9:1 10:1 13:1 14:1 15:1 16:1 17:1 18:-1 19:-1 20:-1 21:1 22:1 23:1 26:1 27:1 28:-1 29:-1 30:-1 31:-1 32:-1 33:-1 34:-1 37:1 38:1 39:1 40:-1 41:-1 42:1 43:1 44:1 45:-1 46:-1 47:1 49:1 50:1 51:-1 52:-1 53:1 54:1 55:1 56:1 57:1 58:-1 59:-1 61:1 62:-1 63:-1 64:-1 65:1 66:1 67:1 68:1 69:1 70:-1 71:-1 73:1 74:1 75:-1 76:-1 77:1 78:1 79:1 80:1 81:1 82:-1 83:-1 86:1 87:-1 88:-1 89:1 90:1 91:1 92:1 93:1 94:-1 95:-1 98:1 99:-1 100:-1 101:1 102:1 103:1 104:1 105:1 106:-1 107:-1 110:1 111:-1 112:-1 113:1 114:1 115:1 116:1 117:1 118:-1 119:-1 120:1 122:1 123:-1 124:-1 125:1 126:1 127:1 128:1 129:1 130:-1 131:-1 134:1 135:1 136:-1 137:-1 138:1 139:1 140:1 141:-1 142:-1 143:1 146:1 147:1 148:-1 149:-1 150:-1 151:-1 152:-1 153:-1 154:-1 155:-1 158:1 159:-1 160:-1 161:1 162:-1 163:-1 164:-1 165:1 166:1 167:1 170:1 171:-1 172:1 173:1 174:1 175:1 176:1 177:1 178:1 
1.86588033120308 17.8826715113733 6.922044068820851 0 0 0 0 0 0 2:1 3:1 4:1 5:1 6:1 7:1 8:1 9:1 10:1 13:1 14:1 15:-1 16:1 17:-1 18:-1 19:-1 20:1 21:1 22:1 23:1 26:1 27:-1 28:-1 29:-1 30:-1 31:-1 32:-1 33:-1 34:1 37:1 38:1 39:-1 40:-1 41:1 42:1 43:-1 44:-1 45:-1 46:1 47:1 49:1 50:-1 51:-1 52:1 53:1 54:1 55:1 56:1 57:-1 58:-1 59:1 61:1 62:-1 63:-1 64:1 65:1 66:1 67:1 68:1 69:-1 70:-1 71:1 73:1 74:-1 75:-1 76:1 77:1 78:1 79:1 80:1 81:-1 82:-1 83:1 86:-1 87:-1 88:1 89:1 90:1 91:1 92:1 93:-1 94:-1 95:1 98:-1 99:-1 100:1 101:1 102:1 103:1 104:1 105:-1 106:-1 107:1 110:-1 111:-1 112:1 113:1 114:1 115:1 116:1 117:-1 118:-1 119:1 120:1 122:-1 123:-1 124:1 125:1 126:1 127:1 128:1 129:-1 130:-1 131:1 134:1 135:-1 136:-1 137:1 138:1 139:1 140:-1 141:-1 142:1 143:1 146:1 147:-1 148:-1 149:-1 150:-1 151:-1 152:-1 153:-1 154:1 155:1 158:1 159:1 160:1 161:-1 162:-1 163:-1 164:1 165:-1 166:1 167:1 170:1 171:1 172:1 173:1 174:1 175:1 176:1 177:1 178:1 
0 0 0 0 4.793462683246317 0 0 0 10.6784856839571 2:1 3:1 4:1 5:1 6:1 7:1 8:1 9:1 10:1 13:1 14:1 15:1 16:1 17:-1 18:-1 19:-1 20:1 21:1 22:1 23:1 26:1 27:-1 28:-1 29:-1 30:-1 31:-1 32:-1 33:-1 34:1 37:1 38:1 39:-1 40:-1 41:1 42:1 43:1 44:-1 45:-1 46:1 47:1 49:1 50:-1 51:-1 52:1 53:1 54:1 55:1 56:1 57:-1 58:-1 59:1 61:1 62:-1 63:-1 64:1 65:1 66:1 67:1 68:1 69:-1 70:-1 71:1 73:1 74:-1 75:-1 76:1 77:1 78:1 79:1 80:1 81:-1 82:-1 83:1 86:-1 87:-1 88:-1 89:1 90:1 91:1 92:1 93:-1 94:-1 95:1 98:-1 99:-1 100:1 101:1 102:1 103:1 104:1 105:-1 106:-1 107:1 110:-1 111:-1 112:1 113:1 114:1 115:1 116:1 117:-1 118:-1 119:1 120:1 122:-1 123:-1 124:1 125:-1 126:1 127:1 128:1 129:-1 130:-1 131:1 134:1 135:-1 136:-1 137:1 138:1 139:1 140:-1 141:-1 142:1 143:1 146:1 147:-1 148:-1 149:-1 150:-1 151:-1 152:-1 153:-1 154:1 155:1 158:1 159:1 160:1 161:-1 162:-1 163:-1 164:1 165:1 166:1 167:1 170:1 171:1 172:1 173:1 174:1 175:1 176:1 177:1 178:1 
0 0 0 0 0 0 2.91445267345031 0 0 2:1 3:1 4:1 5:1 6:1 7:1 8:1 9:1 10:1 13:1 14:1 15:1 16:1 17:-1 18:-1 19:-1 20:1 21:-1 22:1 23:1 26:1 27:-1 28:-1 29:-1 30:-1 31:-1 32:-1 33:-1 34:1 37:1 38:1 39:-1 40:-1 41:1 42:1 43:1 44:-1 45:-1 46:1 47:1 49:1 50:-1 51:-1 52:1 53:1 54:1 55:1 56:1 57:-1 58:-1 59:1 61:1 62:-1 63:-1 64:1 65:1 66:1 67:1 68:1 69:-1 70:-1 71:1 73:1 74:-1 75:-1 76:1 77:1 78:1 79:1 80:1 81:-1 82:-1 83:1 86:-1 87:-1 88:1 89:1 90:1 91:1 92:1 93:-1 94:-1 95:1 98:-1 99:-1 100:1 101:1 102:1 103:1 104:1 105:-1 106:-1 107:1 110:-1 111:-1 112:-1 113:1 114:1 115:1 116:1 117:-1 118:-1 119:1 120:1 122:-1 123:-1 124:1 125:1 126:1 127:1 128:1 129:-1 130:-1 131:1 134:1 135:-1 136:-1 137:1 138:1 139:1 140:-1 141:-1 142:1 143:1 146:1 147:-1 148:-1 149:-1 150:-1 151:-1 152:-1 153:-1 154:1 155:1 158:1 159:1 160:1 161:-1 162:-1 163:-1 164:1 165:1 166:1 167:1 170:1 171:1 172:1 173:1 174:1 175:-1 176:1 177:1 178:1 
0 0 0 2.626133698044857 32 0 32 3.39324737952448 17.34704851150124 2:1 3:1 4:1 5:1 6:1 7:1 8:1 9:1 10:1 13:1 14:1 15:1 16:1 17:1 18:1 19:1 20:-1 21:1 22:1 23:1 26:1 27:1 28:1 29:-1 30:-1 31:-1 32:1 33:1 34:1 37:1 38:1 39:-1 40:-1 41:-1 42:-1 43:-1 44:-1 45:-1 46:1 47:1 49:1 50:-1 51:-1 52:-1 53:1 54:1 55:1 56:-1 57:-1 58:1 59:1 61:1 62:-1 63:-1 64:1 65:1 66:1 67:1 68:1 69:-1 70:-1 71:1 73:1 74:-1 75:-1 76:1 77:1 78:1 79:1 80:1 81:-1 82:-1 83:1 86:-1 87:-1 88:1 89:1 90:1 91:1 92:1 93:-1 94:-1 95:1 98:-1 99:-1 100:1 101:1 102:1 103:1 104:1 105:-1 106:-1 107:1 110:-1 111:-1 112:1 113:1 114:1 115:1 116:1 117:-1 118:-1 119:1 120:1 122:-1 123:-1 124:1 125:1 126:1 127:1 128:1 129:-1 130:-1 131:1 134:-1 135:-1 136:1 137:1 138:1 139:1 140:1 141:-1 142:-1 143:1 146:1 147:-1 148:-1 149:1 150:1 151:1 152:-1 153:-1 154:1 155:1 158:1 159:-1 160:-1 161:-1 162:-1 163:-1 164:-1 165:-1 166:1 167:1 170:1 171:1 172:1 173:-1 174:-1 175:-1 176:1 177:1 178:1 
4.693218587027418 5.586407967422725 0 0 3.148090232727099 0 24.34070654517805 21.3048546189591 11.46662859378686 2:1 3:1 4:1 5:1 6:1 7:1 8:1 9:1 10:1 13:1 14:1 15:1 16:1 17:1 18:-1 19:-1 20:-1 21:1 22:1 23:1 26:1 27:1 28:-1 29:-1 30:-1 31:-1 32:-1 33:-1 34:-1 37:1 38:1 39:1 40:-1 41:-1 42:1 43:1 44:1 45:-1 46:-1 47:1 49:1 50:1 51:-1 52:-1 53:1 54:1 55:1 56:1 57:1 58:-1 59:-1 61:1 62:1 63:-1 64:-1 65:1 66:1 67:1 68:1 69:1 70:-1 71:-1 73:1 74:1 75:-1 76:-1 77:1 78:1 79:1 80:-1 81:-1 82:-1 83:-1 86:1 87:-1 88:-1 89:1 90:1 91:1 92:1 93:1 94:-1 95:-1 98:1 99:-1 100:-1 101:1 102:1 103:1 104:1 105:1 106:-1 107:-1 110:1 111:-1 112:-1 113:1 114:1 115:1 116:1 117:1 118:-1 119:-1 120:1 122:-1 123:-1 124:-1 125:1 126:1 127:1 128:1 129:1 130:-1 131:-1 134:1 135:1 136:-1 137:-1 138:1 139:1 140:1 141:-1 142:-1 143:1 146:1 147:1 148:-1 149:-1 150:-1 151:-1 152:-1 153:-1 154:-1 155:1 158:1 159:1 160:1 161:1 162:-1 163:-1 164:-1 165:1 166:1 167:1 170:1 171:1 172:1 173:1 174:1 175:1 176:1 177:-1 178:1 
0 0 0 0 15.88207065252264 0 0 0 0 2:1 3:1 4:1 5:1 6:1 7:1 8:1 9:1 10:1 13:1 14:1 15:1 16:1 17:1 18:-1 19:-1 20:-1 21:1 22:1 23:1 26:1 27:1 28:-1 29:-1 30:-1 31:-1 32:-1 33:-1 34:-1 37:1 38:1 39:-1 40:-1 41:-1 42:1 43:1 44:1 45:-1 46:-1 47:1 49:1 50:1 51:-1 52:-1 53:1 54:1 55:1 56:1 57:1 58:-1 59:-1 61:1 62:1 63:-1 64:-1 65:1 66:1 67:1 68:1 69:1 70:-1 71:-1 73:1 74:1 75:-1 76:-1 77:1 78:1 79:1 80:1 81:1 82:-1 83:-1 86:-1 87:-1 88:-1 89:1 90:1 91:1 92:1 93:1 94:-1 95:-1 98:1 99:-1 100:-1 101:1 102:1 103:1 104:1 105:1 106:-1 107:-1 110:1 111:-1 112:-1 113:1 114:1 115:1 116:1 117:1 118:-1 119:-1 120:1 122:1 123:-1 124:-1 125:1 126:1 127:1 128:1 129:1 130:-1 131:-1 134:1 135:1 136:-1 137:-1 138:1 139:1 140:1 141:-1 142:-1 143:1 146:1 147:1 148:-1 149:-1 150:-1 151:-1 152:-1 153:-1 154:-1 155:1 158:1 159:1 160:1 161:1 162:-1 163:-1 164:-1 165:1 166:1 167:1 170:1 171:1 172:1 173:1 174:1 175:1 176:1 177:1 178:1 
0 0 0 23.82116645949343 32 17.4750606081761 25.00835965839898 15.28659481135697 0 2:1 3:1 4:1 5:1 6:1 7:1 8:1 9:1 10:1 13:1 14:1 15:1 16:1 17:-1 18:-1 19:-1 20:1 21:1 22:1 23:1 26:1 27:-1 28:-1 29:-1 30:-1 31:-1 32:-1 33:-1 34:1 37:1 38:1 39:-1 40:-1 41:1 42:1 43:1 44:-1 45:-1 46:1 47:1 49:1 50:-1 51:-1 52:1 53:1 54:1 55:1 56:1 57:-1 58:-1 59:1 61:1 62:-1 63:-1 64:1 65:1 66:1 67:1 68:1 69:-1 70:-1 71:1 73:1 74:-1 75:-1 76:-1 77:1 78:1 79:1 80:1 81:-1 82:-1 83:1 86:-1 87:-1 88:1 89:-1 90:1 91:1 92:1 93:-1 94:-1 95:1 98:-1 99:-1 100:1 101:1 102:1 103:1 104:1 105:-1 106:-1 107:1 110:-1 111:-1 112:1 113:1 114:1 115:1 116:1 117:-1 118:-1 119:1 120:1 122:-1 123:-1 124:1 125:1 126:1 127:1 128:1 129:-1 130:-1 131:1 134:1 135:-1 136:-1 137:1 138:1 139:1 140:-1 141:-1 142:1 143:1 146:1 147:-1 148:-1 149:-1 150:-1 151:-1 152:-1 153:-1 154:1 155:1 158:1 159:1 160:1 161:-1 162:-1 163:-1 164:1 165:1 166:1 167:1 170:1 171:1 172:1 173:1 174:1 175:1 176:1 177:1 178:1 
0 0 0 0 0 0 14.89025709657591 0 0 2:1 3:1 4:1 5:1 6:1 7:1 8:1 9:1 10:1 13:1 14:1 15:1 16:1 17:1 18:-1 19:-1 20:-1 21:1 22:1 23:1 26:1 27:1 28:-1 29:-1 30:-1 31:-1 32:-1 33:-1 34:-1 37:1 38:1 39:1 40:-1 41:-1 42:1 43:1 44:1 45:-1 46:-1 47:1 49:1 50:1 51:-1 52:-1 53:1 54:1 55:1 56:1 57:1 58:-1 59:-1 61:1 62:1 63:-1 64:-1 65:1 66:1 67:1 68:1 69:1 70:-1 71:-1 73:1 74:1 75:-1 76:-1 77:1 78:1 79:1 80:1 81:1 82:-1 83:-1 86:1 87:-1 88:-1 89:1 90:1 91:1 92:1 93:1 94:-1 95:-1 98:1 99:-1 100:-1 101:1 102:1 103:1 104:1 105:1 106:-1 107:-1 110:-1 111:-1 112:-1 113:1 114:1 115:1 116:1 117:1 118:-1 119:-1 120:1 122:1 123:-1 124:-1 125:1 126:1 127:1 128:1 129:1 130:-1 131:-1 134:1 135:1 136:-1 137:-1 138:1 139:1 140:1 141:-1 142:-1 143:1 146:1 147:1 148:-1 149:-1 150:-1 151:-1 152:-1 153:-1 154:-1 155:1 158:1 159:1 160:1 161:1 162:-1 163:-1 164:-1 165:1 166:1 167:1 170:1 171:1 172:1 173:1 174:1 175:1 176:1 177:1 178:1 
0 0 0 7.068905514834887 13.8343542957245 4.802876218022487 9.723709637160408 8.281741806013873 0 2:1 3:1 4:1 5:1 6:1 7:1 8:1 9:1 10:1 13:1 14:-1 15:1 16:1 17:-1 18:-1 19:-1 20:1 21:1 22:1 23:1 26:1 27:-1 28:-1 29:-1 30:-1 31:-1 32:-1 33:-1 34:1 37:1 38:1 39:-1 40:-1 41:1 42:1 43:1 44:-1 45:-1 46:1 47:1 49:1 50:-1 51:-1 52:1 53:1 54:1 55:1 56:1 57:-1 58:-1 59:1 61:1 62:-1 63:-1 64:1 65:1 66:1 67:1 68:1 69:-1 70:-1 71:1 73:1 74:-1 75:-1 76:1 77:1 78:1 79:1 80:1 81:-1 82:-1 83:1 86:-1 87:-1 88:1 89:1 90:1 91:1 92:1 93:-1 94:-1 95:1 98:-1 99:-1 100:1 101:1 102:1 103:1 104:-1 105:-1 106:-1 107:1 110:-1 111:-1 112:1 113:1 114:1 115:1 116:1 117:-1 118:-1 119:1 120:1 122:-1 123:-1 124:1 125:1 126:1 127:1 128:1 129:-1 130:-1 131:1 134:1 135:-1 136:-1 137:1 138:1 139:1 140:-1 141:-1 142:1 143:1 146:1 147:-1 148:-1 149:-1 150:-1 151:-1 152:-1 153:-1 154:1 155:1 158:1 159:1 160:1 161:-1 162:-1 163:-1 164:1 165:1 166:1 167:1 170:1 171:1 172:1 173:1 174:1 175:1 176:1 177:1 178:1 
0 0 9.511325442075201 0 19.75696103016618 0 0 0 0 2:1 3:1 4:1 5:1 6:1 7:1 8:1 9:1 10:1 13:1 14:1 15:1 16:1 17:1 18:-1 19:-1 20:-1 21:1 22:1 23:1 26:1 27:1 28:-1 29:-1 30:-1 31:-1 32:-1 33:-1 34:-1 37:1 38:1 39:1 40:-1 41:-1 42:1 43:1 44:1 45:-1 46:-1 47:1 49:1 50:-1 51:-1 52:-1 53:1 54:1 55:1 56:1 57:1 58:-1 59:-1 61:1 62:1 63:-1 64:-1 65:1 66:1 67:1 68:1 69:1 70:-1 71:-1 73:1 74:1 75:-1 76:-1 77:1 78:1 79:1 80:1 81:1 82:-1 83:-1 86:1 87:-1 88:-1 89:1 90:1 91:1 92:1 93:1 94:-1 95:-1 98:1 99:-1 100:-1 101:1 102:1 103:1 104:1 105:1 106:-1 107:-1 110:1 111:-1 112:-1 113:1 114:1 115:1 116:1 117:1 118:-1 119:-1 120:1 122:1 123:-1 124:-1 125:1 126:1 127:1 128:1 129:1 130:-1 131:-1 134:1 135:1 136:-1 137:-1 138:1 139:1 140:1 141:-1 142:-1 143:1 146:1 147:1 148:-1 149:-1 150:-1 151:-1 152:-1 153:-1 154:-1 155:1 158:1 159:1 160:1 161:1 162:-1 163:-1 164:-1 165:1 166:-1 167:1 170:1 171:1 172:1 173:1 174:1 175:1 176:1 177:1 178:1 
9.145490223219909 0 0 6.230615066659874 0 4.844987936722346 6.901866826029914 8.859017753910781 10.29390699746232 2:1 3:1 4:1 5:1 6:1 7:1 8:1 9:1 10:1 13:1 14:1 15:1 16:-1 17:1 18:-1 19:-1 20:-1 21:1 22:1 23:1 26:1 27:1 28:-1 29:-1 30:-1 31:-1 32:-1 33:-1 34:-1 37:1 38:1 39:1 40:-1 41:-1 42:1 43:-1 44:1 45:-1 46:-1 47:1 49:1 50:1 51:-1 52:-1 53:1 54:1 55:1 56:1 57:1 58:-1 59:-1 61:1 62:1 63:-1 64:-1 65:1 66:1 67:1 68:1 69:1 70:-1 71:-1 73:1 74:1 75:-1 76:-1 77:1 78:1 79:1 80:1 81:1 82:-1 83:-1 86:1 87:-1 88:-1 89:1 90:1 91:1 92:1 93:1 94:-1 95:-1 98:1 99:-1 100:-1 101:1 102:1 103:1 104:1 105:1 106:-1 107:-1 110:1 111:-1 112:-1 113:1 114:1 115:1 116:1 117:1 118:-1 119:-1 120:1 122:-1 123:-1 124:-1 125:1 126:1 127:1 128:1 129:1 130:-1 131:-1 134:1 135:1 136:-1 137:-1 138:1 139:1 140:1 141:-1 142:-1 143:1 146:1 147:1 148:-1 149:-1 150:-1 151:-1 152:-1 153:-1 154:-1 155:1 158:1 159:1 160:1 161:1 162:-1 163:-1 164:-1 165:1 166:1 167:1 170:1 171:1 172:1 173:1 174:1 175:1 176:1 177:1 178:1 
13.09348951725814 26.31166079041955 20.01280944030944 32 16.96189204130626 28.43747960696409 26.70269493598539 32 0 2:1 3:1 4:1 5:1 6:1 7:1 8:1 9:1 10:1 13:1 14:1 15:1 16:1 17:-1 18:1 19:1 20:1 21:1 22:1 23:1 26:1 27:-1 28:1 29:-1 30:-1 31:-1 32:1 33:1 34:1 37:1 38:1 39:-1 40:-1 41:-1 42:-1 43:-1 44:-1 45:-1 46:1 47:1 49:1 50:1 51:-1 52:-1 53:1 54:1 55:1 56:-1 57:-1 58:1 59:1 61:1 62:-1 63:-1 64:1 65:1 66:1 67:1 68:1 69:-1 70:-1 71:1 73:1 74:-1 75:-1 76:1 77:1 78:1 79:1 80:1 81:-1 82:-1 83:1 86:-1 87:-1 88:1 89:1 90:1 91:1 92:1 93:-1 94:-1 95:1 98:-1 99:-1 100:1 101:1 102:1 103:1 104:1 105:-1 106:-1 107:1 110:-1 111:-1 112:1 113:1 114:1 115:1 116:1 117:-1 118:-1 119:1 120:1 122:-1 123:-1 124:1 125:1 126:1 127:1 128:1 129:-1 130:-1 131:1 134:-1 135:-1 136:1 137:1 138:1 139:1 140:1 141:-1 142:-1 143:1 146:1 147:-1 148:-1 149:1 150:1 151:1 152:-1 153:-1 154:1 155:1 158:1 159:-1 160:-1 161:-1 162:-1 163:-1 164:-1 165:-1 166:1 167:1 170:1 171:1 172:1 173:-1 174:-1 175:-1 176:1 177:1 178:1 
4.065805591863867 9.761668534500327 3.80753099837129 11.55772593079876 14.02270022276575 18.37687922557084 25.63153766669049 16.10057662254958 0 2:1 3:1 4:1 5:1 6:1 7:1 8:1 9:1 10:1 13:1 14:1 15:1 16:1 17:1 18:-1 19:-1 20:-1 21:1 22:1 23:1 26:1 27:1 28:-1 29:-1 30:-1 31:-1 32:-1 33:-1 34:-1 37:1 38:-1 39:1 40:-1 41:-1 42:1 43:1 44:1 45:-1 46:-1 47:1 49:1 50:1 51:-1 52:-1 53:-1 54:1 55:1 56:1 57:1 58:-1 59:-1 61:1 62:1 63:-1 64:-1 65:1 66:1 67:1 68:1 69:1 70:-1 71:-1 73:1 74:1 75:-1 76:-1 77:1 78:1 79:1 80:1 81:1 82:-1 83:-1 86:1 87:-1 88:-1 89:1 90:1 91:1 92:1 93:1 94:-1 95:-1 98:1 99:-1 100:-1 101:1 102:1 103:1 104:1 105:1 106:-1 107:-1 110:1 111:-1 112:-1 113:1 114:1 115:1 116:1 117:1 118:-1 119:-1 120:1 122:1 123:-1 124:-1 125:1 126:1 127:1 128:1 129:1 130:-1 131:-1 134:1 135:1 136:-1 137:-1 138:1 139:1 140:1 141:-1 142:-1 143:1 146:1 147:-1 148:-1 149:-1 150:-1 151:-1 152:-1 153:-1 154:-1 155:1 158:1 159:1 160:1 161:1 162:-1 163:-1 164:-1 165:1 166:1 167:1 170:1 171:1 172:1 173:1 174:1 175:1 176:1 177:1 178:1 
13.73429117775658 4.213486303233053 0 0 8.169688923413901 12.5300194048349 0 0 0 2:1 3:1 4:1 5:1 6:1 7:1 8:1 9:1 10:1 13:1 14:1 15:1 16:1 17:-1 18:-1 19:-1 20:1 21:1 22:1 23:1 26:1 27:-1 28:-1 29:-1 30:-1 31:-1 32:-1 33:-1 34:1 37:1 38:1 39:-1 40:-1 41:1 42:1 43:1 44:-1 45:-1 46:-1 47:1 49:1 50:-1 51:-1 52:1 53:1 54:1 55:1 56:1 57:-1 58:-1 59:1 61:1 62:-1 63:-1 64:1 65:1 66:1 67:1 68:1 69:-1 70:-1 71:1 73:1 74:-1 75:-1 76:1 77:1 78:1 79:1 80:1 81:-1 82:-1 83:1 86:-1 87:-1 88:1 89:1 90:1 91:1 92:1 93:-1 94:-1 95:1 98:-1 99:-1 100:1 101:1 102:1 103:1 104:1 105:-1 106:-1 107:1 110:-1 111:-1 112:1 113:1 114:1 115:1 116:1 117:-1 118:-1 119:1 120:1 122:-1 123:-1 124:1 125:1 126:1 127:1 128:-1 129:-1 130:-1 131:1 134:1 135:-1 136:-1 137:1 138:1 139:1 140:-1 141:-1 142:1 143:1 146:1 147:-1 148:-1 149:-1 150:-1 151:-1 152:-1 153:-1 154:1 155:1 158:1 159:1 160:-1 161:-1 162:-1 163:-1 164:1 165:1 166:1 167:1 170:1 171:1 172:1 173:1 174:1 175:1 176:1 177:1 178:1 
6.367498737740623 3.538592918033646 1.659439379434907 0 0 0 0 0 0 2:1 3:1 4:1 5:1 6:1 7:1 8:1 9:1 10:1 13:1 14:1 15:1 16:1 17:-1 18:-1 19:-1 20:1 21:1 22:1 23:1 26:1 27:-1 28:-1 29:-1 30:-1 31:-1 32:-1 33:-1 34:1 37:1 38:1 39:-1 40:-1 41:1 42:-1 43:1 44:-1 45:-1 46:1 47:1 49:1 50:-1 51:-1 52:1 53:1 54:1 55:1 56:1 57:-1 58:-1 59:1 61:1 62:-1 63:-1 64:1 65:1 66:1 67:1 68:1 69:-1 70:-1 71:1 73:1 74:-1 75:-1 76:1 77:1 78:1 79:1 80:1 81:-1 82:-1 83:1 86:-1 87:-1 88:1 89:1 90:1 91:1 92:1 93:-1 94:-1 95:1 98:-1 99:-1 100:1 101:1 102:1 103:1 104:1 105:-1 106:-1 107:1 110:-1 111:-1 112:1 113:1 114:1 115:1 116:1 117:-1 118:-1 119:1 120:1 122:-1 123:-1 124:1 125:1 126:1 127:1 128:1 129:-1 130:-1 131:1 134:1 135:-1 136:-1 137:1 138:1 139:1 140:-1 141:-1 142:1 143:1 146:1 147:-1 148:-1 149:-1 150:-1 151:-1 152:-1 153:-1 154:1 155:1 158:1 159:-1 160:1 161:-1 162:-1 163:-1 164:1 165:1 166:1 167:1 170:1 171:1 172:1 173:1 174:1 175:1 176:1 177:1 178:1 
-0 0 0 3.874629171918209 0 12.93241634983737 11.76654765755424 11.92927576988862 12.22075076744089 2:1 3:1 4:1 5:1 6:1 7:1 8:1 9:1 10:1 13:1 14:1 15:-1 16:-1 17:-1 18:-1 19:-1 20:-1 21:-1 22:-1 23:1 26:1 27:-1 28:-1 29:-1 30:-1 31:-1 32:-1 33:-1 34:-1 37:1 38:1 39:1 40:1 41:1 42:1 43:1 44:1 45:-1 46:-1 47:1 49:1 50:1 51:1 52:1 53:1 54:1 55:1 56:1 57:-1 58:1 59:1 61:1 62:1 63:1 64:1 65:1 66:1 67:1 68:-1 69:-1 70:1 71:1 73:1 74:1 75:1 76:1 77:1 78:-1 79:-1 80:-1 81:1 82:1 83:1 86:1 87:1 88:1 89:1 90:1 91:-1 92:-1 93:1 94:1 95:1 98:1 99:1 100:1 101:-1 102:-1 103:-1 104:1 105:1 106:1 107:1 110:1 111:1 112:1 113:1 114:-1 115:1 116:1 117:1 118:1 119:1 120:1 122:1 123:1 124:1 125:-1 126:-1 127:1 128:1 129:1 130:1 131:1 134:1 135:1 136:1 137:-1 138:-1 139:1 140:1 141:1 142:1 143:1 146:1 147:1 148:-1 149:-1 150:1 151:1 152:1 153:1 154:1 155:1 158:1 159:1 160:-1 161:-1 162:1 163:1 164:1 165:1 166:1 167:1 170:1 171:1 172:1 173:1 174:1 175:1 176:1 177:1 178:1 
-10.05821510651609 32 5.843616319711931 4.537535189374351 4.927804715549241 8.499221266017207 2.113359657782469 8.775783531851165 0 2:1 3:1 4:1 5:1 6:1 7:1 8:1 9:1 10:1 13:1 14:1 15:1 16:-1 17:-1 18:1 19:1 20:1 21:1 22:1 23:1 26:1 27:-1 28:-1 29:-1 30:-1 31:-1 32:-1 33:-1 34:-1 37:1 38:1 39:-1 40:-1 41:-1 42:-1 43:-1 44:-1 45:-1 46:-1 47:1 49:1 50:1 51:1 52:1 53:1 54:1 55:1 56:1 57:-1 58:-1 59:1 61:1 62:1 63:1 64:1 65:1 66:1 67:1 68:1 69:-1 70:1 71:1 73:1 74:1 75:1 76:1 77:1 78:1 79:1 80:-1 81:-1 82:1 83:1 86:1 87:1 88:1 89:1 90:1 91:-1 92:-1 93:1 94:1 95:1 98:1 99:1 100:1 101:1 102:1 103:-1 104:1 105:1 106:1 107:1 110:1 111:1 112:1 113:1 114:-1 115:-1 116:1 117:1 118:1 119:1 120:1 122:1 123:1 124:1 125:1 126:-1 127:1 128:1 129:1 130:1 131:1 134:1 135:1 136:1 137:-1 138:-1 139:1 140:1 141:1 142:1 143:1 146:1 147:1 148:1 149:-1 150:-1 151:1 152:1 153:1 154:1 155:1 158:1 159:1 160:-1 161:-1 162:-1 163:1 164:1 165:1 166:1 167:1 170:1 171:1 172:-1 173:-1 174:1 175:1 176:1 177:1 178:1 
-0 0 0 0 3.046273419239416 11.21263263610767 0 0 0 2:1 3:1 4:1 5:1 6:1 7:1 8:1 9:1 10:1 13:1 14:1 15:-1 16:-1 17:-1 18:-1 19:-1 20:-1 21:-1 22:-1 23:1 26:1 27:-1 28:-1 29:-1 30:-1 31:-1 32:-1 33:-1 34:-1 37:1 38:1 39:1 40:1 41:1 42:1 43:1 44:1 45:-1 46:-1 47:1 49:1 50:1 51:1 52:1 53:1 54:1 55:1 56:1 57:-1 58:-1 59:1 61:1 62:1 63:1 64:1 65:1 66:1 67:1 68:-1 69:-1 70:1 71:1 73:1 74:1 75:1 76:1 77:1 78:1 79:-1 80:-1 81:1 82:1 83:1 86:1 87:1 88:1 89:-1 90:1 91:-1 92:1 93:1 94:1 95:1 98:1 99:1 100:1 101:1 102:-1 103:-1 104:1 105:1 106:1 107:1 110:1 111:1 112:1 113:1 114:-1 115:1 116:1 117:1 118:1 119:1 120:1 122:1 123:1 124:1 125:-1 126:-1 127:1 128:1 129:1 130:1 131:1 134:1 135:1 136:1 137:-1 138:-1 139:1 140:1 141:1 142:1 143:1 146:1 147:1 148:-1 149:-1 150:1 151:1 152:1 153:1 154:1 155:1 158:1 159:1 160:-1 161:-1 162:1 163:1 164:1 165:1 166:1 167:1 170:1 171:1 172:1 173:1 174:1 175:1 176:1 177:1 178:1 
-0.7664591207315014 29.52508263643606 0 0 0 0 0 0.5947488383062436 1.313856099779582 2:1 3:-1 4:1 5:1 6:1 7:1 8:1 9:1 10:1 13:1 14:1 15:-1 16:-1 17:-1 18:-1 19:-1 20:-1 21:-1 22:-1 23:1 26:1 27:-1 28:-1 29:-1 30:-1 31:-1 32:-1 33:-1 34:-1 37:1 38:1 39:1 40:1 41:1 42:1 43:1 44:1 45:-1 46:-1 47:1 49:1 50:1 51:1 52:1 53:1 54:1 55:1 56:1 57:-1 58:1 59:1 61:1 62:1 63:1 64:1 65:1 66:1 67:1 68:-1 69:-1 70:1 71:1 73:1 74:1 75:1 76:1 77:1 78:1 79:-1 80:-1 81:1 82:1 83:1 86:1 87:1 88:1 89:1 90:1 91:-1 92:1 93:1 94:1 95:1 98:1 99:1 100:1 101:1 102:-1 103:-1 104:1 105:1 106:1 107:1 110:1 111:1 112:1 113:1 114:-1 115:1 116:1 117:1 118:1 119:1 120:1 122:1 123:1 124:-1 125:-1 126:-1 127:1 128:1 129:1 130:1 131:1 134:1 135:-1 136:1 137:-1 138:-1 139:1 140:1 141:1 142:1 143:1 146:1 147:1 148:-1 149:-1 150:1 151:1 152:1 153:1 154:1 155:1 158:1 159:1 160:-1 161:-1 162:1 163:1 164:1 165:1 166:1 167:1 170:1 171:1 172:1 173:1 174:-1 175:1 176:1 177:1 178:1 
-11.43148414612117 0 0 0 9.521645460076247 0 0 0 0 2:1 3:1 4:1 5:1 6:1 7:1 8:1 9:1 10:1 13:1 14:1 15:-1 16:-1 17:-1 18:-1 19:-1 20:-1 21:-1 22:-1 23:1 26:1 27:-1 28:-1 29:-1 30:-1 31:-1 32:-1 33:-1 34:-1 37:1 38:1 39:1 40:1 41:1 42:1 43:1 44:1 45:-1 46:-1 47:1 49:1 50:1 51:1 52:1 53:1 54:1 55:1 56:1 57:-1 58:1 59:1 61:1 62:1 63:1 64:1 65:1 66:1 67:1 68:-1 69:-1 70:-1 71:1 73:1 74:1 75:1 76:1 77:1 78:1 79:-1 80:-1 81:1 82:1 83:1 86:1 87:1 88:1 89:1 90:1 91:-1 92:1 93:1 94:1 95:1 98:1 99:1 100:1 101:1 102:-1 103:-1 104:1 105:1 106:1 107:1 110:1 111:1 112:1 113:1 114:-1 115:1 116:1 117:1 118:1 119:1 120:1 122:1 123:1 124:1 125:-1 126:-1 127:1 128:1 129:1 130:1 131:1 134:1 135:1 136:1 137:-1 138:-1 139:1 140:1 141:1 142:1 143:1 146:1 147:1 148:-1 149:-1 150:1 151:1 152:1 153:1 154:1 155:1 158:1 159:1 160:-1 161:-1 162:1 163:1 164:1 165:1 166:1 167:1 170:1 171:1 172:1 173:1 174:1 175:1 176:1 177:1 178:1 
-0.4342422209710689 21.51173360666595 0 12.44419312442521 0 2.921250310219387 0 0 0 2:-1 3:1 4:1 5:1 6:1 7:1 8:1 9:1 10:1 13:1 14:1 15:-1 16:-1 17:-1 18:-1 19:-1 20:-1 21:-1 22:-1 23:1 26:1 27:-1 28:-1 29:-1 30:-1 31:-1 32:-1 33:-1 34:-1 37:1 38:1 39:1 40:1 41:1 42:1 43:1 44:1 45:-1 46:-1 47:1 49:1 50:1 51:1 52:1 53:1 54:1 55:1 56:1 57:-1 58:1 59:1 61:1 62:1 63:1 64:1 65:1 66:1 67:1 68:-1 69:-1 70:1 71:1 73:1 74:1 75:1 76:1 77:1 78:1 79:-1 80:-1 81:1 82:1 83:1 86:1 87:1 88:1 89:1 90:1 91:-1 92:1 93:1 94:1 95:1 98:1 99:1 100:1 101:1 102:-1 103:-1 104:1 105:1 106:1 107:1 110:1 111:1 112:1 113:1 114:-1 115:1 116:1 117:1 118:1 119:1 120:1 122:1 123:1 124:1 125:-1 126:1 127:1 128:1 129:1 130:1 131:1 134:1 135:1 136:1 137:-1 138:-1 139:1 140:1 141:1 142:1 143:1 146:1 147:1 148:-1 149:-1 150:1 151:1 152:1 153:1 154:1 155:1 158:-1 159:1 160:-1 161:-1 162:1 163:1 164:1 165:1 166:1 167:1 170:1 171:-1 172:1 173:1 174:1 175:1 176:1 177:1 178:1 
-0 11.68838541421669 0 0 0 0 0.8615414784507967 2.632563372332957 0 2:1 3:1 4:1 5:1 6:1 7:1 8:1 9:1 10:1 13:1 14:1 15:1 16:1 17:1 18:-1 19:1 20:1 21:1 22:1 23:1 26:1 27:-1 28:-1 29:-1 30:-1 31:-1 32:-1 33:-1 34:-1 37:1 38:1 39:-1 40:-1 41:-1 42:-1 43:-1 44:-1 45:-1 46:-1 47:1 49:1 50:1 51:1 52:1 53:1 54:1 55:1 56:1 57:-1 58:-1 59:1 61:1 62:1 63:1 64:1 65:1 66:1 67:1 68:1 69:-1 70:1 71:1 73:1 74:1 75:1 76:1 77:1 78:1 79:1 80:-1 81:-1 82:1 83:1 86:1 87:1 88:1 89:1 90:1 91:-1 92:-1 93:1 94:1 95:1 98:1 99:1 100:1 101:1 102:1 103:-1 104:-1 105:1 106:1 107:1 110:1 111:1 112:1 113:1 114:-1 115:-1 116:1 117:1 118:1 119:1 120:1 122:1 123:1 124:1 125:1 126:-1 127:1 128:1 129:1 130:1 131:1 134:1 135:1 136:1 137:-1 138:-1 139:1 140:1 141:1 142:1 143:1 146:1 147:1 148:1 149:-1 150:-1 151:1 152:1 153:1 154:1 155:1 158:1 159:1 160:-1 161:-1 162:1 163:1 164:1 165:1 166:1 167:1 170:1 171:1 172:-1 173:-1 174:1 175:1 176:1 177:1 178:1 
-3.419097450146165 3.405612644734786 1.189975606932301 5.994287242189181 16.69832522365519 4.085550466314752 9.136770949584161 8.462701287671393 0 2:1 3:1 4:1 5:1 6:1 7:1 8:1 9:1 10:1 13:1 14:1 15:-1 16:-1 17:-1 18:-1 19:-1 20:-1 21:-1 22:-1 23:1 26:1 27:-1 28:-1 29:-1 30:-1 31:-1 32:-1 33:-1 34:-1 37:1 38:1 39:1 40:1 41:1 42:-1 43:1 44:1 45:-1 46:-1 47:1 49:1 50:1 51:1 52:1 53:1 54:1 55:1 56:1 57:-1 58:1 59:1 61:1 62:1 63:1 64:1 65:1 66:1 67:1 68:-1 69:-1 70:1 71:1 73:1 74:1 75:1 76:1 77:1 78:1 79:-1 80:-1 81:1 82:1 83:1 86:1 87:1 88:1 89:1 90:1 91:-1 92:1 93:-1 94:1 95:1 98:1 99:1 100:1 101:1 102:-1 103:-1 104:1 105:1 106:1 107:1 110:1 111:1 112:1 113:1 114:-1 115:1 116:1 117:1 118:1 119:1 120:1 122:1 123:1 124:1 125:-1 126:-1 127:1 128:1 129:1 130:1 131:1 134:1 135:-1 136:1 137:-1 138:-1 139:1 140:1 141:1 142:1 143:1 146:1 147:1 148:-1 149:-1 150:1 151:1 152:1 153:1 154:1 155:1 158:1 159:1 160:-1 161:-1 162:1 163:1 164:1 165:1 166:1 167:1 170:1 171:1 172:1 173:1 174:-1 175:1 176:1 177:1 178:1 
-0 0 5.761077242644454 0 0 0 0 0 0 2:1 3:1 4:1 5:1 6:1 7:1 8:1 9:1 10:1 13:1 14:1 15:-1 16:-1 17:-1 18:-1 19:-1 20:-1 21:-1 22:-1 23:1 26:1 27:-1 28:-1 29:-1 30:-1 31:-1 32:-1 33:-1 34:-1 37:1 38:1 39:1 40:1 41:1 42:1 43:1 44:1 45:-1 46:-1 47:1 49:1 50:1 51:1 52:1 53:1 54:1 55:1 56:1 57:-1 58:1 59:1 61:1 62:1 63:1 64:1 65:1 66:1 67:1 68:1 69:-1 70:1 71:1 73:1 74:1 75:1 76:1 77:1 78:1 79:-1 80:-1 81:1 82:1 83:1 86:1 87:1 88:1 89:1 90:1 91:-1 92:1 93:1 94:1 95:1 98:1 99:1 100:1 101:1 102:-1 103:-1 104:1 105:1 106:1 107:1 110:1 111:1 112:1 113:1 114:-1 115:1 116:1 117:1 118:1 119:1 120:1 122:1 123:1 124:1 125:-1 126:-1 127:1 128:1 129:1 130:1 131:1 134:1 135:1 136:1 137:-1 138:-1 139:1 140:1 141:1 142:1 143:1 146:1 147:1 148:-1 149:-1 150:1 151:1 152:1 153:1 154:1 155:1 158:1 159:1 160:-1 161:-1 162:1 163:1 164:1 165:1 166:1 167:1 170:1 171:1 172:1 173:1 174:1 175:1 176:1 177:1 178:1 
-0 0 9.843172737670201 0 0 0 0 0 3.908654361953334 2:1 3:1 4:1 5:1 6:1 7:1 8:1 9:1 10:1 13:1 14:1 15:-1 16:-1 17:-1 18:-1 19:-1 20:-1 21:-1 22:-1 23:1 26:1 27:-1 28:-1 29:-1 30:-1 31:-1 32:-1 33:-1 34:-1 37:1 38:1 39:1 40:1 41:1 42:1 43:1 44:1 45:-1 46:-1 47:1 49:1 50:1 51:1 52:1 53:1 54:1 55:1 56:1 57:-1 58:1 59:1 61:1 62:1 63:1 64:1 65:1 66:1 67:1 68:-1 69:-1 70:1 71:1 73:1 74:1 75:1 76:1 77:1 78:1 79:-1 80:-1 81:1 82:1 83:1 86:1 87:1 88:1 89:1 90:1 91:-1 92:1 93:1 94:1 95:1 98:1 99:1 100:1 101:1 102:-1 103:-1 104:1 105:1 106:1 107:1 110:1 111:1 112:1 113:1 114:-1 115:-1 116:1 117:1 118:1 119:1 120:1 122:1 123:1 124:1 125:-1 126:-1 127:1 128:1 129:1 130:1 131:1 134:1 135:1 136:1 137:-1 138:-1 139:1 140:1 141:1 142:1 143:1 146:1 147:1 148:-1 149:-1 150:1 151:1 152:1 153:1 154:1 155:1 158:1 159:1 160:-1 161:-1 162:1 163:1 164:1 165:1 166:1 167:1 170:1 171:1 172:1 173:1 174:1 175:1 176:1 177:1 178:1 
-16.27402006075814 32 30.71031898246034 19.28932152539467 18.64581181147684 30.12478235595678 16.62709791588939 21.1616506815235 17.14764741457953 2:1 3:1 4:1 5:1 6:1 7:1 8:1 9:1 10:1 13:1 14:1 15:1 16:1 17:1 18:1 19:-1 20:1 21:1 22:1 23:1 26:-1 27:-1 28:-1 29:-1 30:-1 31:-1 32:-1 33:-1 34:1 37:1 38:-1 39:-1 40:-1 41:-1 42:-1 43:-1 44:-1 45:-1 46:1 47:1 49:1 50:1 51:1 52:1 53:1 54:1 55:1 56:-1 57:-1 58:-1 59:1 61:1 62:1 63:1 64:1 65:1 66:1 67:1 68:-1 69:1 70:1 71:1 73:1 74:1 75:1 76:1 77:1 78:1 79:-1 80:-1 81:1 82:1 83:1 86:1 87:1 88:1 89:1 90:-1 91:-1 92:1 93:1 94:1 95:1 98:1 99:1 100:1 101:1 102:-1 103:1 104:1 105:1 106:1 107:1 110:1 111:1 112:1 113:-1 114:-1 115:1 116:1 117:1 118:1 119:1 120:1 122:1 123:1 124:-1 125:-1 126:-1 127:1 128:1 129:1 130:1 131:1 134:1 135:1 136:-1 137:-1 138:1 139:1 140:1 141:1 142:1 143:1 146:1 147:-1 148:-1 149:-1 150:1 151:1 152:1 153:1 154:1 155:1 158:1 159:-1 160:-1 161:-1 162:1 163:1 164:1 165:1 166:1 167:1 170:1 171:-1 172:-1 173:1 174:1 175:1 176:1 177:1 178:1 
-4.186686631366382 0 0 0 0 0 5.217201735680789 0 0 2:1 3:1 4:1 5:1 6:1 7:1 8:1 9:1 10:1 13:1 14:1 15:1 16:1 17:1 18:1 19:-1 20:1 21:1 22:1 23:1 26:1 27:-1 28:-1 29:-1 30:-1 31:-1 32:-1 33:-1 34:-1 37:1 38:1 39:-1 40:-1 41:-1 42:-1 43:-1 44:-1 45:-1 46:-1 47:1 49:1 50:1 51:1 52:1 53:1 54:1 55:1 56:1 57:-1 58:-1 59:1 61:1 62:1 63:1 64:1 65:1 66:1 67:1 68:1 69:-1 70:1 71:1 73:1 74:1 75:1 76:1 77:1 78:1 79:1 80:-1 81:-1 82:1 83:1 86:1 87:1 88:1 89:1 90:1 91:-1 92:-1 93:1 94:1 95:1 98:1 99:1 100:1 101:1 102:1 103:-1 104:1 105:-1 106:1 107:1 110:1 111:1 112:1 113:1 114:-1 115:-1 116:1 117:1 118:1 119:1 120:1 122:1 123:1 124:1 125:1 126:-1 127:1 128:1 129:1 130:1 131:1 134:1 135:1 136:1 137:-1 138:-1 139:1 140:1 141:1 142:1 143:1 146:1 147:1 148:1 149:-1 150:-1 151:1 152:1 153:1 154:1 155:1 158:1 159:1 160:-1 161:-1 162:1 163:1 164:1 165:1 166:1 167:1 170:1 171:1 172:-1 173:-1 174:1 175:1 176:1 177:1 178:1 
-11.33160066528209 20.77827681390006 27.97542865224041 24.0183886785889 27.15992337548109 32 10.46002226918317 14.86948338206202 16.78422432091552 2:1 3:1 4:1 5:1 6:1 7:1 8:1 9:1 10:1 13:1 14:1 15:1 16:1 17:1 18:-1 19:1 20:1 21:1 22:1 23:1 26:1 27:-1 28:-1 29:-1 30:-1 31:-1 32:-1 33:-1 34:-1 37:1 38:1 39:-1 40:-1 41:-1 42:-1 43:-1 44:-1 45:-1 46:-1 47:1 49:1 50:1 51:1 52:1 53:1 54:1 55:1 56:1 57:-1 58:-1 59:1 61:1 62:1 63:1 64:1 65:1 66:1 67:1 68:1 69:-1 70:1 71:1 73:1 74:1 75:1 76:1 77:1 78:-1 79:1 80:-1 81:-1 82:1 83:1 86:1 87:1 88:1 89:1 90:1 91:-1 92:-1 93:1 94:1 95:1 98:1 99:1 100:1 101:1 102:1 103:-1 104:1 105:1 106:1 107:1 110:1 111:1 112:1 113:1 114:-1 115:-1 116:-1 117:1 118:1 119:1 120:1 122:1 123:1 124:1 125:1 126:-1 127:1 128:1 129:1 130:1 131:1 134:1 135:1 136:1 137:-1 138:-1 139:1 140:-1 141:1 142:1 143:1 146:1 147:1 148:1 149:-1 150:-1 151:-1 152:1 153:1 154:1 155:1 158:1 159:1 160:-1 161:-1 162:1 163:1 164:1 165:1 166:1 167:1 170:1 171:1 172:-1 173:-1 174:1 175:1 176:1 177:1 178:1 
-0 -0 0 0.04470671452306308 0 2.040723566850854 0 0 0 2:1 3:1 4:1 5:1 6:1 7:1 8:1 9:1 10:1 13:1 14:1 15:1 16:-1 17:-1 18:-1 19:-1 20:-1 21:1 22:1 23:1 26:-1 27:-1 28:-1 29:-1 30:-1 31:-1 32:-1 33:-1 34:1 37:1 38:1 39:-1 40:1 41:1 42:1 43:1 44:1 45:-1 46:-1 47:1 49:1 50:1 51:1 52:1 53:1 54:1 55:1 56:1 57:-1 58:-1 59:1 61:1 62:1 63:1 64:1 65:1 66:1 67:1 68:1 69:-1 70:-1 71:1 73:1 74:1 75:1 76:1 77:1 78:1 79:1 80:-1 81:-1 82:1 83:1 86:1 87:1 88:1 89:-1 90:1 91:-1 92:-1 93:1 94:1 95:1 98:1 99:1 100:1 101:1 102:-1 103:-1 104:1 105:1 106:1 107:1 110:1 111:1 112:1 113:-1 114:-1 115:1 116:1 117:1 118:1 119:1 120:1 122:1 123:1 124:-1 125:-1 126:1 127:1 128:1 129:1 130:1 131:1 134:1 135:-1 136:-1 137:1 138:1 139:1 140:1 141:1 142:1 143:1 146:-1 147:-1 148:-1 149:-1 150:-1 151:-1 152:-1 153:-1 154:-1 155:1 158:1 159:-1 160:-1 161:-1 162:-1 163:-1 164:-1 165:-1 166:-1 167:1 170:1 171:1 172:1 173:1 174:1 175:1 176:1 177:1 178:1 
-0 -8.698823801590526 0 0 0 0 0 0 0 2:1 3:1 4:1 5:1 6:1 7:1 8:1 9:1 10:1 13:1 14:1 15:1 16:-1 17:-1 18:-1 19:-1 20:-1 21:1 22:-1 23:1 26:1 27:-1 28:-1 29:-1 30:-1 31:-1 32:-1 33:-1 34:-1 37:1 38:1 39:-1 40:1 41:1 42:1 43:1 44:1 45:-1 46:-1 47:-1 49:1 50:1 51:1 52:1 53:1 54:1 55:1 56:1 57:-1 58:-1 59:1 61:1 62:1 63:1 64:1 65:1 66:1 67:1 68:1 69:-1 70:-1 71:1 73:1 74:1 75:1 76:1 77:1 78:1 79:1 80:-1 81:-1 82:1 83:1 86:1 87:1 88:1 89:1 90:1 91:-1 92:-1 93:1 94:1 95:1 98:1 99:1 100:1 101:1 102:-1 103:-1 104:1 105:1 106:1 107:1 110:1 111:1 112:1 113:-1 114:-1 115:1 116:1 117:1 118:1 119:1 120:1 122:1 123:1 124:-1 125:-1 126:1 127:1 128:1 129:1 130:1 131:1 134:1 135:-1 136:-1 137:1 138:1 139:1 140:1 141:1 142:1 143:1 146:1 147:-1 148:-1 149:-1 150:-1 151:-1 152:-1 153:-1 154:-1 155:1 158:-1 159:-1 160:-1 161:-1 162:-1 163:-1 164:-1 165:-1 166:-1 167:1 170:1 171:1 172:1 173:1 174:1 175:1 176:1 177:1 178:1 
-0 -20.30127271836097 32 0 0 12.22327462926309 0 0 0 2:1 3:1 4:1 5:1 6:1 7:1 8:1 9:1 10:1 13:1 14:1 15:1 16:-1 17:-1 18:-1 19:-1 20:-1 21:1 22:1 23:1 26:1 27:-1 28:-1 29:-1 30:-1 31:-1 32:-1 33:-1 34:1 37:1 38:1 39:-1 40:1 41:1 42:1 43:1 44:1 45:-1 46:-1 47:1 49:1 50:1 51:1 52:1 53:1 54:-1 55:1 56:1 57:-1 58:-1 59:1 61:1 62:1 63:1 64:1 65:1 66:1 67:-1 68:1 69:-1 70:-1 71:1 73:1 74:1 75:1 76:1 77:1 78:1 79:1 80:-1 81:-1 82:1 83:1 86:1 87:1 88:1 89:1 90:-1 91:-1 92:-1 93:1 94:1 95:1 98:1 99:1 100:1 101:1 102:-1 103:-1 104:1 105:1 106:1 107:1 110:1 111:1 112:1 113:-1 114:-1 115:1 116:1 117:1 118:1 119:1 120:1 122:1 123:1 124:-1 125:-1 126:1 127:1 128:1 129:1 130:1 131:1 134:1 135:-1 136:-1 137:1 138:-1 139:1 140:1 141:1 142:1 143:1 146:1 147:-1 148:-1 149:-1 150:-1 151:-1 152:-1 153:-1 154:-1 155:1 158:1 159:-1 160:-1 161:-1 162:-1 163:-1 164:-1 165:-1 166:-1 167:1 170:1 171:1 172:-1 173:1 174:1 175:1 176:1 177:1 178:1 
-0 -0 0 0 4.321427650519203 0 0 0 0 2:1 3:1 4:1 5:1 6:1 7:1 8:1 9:1 10:1 13:1 14:1 15:1 16:-1 17:-1 18:-1 19:-1 20:-1 21:1 22:1 23:1 26:1 27:-1 28:-1 29:-1 30:-1 31:-1 32:-1 33:-1 34:1 37:1 38:1 39:-1 40:1 41:1 42:1 43:1 44:1 45:-1 46:-1 47:1 49:1 50:1 51:1 52:1 53:1 54:1 55:1 56:1 57:-1 58:-1 59:1 61:1 62:1 63:1 64:1 65:1 66:1 67:1 68:1 69:-1 70:-1 71:1 73:1 74:1 75:1 76:1 77:1 78:1 79:1 80:-1 81:-1 82:1 83:1 86:1 87:1 88:1 89:1 90:1 91:-1 92:-1 93:1 94:1 95:1 98:1 99:1 100:1 101:1 102:-1 103:-1 104:1 105:-1 106:1 107:1 110:1 111:1 112:1 113:-1 114:-1 115:1 116:1 117:1 118:1 119:1 120:1 122:1 123:1 124:-1 125:-1 126:1 127:1 128:1 129:1 130:1 131:1 134:1 135:-1 136:-1 137:1 138:1 139:1 140:1 141:1 142:1 143:1 146:1 147:-1 148:-1 149:-1 150:-1 151:-1 152:-1 153:-1 154:-1 155:1 158:1 159:-1 160:-1 161:-1 162:-1 163:-1 164:-1 165:-1 166:-1 167:1 170:1 171:1 172:1 173:1 174:1 175:1 176:1 177:1 178:1 
-0 -0 0 0 0 0 0 6.70349581850496 0 2:1 3:1 4:1 5:1 6:1 7:1 8:1 9:1 10:1 13:1 14:1 15:-1 16:-1 17:-1 18:-1 19:-1 20:-1 21:1 22:1 23:1 26:1 27:-1 28:-1 29:-1 30:-1 31:-1 32:-1 33:-1 34:1 37:1 38:1 39:-1 40:1 41:1 42:1 43:1 44:1 45:-1 46:-1 47:1 49:1 50:1 51:1 52:-1 53:1 54:1 55:1 56:1 57:-1 58:-1 59:1 61:1 62:1 63:1 64:1 65:1 66:1 67:1 68:1 69:-1 70:-1 71:1 73:1 74:1 75:1 76:1 77:1 78:1 79:1 80:-1 81:-1 82:1 83:1 86:1 87:1 88:1 89:1 90:1 91:-1 92:-1 93:1 94:1 95:1 98:1 99:1 100:1 101:1 102:-1 103:-1 104:1 105:1 106:1 107:1 110:1 111:1 112:1 113:-1 114:-1 115:1 116:1 117:1 118:1 119:1 120:1 122:1 123:1 124:-1 125:-1 126:1 127:1 128:1 129:1 130:1 131:1 134:1 135:-1 136:-1 137:1 138:1 139:1 140:1 141:1 142:1 143:1 146:1 147:-1 148:-1 149:-1 150:-1 151:-1 152:-1 153:-1 154:-1 155:1 158:1 159:-1 160:-1 161:-1 162:-1 163:-1 164:-1 165:-1 166:-1 167:1 170:1 171:1 172:1 173:1 174:1 175:1 176:1 177:1 178:1 
-0 -0 0 0 0.5066503933134574 15.1775663016616 12.93071103344311 5.211051227137359 0 2:1 3:1 4:1 5:1 6:1 7:1 8:1 9:1 10:1 13:1 14:1 15:1 16:-1 17:-1 18:-1 19:-1 20:-1 21:1 22:1 23:1 26:1 27:-1 28:-1 29:-1 30:-1 31:-1 32:-1 33:-1 34:1 37:1 38:1 39:-1 40:1 41:1 42:1 43:1 44:1 45:-1 46:-1 47:1 49:1 50:1 51:1 52:1 53:1 54:1 55:1 56:1 57:-1 58:-1 59:1 61:1 62:1 63:1 64:1 65:1 66:1 67:1 68:1 69:-1 70:-1 71:1 73:1 74:1 75:1 76:1 77:1 78:1 79:1 80:-1 81:-1 82:1 83:1 86:1 87:1 88:1 89:1 90:1 91:-1 92:-1 93:1 94:1 95:1 98:1 99:1 100:1 101:1 102:-1 103:-1 104:1 105:-1 106:1 107:1 110:1 111:1 112:1 113:-1 114:-1 115:1 116:1 117:1 118:1 119:1 120:1 122:1 123:1 124:-1 125:-1 126:1 127:1 128:1 129:1 130:1 131:1 134:1 135:-1 136:-1 137:1 138:1 139:1 140:1 141:1 142:1 143:1 146:1 147:-1 148:-1 149:-1 150:-1 151:-1 152:-1 153:-1 154:-1 155:1 158:1 159:-1 160:-1 161:-1 162:-1 163:-1 164:-1 165:-1 166:-1 167:1 170:1 171:1 172:1 173:1 174:-1 175:1 176:1 177:1 178:1 
-1.497476132471524 -32 0 0 0 14.06890064787174 0 0 0 2:1 3:1 4:1 5:1 6:1 7:1 8:1 9:1 10:1 13:1 14:1 15:-1 16:-1 17:-1 18:-1 19:-1 20:1 21:1 22:1 23:1 26:-1 27:-1 28:-1 29:-1 30:-1 31:-1 32:-1 33:1 34:1 37:1 38:-1 39:1 40:1 41:1 42:1 43:1 44:-1 45:-1 46:1 47:1 49:1 50:1 51:1 52:1 53:1 54:1 55:1 56:-1 57:-1 58:-1 59:1 61:1 62:1 63:1 64:1 65:1 66:1 67:1 68:-1 69:-1 70:1 71:1 73:1 74:1 75:1 76:1 77:1 78:1 79:-1 80:-1 81:1 82:1 83:1 86:1 87:1 88:1 89:1 90:-1 91:-1 92:1 93:1 94:1 95:1 98:1 99:1 100:1 101:-1 102:-1 103:1 104:1 105:1 106:1 107:1 110:1 111:1 112:-1 113:-1 114:1 115:1 116:1 117:1 118:1 119:1 120:1 122:1 123:-1 124:-1 125:1 126:1 127:1 128:1 129:1 130:1 131:1 134:-1 135:-1 136:1 137:1 138:1 139:1 140:1 141:1 142:1 143:1 146:-1 147:-1 148:-1 149:-1 150:-1 151:-1 152:-1 153:-1 154:1 155:1 158:-1 159:-1 160:-1 161:-1 162:-1 163:-1 164:-1 165:-1 166:1 167:1 170:1 171:1 172:1 173:1 174:1 175:1 176:1 177:1 178:1 
-0 -17.23034082311288 16.95040100765043 8.665496799498577 9.35348315818422 14.67987187435412 0.9358349445720152 7.61277190598783 10.5034769476266 2:1 3:1 4:1 5:1 6:1 7:1 8:1 9:1 10:1 13:1 14:-1 15:1 16:1 17:1 18:1 19:1 20:1 21:1 22:1 23:1 26:1 27:-1 28:-1 29:-1 30:-1 31:-1 32:1 33:1 34:1 37:1 38:-1 39:-1 40:-1 41:-1 42:-1 43:-1 44:-1 45:1 46:1 47:1 49:1 50:-1 51:1 52:1 53:1 54:1 55:-1 56:-1 57:-1 58:1 59:1 61:1 62:1 63:1 64:1 65:1 66:1 67:1 68:-1 69:-1 70:1 71:1 73:1 74:1 75:1 76:1 77:1 78:-1 79:1 80:-1 81:-1 82:1 83:1 86:1 87:1 88:1 89:1 90:1 91:-1 92:-1 93:1 94:-1 95:1 98:1 99:1 100:1 101:1 102:-1 103:-1 104:1 105:1 106:1 107:1 110:1 111:1 112:1 113:-1 114:-1 115:1 116:-1 117:1 118:1 119:1 120:1 122:1 123:1 124:-1 125:-1 126:1 127:1 128:1 129:1 130:1 131:1 134:1 135:-1 136:-1 137:1 138:1 139:1 140:1 141:1 142:1 143:1 146:-1 147:-1 148:1 149:1 150:1 151:1 152:1 153:1 154:1 155:1 158:-1 159:-1 160:-1 161:-1 162:-1 163:-1 164:-1 165:-1 166:1 167:1 170:-1 171:-1 172:-1 173:-1 174:-1 175:-1 176:-1 177:-1 178:1 
-0 -0 19.14197167509682 0 10.025060907673 0 0 0 0 2:1 3:1 4:1 5:1 6:1 7:1 8:1 9:1 10:1 13:1 14:1 15:1 16:-1 17:-1 18:-1 19:1 20:1 21:1 22:1 23:1 26:-1 27:1 28:-1 29:-1 30:-1 31:-1 32:-1 33:1 34:1 37:1 38:1 39:-1 40:-1 41:-1 42:-1 43:-1 44:-1 45:-1 46:1 47:1 49:1 50:1 51:-1 52:1 53:1 54:1 55:1 56:1 57:-1 58:-1 59:1 61:1 62:-1 63:1 64:1 65:1 66:1 67:1 68:1 69:-1 70:-1 71:1 73:1 74:1 75:1 76:1 77:1 78:1 79:1 80:1 81:-1 82:-1 83:1 86:1 87:1 88:1 89:1 90:1 91:1 92:-1 93:-1 94:1 95:1 98:1 99:1 100:1 101:1 102:1 103:-1 104:-1 105:1 106:1 107:1 110:1 111:1 112:1 113:1 114:-1 115:-1 116:1 117:1 118:1 119:1 120:1 122:1 123:1 124:1 125:-1 126:-1 127:-1 128:1 129:1 130:1 131:1 134:1 135:1 136:-1 137:-1 138:1 139:1 140:1 141:1 142:1 143:1 146:1 147:-1 148:-1 149:1 150:1 151:1 152:1 153:1 154:1 155:1 158:1 159:-1 160:-1 161:-1 162:-1 163:-1 164:-1 165:-1 166:-1 167:1 170:1 171:-1 172:-1 173:-1 174:-1 175:-1 176:-1 177:-1 178:-1 
-0 -16.78231835430197 13.42313533895548 0 11.7129086926422 11.65094162098919 12.52388609188208 18.8146357308481 11.22869878864403 2:1 3:1 4:1 5:1 6:1 7:1 8:1 9:1 10:1 13:1 14:1 15:1 16:1 17:1 18:1 19:1 20:-1 21:1 22:1 23:1 26:1 27:1 28:-1 29:-1 30:-1 31:-1 32:-1 33:1 34:1 37:1 38:1 39:-1 40:-1 41:-1 42:-1 43:-1 44:-1 45:-1 46:1 47:1 49:1 50:1 51:-1 52:1 53:1 54:1 55:1 56:1 57:-1 58:-1 59:1 61:1 62:1 63:1 64:1 65:1 66:1 67:1 68:1 69:-1 70:-1 71:1 73:1 74:1 75:1 76:1 77:1 78:1 79:1 80:1 81:-1 82:-1 83:1 86:1 87:1 88:1 89:1 90:1 91:-1 92:-1 93:-1 94:1 95:1 98:1 99:1 100:1 101:1 102:1 103:-1 104:-1 105:1 106:1 107:1 110:1 111:1 112:1 113:1 114:-1 115:-1 116:1 117:1 118:1 119:1 120:1 122:1 123:1 124:1 125:-1 126:-1 127:1 128:1 129:1 130:1 131:1 134:1 135:1 136:-1 137:-1 138:1 139:1 140:1 141:1 142:1 143:1 146:1 147:-1 148:-1 149:1 150:1 151:1 152:1 153:1 154:1 155:1 158:1 159:-1 160:-1 161:-1 162:-1 163:-1 164:-1 165:-1 166:-1 167:1 170:1 171:-1 172:-1 173:-1 174:-1 175:-1 176:-1 177:-1 178:-1 
-4.633638812198897 -0 0 0 0 0 2.910264994442653 6.265884622254939 5.200475544831442 2:1 3:1 4:1 5:1 6:1 7:1 8:1 9:1 10:1 13:1 14:1 15:1 16:-1 17:-1 18:-1 19:-1 20:-1 21:-1 22:1 23:1 26:1 27:-1 28:-1 29:-1 30:-1 31:-1 32:-1 33:-1 34:1 37:1 38:1 39:-1 40:1 41:1 42:1 43:-1 44:1 45:-1 46:-1 47:1 49:1 50:1 51:1 52:1 53:1 54:1 55:1 56:1 57:-1 58:-1 59:1 61:1 62:1 63:1 64:1 65:1 66:1 67:1 68:1 69:-1 70:-1 71:1 73:1 74:1 75:1 76:1 77:1 78:1 79:1 80:-1 81:-1 82:1 83:1 86:1 87:1 88:1 89:1 90:1 91:-1 92:-1 93:1 94:1 95:1 98:1 99:1 100:1 101:1 102:-1 103:-1 104:1 105:1 106:1 107:1 110:1 111:1 112:1 113:-1 114:-1 115:1 116:1 117:1 118:1 119:1 120:1 122:1 123:-1 124:-1 125:-1 126:1 127:1 128:1 129:1 130:1 131:1 134:1 135:-1 136:-1 137:1 138:1 139:1 140:1 141:1 142:1 143:1 146:1 147:-1 148:-1 149:-1 150:-1 151:-1 152:-1 153:-1 154:-1 155:1 158:1 159:-1 160:-1 161:-1 162:-1 163:-1 164:-1 165:-1 166:-1 167:1 170:1 171:1 172:1 173:1 174:1 175:1 176:1 177:1 178:1 
-0 -11.9767210929388 0 0 0 0 0 0 0 2:1 3:1 4:1 5:1 6:1 7:1 8:1 9:1 10:1 13:1 14:1 15:1 16:-1 17:-1 18:-1 19:-1 20:-1 21:-1 22:1 23:1 26:1 27:-1 28:-1 29:-1 30:-1 31:-1 32:-1 33:-1 34:1 37:1 38:1 39:-1 40:1 41:1 42:1 43:1 44:1 45:-1 46:-1 47:1 49:1 50:1 51:1 52:1 53:1 54:1 55:1 56:1 57:-1 58:-1 59:1 61:1 62:1 63:1 64:1 65:1 66:1 67:1 68:1 69:-1 70:-1 71:1 73:1 74:1 75:1 76:1 77:1 78:1 79:1 80:-1 81:-1 82:1 83:1 86:1 87:1 88:1 89:1 90:1 91:-1 92:-1 93:1 94:1 95:1 98:1 99:1 100:1 101:1 102:-1 103:-1 104:1 105:1 106:1 107:1 110:1 111:1 112:1 113:-1 114:-1 115:1 116:1 117:1 118:1 119:1 120:1 122:1 123:1 124:-1 125:-1 126:1 127:1 128:1 129:1 130:1 131:1 134:1 135:-1 136:-1 137:1 138:1 139:1 140:1 141:1 142:1 143:1 146:1 147:-1 148:-1 149:-1 150:-1 151:-1 152:-1 153:-1 154:-1 155:1 158:1 159:-1 160:-1 161:-1 162:-1 163:-1 164:-1 165:-1 166:-1 167:1 170:1 171:1 172:1 173:1 174:1 175:1 176:1 177:1 178:1 
-6.664827333088907 -4.999413488284096 23.90447825798996 32 0 31.88627896197831 30.95301742955973 32 6.431188195509255 2:1 3:1 4:1 5:1 6:1 7:1 8:1 9:1 10:1 13:1 14:1 15:-1 16:-1 17:-1 18:-1 19:-1 20:1 21:1 22:1 23:1 26:-1 27:-1 28:-1 29:-1 30:-1 31:-1 32:-1 33:1 34:1 37:1 38:-1 39:1 40:1 41:1 42:1 43:1 44:-1 45:-1 46:1 47:1 49:1 50:1 51:1 52:1 53:1 54:1 55:1 56:-1 57:-1 58:1 59:1 61:1 62:1 63:1 64:1 65:1 66:1 67:1 68:-1 69:-1 70:1 71:1 73:1 74:1 75:1 76:1 77:1 78:1 79:-1 80:-1 81:1 82:1 83:1 86:1 87:1 88:1 89:1 90:-1 91:-1 92:1 93:1 94:1 95:1 98:1 99:1 100:1 101:-1 102:-1 103:1 104:1 105:1 106:1 107:1 110:1 111:1 112:-1 113:-1 114:1 115:1 116:1 117:1 118:1 119:1 120:1 122:1 123:-1 124:-1 125:1 126:1 127:1 128:1 129:1 130:1 131:1 134:-1 135:-1 136:1 137:1 138:1 139:1 140:1 141:1 142:1 143:1 146:-1 147:-1 148:-1 149:-1 150:-1 151:-1 152:-1 153:-1 154:-1 155:1 158:-1 159:-1 160:-1 161:-1 162:-1 163:-1 164:-1 165:-1 166:1 167:1 170:1 171:1 172:1 173:1 174:1 175:1 176:1 177:1 178:1 
-20.37670900211868 -0 0 0 30.43531086405322 7.048109283625182 2.136079553678242 13.33636519714172 12.43670270188292 2:1 3:1 4:1 5:1 6:1 7:1 8:1 9:1 10:1 13:1 14:1 15:-1 16:-1 17:-1 18:-1 19:-1 20:1 21:1 22:1 23:1 26:-1 27:-1 28:-1 29:-1 30:-1 31:-1 32:-1 33:1 34:1 37:1 38:-1 39:1 40:1 41:1 42:1 43:1 44:-1 45:-1 46:1 47:1 49:1 50:1 51:1 52:1 53:1 54:1 55:1 56:-1 57:-1 58:1 59:1 61:1 62:1 63:1 64:1 65:1 66:1 67:1 68:-1 69:-1 70:-1 71:1 73:1 74:1 75:1 76:1 77:1 78:1 79:-1 80:-1 81:-1 82:1 83:1 86:1 87:1 88:1 89:1 90:-1 91:-1 92:1 93:1 94:1 95:1 98:1 99:1 100:-1 101:-1 102:-1 103:1 104:1 105:1 106:1 107:1 110:1 111:1 112:-1 113:-1 114:1 115:1 116:1 117:1 118:1 119:1 120:1 122:1 123:-1 124:-1 125:1 126:1 127:1 128:1 129:1 130:1 131:1 134:-1 135:-1 136:1 137:1 138:1 139:1 140:1 141:1 142:1 143:1 146:-1 147:-1 148:-1 149:-1 150:-1 151:-1 152:-1 153:-1 154:1 155:1 158:-1 159:-1 160:-1 161:-1 162:-1 163:-1 164:-1 165:-1 166:1 167:1 170:1 171:1 172:1 173:1 174:1 175:1 176:1 177:1 178:1 
-16.98098017742391 -0 0 13.65386301051401 23.87900948956527 0 0 0 4.64893445030725 2:1 3:1 4:1 5:1 6:1 7:1 8:1 9:1 10:1 13:1 14:1 15:1 16:-1 17:-1 18:-1 19:-1 20:-1 21:1 22:1 23:1 26:1 27:-1 28:-1 29:-1 30:-1 31:-1 32:-1 33:-1 34:1 37:1 38:1 39:-1 40:1 41:1 42:1 43:1 44:1 45:-1 46:-1 47:1 49:1 50:1 51:-1 52:1 53:1 54:1 55:1 56:1 57:-1 58:-1 59:1 61:1 62:-1 63:1 64:1 65:1 66:1 67:1 68:1 69:-1 70:-1 71:1 73:1 74:1 75:1 76:1 77:1 78:1 79:1 80:-1 81:-1 82:1 83:1 86:1 87:1 88:1 89:1 90:1 91:-1 92:-1 93:1 94:1 95:1 98:1 99:1 100:1 101:1 102:-1 103:-1 104:1 105:1 106:1 107:1 110:1 111:1 112:1 113:-1 114:-1 115:1 116:1 117:1 118:1 119:1 120:1 122:1 123:1 124:-1 125:-1 126:1 127:-1 128:-1 129:1 130:1 131:1 134:1 135:-1 136:-1 137:1 138:1 139:1 140:1 141:1 142:1 143:1 146:1 147:-1 148:-1 149:-1 150:-1 151:-1 152:-1 153:-1 154:-1 155:1 158:1 159:-1 160:-1 161:-1 162:-1 163:-1 164:-1 165:-1 166:-1 167:1 170:1 171:1 172:1 173:1 174:1 175:1 176:1 177:1 178:1 
-0 -6.920200837364306 0 0 0 0 0 0 0 2:1 3:1 4:1 5:1 6:1 7:1 8:1 9:1 10:1 13:1 14:1 15:1 16:-1 17:-1 18:-1 19:-1 20:-1 21:1 22:1 23:1 26:1 27:-1 28:-1 29:-1 30:-1 31:-1 32:-1 33:-1 34:1 37:1 38:1 39:-1 40:1 41:1 42:1 43:1 44:1 45:-1 46:-1 47:1 49:1 50:1 51:1 52:1 53:1 54:1 55:1 56:1 57:-1 58:-1 59:1 61:1 62:1 63:1 64:1 65:1 66:1 67:1 68:1 69:-1 70:-1 71:1 73:1 74:1 75:1 76:1 77:1 78:1 79:-1 80:-1 81:-1 82:1 83:1 86:1 87:1 88:1 89:1 90:1 91:-1 92:-1 93:1 94:1 95:1 98:1 99:1 100:1 101:1 102:-1 103:-1 104:1 105:1 106:1 107:1 110:1 111:1 112:1 113:-1 114:-1 115:1 116:1 117:1 118:1 119:1 120:1 122:1 123:1 124:-1 125:-1 126:1 127:1 128:1 129:1 130:1 131:1 134:1 135:-1 136:-1 137:1 138:1 139:1 140:1 141:1 142:1 143:1 146:1 147:-1 148:-1 149:-1 150:-1 151:-1 152:-1 153:-1 154:-1 155:1 158:1 159:-1 160:-1 161:-1 162:-1 163:-1 164:-1 165:-1 166:-1 167:1 170:1 171:1 172:1 173:1 174:1 175:1 176:1 177:1 178:1 
-31.0622585128181 -32 0 32 17.50479209665059 31.54968037235974 15.21358426741488 18.11138960846802 3.276124602936933 2:1 3:1 4:1 5:1 6:1 7:1 8:1 9:1 10:1 13:1 14:1 15:1 16:1 17:1 18:1 19:1 20:1 21:1 22:-1 23:1 26:1 27:1 28:-1 29:-1 30:-1 31:-1 32:-1 33:-1 34:-1 37:1 38:1 39:-1 40:-1 41:-1 42:-1 43:-1 44:-1 45:-1 46:1 47:1 49:1 50:1 51:-1 52:1 53:1 54:1 55:1 56:1 57:-1 58:-1 59:1 61:1 62:1 63:1 64:1 65:1 66:1 67:1 68:1 69:-1 70:-1 71:1 73:1 74:1 75:1 76:1 77:1 78:1 79:1 80:1 81:-1 82:-1 83:1 86:1 87:1 88:1 89:1 90:1 91:1 92:-1 93:-1 94:1 95:1 98:1 99:1 100:1 101:1 102:1 103:-1 104:-1 105:1 106:1 107:1 110:1 111:1 112:1 113:1 114:-1 115:-1 116:1 117:1 118:1 119:1 120:1 122:1 123:1 124:1 125:-1 126:-1 127:1 128:1 129:1 130:1 131:1 134:1 135:1 136:-1 137:-1 138:1 139:1 140:1 141:1 142:1 143:1 146:1 147:-1 148:-1 149:1 150:1 151:1 152:1 153:1 154:1 155:1 158:1 159:-1 160:-1 161:-1 162:-1 163:-1 164:-1 165:-1 166:-1 167:1 170:1 171:-1 172:-1 173:-1 174:-1 175:-1 176:-1 177:-1 178:-1 
-0 -0 -0 0 0 0 0 0 2.651779924119051 2:1 3:1 4:1 5:1 6:1 7:1 8:1 9:1 10:1 13:1 14:1 15:1 16:1 17:-1 18:-1 19:-1 20:1 21:1 22:1 23:1 26:1 27:-1 28:-1 29:-1 30:-1 31:-1 32:1 33:1 34:1 37:1 38:1 39:-1 40:-1 41:-1 42:-1 43:-1 44:1 45:1 46:1 47:1 49:1 50:1 51:1 52:1 53:-1 54:-1 55:-1 56:1 57:1 58:1 59:1 61:1 62:1 63:1 64:1 65:1 66:-1 67:-1 68:1 69:1 70:1 71:1 73:1 74:1 75:1 76:1 77:1 78:-1 79:-1 80:1 81:1 82:1 83:1 86:1 87:1 88:1 89:1 90:-1 91:-1 92:1 93:1 94:1 95:1 98:1 99:1 100:1 101:1 102:-1 103:-1 104:1 105:1 106:1 107:1 110:1 111:1 112:1 113:1 114:-1 115:-1 116:1 117:1 118:1 119:1 120:1 122:1 123:1 124:1 125:1 126:-1 127:-1 128:-1 129:1 130:1 131:1 134:1 135:1 136:1 137:1 138:-1 139:-1 140:1 141:1 142:1 143:1 146:1 147:-1 148:-1 149:-1 150:-1 151:-1 152:-1 153:-1 154:-1 155:1 158:1 159:-1 160:-1 161:-1 162:-1 163:-1 164:-1 165:-1 166:-1 167:1 170:1 171:1 172:1 173:1 174:1 175:1 176:1 177:1 178:1 
-0 -6.68356934476155 -27.71659679216349 0 7.142219315822946 0 0 0 0 2:1 3:1 4:1 5:1 6:1 7:1 8:1 9:1 10:1 13:1 14:-1 15:1 16:-1 17:-1 18:-1 19:-1 20:1 21:1 22:1 23:1 26:1 27:-1 28:-1 29:-1 30:-1 31:-1 32:1 33:1 34:1 37:1 38:-1 39:-1 40:-1 41:-1 42:-1 43:-1 44:1 45:1 46:1 47:1 49:1 50:1 51:1 52:1 53:1 54:-1 55:-1 56:1 57:1 58:1 59:1 61:1 62:1 63:1 64:1 65:1 66:-1 67:-1 68:1 69:1 70:1 71:1 73:1 74:1 75:1 76:1 77:1 78:-1 79:-1 80:1 81:1 82:1 83:1 86:1 87:1 88:1 89:1 90:-1 91:-1 92:1 93:1 94:1 95:1 98:1 99:1 100:1 101:1 102:-1 103:-1 104:1 105:1 106:1 107:1 110:1 111:1 112:1 113:-1 114:-1 115:-1 116:1 117:1 118:1 119:1 120:1 122:1 123:1 124:1 125:1 126:-1 127:-1 128:1 129:1 130:1 131:1 134:1 135:1 136:1 137:1 138:-1 139:-1 140:1 141:1 142:1 143:1 146:1 147:-1 148:-1 149:-1 150:-1 151:-1 152:-1 153:-1 154:-1 155:1 158:1 159:-1 160:-1 161:-1 162:-1 163:-1 164:-1 165:-1 166:-1 167:1 170:1 171:1 172:1 173:1 174:1 175:1 176:1 177:1 178:1 
-12.46148981954027 -32 -21.03358347295347 0 14.96369521510406 19.90186969379077 0.6029824102597967 11.40774302303266 11.30497127008136 2:1 3:1 4:1 5:1 6:1 7:1 8:1 9:1 10:1 13:1 14:1 15:1 16:1 17:-1 18:-1 19:-1 20:1 21:1 22:1 23:1 26:1 27:-1 28:-1 29:-1 30:-1 31:-1 32:1 33:1 34:1 37:1 38:1 39:-1 40:-1 41:-1 42:-1 43:-1 44:1 45:1 46:1 47:1 49:1 50:1 51:1 52:1 53:1 54:-1 55:-1 56:-1 57:-1 58:1 59:1 61:1 62:1 63:1 64:1 65:1 66:-1 67:-1 68:1 69:1 70:1 71:1 73:1 74:1 75:1 76:1 77:1 78:-1 79:-1 80:1 81:1 82:1 83:1 86:1 87:1 88:1 89:1 90:-1 91:-1 92:1 93:1 94:1 95:1 98:1 99:1 100:1 101:1 102:-1 103:-1 104:1 105:1 106:1 107:1 110:1 111:1 112:1 113:1 114:-1 115:-1 116:1 117:1 118:1 119:1 120:1 122:1 123:1 124:1 125:1 126:-1 127:-1 128:1 129:1 130:1 131:1 134:1 135:1 136:1 137:-1 138:-1 139:-1 140:-1 141:1 142:1 143:1 146:1 147:-1 148:-1 149:-1 150:-1 151:-1 152:-1 153:-1 154:-1 155:1 158:1 159:-1 160:-1 161:-1 162:-1 163:-1 164:-1 165:-1 166:-1 167:1 170:1 171:1 172:1 173:1 174:1 175:1 176:1 177:1 178:1 
-11.95498761986412 -24.17008836361862 -32 21.90886161025139 20.15701191123406 20.04558738656897 17.09490449666167 18.97095867366654 14.51839313076783 2:1 3:-1 4:1 5:1 6:1 7:1 8:1 9:1 10:1 13:1 14:1 15:-1 16:1 17:1 18:1 19:1 20:1 21:1 22:1 23:1 26:1 27:1 28:-1 29:-1 30:-1 31:-1 32:-1 33:1 34:1 37:1 38:1 39:-1 40:-1 41:-1 42:-1 43:-1 44:1 45:1 46:1 47:1 49:1 50:1 51:-1 52:-1 53:-1 54:-1 55:-1 56:1 57:1 58:1 59:1 61:1 62:1 63:1 64:1 65:1 66:-1 67:-1 68:1 69:1 70:1 71:1 73:1 74:1 75:1 76:1 77:1 78:-1 79:-1 80:1 81:1 82:1 83:1 86:1 87:1 88:1 89:1 90:-1 91:-1 92:1 93:1 94:1 95:1 98:1 99:1 100:1 101:1 102:-1 103:-1 104:1 105:1 106:1 107:1 110:1 111:1 112:1 113:1 114:-1 115:-1 116:1 117:1 118:1 119:1 120:1 122:1 123:1 124:1 125:1 126:-1 127:-1 128:1 129:1 130:1 131:1 134:1 135:1 136:1 137:1 138:-1 139:-1 140:1 141:1 142:1 143:1 146:1 147:-1 148:1 149:1 150:-1 151:-1 152:1 153:1 154:1 155:1 158:1 159:-1 160:-1 161:-1 162:-1 163:-1 164:-1 165:-1 166:-1 167:1 170:1 171:-1 172:-1 173:-1 174:-1 175:-1 176:-1 177:-1 178:-1 
-0 -4.101563910831572 -0 0 0 0 0 0 0 2:1 3:1 4:1 5:1 6:1 7:1 8:1 9:1 10:1 13:1 14:1 15:1 16:1 17:-1 18:-1 19:-1 20:1 21:1 22:1 23:1 26:1 27:-1 28:-1 29:-1 30:-1 31:-1 32:1 33:1 34:1 37:1 38:-1 39:-1 40:-1 41:-1 42:-1 43:-1 44:1 45:1 46:1 47:1 49:1 50:1 51:1 52:1 53:1 54:-1 55:-1 56:1 57:1 58:1 59:1 61:1 62:1 63:1 64:1 65:1 66:-1 67:-1 68:-1 69:1 70:1 71:1 73:1 74:1 75:1 76:1 77:1 78:-1 79:-1 80:1 81:1 82:1 83:1 86:1 87:1 88:1 89:1 90:-1 91:-1 92:1 93:1 94:1 95:1 98:1 99:1 100:1 101:1 102:-1 103:-1 104:1 105:1 106:1 107:1 110:1 111:1 112:1 113:1 114:-1 115:-1 116:1 117:1 118:1 119:1 120:1 122:1 123:1 124:1 125:1 126:-1 127:-1 128:1 129:1 130:1 131:1 134:1 135:1 136:1 137:1 138:-1 139:-1 140:1 141:1 142:1 143:1 146:1 147:-1 148:-1 149:-1 150:-1 151:-1 152:-1 153:-1 154:-1 155:1 158:1 159:-1 160:-1 161:-1 162:-1 163:-1 164:-1 165:-1 166:-1 167:1 170:-1 171:1 172:1 173:1 174:1 175:1 176:1 177:1 178:1 
-0 -0 -9.661123151836382 0 0 0 0 0 15.54530198501572 2:1 3:1 4:1 5:1 6:1 7:1 8:1 9:1 10:1 13:1 14:1 15:1 16:1 17:-1 18:-1 19:-1 20:1 21:1 22:1 23:1 26:1 27:-1 28:-1 29:-1 30:-1 31:-1 32:1 33:1 34:1 37:1 38:1 39:-1 40:-1 41:-1 42:-1 43:-1 44:1 45:1 46:1 47:1 49:1 50:1 51:1 52:1 53:1 54:-1 55:-1 56:1 57:1 58:1 59:1 61:1 62:1 63:1 64:1 65:1 66:-1 67:-1 68:1 69:1 70:1 71:1 73:1 74:1 75:1 76:1 77:1 78:-1 79:-1 80:1 81:1 82:1 83:1 86:1 87:1 88:1 89:1 90:-1 91:-1 92:1 93:1 94:1 95:1 98:1 99:1 100:1 101:1 102:-1 103:-1 104:-1 105:1 106:1 107:1 110:1 111:1 112:1 113:1 114:-1 115:-1 116:1 117:1 118:1 119:1 120:1 122:1 123:1 124:1 125:-1 126:-1 127:-1 128:1 129:1 130:1 131:1 134:1 135:1 136:1 137:1 138:-1 139:-1 140:1 141:1 142:1 143:1 146:1 147:-1 148:-1 149:-1 150:-1 151:-1 152:-1 153:-1 154:-1 155:1 158:1 159:-1 160:-1 161:-1 162:-1 163:-1 164:-1 165:-1 166:-1 167:1 170:1 171:1 172:1 173:1 174:1 175:1 176:1 177:1 178:1 
-10.47973569035151 -0 -0 0 0 0 0 0 0 2:1 3:1 4:1 5:1 6:1 7:1 8:1 9:1 10:1 13:1 14:1 15:1 16:1 17:-1 18:-1 19:-1 20:1 21:1 22:1 23:1 26:1 27:-1 28:-1 29:-1 30:-1 31:-1 32:1 33:1 34:1 37:1 38:1 39:-1 40:-1 41:-1 42:-1 43:-1 44:1 45:1 46:1 47:1 49:1 50:1 51:-1 52:1 53:1 54:-1 55:-1 56:1 57:1 58:1 59:1 61:1 62:1 63:1 64:1 65:1 66:-1 67:-1 68:1 69:1 70:1 71:1 73:1 74:1 75:1 76:1 77:1 78:-1 79:-1 80:1 81:1 82:1 83:1 86:1 87:1 88:1 89:1 90:-1 91:-1 92:1 93:1 94:1 95:1 98:1 99:1 100:1 101:1 102:-1 103:-1 104:1 105:1 106:1 107:1 110:1 111:1 112:1 113:1 114:-1 115:-1 116:1 117:1 118:1 119:1 120:1 122:1 123:1 124:1 125:1 126:-1 127:-1 128:1 129:1 130:1 131:1 134:1 135:-1 136:1 137:1 138:-1 139:-1 140:1 141:1 142:1 143:1 146:1 147:-1 148:-1 149:-1 150:-1 151:-1 152:-1 153:-1 154:-1 155:1 158:1 159:-1 160:-1 161:-1 162:-1 163:-1 164:-1 165:-1 166:-1 167:1 170:1 171:-1 172:1 173:1 174:1 175:1 176:1 177:1 178:1 
-0 -0 -0 21.88298332882021 6.78480697456783 21.83621027031355 7.475819400651208 10.67424664898907 0.8297478460471777 2:1 3:1 4:1 5:1 6:1 7:1 8:1 9:1 10:1 13:1 14:1 15:1 16:1 17:-1 18:-1 19:-1 20:1 21:1 22:1 23:1 26:1 27:-1 28:-1 29:-1 30:-1 31:-1 32:1 33:1 34:1 37:1 38:1 39:-1 40:-1 41:-1 42:-1 43:-1 44:1 45:1 46:1 47:1 49:1 50:1 51:1 52:1 53:1 54:-1 55:-1 56:1 57:1 58:1 59:1 61:1 62:1 63:1 64:1 65:1 66:-1 67:-1 68:1 69:1 70:1 71:1 73:1 74:1 75:1 76:1 77:1 78:-1 79:-1 80:1 81:1 82:1 83:1 86:1 87:1 88:1 89:1 90:-1 91:-1 92:1 93:1 94:1 95:1 98:1 99:1 100:1 101:1 102:-1 103:-1 104:-1 105:1 106:1 107:1 110:1 111:1 112:1 113:1 114:-1 115:-1 116:1 117:-1 118:1 119:1 120:1 122:1 123:1 124:1 125:1 126:-1 127:-1 128:1 129:1 130:1 131:1 134:1 135:1 136:1 137:1 138:-1 139:-1 140:1 141:1 142:1 143:1 146:1 147:-1 148:-1 149:-1 150:-1 151:-1 152:-1 153:-1 154:-1 155:1 158:1 159:-1 160:-1 161:-1 162:-1 163:-1 164:-1 165:-1 166:-1 167:1 170:1 171:1 172:-1 173:1 174:1 175:1 176:1 177:1 178:1 
-0 -14.36836792244791 -15.00868286273936 0 0 0 0 0 0 2:1 3:1 4:1 5:1 6:1 7:1 8:1 9:1 10:1 13:1 14:1 15:1 16:1 17:-1 18:-1 19:-1 20:1 21:1 22:1 23:1 26:1 27:-1 28:-1 29:-1 30:-1 31:-1 32:1 33:1 34:1 37:1 38:1 39:-1 40:-1 41:-1 42:-1 43:-1 44:1 45:1 46:1 47:1 49:1 50:1 51:1 52:1 53:1 54:-1 55:-1 56:1 57:1 58:1 59:1 61:1 62:1 63:1 64:1 65:1 66:-1 67:-1 68:1 69:1 70:1 71:1 73:1 74:1 75:1 76:1 77:1 78:-1 79:-1 80:-1 81:1 82:1 83:1 86:1 87:1 88:1 89:1 90:-1 91:-1 92:1 93:1 94:1 95:1 98:1 99:1 100:1 101:1 102:-1 103:-1 104:1 105:1 106:1 107:1 110:1 111:1 112:1 113:1 114:-1 115:-1 116:1 117:1 118:1 119:1 120:1 122:1 123:1 124:1 125:1 126:-1 127:-1 128:1 129:1 130:1 131:1 134:1 135:1 136:1 137:1 138:-1 139:-1 140:1 141:1 142:1 143:1 146:1 147:-1 148:-1 149:-1 150:-1 151:-1 152:-1 153:-1 154:-1 155:1 158:1 159:-1 160:-1 161:-1 162:-1 163:-1 164:-1 165:-1 166:-1 167:1 170:1 171:1 172:-1 173:1 174:1 175:1 176:1 177:-1 178:1 
-12.19350822525906 -0 -0 0 0 0 6.2823704334551 0 0 2:1 3:1 4:1 5:1 6:1 7:1 8:1 9:1 10:1 13:1 14:1 15:1 16:1 17:-1 18:-1 19:-1 20:1 21:1 22:1 23:1 26:1 27:-1 28:-1 29:-1 30:-1 31:-1 32:1 33:1 34:1 37:1 38:1 39:-1 40:-1 41:-1 42:-1 43:-1 44:1 45:1 46:1 47:1 49:1 50:1 51:1 52:1 53:1 54:-1 55:-1 56:1 57:1 58:1 59:1 61:1 62:1 63:1 64:1 65:1 66:-1 67:-1 68:1 69:1 70:1 71:1 73:1 74:1 75:1 76:1 77:1 78:-1 79:-1 80:1 81:1 82:1 83:1 86:1 87:1 88:1 89:1 90:-1 91:-1 92:1 93:1 94:1 95:1 98:1 99:1 100:1 101:1 102:-1 103:-1 104:1 105:1 106:1 107:1 110:1 111:1 112:1 113:1 114:-1 115:-1 116:1 117:1 118:1 119:1 120:1 122:1 123:1 124:1 125:1 126:-1 127:-1 128:1 129:1 130:1 131:1 134:1 135:1 136:1 137:1 138:-1 139:-1 140:1 141:1 142:-1 143:1 146:1 147:-1 148:-1 149:-1 150:-1 151:-1 152:-1 153:-1 154:-1 155:1 158:1 159:-1 160:-1 161:-1 162:-1 163:-1 164:-1 165:-1 166:-1 167:1 170:1 171:1 172:1 173:1 174:1 175:1 176:1 177:1 178:1 
-0 -0 -0 17.55674986359783 0.1039258307791292 15.27617768381272 10.04393249546519 9.301614651185645 0.05050563981080724 2:1 3:1 4:1 5:1 6:1 7:1 8:1 9:1 10:1 13:1 14:1 15:1 16:1 17:-1 18:-1 19:-1 20:1 21:1 22:1 23:1 26:1 27:-1 28:-1 29:-1 30:-1 31:-1 32:1 33:1 34:1 37:1 38:1 39:-1 40:-1 41:-1 42:-1 43:-1 44:1 45:1 46:1 47:1 49:1 50:1 51:1 52:1 53:1 54:-1 55:-1 56:1 57:1 58:1 59:1 61:1 62:1 63:1 64:1 65:1 66:-1 67:-1 68:1 69:1 70:1 71:1 73:1 74:1 75:1 76:1 77:1 78:-1 79:-1 80:1 81:1 82:1 83:1 86:1 87:1 88:1 89:-1 90:-1 91:-1 92:1 93:1 94:1 95:1 98:1 99:1 100:1 101:1 102:-1 103:-1 104:1 105:1 106:1 107:1 110:1 111:1 112:1 113:1 114:-1 115:-1 116:-1 117:1 118:1 119:1 120:1 122:1 123:1 124:1 125:1 126:-1 127:-1 128:1 129:1 130:1 131:1 134:1 135:1 136:1 137:1 138:-1 139:-1 140:1 141:1 142:1 143:1 146:1 147:-1 148:-1 149:-1 150:-1 151:-1 152:-1 153:-1 154:-1 155:1 158:1 159:-1 160:-1 161:-1 162:-1 163:-1 164:-1 165:-1 166:-1 167:1 170:1 171:1 172:1 173:1 174:1 175:1 176:1 177:1 178:1 
-0.5400936305837645 -0 -0 7.809426163679599 7.1621874613298 0 11.53033419643 7.186800763447799 0 2:1 3:1 4:1 5:1 6:1 7:1 8:1 9:1 10:1 13:1 14:1 15:1 16:1 17:-1 18:-1 19:-1 20:-1 21:-1 22:1 23:1 26:1 27:-1 28:-1 29:-1 30:-1 31:-1 32:1 33:1 34:1 37:1 38:1 39:-1 40:-1 41:-1 42:-1 43:-1 44:1 45:1 46:1 47:1 49:1 50:1 51:1 52:1 53:1 54:-1 55:-1 56:1 57:1 58:1 59:1 61:1 62:1 63:1 64:1 65:1 66:-1 67:-1 68:1 69:1 70:1 71:1 73:1 74:1 75:1 76:1 77:1 78:-1 79:-1 80:1 81:1 82:1 83:1 86:1 87:1 88:1 89:1 90:-1 91:-1 92:1 93:1 94:1 95:1 98:1 99:1 100:1 101:-1 102:-1 103:-1 104:1 105:1 106:1 107:1 110:1 111:1 112:1 113:1 114:-1 115:-1 116:1 117:1 118:1 119:1 120:1 122:1 123:1 124:1 125:1 126:-1 127:-1 128:1 129:1 130:1 131:1 134:1 135:1 136:1 137:1 138:-1 139:-1 140:1 141:1 142:1 143:1 146:1 147:-1 148:-1 149:-1 150:-1 151:-1 152:-1 153:-1 154:-1 155:1 158:1 159:-1 160:-1 161:-1 162:-1 163:-1 164:-1 165:-1 166:-1 167:1 170:1 171:1 172:1 173:-1 174:1 175:1 176:1 177:1 178:1 
-23.10177864518119 -18.6921306034115 -24.86475675689357 -12.2350714937565 32 27.08304110878281 26.20868125199042 5.862374516057897 10.76711008161466 2:1 3:1 4:1 5:1 6:1 7:1 8:1 9:1 10:1 13:1 14:1 15:1 16:1 17:1 18:1 19:1 20:1 21:1 22:-1 23:1 26:-1 27:-1 28:-1 29:-1 30:-1 31:-1 32:-1 33:-1 34:1 37:1 38:-1 39:-1 40:-1 41:-1 42:-1 43:-1 44:-1 45:-1 46:1 47:1 49:1 50:-1 51:-1 52:1 53:1 54:1 55:1 56:1 57:1 58:1 59:1 61:1 62:-1 63:-1 64:1 65:1 66:1 67:1 68:1 69:1 70:1 71:1 73:1 74:-1 75:-1 76:1 77:1 78:1 79:1 80:1 81:1 82:1 83:1 86:-1 87:-1 88:-1 89:-1 90:-1 91:1 92:1 93:1 94:1 95:1 98:-1 99:-1 100:-1 101:-1 102:-1 103:-1 104:-1 105:1 106:1 107:1 110:1 111:1 112:1 113:1 114:1 115:-1 116:-1 117:-1 118:1 119:1 120:1 122:1 123:1 124:1 125:1 126:1 127:1 128:-1 129:-1 130:1 131:1 134:1 135:1 136:1 137:1 138:1 139:1 140:-1 141:-1 142:1 143:1 146:-1 147:1 148:1 149:1 150:1 151:-1 152:-1 153:-1 154:1 155:1 158:-1 159:-1 160:-1 161:-1 162:-1 163:-1 164:-1 165:1 166:1 167:1 170:1 171:-1 172:-1 173:-1 174:-1 175:-1 176:1 177:1 178:1 
-0 -0 -0 -0 0 0 0 27.80839654693356 1.552258303469992 2:1 3:1 4:1 5:1 6:1 7:1 8:1 9:1 10:1 13:1 14:1 15:-1 16:-1 17:-1 18:-1 19:-1 20:-1 21:-1 22:-1 23:-1 26:1 27:-1 28:-1 29:-1 30:-1 31:-1 32:-1 33:-1 34:-1 37:1 38:-1 39:-1 40:-1 41:1 42:1 43:1 44:1 45:1 46:1 47:1 49:1 50:1 51:-1 52:-1 53:1 54:1 55:1 56:1 57:1 58:1 59:1 61:1 62:1 63:-1 64:-1 65:-1 66:1 67:1 68:1 69:1 70:1 71:1 73:1 74:1 75:-1 76:-1 77:-1 78:-1 79:-1 80:1 81:1 82:1 83:1 86:1 87:-1 88:-1 89:-1 90:-1 91:-1 92:-1 93:-1 94:1 95:1 98:1 99:1 100:1 101:1 102:1 103:1 104:-1 105:-1 106:-1 107:1 110:1 111:1 112:1 113:1 114:1 115:1 116:1 117:-1 118:-1 119:1 120:1 122:1 123:1 124:1 125:1 126:1 127:1 128:1 129:-1 130:-1 131:1 134:-1 135:-1 136:1 137:1 138:1 139:1 140:-1 141:-1 142:-1 143:1 146:1 147:-1 148:-1 149:-1 150:-1 151:-1 152:-1 153:-1 154:1 155:1 158:1 159:1 160:-1 161:-1 162:-1 163:-1 164:-1 165:1 166:1 167:1 170:1 171:1 172:1 173:1 174:1 175:1 176:1 177:1 178:1 
-0 -0 -0 -0 9.368774554275506 0 0 0 0 2:1 3:1 4:1 5:1 6:1 7:1 8:1 9:1 10:1 13:1 14:-1 15:-1 16:-1 17:-1 18:-1 19:-1 20:-1 21:-1 22:1 23:1 26:-1 27:-1 28:-1 29:-1 30:-1 31:-1 32:-1 33:-1 34:1 37:1 38:-1 39:-1 40:1 41:-1 42:1 43:1 44:1 45:1 46:1 47:1 49:1 50:-1 51:-1 52:1 53:1 54:-1 55:1 56:1 57:1 58:1 59:1 61:1 62:-1 63:-1 64:1 65:1 66:1 67:1 68:1 69:1 70:1 71:1 73:1 74:-1 75:-1 76:-1 77:-1 78:-1 79:1 80:1 81:1 82:1 83:1 86:-1 87:-1 88:-1 89:-1 90:-1 91:-1 92:-1 93:1 94:1 95:1 98:1 99:1 100:1 101:1 102:1 103:-1 104:-1 105:-1 106:-1 107:1 110:1 111:1 112:1 113:1 114:1 115:1 116:-1 117:-1 118:1 119:1 120:1 122:1 123:1 124:1 125:1 126:1 127:1 128:-1 129:-1 130:1 131:1 134:-1 135:1 136:1 137:1 138:1 139:-1 140:-1 141:-1 142:1 143:1 146:-1 147:-1 148:-1 149:-1 150:-1 151:-1 152:-1 153:1 154:1 155:1 158:1 159:-1 160:-1 161:-1 162:-1 163:-1 164:1 165:1 166:1 167:1 170:1 171:1 172:1 173:1 174:-1 175:1 176:1 177:1 178:1 
-0 -0 -0 -12.48399993109732 0 19.68537116464227 0 0 0 2:1 3:1 4:1 5:1 6:1 7:1 8:1 9:1 10:1 13:1 14:1 15:-1 16:-1 17:-1 18:-1 19:-1 20:-1 21:-1 22:-1 23:1 26:1 27:-1 28:-1 29:-1 30:-1 31:-1 32:-1 33:-1 34:-1 37:1 38:1 39:-1 40:-1 41:-1 42:1 43:1 44:1 45:1 46:1 47:1 49:1 50:1 51:-1 52:-1 53:1 54:1 55:1 56:1 57:1 58:1 59:1 61:1 62:1 63:-1 64:-1 65:1 66:1 67:-1 68:1 69:1 70:1 71:1 73:1 74:1 75:-1 76:-1 77:-1 78:-1 79:-1 80:1 81:1 82:1 83:1 86:1 87:-1 88:-1 89:-1 90:-1 91:-1 92:-1 93:-1 94:1 95:1 98:1 99:1 100:1 101:1 102:1 103:1 104:-1 105:-1 106:-1 107:1 110:1 111:1 112:1 113:1 114:1 115:1 116:1 117:-1 118:-1 119:1 120:1 122:1 123:1 124:1 125:1 126:1 127:1 128:1 129:-1 130:-1 131:1 134:1 135:-1 136:1 137:1 138:1 139:1 140:-1 141:-1 142:-1 143:1 146:1 147:-1 148:-1 149:-1 150:-1 151:-1 152:-1 153:-1 154:1 155:1 158:1 159:1 160:-1 161:-1 162:-1 163:-1 164:-1 165:1 166:1 167:1 170:1 171:1 172:1 173:1 174:1 175:1 176:1 177:1 178:1 
-0 -0 -3.520507447997737 -15.86706782961573 0 0 0 0 1.725195603253585 2:1 3:1 4:1 5:1 6:1 7:1 8:1 9:1 10:1 13:1 14:-1 15:-1 16:-1 17:-1 18:-1 19:-1 20:-1 21:-1 22:-1 23:1 26:-1 27:-1 28:-1 29:-1 30:-1 31:-1 32:-1 33:-1 34:1 37:1 38:-1 39:-1 40:1 41:1 42:1 43:1 44:1 45:1 46:1 47:1 49:1 50:-1 51:-1 52:1 53:1 54:1 55:-1 56:1 57:1 58:1 59:1 61:1 62:-1 63:-1 64:1 65:1 66:-1 67:1 68:1 69:1 70:1 71:1 73:1 74:-1 75:-1 76:-1 77:-1 78:-1 79:1 80:1 81:1 82:1 83:1 86:-1 87:-1 88:-1 89:-1 90:-1 91:-1 92:-1 93:1 94:1 95:1 98:1 99:1 100:1 101:1 102:1 103:-1 104:-1 105:-1 106:1 107:1 110:1 111:1 112:1 113:1 114:1 115:1 116:-1 117:-1 118:1 119:1 120:1 122:1 123:1 124:1 125:1 126:1 127:1 128:-1 129:-1 130:1 131:1 134:-1 135:1 136:1 137:1 138:1 139:-1 140:-1 141:-1 142:1 143:1 146:-1 147:-1 148:-1 149:-1 150:-1 151:-1 152:-1 153:1 154:1 155:1 158:1 159:-1 160:-1 161:-1 162:-1 163:-1 164:1 165:1 166:1 167:1 170:1 171:1 172:1 173:1 174:1 175:1 176:1 177:1 178:1 
-0.115461481540841 -8.74946804061239 -1.715190909706851 -0 0 32 18.50424192904065 12.5462792546837 2.912443011269788 2:1 3:1 4:1 5:1 6:1 7:1 8:1 9:1 10:1 13:1 14:1 15:1 16:1 17:1 18:1 19:-1 20:1 21:1 22:1 23:1 26:1 27:-1 28:-1 29:-1 30:-1 31:-1 32:-1 33:-1 34:-1 37:1 38:1 39:-1 40:-1 41:-1 42:-1 43:-1 44:-1 45:-1 46:-1 47:1 49:1 50:1 51:-1 52:-1 53:1 54:1 55:1 56:1 57:1 58:1 59:1 61:1 62:1 63:-1 64:-1 65:1 66:1 67:1 68:1 69:1 70:1 71:1 73:1 74:1 75:-1 76:-1 77:1 78:1 79:1 80:1 81:1 82:1 83:1 86:1 87:-1 88:-1 89:-1 90:-1 91:-1 92:1 93:1 94:1 95:1 98:1 99:-1 100:-1 101:-1 102:-1 103:-1 104:-1 105:-1 106:1 107:1 110:1 111:1 112:1 113:1 114:1 115:1 116:-1 117:-1 118:-1 119:1 120:1 122:1 123:1 124:1 125:1 126:1 127:1 128:1 129:-1 130:-1 131:1 134:1 135:1 136:1 137:1 138:1 139:1 140:1 141:-1 142:-1 143:1 146:1 147:-1 148:1 149:1 150:1 151:1 152:-1 153:-1 154:-1 155:1 158:1 159:-1 160:-1 161:-1 162:-1 163:-1 164:-1 165:-1 166:1 167:1 170:1 171:1 172:-1 173:-1 174:-1 175:-1 176:-1 177:1 178:1 
-0 -9.041400213989126 -7.411114470932438 -0 12.98407283284681 0 0 0 0 2:1 3:1 4:1 5:1 6:1 7:1 8:1 9:-1 10:1 13:1 14:1 15:-1 16:-1 17:-1 18:-1 19:-1 20:-1 21:-1 22:-1 23:1 26:1 27:-1 28:-1 29:-1 30:-1 31:-1 32:-1 33:-1 34:-1 37:1 38:1 39:-1 40:-1 41:1 42:1 43:1 44:1 45:1 46:1 47:1 49:1 50:1 51:-1 52:-1 53:1 54:1 55:1 56:1 57:1 58:1 59:1 61:1 62:1 63:-1 64:-1 65:1 66:1 67:1 68:1 69:1 70:1 71:1 73:1 74:1 75:-1 76:-1 77:-1 78:-1 79:-1 80:1 81:1 82:1 83:1 86:1 87:-1 88:-1 89:-1 90:-1 91:-1 92:-1 93:-1 94:1 95:1 98:1 99:1 100:1 101:1 102:1 103:-1 104:-1 105:-1 106:-1 107:1 110:1 111:1 112:1 113:1 114:1 115:1 116:1 117:-1 118:-1 119:1 120:1 122:1 123:1 124:1 125:1 126:1 127:1 128:1 129:-1 130:-1 131:1 134:1 135:-1 136:1 137:-1 138:1 139:1 140:-1 141:-1 142:-1 143:1 146:1 147:-1 148:-1 149:-1 150:-1 151:-1 152:-1 153:-1 154:1 155:1 158:1 159:1 160:-1 161:-1 162:-1 163:-1 164:-1 165:1 166:1 167:1 170:1 171:1 172:1 173:1 174:1 175:1 176:1 177:-1 178:1 
-0 -0 -0 -0 0 32 0 0 0 2:1 3:1 4:1 5:1 6:1 7:1 8:1 9:1 10:1 13:1 14:-1 15:-1 16:-1 17:-1 18:-1 19:-1 20:-1 21:-1 22:1 23:1 26:-1 27:-1 28:-1 29:-1 30:-1 31:-1 32:-1 33:-1 34:1 37:1 38:-1 39:-1 40:1 41:1 42:1 43:1 44:1 45:1 46:1 47:1 49:1 50:-1 51:-1 52:1 53:1 54:1 55:1 56:1 57:1 58:1 59:1 61:1 62:-1 63:-1 64:1 65:1 66:1 67:1 68:1 69:1 70:1 71:1 73:1 74:-1 75:-1 76:-1 77:-1 78:-1 79:1 80:1 81:1 82:1 83:1 86:-1 87:-1 88:-1 89:-1 90:-1 91:-1 92:-1 93:1 94:1 95:1 98:1 99:1 100:1 101:1 102:1 103:-1 104:-1 105:-1 106:1 107:1 110:1 111:1 112:1 113:1 114:1 115:1 116:-1 117:-1 118:1 119:1 120:1 122:1 123:1 124:1 125:1 126:1 127:1 128:-1 129:-1 130:-1 131:1 134:-1 135:1 136:1 137:1 138:1 139:-1 140:-1 141:-1 142:1 143:1 146:-1 147:-1 148:-1 149:-1 150:-1 151:-1 152:-1 153:1 154:1 155:1 158:1 159:-1 160:-1 161:-1 162:-1 163:-1 164:1 165:1 166:1 167:1 170:1 171:1 172:-1 173:1 174:1 175:1 176:1 177:1 178:1 
-0 -12.33704013594295 -0 -4.436339175633034 22.41308946932642 14.54035444966715 0 9.420163811907274 14.60196703537768 2:1 3:1 4:1 5:1 6:1 7:1 8:1 9:1 10:1 13:1 14:1 15:-1 16:-1 17:-1 18:-1 19:-1 20:-1 21:-1 22:-1 23:1 26:1 27:-1 28:-1 29:-1 30:-1 31:-1 32:-1 33:-1 34:-1 37:1 38:1 39:-1 40:-1 41:1 42:1 43:1 44:-1 45:1 46:1 47:1 49:1 50:1 51:-1 52:-1 53:1 54:1 55:1 56:1 57:1 58:1 59:1 61:1 62:1 63:-1 64:-1 65:1 66:1 67:1 68:1 69:1 70:1 71:1 73:1 74:1 75:-1 76:-1 77:-1 78:-1 79:-1 80:1 81:1 82:1 83:1 86:1 87:-1 88:-1 89:-1 90:-1 91:-1 92:-1 93:-1 94:1 95:1 98:1 99:1 100:1 101:1 102:1 103:1 104:-1 105:-1 106:-1 107:1 110:1 111:1 112:1 113:1 114:1 115:-1 116:1 117:-1 118:-1 119:1 120:1 122:1 123:1 124:1 125:1 126:1 127:1 128:1 129:-1 130:-1 131:1 134:1 135:-1 136:1 137:1 138:-1 139:1 140:-1 141:-1 142:-1 143:1 146:1 147:-1 148:-1 149:-1 150:-1 151:-1 152:-1 153:-1 154:1 155:1 158:1 159:1 160:-1 161:-1 162:-1 163:-1 164:-1 165:1 166:1 167:1 170:1 171:1 172:1 173:1 174:1 175:1 176:1 177:1 178:1 
-25.94902944247672 -3.001417994564304 -4.913534127114404 -0 30.32373291178672 8.032768689359207 28.94109741644395 9.698774925539739 0 2:1 3:1 4:1 5:1 6:1 7:1 8:1 9:1 10:1 13:1 14:1 15:1 16:1 17:1 18:-1 19:1 20:1 21:1 22:1 23:1 26:1 27:-1 28:-1 29:-1 30:-1 31:-1 32:-1 33:-1 34:-1 37:1 38:1 39:-1 40:-1 41:-1 42:-1 43:-1 44:-1 45:-1 46:-1 47:1 49:1 50:1 51:-1 52:-1 53:1 54:1 55:1 56:1 57:1 58:1 59:1 61:1 62:1 63:-1 64:-1 65:1 66:1 67:1 68:1 69:1 70:1 71:1 73:1 74:1 75:-1 76:-1 77:1 78:1 79:1 80:1 81:1 82:1 83:1 86:1 87:-1 88:-1 89:-1 90:-1 91:-1 92:1 93:1 94:1 95:1 98:1 99:-1 100:-1 101:-1 102:-1 103:-1 104:-1 105:-1 106:-1 107:1 110:1 111:1 112:1 113:1 114:1 115:1 116:-1 117:-1 118:-1 119:1 120:1 122:1 123:1 124:1 125:1 126:1 127:1 128:1 129:-1 130:-1 131:1 134:1 135:1 136:1 137:1 138:1 139:1 140:1 141:-1 142:-1 143:1 146:1 147:-1 148:-1 149:1 150:1 151:1 152:-1 153:-1 154:-1 155:1 158:1 159:-1 160:-1 161:-1 162:-1 163:-1 164:-1 165:-1 166:1 167:1 170:1 171:-1 172:-1 173:-1 174:-1 175:-1 176:-1 177:1 178:1 
-0 -0 -0 -0 32 18.9187274833261 0 0 0 2:1 3:1 4:1 5:1 6:1 7:1 8:1 9:1 10:1 13:1 14:-1 15:-1 16:-1 17:-1 18:-1 19:-1 20:-1 21:-1 22:1 23:1 26:-1 27:-1 28:-1 29:-1 30:-1 31:-1 32:-1 33:-1 34:1 37:1 38:-1 39:-1 40:1 41:1 42:1 43:1 44:1 45:1 46:1 47:1 49:1 50:-1 51:-1 52:1 53:1 54:1 55:1 56:1 57:1 58:1 59:1 61:1 62:-1 63:-1 64:1 65:1 66:1 67:1 68:1 69:1 70:1 71:1 73:1 74:-1 75:-1 76:-1 77:-1 78:-1 79:1 80:1 81:1 82:1 83:1 86:-1 87:-1 88:-1 89:-1 90:-1 91:-1 92:-1 93:1 94:1 95:1 98:1 99:1 100:1 101:1 102:-1 103:-1 104:-1 105:-1 106:1 107:1 110:1 111:1 112:1 113:1 114:1 115:1 116:-1 117:-1 118:-1 119:1 120:1 122:1 123:1 124:1 125:1 126:1 127:1 128:-1 129:-1 130:1 131:1 134:-1 135:1 136:1 137:1 138:1 139:-1 140:-1 141:-1 142:1 143:1 146:-1 147:-1 148:-1 149:-1 150:-1 151:-1 152:-1 153:1 154:1 155:1 158:1 159:-1 160:-1 161:-1 162:-1 163:-1 164:1 165:1 166:1 167:1 170:1 171:1 172:1 173:1 174:1 175:1 176:1 177:1 178:1 
-24.07926717204587 -0 -0 -0 15.72144669527181 30.51076454604046 32 32 0 2:1 3:1 4:1 5:1 6:1 7:1 8:1 9:1 10:1 13:1 14:1 15:-1 16:-1 17:-1 18:-1 19:-1 20:-1 21:-1 22:-1 23:1 26:1 27:-1 28:-1 29:-1 30:-1 31:-1 32:-1 33:-1 34:-1 37:1 38:1 39:-1 40:-1 41:1 42:1 43:1 44:1 45:-1 46:1 47:1 49:1 50:1 51:-1 52:-1 53:1 54:1 55:1 56:1 57:1 58:1 59:1 61:1 62:1 63:-1 64:-1 65:1 66:1 67:1 68:1 69:1 70:1 71:1 73:1 74:1 75:-1 76:-1 77:-1 78:-1 79:-1 80:1 81:1 82:1 83:1 86:1 87:-1 88:-1 89:-1 90:-1 91:-1 92:-1 93:-1 94:1 95:1 98:1 99:1 100:1 101:1 102:1 103:1 104:-1 105:-1 106:-1 107:1 110:1 111:1 112:1 113:1 114:1 115:1 116:1 117:-1 118:-1 119:1 120:1 122:-1 123:1 124:1 125:1 126:1 127:1 128:1 129:-1 130:-1 131:1 134:1 135:-1 136:1 137:1 138:1 139:1 140:-1 141:-1 142:-1 143:1 146:1 147:-1 148:-1 149:-1 150:-1 151:-1 152:-1 153:-1 154:1 155:1 158:1 159:1 160:-1 161:-1 162:-1 163:-1 164:-1 165:1 166:1 167:1 170:1 171:1 172:1 173:1 174:-1 175:1 176:1 177:1 178:1 
-5.955710744500301 -13.79776287197938 -11.56594031997438 -0 0 29.67296642277444 5.115788192521363 12.10998295345526 10.14395022707925 2:1 3:1 4:1 5:1 6:1 7:1 8:1 9:1 10:1 13:1 14:-1 15:-1 16:-1 17:-1 18:-1 19:-1 20:-1 21:-1 22:1 23:1 26:-1 27:-1 28:-1 29:-1 30:-1 31:-1 32:-1 33:-1 34:1 37:1 38:-1 39:-1 40:1 41:1 42:1 43:1 44:1 45:1 46:1 47:1 49:1 50:-1 51:-1 52:1 53:1 54:1 55:1 56:1 57:1 58:1 59:1 61:1 62:-1 63:-1 64:1 65:1 66:1 67:1 68:1 69:1 70:1 71:1 73:1 74:-1 75:-1 76:-1 77:-1 78:-1 79:1 80:1 81:1 82:1 83:1 86:-1 87:-1 88:-1 89:-1 90:-1 91:-1 92:-1 93:1 94:1 95:1 98:1 99:1 100:1 101:1 102:1 103:-1 104:-1 105:-1 106:1 107:1 110:1 111:1 112:1 113:1 114:-1 115:1 116:-1 117:-1 118:1 119:1 120:1 122:1 123:1 124:1 125:1 126:1 127:1 128:-1 129:-1 130:-1 131:1 134:-1 135:1 136:1 137:1 138:1 139:-1 140:-1 141:-1 142:1 143:1 146:-1 147:-1 148:-1 149:-1 150:-1 151:-1 152:-1 153:1 154:1 155:1 158:1 159:-1 160:-1 161:-1 162:-1 163:-1 164:1 165:1 166:1 167:1 170:1 171:1 172:1 173:1 174:1 175:1 176:1 177:1 178:1 
-2.241423406233726 -0 -13.74825013434823 -0 7.893502160529772 0 17.58275310540706 6.369475998820199 0 2:1 3:1 4:1 5:1 6:1 7:1 8:1 9:1 10:1 13:1 14:1 15:-1 16:-1 17:-1 18:-1 19:-1 20:-1 21:-1 22:-1 23:1 26:1 27:-1 28:-1 29:-1 30:-1 31:-1 32:-1 33:-1 34:-1 37:1 38:1 39:-1 40:-1 41:1 42:1 43:1 44:1 45:1 46:1 47:1 49:1 50:1 51:-1 52:-1 53:1 54:1 55:1 56:1 57:1 58:1 59:1 61:1 62:1 63:-1 64:-1 65:1 66:1 67:1 68:1 69:1 70:1 71:1 73:1 74:1 75:-1 76:-1 77:-1 78:-1 79:-1 80:1 81:1 82:1 83:1 86:1 87:-1 88:-1 89:-1 90:-1 91:-1 92:-1 93:-1 94:1 95:1 98:1 99:1 100:1 101:1 102:1 103:1 104:-1 105:-1 106:-1 107:1 110:1 111:1 112:1 113:1 114:1 115:1 116:1 117:-1 118:-1 119:1 120:1 122:1 123:1 124:1 125:1 126:1 127:1 128:-1 129:-1 130:-1 131:1 134:1 135:-1 136:-1 137:1 138:1 139:1 140:-1 141:-1 142:-1 143:1 146:1 147:-1 148:-1 149:-1 150:-1 151:-1 152:-1 153:-1 154:1 155:1 158:1 159:1 160:-1 161:-1 162:-1 163:-1 164:-1 165:1 166:-1 167:1 170:1 171:1 172:1 173:1 174:1 175:1 176:1 177:1 178:1 
-0 -0 -18.62477235756804 -1.412816237571497 0 0 0 16.59238774026111 0 2:1 3:1 4:1 5:1 6:1 7:1 8:1 9:1 10:1 13:1 14:1 15:-1 16:1 17:1 18:1 19:1 20:1 21:1 22:1 23:1 26:1 27:-1 28:-1 29:-1 30:-1 31:-1 32:-1 33:-1 34:-1 37:1 38:1 39:-1 40:-1 41:-1 42:-1 43:-1 44:-1 45:-1 46:-1 47:1 49:1 50:1 51:-1 52:-1 53:1 54:1 55:1 56:1 57:1 58:1 59:1 61:1 62:1 63:-1 64:-1 65:1 66:1 67:1 68:1 69:1 70:1 71:1 73:1 74:1 75:-1 76:-1 77:1 78:1 79:1 80:1 81:1 82:1 83:1 86:1 87:-1 88:-1 89:-1 90:-1 91:-1 92:1 93:1 94:1 95:1 98:1 99:-1 100:-1 101:-1 102:-1 103:-1 104:-1 105:-1 106:1 107:1 110:1 111:1 112:1 113:1 114:1 115:1 116:-1 117:-1 118:-1 119:1 120:1 122:1 123:1 124:1 125:1 126:1 127:1 128:1 129:-1 130:-1 131:1 134:1 135:1 136:1 137:1 138:1 139:1 140:1 141:-1 142:-1 143:1 146:1 147:-1 148:-1 149:1 150:1 151:1 152:-1 153:-1 154:-1 155:1 158:1 159:-1 160:-1 161:-1 162:-1 163:-1 164:-1 165:-1 166:1 167:1 170:1 171:1 172:-1 173:-1 174:-1 175:-1 176:-1 177:1 178:-1 
-0 -0 -0 -22.72272629867495 0 16.01787045771026 0 11.74630462559757 0 2:1 3:1 4:1 5:1 6:1 7:1 8:1 9:1 10:1 13:1 14:1 15:1 16:1 17:1 18:-1 19:1 20:1 21:1 22:1 23:1 26:1 27:-1 28:-1 29:-1 30:-1 31:-1 32:-1 33:-1 34:-1 37:1 38:1 39:-1 40:-1 41:-1 42:-1 43:-1 44:-1 45:-1 46:-1 47:1 49:1 50:1 51:-1 52:-1 53:1 54:1 55:1 56:1 57:1 58:1 59:1 61:1 62:1 63:-1 64:-1 65:1 66:1 67:1 68:1 69:1 70:1 71:1 73:1 74:1 75:-1 76:-1 77:1 78:1 79:1 80:1 81:1 82:1 83:1 86:1 87:-1 88:-1 89:-1 90:-1 91:-1 92:1 93:1 94:1 95:1 98:1 99:-1 100:-1 101:-1 102:-1 103:-1 104:-1 105:-1 106:1 107:1 110:1 111:1 112:1 113:1 114:1 115:1 116:-1 117:-1 118:-1 119:1 120:1 122:1 123:1 124:1 125:1 126:1 127:1 128:1 129:-1 130:-1 131:1 134:1 135:1 136:1 137:1 138:1 139:-1 140:1 141:-1 142:-1 143:1 146:1 147:-1 148:1 149:1 150:1 151:1 152:-1 153:-1 154:-1 155:1 158:1 159:-1 160:-1 161:-1 162:-1 163:-1 164:-1 165:-1 166:1 167:1 170:1 171:1 172:-1 173:-1 174:-1 175:-1 176:-1 177:1 178:1 
-3.196022243967215 -0 -0 -0 0 0 32 0 0 2:1 3:1 4:1 5:1 6:1 7:1 8:1 9:1 10:1 13:1 14:1 15:-1 16:-1 17:-1 18:-1 19:-1 20:-1 21:-1 22:-1 23:1 26:1 27:-1 28:-1 29:-1 30:-1 31:-1 32:-1 33:-1 34:-1 37:1 38:1 39:-1 40:-1 41:1 42:1 43:1 44:1 45:1 46:1 47:1 49:1 50:1 51:-1 52:-1 53:1 54:1 55:1 56:1 57:1 58:1 59:1 61:1 62:1 63:-1 64:-1 65:1 66:1 67:1 68:1 69:1 70:1 71:1 73:1 74:1 75:-1 76:-1 77:-1 78:-1 79:-1 80:1 81:1 82:1 83:1 86:-1 87:-1 88:-1 89:-1 90:-1 91:-1 92:-1 93:-1 94:1 95:1 98:1 99:1 100:1 101:1 102:1 103:1 104:-1 105:-1 106:-1 107:1 110:1 111:1 112:1 113:1 114:1 115:1 116:1 117:-1 118:-1 119:1 120:1 122:1 123:1 124:1 125:1 126:1 127:1 128:1 129:-1 130:-1 131:1 134:1 135:-1 136:1 137:1 138:1 139:1 140:-1 141:-1 142:-1 143:1 146:1 147:-1 148:-1 149:-1 150:-1 151:-1 152:-1 153:-1 154:1 155:1 158:1 159:1 160:-1 161:-1 162:-1 163:-1 164:-1 165:1 166:1 167:1 170:1 171:1 172:1 173:1 174:1 175:1 176:1 177:1 178:1 
-0 -4.53913507139087 -0 -0 18.46876982587038 26.07195042291619 0 11.46854015965696 11.67717837093376 2:1 3:1 4:1 5:1 6:1 7:1 8:1 9:1 10:1 13:1 14:1 15:-1 16:1 17:1 18:1 19:1 20:1 21:1 22:1 23:1 26:1 27:-1 28:-1 29:-1 30:-1 31:-1 32:-1 33:-1 34:-1 37:1 38:1 39:-1 40:-1 41:-1 42:-1 43:-1 44:-1 45:-1 46:-1 47:1 49:1 50:1 51:-1 52:-1 53:1 54:1 55:1 56:1 57:1 58:-1 59:1 61:1 62:1 63:-1 64:-1 65:1 66:1 67:1 68:1 69:1 70:1 71:1 73:1 74:1 75:-1 76:-1 77:-1 78:1 79:1 80:1 81:1 82:1 83:1 86:1 87:-1 88:-1 89:-1 90:-1 91:-1 92:1 93:1 94:1 95:1 98:1 99:-1 100:-1 101:-1 102:-1 103:-1 104:-1 105:-1 106:1 107:1 110:1 111:1 112:1 113:1 114:-1 115:1 116:-1 117:-1 118:-1 119:1 120:1 122:1 123:1 124:1 125:1 126:1 127:1 128:-1 129:-1 130:-1 131:1 134:1 135:1 136:1 137:1 138:1 139:1 140:1 141:-1 142:-1 143:1 146:1 147:-1 148:1 149:1 150:1 151:1 152:-1 153:-1 154:-1 155:1 158:1 159:-1 160:-1 161:-1 162:-1 163:-1 164:-1 165:-1 166:1 167:1 170:-1 171:1 172:-1 173:-1 174:-1 175:-1 176:-1 177:1 178:1 
-2.292152521379264 -0 -0 -0 0 0 12.52550340000234 10.24496425060844 0 2:1 3:1 4:1 5:1 6:1 7:1 8:1 9:1 10:1 13:1 14:-1 15:1 16:1 17:1 18:1 19:1 20:1 21:1 22:1 23:1 26:1 27:-1 28:-1 29:-1 30:-1 31:-1 32:-1 33:-1 34:-1 37:1 38:1 39:-1 40:-1 41:-1 42:-1 43:-1 44:-1 45:-1 46:-1 47:1 49:1 50:1 51:-1 52:-1 53:1 54:1 55:1 56:1 57:1 58:1 59:1 61:1 62:1 63:-1 64:-1 65:1 66:1 67:1 68:1 69:1 70:1 71:1 73:1 74:1 75:-1 76:-1 77:1 78:1 79:1 80:1 81:1 82:1 83:1 86:1 87:-1 88:-1 89:-1 90:-1 91:-1 92:1 93:1 94:1 95:1 98:1 99:-1 100:-1 101:-1 102:-1 103:-1 104:-1 105:-1 106:1 107:1 110:1 111:1 112:1 113:1 114:1 115:1 116:-1 117:-1 118:-1 119:1 120:1 122:1 123:1 124:1 125:1 126:1 127:1 128:1 129:-1 130:-1 131:1 134:1 135:1 136:1 137:1 138:1 139:1 140:1 141:-1 142:-1 143:1 146:1 147:-1 148:1 149:1 150:1 151:1 152:-1 153:-1 154:-1 155:-1 158:1 159:-1 160:-1 161:-1 162:-1 163:-1 164:-1 165:-1 166:1 167:1 170:1 171:1 172:-1 173:-1 174:-1 175:-1 176:-1 177:1 178:1 
-15.70554177263625 -0 -0 -0 0 0 9.290714146108432 0 0 2:1 3:1 4:1 5:1 6:1 7:1 8:1 9:1 10:1 13:1 14:1 15:-1 16:-1 17:-1 18:-1 19:-1 20:-1 21:-1 22:-1 23:1 26:1 27:-1 28:-1 29:-1 30:-1 31:-1 32:-1 33:-1 34:-1 37:1 38:1 39:-1 40:-1 41:1 42:1 43:1 44:-1 45:1 46:1 47:1 49:1 50:1 51:-1 52:-1 53:1 54:1 55:1 56:1 57:1 58:1 59:1 61:1 62:1 63:-1 64:-1 65:1 66:1 67:1 68:1 69:1 70:1 71:1 73:1 74:1 75:-1 76:-1 77:-1 78:-1 79:-1 80:1 81:1 82:1 83:1 86:1 87:-1 88:-1 89:-1 90:-1 91:-1 92:-1 93:-1 94:1 95:1 98:1 99:-1 100:1 101:1 102:1 103:1 104:-1 105:-1 106:-1 107:1 110:1 111:1 112:1 113:1 114:1 115:1 116:1 117:-1 118:-1 119:1 120:1 122:1 123:1 124:1 125:1 126:1 127:1 128:1 129:-1 130:-1 131:1 134:1 135:-1 136:1 137:1 138:1 139:1 140:-1 141:-1 142:-1 143:1 146:1 147:-1 148:-1 149:-1 150:-1 151:-1 152:-1 153:-1 154:1 155:1 158:1 159:1 160:-1 161:-1 162:-1 163:-1 164:-1 165:1 166:1 167:1 170:1 171:1 172:1 173:1 174:1 175:1 176:1 177:1 178:1 
-0 -6.30761918981501 -0 -0 -0 0 0 0 0 2:1 3:1 4:1 5:1 6:1 7:1 8:1 9:1 10:1 13:1 14:1 15:1 16:-1 17:-1 18:-1 19:-1 20:1 21:-1 22:1 23:1 26:1 27:-1 28:-1 29:-1 30:-1 31:-1 32:-1 33:-1 34:1 37:1 38:-1 39:-1 40:-1 41:1 42:1 43:1 44:-1 45:-1 46:1 47:1 49:1 50:-1 51:-1 52:1 53:1 54:1 55:1 56:1 57:-1 58:-1 59:1 61:1 62:-1 63:-1 64:1 65:1 66:1 67:1 68:1 69:-1 70:-1 71:1 73:1 74:-1 75:-1 76:-1 77:1 78:1 79:1 80:-1 81:-1 82:-1 83:1 86:1 87:-1 88:-1 89:-1 90:-1 91:-1 92:-1 93:-1 94:-1 95:1 98:1 99:1 100:-1 101:-1 102:-1 103:-1 104:1 105:-1 106:-1 107:1 110:1 111:1 112:1 113:1 114:-1 115:1 116:1 117:-1 118:-1 119:1 120:1 122:1 123:1 124:1 125:1 126:1 127:1 128:-1 129:-1 130:1 131:1 134:1 135:-1 136:1 137:1 138:1 139:1 140:-1 141:-1 142:1 143:1 146:1 147:-1 148:-1 149:-1 150:-1 151:-1 152:-1 153:1 154:1 155:1 158:1 159:1 160:-1 161:-1 162:-1 163:-1 164:1 165:1 166:1 167:1 170:1 171:1 172:1 173:1 174:-1 175:1 176:1 177:1 178:1 
-0 -0 -0 -0 -0 0 0 15.55379869355626 0 2:1 3:1 4:1 5:1 6:1 7:1 8:1 9:1 10:1 13:1 14:1 15:1 16:-1 17:-1 18:-1 19:-1 20:1 21:1 22:1 23:1 26:1 27:-1 28:-1 29:-1 30:-1 31:-1 32:-1 33:-1 34:1 37:1 38:-1 39:-1 40:-1 41:1 42:1 43:1 44:-1 45:-1 46:1 47:1 49:1 50:-1 51:-1 52:1 53:1 54:1 55:1 56:1 57:-1 58:-1 59:1 61:1 62:-1 63:-1 64:-1 65:1 66:1 67:1 68:-1 69:-1 70:-1 71:1 73:1 74:-1 75:-1 76:-1 77:1 78:1 79:1 80:-1 81:-1 82:-1 83:1 86:1 87:-1 88:-1 89:-1 90:-1 91:-1 92:-1 93:-1 94:-1 95:1 98:1 99:1 100:-1 101:-1 102:-1 103:-1 104:1 105:-1 106:-1 107:1 110:1 111:1 112:1 113:1 114:1 115:1 116:1 117:-1 118:-1 119:1 120:1 122:1 123:1 124:1 125:1 126:1 127:1 128:-1 129:-1 130:1 131:1 134:1 135:-1 136:-1 137:1 138:1 139:1 140:-1 141:-1 142:1 143:1 146:1 147:-1 148:-1 149:-1 150:-1 151:-1 152:-1 153:1 154:-1 155:1 158:1 159:1 160:-1 161:-1 162:-1 163:-1 164:1 165:1 166:1 167:1 170:1 171:1 172:1 173:1 174:1 175:1 176:1 177:1 178:1 
-0 -0 -6.50963345499996 -0 -32 21.76756713381005 3.081833083861662 0 0 2:1 3:1 4:1 5:1 6:1 7:1 8:1 9:1 10:1 13:1 14:1 15:1 16:1 17:1 18:1 19:1 20:-1 21:1 22:1 23:1 26:-1 27:1 28:-1 29:-1 30:-1 31:-1 32:1 33:1 34:1 37:1 38:1 39:-1 40:-1 41:-1 42:-1 43:-1 44:-1 45:-1 46:1 47:1 49:1 50:-1 51:-1 52:-1 53:1 54:1 55:1 56:-1 57:-1 58:1 59:1 61:1 62:-1 63:-1 64:1 65:1 66:1 67:1 68:1 69:-1 70:-1 71:1 73:1 74:-1 75:-1 76:1 77:1 78:1 79:1 80:1 81:-1 82:-1 83:1 86:-1 87:-1 88:-1 89:1 90:1 91:1 92:-1 93:-1 94:-1 95:1 98:1 99:-1 100:-1 101:-1 102:-1 103:-1 104:-1 105:-1 106:-1 107:1 110:1 111:1 112:-1 113:-1 114:-1 115:-1 116:1 117:-1 118:-1 119:1 120:1 122:1 123:1 124:1 125:1 126:1 127:1 128:1 129:-1 130:-1 131:1 134:1 135:1 136:1 137:1 138:1 139:1 140:-1 141:-1 142:1 143:1 146:1 147:-1 148:1 149:1 150:1 151:1 152:-1 153:-1 154:1 155:1 158:1 159:-1 160:-1 161:-1 162:-1 163:-1 164:-1 165:1 166:1 167:1 170:1 171:1 172:-1 173:-1 174:-1 175:-1 176:-1 177:1 178:1 
-0 -6.36714604168874 -0 -0 -0 0 0 0 0 2:1 3:1 4:1 5:1 6:1 7:1 8:1 9:1 10:1 13:1 14:1 15:1 16:-1 17:-1 18:-1 19:-1 20:1 21:1 22:1 23:1 26:1 27:-1 28:-1 29:-1 30:-1 31:-1 32:-1 33:-1 34:1 37:1 38:-1 39:-1 40:-1 41:1 42:1 43:1 44:-1 45:-1 46:1 47:1 49:1 50:-1 51:-1 52:1 53:1 54:1 55:1 56:1 57:-1 58:-1 59:1 61:1 62:-1 63:-1 64:1 65:1 66:1 67:1 68:1 69:-1 70:-1 71:1 73:1 74:-1 75:-1 76:-1 77:1 78:1 79:1 80:-1 81:-1 82:-1 83:1 86:1 87:-1 88:-1 89:-1 90:-1 91:-1 92:-1 93:-1 94:-1 95:1 98:1 99:1 100:-1 101:-1 102:-1 103:-1 104:1 105:-1 106:-1 107:1 110:1 111:1 112:1 113:1 114:1 115:1 116:1 117:-1 118:-1 119:1 120:1 122:1 123:1 124:1 125:1 126:1 127:1 128:-1 129:-1 130:1 131:1 134:-1 135:-1 136:1 137:1 138:-1 139:1 140:-1 141:-1 142:1 143:1 146:1 147:-1 148:-1 149:-1 150:-1 151:-1 152:-1 153:1 154:1 155:1 158:1 159:1 160:-1 161:-1 162:-1 163:-1 164:1 165:1 166:1 167:1 170:1 171:1 172:1 173:1 174:1 175:1 176:1 177:1 178:1 
-17.93252658700454 -11.58886670171729 -0 -17.07427271445788 -7.154518888175268 13.93552307046145 0 0 0 2:1 3:1 4:1 5:1 6:1 7:1 8:1 9:1 10:1 13:1 14:1 15:1 16:1 17:1 18:-1 19:1 20:1 21:1 22:1 23:1 26:1 27:1 28:-1 29:-1 30:-1 31:-1 32:1 33:1 34:1 37:1 38:1 39:-1 40:-1 41:-1 42:-1 43:-1 44:-1 45:-1 46:1 47:1 49:1 50:-1 51:-1 52:-1 53:1 54:1 55:1 56:-1 57:-1 58:1 59:1 61:1 62:-1 63:-1 64:1 65:1 66:1 67:1 68:1 69:-1 70:-1 71:1 73:1 74:-1 75:-1 76:1 77:1 78:1 79:1 80:1 81:-1 82:-1 83:1 86:-1 87:-1 88:-1 89:1 90:1 91:1 92:-1 93:-1 94:-1 95:1 98:1 99:-1 100:-1 101:-1 102:-1 103:-1 104:-1 105:-1 106:-1 107:1 110:1 111:1 112:-1 113:-1 114:-1 115:-1 116:1 117:-1 118:-1 119:1 120:1 122:1 123:1 124:1 125:1 126:1 127:1 128:1 129:-1 130:-1 131:1 134:1 135:1 136:1 137:1 138:1 139:1 140:-1 141:-1 142:1 143:1 146:1 147:-1 148:1 149:1 150:1 151:1 152:-1 153:-1 154:1 155:1 158:1 159:-1 160:-1 161:-1 162:-1 163:-1 164:-1 165:1 166:1 167:1 170:1 171:1 172:-1 173:-1 174:-1 175:-1 176:1 177:1 178:1 
-0 -0 -22.12412936238352 -0 -0 0 0 0 0 2:1 3:1 4:1 5:1 6:1 7:1 8:1 9:1 10:1 13:1 14:1 15:1 16:-1 17:-1 18:-1 19:-1 20:1 21:1 22:1 23:1 26:1 27:-1 28:-1 29:-1 30:-1 31:-1 32:-1 33:-1 34:1 37:1 38:-1 39:-1 40:-1 41:1 42:1 43:1 44:-1 45:-1 46:1 47:1 49:1 50:-1 51:-1 52:1 53:1 54:1 55:1 56:1 57:-1 58:-1 59:1 61:1 62:-1 63:-1 64:1 65:1 66:1 67:1 68:1 69:-1 70:-1 71:1 73:1 74:-1 75:-1 76:-1 77:1 78:1 79:1 80:-1 81:-1 82:-1 83:1 86:1 87:-1 88:-1 89:-1 90:-1 91:-1 92:-1 93:-1 94:-1 95:1 98:1 99:1 100:-1 101:-1 102:-1 103:-1 104:1 105:-1 106:-1 107:1 110:1 111:1 112:1 113:1 114:1 115:1 116:1 117:-1 118:-1 119:1 120:1 122:1 123:1 124:1 125:1 126:1 127:1 128:-1 129:-1 130:1 131:1 134:1 135:-1 136:-1 137:1 138:1 139:1 140:-1 141:-1 142:1 143:1 146:1 147:-1 148:-1 149:-1 150:-1 151:-1 152:-1 153:1 154:1 155:1 158:1 159:-1 160:-1 161:-1 162:-1 163:-1 164:1 165:1 166:1 167:1 170:1 171:1 172:1 173:1 174:1 175:1 176:1 177:1 178:1 
-32 -7.902996520969142 -0 -0 -32 10.59417259682249 16.28427017981847 3.646236835267759 0 2:1 3:1 4:1 5:1 6:1 7:1 8:1 9:1 10:1 13:1 14:1 15:1 16:1 17:-1 18:-1 19:-1 20:-1 21:1 22:1 23:1 26:1 27:1 28:-1 29:-1 30:-1 31:-1 32:-1 33:-1 34:-1 37:1 38:1 39:-1 40:-1 41:-1 42:1 43:1 44:1 45:-1 46:-1 47:1 49:1 50:1 51:-1 52:-1 53:1 54:1 55:1 56:1 57:1 58:-1 59:-1 61:1 62:1 63:-1 64:-1 65:1 66:1 67:1 68:1 69:1 70:-1 71:-1 73:1 74:1 75:-1 76:-1 77:-1 78:1 79:1 80:1 81:-1 82:-1 83:-1 86:-1 87:1 88:-1 89:-1 90:-1 91:-1 92:-1 93:-1 94:-1 95:-1 98:1 99:1 100:1 101:-1 102:-1 103:-1 104:-1 105:1 106:-1 107:-1 110:1 111:1 112:1 113:1 114:1 115:1 116:1 117:1 118:-1 119:-1 120:1 122:1 123:1 124:1 125:1 126:1 127:1 128:1 129:-1 130:-1 131:1 134:1 135:1 136:-1 137:1 138:1 139:1 140:1 141:-1 142:-1 143:1 146:1 147:1 148:-1 149:-1 150:-1 151:-1 152:-1 153:-1 154:1 155:1 158:1 159:1 160:1 161:-1 162:-1 163:-1 164:-1 165:1 166:1 167:1 170:1 171:1 172:1 173:1 174:1 175:1 176:1 177:1 178:1 
-0 -0 -9.449565223489323 -0 -0 7.196786279176346 21.74757572871896 32 5.66619300213856 2:1 3:1 4:1 5:1 6:1 7:1 8:1 9:1 10:1 13:1 14:1 15:1 16:1 17:-1 18:-1 19:-1 20:-1 21:1 22:1 23:1 26:1 27:1 28:-1 29:-1 30:-1 31:-1 32:-1 33:-1 34:-1 37:1 38:1 39:-1 40:-1 41:-1 42:1 43:1 44:1 45:-1 46:-1 47:1 49:1 50:1 51:-1 52:-1 53:1 54:1 55:1 56:1 57:1 58:-1 59:-1 61:1 62:1 63:-1 64:-1 65:1 66:1 67:1 68:1 69:1 70:-1 71:-1 73:1 74:1 75:-1 76:-1 77:-1 78:1 79:1 80:-1 81:-1 82:-1 83:-1 86:1 87:1 88:-1 89:-1 90:-1 91:-1 92:-1 93:-1 94:-1 95:-1 98:1 99:1 100:1 101:-1 102:-1 103:-1 104:-1 105:1 106:-1 107:-1 110:1 111:1 112:1 113:1 114:1 115:1 116:1 117:1 118:-1 119:-1 120:1 122:1 123:1 124:1 125:1 126:1 127:1 128:-1 129:-1 130:-1 131:-1 134:1 135:-1 136:-1 137:1 138:1 139:1 140:1 141:-1 142:-1 143:1 146:-1 147:1 148:-1 149:-1 150:-1 151:-1 152:-1 153:-1 154:1 155:1 158:1 159:1 160:1 161:-1 162:-1 163:-1 164:-1 165:1 166:1 167:1 170:1 171:1 172:1 173:1 174:1 175:1 176:1 177:1 178:1 
-0 -0 -0 -0 -6.304678221893673 0 0 0 0 2:1 3:1 4:1 5:1 6:1 7:1 8:1 9:1 10:1 13:1 14:1 15:1 16:-1 17:-1 18:-1 19:-1 20:1 21:1 22:1 23:1 26:1 27:-1 28:-1 29:-1 30:-1 31:-1 32:-1 33:-1 34:1 37:1 38:-1 39:-1 40:-1 41:1 42:1 43:1 44:-1 45:-1 46:1 47:1 49:1 50:-1 51:-1 52:1 53:1 54:1 55:1 56:1 57:-1 58:-1 59:1 61:1 62:-1 63:-1 64:-1 65:1 66:1 67:1 68:1 69:-1 70:-1 71:1 73:1 74:-1 75:-1 76:-1 77:1 78:1 79:1 80:-1 81:-1 82:-1 83:1 86:1 87:-1 88:-1 89:-1 90:-1 91:-1 92:-1 93:-1 94:-1 95:1 98:1 99:1 100:-1 101:-1 102:-1 103:-1 104:-1 105:-1 106:-1 107:1 110:1 111:1 112:1 113:1 114:1 115:1 116:1 117:-1 118:-1 119:1 120:1 122:1 123:1 124:1 125:1 126:1 127:1 128:-1 129:-1 130:1 131:1 134:1 135:-1 136:1 137:1 138:1 139:1 140:-1 141:-1 142:1 143:1 146:1 147:-1 148:-1 149:-1 150:-1 151:-1 152:-1 153:1 154:1 155:1 158:1 159:1 160:-1 161:-1 162:-1 163:-1 164:1 165:1 166:1 167:1 170:1 171:1 172:1 173:1 174:1 175:1 176:1 177:1 178:1 
-10.14998620155955 -0 -0 -0 -0 0 0 0 0 2:1 3:1 4:1 5:1 6:1 7:1 8:1 9:1 10:1 13:1 14:1 15:1 16:1 17:-1 18:-1 19:-1 20:-1 21:1 22:1 23:1 26:1 27:1 28:-1 29:-1 30:-1 31:-1 32:-1 33:-1 34:-1 37:1 38:1 39:-1 40:-1 41:-1 42:1 43:1 44:1 45:-1 46:-1 47:1 49:1 50:1 51:-1 52:-1 53:1 54:1 55:1 56:1 57:1 58:-1 59:-1 61:1 62:-1 63:-1 64:-1 65:1 66:1 67:1 68:1 69:1 70:-1 71:-1 73:1 74:1 75:-1 76:-1 77:-1 78:1 79:1 80:1 81:-1 82:-1 83:-1 86:1 87:1 88:-1 89:-1 90:-1 91:-1 92:-1 93:-1 94:-1 95:-1 98:1 99:1 100:1 101:-1 102:-1 103:-1 104:-1 105:1 106:-1 107:-1 110:1 111:1 112:1 113:1 114:1 115:1 116:1 117:1 118:-1 119:-1 120:1 122:1 123:1 124:1 125:1 126:1 127:1 128:1 129:-1 130:-1 131:1 134:1 135:1 136:-1 137:1 138:1 139:1 140:1 141:-1 142:-1 143:1 146:1 147:1 148:-1 149:-1 150:-1 151:-1 152:-1 153:-1 154:1 155:1 158:1 159:1 160:1 161:-1 162:-1 163:-1 164:-1 165:1 166:1 167:1 170:1 171:1 172:1 173:1 174:1 175:1 176:1 177:1 178:1 
-0 -0 -0 -0 -16.98313461992484 32 0 0 0 2:1 3:1 4:1 5:1 6:1 7:1 8:1 9:1 10:1 13:1 14:1 15:1 16:-1 17:-1 18:-1 19:-1 20:1 21:1 22:1 23:1 26:1 27:-1 28:-1 29:-1 30:-1 31:-1 32:-1 33:-1 34:1 37:1 38:-1 39:-1 40:-1 41:1 42:1 43:1 44:-1 45:-1 46:1 47:1 49:1 50:-1 51:-1 52:1 53:1 54:1 55:1 56:1 57:-1 58:-1 59:1 61:1 62:-1 63:-1 64:1 65:1 66:1 67:1 68:1 69:-1 70:-1 71:1 73:1 74:-1 75:-1 76:-1 77:1 78:-1 79:1 80:-1 81:-1 82:-1 83:1 86:1 87:-1 88:-1 89:-1 90:-1 91:-1 92:-1 93:-1 94:-1 95:1 98:1 99:1 100:-1 101:-1 102:-1 103:-1 104:1 105:-1 106:-1 107:1 110:1 111:1 112:1 113:1 114:1 115:1 116:1 117:-1 118:-1 119:1 120:1 122:1 123:1 124:1 125:1 126:1 127:1 128:-1 129:-1 130:1 131:1 134:1 135:-1 136:1 137:1 138:1 139:1 140:-1 141:-1 142:-1 143:1 146:1 147:-1 148:-1 149:-1 150:-1 151:-1 152:-1 153:1 154:1 155:1 158:1 159:1 160:-1 161:-1 162:-1 163:-1 164:1 165:1 166:1 167:1 170:1 171:1 172:1 173:1 174:1 175:1 176:1 177:1 178:1 
-8.094834741410638 -6.667990770751306 -13.10602913613775 -6.197273574262041 -7.380491983083996 15.95520169517232 13.75685134626201 20.66801956076143 13.56289755699424 2:1 3:1 4:-1 5:-1 6:-1 7:-1 8:1 9:1 10:-1 13:1 14:1 15:-1 16:-1 17:-1 18:-1 19:-1 20:-1 21:-1 22:1 23:1 26:-1 27:-1 28:-1 29:1 30:1 31:1 32:-1 33:-1 34:1 37:1 38:-1 39:-1 40:1 41:1 42:1 43:1 44:1 45:-1 46:-1 47:1 49:1 50:-1 51:-1 52:1 53:1 54:1 55:1 56:1 57:-1 58:-1 59:1 61:1 62:-1 63:-1 64:-1 65:1 66:1 67:1 68:-1 69:-1 70:-1 71:1 73:1 74:1 75:-1 76:-1 77:-1 78:-1 79:-1 80:-1 81:-1 82:-1 83:1 86:1 87:1 88:-1 89:-1 90:-1 91:-1 92:1 93:-1 94:-1 95:1 98:1 99:1 100:1 101:1 102:1 103:1 104:1 105:-1 106:-1 107:1 110:1 111:1 112:1 113:1 114:1 115:1 116:-1 117:-1 118:1 119:1 120:1 122:1 123:-1 124:1 125:1 126:1 127:1 128:-1 129:-1 130:1 131:1 134:1 135:-1 136:-1 137:-1 138:-1 139:-1 140:-1 141:1 142:1 143:1 146:1 147:1 148:-1 149:-1 150:-1 151:-1 152:1 153:1 154:1 155:1 158:1 159:1 160:-1 161:1 162:1 163:1 164:-1 165:1 166:1 167:1 170:1 171:1 172:1 173:1 174:1 175:1 176:-1 177:1 178:1 
-32 -5.019990948013418 -26.43900145850983 -0 -3.232155673488486 0 27.93414034058016 32 25.23320462962771 2:1 3:1 4:1 5:1 6:1 7:1 8:1 9:1 10:1 13:1 14:1 15:1 16:1 17:1 18:-1 19:1 20:-1 21:1 22:1 23:1 26:1 27:1 28:-1 29:-1 30:-1 31:-1 32:1 33:1 34:1 37:1 38:1 39:-1 40:-1 41:-1 42:-1 43:-1 44:-1 45:-1 46:1 47:1 49:1 50:-1 51:-1 52:-1 53:1 54:1 55:1 56:-1 57:-1 58:1 59:1 61:1 62:-1 63:-1 64:1 65:1 66:1 67:1 68:1 69:-1 70:-1 71:1 73:1 74:-1 75:-1 76:1 77:1 78:1 79:1 80:1 81:-1 82:-1 83:1 86:-1 87:-1 88:-1 89:1 90:1 91:1 92:-1 93:-1 94:-1 95:1 98:1 99:-1 100:-1 101:-1 102:-1 103:-1 104:-1 105:-1 106:-1 107:1 110:1 111:1 112:-1 113:-1 114:-1 115:-1 116:1 117:-1 118:-1 119:1 120:1 122:1 123:1 124:-1 125:1 126:1 127:1 128:1 129:-1 130:-1 131:1 134:1 135:1 136:1 137:1 138:1 139:1 140:-1 141:-1 142:1 143:1 146:1 147:-1 148:1 149:1 150:1 151:1 152:-1 153:-1 154:1 155:1 158:1 159:-1 160:-1 161:-1 162:-1 163:-1 164:-1 165:1 166:1 167:1 170:1 171:1 172:-1 173:-1 174:-1 175:-1 176:1 177:1 178:1 
-21.07539614033584 -12.49856385321634 -15.8692534025871 -8.297064344507946 -19.2079215409089 20.53780596665842 25.39576282312464 26.51612167824313 10.48634158129197 2:1 3:1 4:1 5:1 6:1 7:1 8:1 9:1 10:1 13:1 14:1 15:1 16:-1 17:1 18:1 19:1 20:1 21:1 22:1 23:1 26:1 27:1 28:1 29:-1 30:-1 31:-1 32:-1 33:-1 34:1 37:1 38:1 39:1 40:-1 41:-1 42:-1 43:-1 44:-1 45:-1 46:-1 47:1 49:1 50:-1 51:-1 52:-1 53:-1 54:1 55:1 56:1 57:-1 58:-1 59:1 61:1 62:1 63:-1 64:-1 65:1 66:1 67:1 68:1 69:1 70:-1 71:-1 73:1 74:1 75:-1 76:-1 77:1 78:1 79:1 80:1 81:1 82:-1 83:-1 86:1 87:-1 88:-1 89:-1 90:1 91:1 92:1 93:-1 94:-1 95:-1 98:1 99:1 100:-1 101:-1 102:-1 103:-1 104:-1 105:-1 106:-1 107:-1 110:1 111:1 112:1 113:-1 114:-1 115:-1 116:-1 117:1 118:-1 119:-1 120:1 122:1 123:1 124:1 125:1 126:1 127:1 128:1 129:1 130:-1 131:-1 134:1 135:1 136:1 137:1 138:1 139:1 140:1 141:-1 142:-1 143:1 146:1 147:1 148:-1 149:1 150:1 151:1 152:1 153:-1 154:-1 155:1 158:1 159:1 160:-1 161:-1 162:-1 163:-1 164:-1 165:-1 166:1 167:1 170:1 171:1 172:1 173:-1 174:-1 175:-1 176:-1 177:-1 178:1 
-13.28732380350223 -22.88245147518655 -9.631149822369018 -6.89686758233572 -16.72880380015409 14.94297241094522 0 2.485528505531709 5.341712581901334 2:1 3:1 4:-1 5:-1 6:-1 7:-1 8:1 9:1 10:1 13:1 14:1 15:-1 16:-1 17:-1 18:-1 19:-1 20:-1 21:-1 22:1 23:1 26:-1 27:-1 28:-1 29:1 30:1 31:1 32:-1 33:-1 34:1 37:1 38:-1 39:-1 40:1 41:1 42:1 43:1 44:1 45:-1 46:-1 47:1 49:1 50:-1 51:-1 52:1 53:1 54:1 55:1 56:1 57:-1 58:-1 59:1 61:1 62:-1 63:-1 64:-1 65:1 66:1 67:1 68:-1 69:-1 70:-1 71:1 73:1 74:1 75:-1 76:-1 77:-1 78:-1 79:-1 80:-1 81:-1 82:-1 83:1 86:1 87:1 88:-1 89:-1 90:-1 91:-1 92:1 93:-1 94:-1 95:1 98:1 99:1 100:1 101:1 102:1 103:1 104:1 105:-1 106:-1 107:1 110:1 111:1 112:1 113:1 114:1 115:1 116:-1 117:-1 118:1 119:1 120:1 122:1 123:-1 124:1 125:1 126:1 127:1 128:-1 129:-1 130:1 131:1 134:1 135:-1 136:-1 137:-1 138:-1 139:-1 140:-1 141:1 142:1 143:1 146:1 147:1 148:-1 149:-1 150:-1 151:-1 152:1 153:1 154:1 155:1 158:1 159:-1 160:1 161:-1 162:1 163:1 164:1 165:1 166:1 167:1 170:-1 171:1 172:1 173:1 174:1 175:1 176:1 177:1 178:1 
-0 -0 -3.644185950039046 -3.761980290756408 -32 21.46712849215555 0 0 0 2:1 3:1 4:1 5:1 6:1 7:1 8:1 9:1 10:1 13:1 14:1 15:-1 16:-1 17:-1 18:-1 19:-1 20:1 21:1 22:1 23:1 26:1 27:-1 28:-1 29:-1 30:-1 31:-1 32:-1 33:-1 34:1 37:1 38:-1 39:-1 40:-1 41:1 42:1 43:1 44:-1 45:-1 46:1 47:1 49:1 50:-1 51:-1 52:1 53:1 54:1 55:1 56:1 57:-1 58:-1 59:1 61:1 62:-1 63:-1 64:1 65:1 66:1 67:1 68:1 69:-1 70:-1 71:1 73:1 74:-1 75:-1 76:-1 77:-1 78:1 79:1 80:-1 81:-1 82:-1 83:1 86:1 87:-1 88:-1 89:-1 90:-1 91:-1 92:-1 93:-1 94:-1 95:1 98:1 99:1 100:-1 101:1 102:-1 103:-1 104:1 105:-1 106:-1 107:1 110:1 111:1 112:1 113:1 114:1 115:1 116:1 117:-1 118:-1 119:1 120:1 122:1 123:1 124:1 125:1 126:1 127:1 128:-1 129:-1 130:1 131:1 134:1 135:-1 136:1 137:1 138:1 139:-1 140:-1 141:-1 142:1 143:1 146:-1 147:-1 148:-1 149:-1 150:-1 151:-1 152:-1 153:1 154:1 155:1 158:1 159:1 160:-1 161:-1 162:-1 163:-1 164:1 165:1 166:1 167:1 170:1 171:-1 172:1 173:1 174:1 175:1 176:1 177:1 178:1 
-0 -0.2644290050987512 -0.9656954420856069 -10.6330335470715 -5.616605264688896 11.5981957976516 0 0 0 2:1 3:1 4:1 5:1 6:1 7:1 8:1 9:1 10:1 13:1 14:1 15:1 16:1 17:-1 18:-1 19:-1 20:-1 21:1 22:1 23:1 26:1 27:1 28:-1 29:-1 30:-1 31:-1 32:-1 33:-1 34:-1 37:-1 38:-1 39:-1 40:-1 41:-1 42:1 43:1 44:1 45:-1 46:-1 47:1 49:-1 50:1 51:-1 52:-1 53:1 54:-1 55:1 56:1 57:1 58:-1 59:-1 61:1 62:1 63:-1 64:-1 65:1 66:1 67:1 68:1 69:1 70:-1 71:-1 73:1 74:1 75:-1 76:-1 77:-1 78:1 79:1 80:1 81:-1 82:-1 83:-1 86:1 87:1 88:-1 89:-1 90:-1 91:-1 92:-1 93:-1 94:-1 95:-1 98:1 99:1 100:1 101:-1 102:-1 103:-1 104:-1 105:1 106:-1 107:-1 110:1 111:1 112:1 113:1 114:1 115:1 116:1 117:1 118:-1 119:-1 120:1 122:1 123:1 124:1 125:1 126:1 127:1 128:1 129:-1 130:-1 131:1 134:1 135:1 136:-1 137:1 138:1 139:1 140:1 141:-1 142:-1 143:1 146:1 147:1 148:-1 149:-1 150:-1 151:-1 152:-1 153:-1 154:1 155:1 158:1 159:1 160:1 161:-1 162:-1 163:-1 164:-1 165:1 166:1 167:1 170:1 171:1 172:1 173:1 174:1 175:1 176:1 177:1 178:1 
-0 -0 -0 -0 -0 1.019892938919798 0 0 0 2:1 3:1 4:1 5:1 6:1 7:1 8:1 9:1 10:1 13:1 14:1 15:1 16:-1 17:-1 18:-1 19:-1 20:1 21:1 22:1 23:1 26:1 27:-1 28:-1 29:-1 30:-1 31:-1 32:-1 33:-1 34:1 37:1 38:-1 39:-1 40:-1 41:1 42:1 43:1 44:-1 45:-1 46:1 47:1 49:1 50:-1 51:-1 52:1 53:1 54:1 55:1 56:-1 57:-1 58:-1 59:1 61:1 62:-1 63:-1 64:1 65:1 66:1 67:1 68:1 69:-1 70:-1 71:1 73:1 74:-1 75:-1 76:-1 77:1 78:1 79:1 80:-1 81:-1 82:-1 83:1 86:1 87:-1 88:-1 89:-1 90:-1 91:-1 92:-1 93:-1 94:-1 95:1 98:1 99:1 100:-1 101:-1 102:-1 103:-1 104:1 105:-1 106:-1 107:1 110:1 111:1 112:1 113:1 114:1 115:1 116:-1 117:-1 118:-1 119:1 120:1 122:1 123:1 124:1 125:1 126:1 127:1 128:-1 129:-1 130:1 131:1 134:1 135:-1 136:1 137:1 138:1 139:1 140:-1 141:-1 142:1 143:1 146:1 147:-1 148:-1 149:-1 150:-1 151:-1 152:-1 153:1 154:1 155:1 158:1 159:1 160:-1 161:-1 162:-1 163:-1 164:1 165:1 166:1 167:1 170:1 171:1 172:1 173:1 174:1 175:1 176:1 177:1 178:1 
-18.54212107101063 -0 -0 -0 -0 0 12.02204454796815 0.5564845710065071 0 2:1 3:1 4:1 5:1 6:1 7:1 8:1 9:1 10:1 13:1 14:1 15:1 16:-1 17:-1 18:-1 19:-1 20:1 21:1 22:1 23:1 26:1 27:-1 28:-1 29:-1 30:-1 31:-1 32:-1 33:-1 34:1 37:1 38:-1 39:-1 40:-1 41:1 42:1 43:1 44:-1 45:-1 46:1 47:1 49:1 50:-1 51:-1 52:1 53:1 54:1 55:1 56:1 57:-1 58:-1 59:1 61:1 62:-1 63:-1 64:1 65:1 66:1 67:1 68:1 69:-1 70:-1 71:1 73:1 74:-1 75:-1 76:-1 77:1 78:1 79:1 80:-1 81:-1 82:-1 83:1 86:1 87:-1 88:-1 89:-1 90:-1 91:-1 92:-1 93:-1 94:-1 95:1 98:1 99:1 100:-1 101:-1 102:-1 103:-1 104:1 105:-1 106:-1 107:1 110:1 111:-1 112:1 113:-1 114:1 115:1 116:1 117:-1 118:-1 119:1 120:1 122:1 123:1 124:1 125:1 126:1 127:1 128:-1 129:-1 130:1 131:1 134:-1 135:-1 136:1 137:1 138:1 139:1 140:-1 141:-1 142:1 143:1 146:1 147:-1 148:-1 149:-1 150:-1 151:-1 152:-1 153:1 154:1 155:1 158:1 159:1 160:-1 161:-1 162:-1 163:-1 164:1 165:1 166:1 167:1 170:1 171:1 172:1 173:1 174:1 175:1 176:1 177:1 178:1 
-13.04265474501714 -0 -0 -0 -0 0 8.456213325367672 0 0 2:1 3:1 4:1 5:1 6:1 7:1 8:1 9:1 10:1 13:1 14:1 15:1 16:1 17:-1 18:-1 19:-1 20:-1 21:-1 22:1 23:1 26:1 27:1 28:-1 29:-1 30:-1 31:-1 32:-1 33:-1 34:-1 37:1 38:1 39:-1 40:-1 41:-1 42:1 43:1 44:1 45:-1 46:-1 47:1 49:1 50:-1 51:-1 52:-1 53:1 54:1 55:1 56:1 57:1 58:-1 59:-1 61:1 62:1 63:-1 64:-1 65:1 66:1 67:1 68:1 69:1 70:-1 71:-1 73:1 74:-1 75:-1 76:-1 77:-1 78:1 79:1 80:1 81:-1 82:-1 83:-1 86:-1 87:1 88:-1 89:-1 90:-1 91:-1 92:-1 93:-1 94:-1 95:-1 98:1 99:1 100:1 101:-1 102:-1 103:-1 104:-1 105:1 106:-1 107:-1 110:1 111:1 112:1 113:1 114:1 115:1 116:1 117:1 118:-1 119:-1 120:1 122:1 123:1 124:-1 125:1 126:1 127:1 128:1 129:-1 130:-1 131:1 134:1 135:1 136:-1 137:1 138:1 139:1 140:1 141:-1 142:-1 143:1 146:1 147:1 148:-1 149:-1 150:-1 151:-1 152:-1 153:-1 154:1 155:-1 158:1 159:1 160:1 161:-1 162:-1 163:-1 164:-1 165:1 166:1 167:1 170:1 171:1 172:1 173:1 174:1 175:1 176:1 177:1 178:1 
-0 -0.4997294990214809 -0 -0 -0 0 0 0 0 2:1 3:1 4:1 5:1 6:1 7:1 8:1 9:1 10:1 13:1 14:1 15:1 16:-1 17:-1 18:-1 19:-1 20:-1 21:1 22:1 23:1 26:1 27:-1 28:-1 29:-1 30:-1 31:-1 32:-1 33:-1 34:1 37:1 38:-1 39:-1 40:-1 41:1 42:1 43:1 44:-1 45:-1 46:1 47:1 49:1 50:-1 51:-1 52:1 53:1 54:1 55:1 56:1 57:-1 58:-1 59:1 61:1 62:-1 63:-1 64:1 65:1 66:1 67:1 68:1 69:-1 70:-1 71:1 73:1 74:-1 75:-1 76:-1 77:1 78:1 79:1 80:-1 81:-1 82:-1 83:1 86:1 87:-1 88:-1 89:-1 90:-1 91:-1 92:-1 93:-1 94:-1 95:1 98:1 99:1 100:-1 101:-1 102:-1 103:-1 104:1 105:-1 106:-1 107:1 110:1 111:1 112:1 113:1 114:1 115:1 116:1 117:-1 118:-1 119:1 120:1 122:1 123:1 124:1 125:1 126:1 127:1 128:-1 129:-1 130:1 131:1 134:1 135:-1 136:1 137:1 138:1 139:1 140:-1 141:-1 142:1 143:1 146:1 147:-1 148:-1 149:-1 150:-1 151:-1 152:-1 153:1 154:1 155:1 158:-1 159:1 160:-1 161:-1 162:-1 163:-1 164:1 165:1 166:1 167:1 170:1 171:1 172:-1 173:1 174:1 175:1 176:1 177:1 178:1 
-13.20040200343151 -0 -0 -0 -0 4.781645222626857 19.65060920919981 4.967594295930124 0 2:1 3:1 4:1 5:1 6:1 7:1 8:1 9:1 10:1 13:1 14:1 15:1 16:-1 17:-1 18:-1 19:-1 20:1 21:1 22:1 23:1 26:1 27:-1 28:-1 29:-1 30:-1 31:-1 32:-1 33:-1 34:1 37:1 38:-1 39:-1 40:-1 41:1 42:1 43:1 44:-1 45:-1 46:1 47:1 49:1 50:-1 51:-1 52:1 53:1 54:1 55:1 56:1 57:-1 58:-1 59:1 61:1 62:-1 63:-1 64:1 65:1 66:1 67:1 68:1 69:-1 70:-1 71:1 73:1 74:-1 75:-1 76:-1 77:1 78:1 79:-1 80:-1 81:-1 82:-1 83:1 86:1 87:-1 88:-1 89:-1 90:-1 91:-1 92:-1 93:-1 94:-1 95:1 98:1 99:1 100:-1 101:-1 102:-1 103:-1 104:1 105:-1 106:-1 107:1 110:1 111:1 112:1 113:1 114:1 115:1 116:1 117:-1 118:-1 119:1 120:1 122:1 123:-1 124:1 125:1 126:1 127:1 128:-1 129:-1 130:1 131:1 134:1 135:-1 136:1 137:1 138:1 139:1 140:-1 141:-1 142:1 143:1 146:1 147:-1 148:-1 149:-1 150:-1 151:-1 152:-1 153:1 154:1 155:1 158:1 159:-1 160:-1 161:-1 162:-1 163:-1 164:1 165:1 166:1 167:1 170:1 171:1 172:1 173:1 174:1 175:1 176:1 177:1 178:1 
-0 -0 -0 -3.453354655446329 -2.565078457589272 5.887276657539376 0.2279307469166575 0 0 2:1 3:1 4:1 5:1 6:1 7:-1 8:1 9:1 10:1 13:1 14:1 15:1 16:1 17:1 18:1 19:-1 20:1 21:1 22:1 23:1 26:1 27:1 28:-1 29:-1 30:-1 31:-1 32:1 33:1 34:1 37:1 38:-1 39:-1 40:-1 41:-1 42:-1 43:-1 44:-1 45:-1 46:1 47:1 49:1 50:-1 51:-1 52:-1 53:1 54:1 55:1 56:-1 57:-1 58:1 59:1 61:1 62:-1 63:-1 64:1 65:1 66:1 67:1 68:1 69:-1 70:-1 71:1 73:1 74:-1 75:-1 76:1 77:1 78:1 79:1 80:1 81:-1 82:-1 83:1 86:-1 87:-1 88:-1 89:1 90:-1 91:1 92:-1 93:-1 94:-1 95:1 98:1 99:-1 100:-1 101:-1 102:-1 103:-1 104:-1 105:-1 106:-1 107:1 110:1 111:1 112:-1 113:-1 114:-1 115:-1 116:1 117:-1 118:-1 119:1 120:1 122:1 123:1 124:1 125:1 126:1 127:1 128:1 129:-1 130:-1 131:1 134:1 135:1 136:1 137:1 138:1 139:1 140:-1 141:-1 142:1 143:1 146:1 147:-1 148:1 149:1 150:1 151:1 152:-1 153:-1 154:1 155:1 158:1 159:-1 160:-1 161:-1 162:-1 163:-1 164:-1 165:1 166:1 167:1 170:1 171:1 172:-1 173:-1 174:-1 175:-1 176:1 177:1 178:1 
-14.88241027030176 -0 -0 -0 -2.482766678133584 -19.5268017061488 32 32 16.28966251493926 2:1 3:1 4:1 5:1 6:1 7:1 8:1 9:1 10:1 13:1 14:1 15:1 16:-1 17:-1 18:-1 19:-1 20:-1 21:1 22:1 23:1 26:1 27:-1 28:-1 29:-1 30:-1 31:-1 32:-1 33:-1 34:-1 37:1 38:1 39:-1 40:-1 41:1 42:1 43:1 44:1 45:-1 46:-1 47:1 49:1 50:1 51:1 52:1 53:1 54:1 55:1 56:1 57:-1 58:-1 59:1 61:1 62:1 63:1 64:1 65:1 66:1 67:1 68:-1 69:-1 70:1 71:1 73:1 74:1 75:1 76:-1 77:-1 78:-1 79:-1 80:1 81:1 82:1 83:1 86:1 87:1 88:-1 89:-1 90:-1 91:-1 92:-1 93:-1 94:1 95:1 98:1 99:1 100:-1 101:1 102:1 103:1 104:-1 105:-1 106:-1 107:1 110:1 111:1 112:1 113:1 114:1 115:1 116:1 117:-1 118:-1 119:1 120:1 122:1 123:-1 124:1 125:1 126:1 127:-1 128:1 129:-1 130:-1 131:1 134:1 135:-1 136:1 137:1 138:1 139:1 140:-1 141:-1 142:-1 143:1 146:1 147:-1 148:-1 149:-1 150:-1 151:-1 152:-1 153:-1 154:1 155:1 158:1 159:1 160:-1 161:-1 162:-1 163:-1 164:-1 165:1 166:1 167:1 170:1 171:1 172:1 173:1 174:1 175:1 176:1 177:1 178:1 
-9.10686518554218 -25.53742157942639 -27.50861036149563 -21.91019344683462 -31.6562596835502 -29.53344290756199 0 0 14.53772827659707 2:1 3:1 4:1 5:1 6:1 7:1 8:1 9:1 10:1 13:1 14:1 15:-1 16:-1 17:-1 18:-1 19:-1 20:1 21:1 22:1 23:1 26:-1 27:-1 28:-1 29:-1 30:-1 31:-1 32:-1 33:-1 34:-1 37:1 38:-1 39:1 40:1 41:1 42:1 43:1 44:-1 45:-1 46:1 47:1 49:1 50:1 51:1 52:1 53:1 54:-1 55:1 56:-1 57:-1 58:1 59:1 61:1 62:1 63:1 64:1 65:1 66:1 67:-1 68:-1 69:1 70:1 71:1 73:1 74:1 75:-1 76:-1 77:-1 78:-1 79:1 80:1 81:1 82:1 83:1 86:1 87:-1 88:-1 89:-1 90:-1 91:-1 92:-1 93:1 94:-1 95:1 98:1 99:1 100:1 101:1 102:1 103:-1 104:-1 105:-1 106:1 107:1 110:1 111:1 112:1 113:1 114:-1 115:1 116:-1 117:-1 118:1 119:1 120:1 122:1 123:1 124:1 125:1 126:1 127:1 128:-1 129:-1 130:1 131:1 134:-1 135:1 136:1 137:1 138:1 139:-1 140:-1 141:-1 142:1 143:1 146:-1 147:-1 148:-1 149:-1 150:-1 151:-1 152:-1 153:1 154:1 155:1 158:1 159:-1 160:-1 161:-1 162:-1 163:-1 164:1 165:1 166:1 167:1 170:1 171:1 172:1 173:1 174:1 175:1 176:1 177:1 178:1 
