svm_type c_svc
kernel_type rbf
gamma 0.00012207
nr_class 32
total_sv 286
rho 0.0939066 -0.347033 -0.132358 0.0405065 -0.127062 -0.127585 -0.24298 0.0522348 -0.141396 -0.0364819 0.230966 0.102647 -0.0430929 -0.146663 -0.230216 0.105216 0.0254375 0.230072 -0.236471 -0.0347301 -0.515069 -0.195227 -0.179439 -0.200072 0.219846 -0.161745 -0.0337601 -0.42458 -0.0448697 0.106148 -0.0702718 -0.208412 -0.0919056 0.0295231 -0.128835 -0.164344 -0.175971 0.0130531 -0.220951 -0.0982661 0.142593 0.0820675 -0.100384 -0.151096 -0.272551 0.14933 0.0148159 0.247346 -0.458461 -0.232386 -0.276185 -0.300184 -0.142807 -0.371792 -0.30644 -0.170248 -0.0628836 -0.291266 -0.11796 0.0666607 -0.0679132 0.0169619 0.16369 0.0865754 0.0564748 0.145699 0.199283 0.165523 0.0916586 0.374806 0.174936 0.0951699 0.159252 0.012078 0.230857 0.139583 0.302334 0.00664518 0.15056 0.0228465 0.0748427 0.0895749 0.0567852 0.273248 0.0847155 0.120486 -0.151153 0.159435 0.231506 0.0686939 0.132219 0.0604736 0.0462615 0.0180179 0.0919189 0.0352649 0.0900417 0.22123 0.231784 0.0801546 0.0394062 -0.0342179 0.283817 0.128748 0.404122 -0.0782842 0.0391266 -0.00862962 0.00986022 0.0436432 -0.0242737 0.184069 0.0368178 0.121114 -0.157994 0.113794 0.298142 0.04131 -0.0831282 -0.133295 -0.122644 -0.0445807 -0.0948612 -0.106603 -0.00288613 0.0543529 -0.0741243 -0.130241 -0.180264 -0.000259439 -0.0136838 0.161347 -0.139236 -0.0476766 -0.135759 -0.119553 -0.0915373 -0.107867 0.0264227 -0.10303 -0.113961 -0.263274 -0.108585 0.0489793 -0.0946097 0.0146166 -0.0200472 0.102235 0.00412743 0.0104089 0.266905 0.328906 0.0541936 -0.00314376 -0.084174 0.166975 0.102973 0.355599 -0.117565 0.0819458 -0.083749 -0.0443228 0.00603486 -0.0310486 0.297584 -0.0163318 0.0467172 -0.276849 0.0445737 0.235982 -0.0110275 0.00798379 0.158543 0.03438 0.0412191 0.213775 0.217946 0.0676673 0.0206894 -0.0583233 0.237088 0.0948301 0.413485 -0.0640797 0.106329 -0.0391457 -0.00920925 -0.0175942 0.00942968 0.256411 0.0165546 0.0856003 -0.258241 0.0708353 0.420869 0.0136116 0.160891 0.0807685 0.0262701 0.565879 0.156046 0.0591945 0.0103939 -0.0930858 0.280036 0.133233 0.357698 -0.0998962 0.0815335 -0.0887314 -0.0357999 0.00827756 -0.0216253 0.316058 0.00879468 0.098607 -0.320213 0.0872439 0.237371 0.0585199 -0.239977 -0.0866336 0.180715 0.0851556 -0.0633639 -0.150832 -0.336277 0.122988 0.0168383 0.2381 -0.285211 -0.108113 -0.216278 -0.389576 -0.134652 -0.213957 0.0330678 -0.155874 -0.0264807 -0.333994 -0.103567 0.087878 -0.066378 0.0369393 0.406366 0.137976 0.0322453 -0.0295121 -0.166628 0.196473 0.100624 0.316079 -0.137276 0.0975112 -0.15754 -0.206932 -0.0194772 -0.0828019 0.299558 -0.038157 0.0793178 -0.338124 0.0864884 0.210124 0.00581901 0.218416 0.190348 0.033785 -0.00391394 -0.196205 0.155148 0.175183 0.415667 -0.160407 0.0429115 -0.1143 -0.0545482 -0.0456622 -0.0711618 0.199466 -0.0210406 0.18161 -0.279605 0.0518027 0.24265 0.0366272 0.077142 -0.201848 -0.232061 -0.459512 -0.0259057 -0.093184 0.196048 -0.361469 -0.208735 -0.371922 -0.472536 -0.238267 -0.294176 -0.000596837 -0.251662 -0.192135 -0.456086 -0.209649 0.023586 -0.183345 -0.194177 -0.156387 -0.202868 -0.065643 -0.122415 0.160272 -0.235646 -0.125977 -0.195204 -0.192545 -0.238481 -0.180171 -0.0387986 -0.159774 -0.13366 -0.310682 -0.134266 0.0085669 -0.135184 -0.0269538 -0.157445 0.151095 0.10561 0.362859 -0.464029 -0.0726921 -0.112368 -0.0949497 -0.0512274 -0.154422 0.169055 -0.0634529 0.0640019 -0.240069 0.00557237 0.215978 0.00331595 -0.0851131 0.176543 0.0803272 0.26314 -0.074551 0.065709 -0.0700704 -0.034439 -0.0185609 -0.0283147 0.198583 -0.0024524 0.0439104 -0.252114 0.071338 0.170606 -0.0086556 0.321627 0.222564 0.477251 -0.0319194 0.158929 0.0318378 0.0222783 0.0750243 0.0629605 0.2735 0.0706191 0.381602 -0.155797 0.177388 0.256126 0.0616992 -0.0279919 0.283752 -0.435848 -0.301687 -0.270603 -0.235205 -0.173771 -0.340162 -0.399079 -0.183052 -0.111686 -0.347886 -0.110527 0.0678917 -0.0983802 0.294901 -0.216306 -0.0829086 -0.163201 -0.138285 -0.0957405 -0.129745 0.0569936 -0.1059 -0.0884354 -0.254295 -0.048206 0.0978612 0.0244239 -0.522203 -0.365321 -0.352577 -0.366625 -0.304456 -0.473672 -0.208958 -0.34356 -0.379673 -0.433373 -0.289658 -0.177801 -0.257951 0.744593 0.00882649 0.0749385 0.0827464 0.196972 0.467998 0.121852 0.225689 -0.184326 0.159937 0.256304 0.0597989 -0.249006 -0.192393 -0.0792541 -0.885088 0.211736 -0.116516 0.0198811 -0.285124 -0.00403837 0.130532 -0.0266675 0.0377899 0.064776 0.0761334 0.700192 0.378978 0.138432 -0.325427 0.132164 0.249511 0.0512632 0.0458181 0.0389272 0.334539 0.0106241 0.143789 -0.265588 0.132806 0.309925 0.00966629 -0.00852025 0.32123 0.00128993 0.0540436 -0.447664 0.0680556 0.262758 -0.00914891 0.607954 0.0263094 0.0885158 -0.238899 0.092671 0.196461 0.0206833 -0.360658 -0.12945 -0.477373 -0.156479 0.0185532 -0.121456 0.0813766 -0.276468 0.0659924 0.196264 0.00629153 -0.26182 -0.0143134 0.194548 0.0683858 0.329417 0.401197 0.177391 0.147682 -0.0376313 -0.18089
label 50 66 74 75 87 86 88 51 56 53 67 57 77 85 52 54 82 68 72 76 69 55 83 89 70 80 90 71 84 65 78 81
nr_sv 7 17 6 7 7 4 13 9 11 7 9 8 8 7 8 6 17 12 9 6 13 7 10 8 11 9 13 12 3 8 5 9
SV
34.37734829114734 27.3753610458167 13.13760381212806 7.882988319423903 30.3383871055179 13.23646229936627 33.1773423762055 33.66922838415297 36.25119605929269 27.58180121406376 37.40108977629057 16.67724561157048 22.01717358055369 22.23413903286063 23.99268626629853 23.87992059583658 17.16283391497677 18.28949690478691 29.66946754667096 35.49578390443793 43.78363960318898 31.59300627387554 28.82196260814931 24.52848706918561 43.05800350096232 16.98438661070097 23.61862580485497 10.92453118766675 17.25419712220887 18.45406187911057 17.16712163055685 30:1 31:1 32:1 33:1 34:1 46:1 47:1 48:1 49:1 50:1 51:1 52:1 53:1 54:1 56:1 62:1 63:1 64:1 65:1 66:1 67:1 68:1 69:1 70:1 71:1 72:-1 73:1 74:1 75:1 76:1 77:1 78:1 83:1 84:1 85:1 86:1 87:-1 88:1 89:-1 90:-1 91:-1 92:-1 93:1 94:1 95:1 96:1 97:1 98:1 99:1 103:1 104:1 105:1 106:1 107:1 108:-1 109:1 110:1 111:1 112:-1 113:-1 114:1 115:1 116:1 117:1 118:1 124:1 125:1 126:1 127:1 128:-1 129:1 130:1 131:1 132:1 133:-1 134:-1 135:1 136:1 138:1 144:1 145:1 146:1 147:-1 148:1 149:1 150:1 151:1 152:1 153:-1 154:-1 155:1 156:1 157:1 164:1 165:1 166:1 167:1 168:1 169:1 170:1 171:1 172:1 173:-1 174:-1 175:1 176:1 177:1 184:1 185:1 186:1 187:1 188:1 189:1 190:1 191:1 192:-1 193:-1 194:1 195:1 196:1 197:1 204:1 205:1 206:1 207:1 208:1 209:1 210:1 211:1 212:-1 213:1 214:1 215:1 216:1 217:1 224:1 225:1 226:1 227:1 228:1 229:1 230:1 231:-1 232:1 233:1 234:1 235:1 236:1 244:1 245:1 246:1 247:1 248:1 249:1 250:-1 251:1 252:1 253:1 254:1 255:1 256:1 257:1 265:1 266:1 267:1 268:1 269:-1 270:1 271:1 272:1 273:1 274:1 275:1 276:1 284:1 285:1 286:1 287:1 288:1 289:-1 290:1 291:1 292:1 293:1 294:1 295:1 296:1 304:1 305:1 306:1 307:1 308:-1 309:-1 310:-1 311:-1 312:-1 313:-1 314:-1 315:1 316:1 317:1 324:1 325:1 326:1 327:1 328:-1 329:-1 330:-1 331:-1 332:-1 333:-1 334:-1 335:1 336:1 337:1 346:1 347:1 348:1 349:1 350:1 351:1 354:1 355:1 
17.51798258845217 0 13.06812441985917 0 13.06252112621712 14.29330940765846 0 5.882475072494986 19.28725723466978 23.98340680966438 17.38415857261528 6.809240030968303 19.2036622934594 0 15.71847126033404 16.83794251743874 2.021038864144713 6.58151758264262 0.2463023685570596 23.87595423801002 17.18020181124707 23.88657513837423 11.40342480277369 20.96627261898804 30.64411424013544 39.72186837854197 16.08522056479873 0 0 7.195309294857784 0 30:1 31:1 32:1 33:1 34:1 46:1 47:1 48:1 49:1 50:1 51:1 52:1 53:1 54:1 56:1 62:1 63:1 64:1 65:1 66:1 67:1 68:-1 69:-1 70:-1 71:-1 72:1 73:1 74:1 75:1 76:1 77:1 78:1 83:1 84:1 85:1 86:1 87:-1 88:1 89:1 90:1 91:-1 92:-1 93:1 94:-1 95:1 96:1 97:1 98:1 99:1 103:1 104:1 105:1 106:1 107:-1 108:1 109:1 110:1 111:1 112:-1 113:-1 114:1 115:1 116:1 117:1 118:1 124:1 125:1 126:1 127:-1 128:1 129:1 130:1 131:1 132:-1 133:-1 134:1 135:1 136:1 138:1 144:1 145:1 146:1 147:1 148:1 149:1 150:1 151:1 152:-1 153:-1 154:1 155:1 156:1 157:1 164:1 165:1 166:1 167:1 168:1 169:1 170:1 171:-1 172:-1 173:1 174:1 175:1 176:1 177:1 184:1 185:1 186:1 187:1 188:1 189:1 190:1 191:-1 192:1 193:1 194:1 195:1 196:1 197:1 204:1 205:1 206:1 207:1 208:1 209:1 210:-1 211:1 212:1 213:1 214:1 215:1 216:1 217:1 224:1 225:1 226:1 227:1 228:1 229:-1 230:1 231:1 232:1 233:1 234:1 235:1 236:1 244:1 245:1 246:1 247:1 248:-1 249:1 250:1 251:1 252:1 253:1 254:1 255:1 256:1 257:1 265:1 266:1 267:1 268:-1 269:1 270:1 271:1 272:1 273:1 274:1 275:1 276:1 284:1 285:1 286:1 287:-1 288:-1 289:-1 290:-1 291:-1 292:-1 293:-1 294:1 295:1 296:1 304:1 305:1 306:1 307:-1 308:-1 309:-1 310:-1 311:-1 312:-1 313:-1 314:1 315:1 316:1 317:1 324:1 325:1 326:1 327:1 328:1 329:1 330:1 331:1 332:1 333:1 334:1 335:1 336:1 337:1 346:1 347:1 348:1 349:1 350:1 351:1 354:1 355:1 
0 18.20421984187276 1.868353688925644 5.835145640675227 0 11.8933376949251 0 0 0 8.328094861837398 0 0 0 1.817071140702876 0 13.4913865681468 0 0 3.150129830459981 0 0 2.985430046191607 0 0 0 32.72688002019581 0 0 0 2.594429615492414 0 30:1 31:1 32:1 33:1 34:1 46:1 47:1 48:1 49:1 50:1 51:1 52:1 53:1 54:1 56:1 62:1 63:1 64:1 65:1 66:1 67:1 68:1 69:1 70:1 71:1 72:-1 73:1 74:1 75:1 76:1 77:1 78:1 83:1 84:1 85:1 86:1 87:1 88:-1 89:-1 90:-1 91:-1 92:1 93:1 94:1 95:1 96:1 97:1 98:1 99:1 103:1 104:1 105:1 106:1 107:-1 108:1 109:1 110:1 111:-1 112:-1 113:1 114:1 115:1 116:1 117:1 118:1 124:1 125:1 126:1 127:-1 128:1 129:1 130:1 131:1 132:-1 133:-1 134:1 135:1 136:1 138:1 144:1 145:1 146:1 147:1 148:1 149:1 150:1 151:1 152:-1 153:-1 154:1 155:1 156:1 157:1 164:1 165:1 166:1 167:1 168:1 169:1 170:1 171:1 172:-1 173:-1 174:1 175:1 176:1 177:1 184:1 185:1 186:1 187:1 188:1 189:1 190:1 191:-1 192:-1 193:1 194:1 195:1 196:1 197:1 204:1 205:1 206:1 207:1 208:1 209:1 210:1 211:-1 212:1 213:1 214:1 215:1 216:1 217:1 224:1 225:1 226:1 227:1 228:1 229:1 230:-1 231:1 232:1 233:1 234:1 235:1 236:1 244:1 245:1 246:1 247:1 248:1 249:-1 250:1 251:1 252:1 253:1 254:1 255:1 256:1 257:1 265:1 266:1 267:1 268:-1 269:1 270:1 271:1 272:1 273:1 274:1 275:1 276:1 284:1 285:1 286:1 287:1 288:-1 289:1 290:1 291:1 292:1 293:1 294:1 295:1 296:1 304:1 305:1 306:1 307:-1 308:-1 309:-1 310:-1 311:-1 312:-1 313:-1 314:1 315:1 316:1 317:1 324:1 325:1 326:1 327:-1 328:-1 329:-1 330:-1 331:-1 332:-1 333:-1 334:-1 335:1 336:1 337:1 346:1 347:1 348:1 349:1 350:1 351:1 354:1 355:1 
26.66400350482251 10.60818899277104 5.767790428858635 6.256218636219676 7.593642276086727 0.5920584816602121 41.08893155012869 21.32075971872778 35.69868945824216 13.0986347070447 20.15806172949752 1.231942206750951 10.98166435603621 17.59008974724859 12.67545909969158 5.593697879052464 8.192946017649385 6.908609168797981 20.60401489832824 27.96299778003636 40.67335369616865 11.35827032518298 17.94325028974293 18.98149518451743 24.3589978976952 10.06425193647338 15.76141605861247 11.67432559613864 17.4364646306493 2.8984110300131 0 30:1 31:1 32:1 33:1 34:1 46:1 47:1 48:1 49:1 50:1 51:1 52:1 53:1 54:1 56:1 62:1 63:1 64:1 65:1 66:1 67:1 68:1 69:-1 70:1 71:1 72:1 73:1 74:1 75:1 76:1 77:1 78:1 83:1 84:1 85:1 86:1 87:1 88:-1 89:-1 90:-1 91:-1 92:1 93:-1 94:1 95:1 96:1 97:1 98:1 99:1 103:1 104:1 105:1 106:1 107:-1 108:1 109:1 110:-1 111:-1 112:-1 113:1 114:1 115:1 116:1 117:1 118:1 124:1 125:1 126:1 127:-1 128:1 129:1 130:1 131:1 132:-1 133:-1 134:1 135:1 136:1 138:1 144:1 145:1 146:1 147:1 148:1 149:1 150:1 151:1 152:-1 153:-1 154:1 155:1 156:1 157:1 164:1 165:1 166:1 167:1 168:1 169:1 170:1 171:1 172:-1 173:-1 174:1 175:1 176:1 177:1 184:1 185:1 186:1 187:1 188:1 189:1 190:1 191:-1 192:-1 193:1 194:1 195:1 196:1 197:1 204:1 205:1 206:1 207:1 208:1 209:1 210:1 211:-1 212:1 213:1 214:1 215:1 216:1 217:1 224:1 225:1 226:1 227:1 228:1 229:1 230:-1 231:1 232:1 233:1 234:1 235:1 236:1 244:1 245:1 246:1 247:1 248:1 249:-1 250:1 251:1 252:1 253:1 254:1 255:1 256:1 257:1 265:1 266:1 267:1 268:-1 269:1 270:1 271:1 272:1 273:1 274:1 275:1 276:1 284:1 285:1 286:1 287:1 288:-1 289:1 290:1 291:1 292:1 293:1 294:1 295:1 296:1 304:1 305:1 306:1 307:-1 308:-1 309:-1 310:-1 311:-1 312:-1 313:-1 314:1 315:1 316:1 317:1 324:1 325:1 326:1 327:-1 328:-1 329:-1 330:-1 331:-1 332:-1 333:-1 334:1 335:1 336:1 337:1 346:1 347:1 348:1 349:1 350:1 351:1 354:1 355:1 
24.61704470291111 32.10621424716708 13.07458276707944 14.98905437954829 26.61359455125571 25.09362953998141 39.30043005744907 17.75998256238232 27.21702364983939 9.696483193603955 22.83746632701881 17.17544363035383 14.0321033788128 26.37544837277437 16.32574944051788 17.67132232700143 12.91771803173847 21.36628397623042 15.26132746074002 22.5851812484818 42.69281007026924 21.58553353662492 23.30433967981661 25.16796941477395 30.65326074846281 33.35904804669143 17.72941186129168 12.24117422325767 19.69741447650702 25.22320427810571 18.17850920191705 30:1 31:1 32:1 33:1 34:1 46:1 47:1 48:1 49:-1 50:-1 51:-1 52:-1 53:1 54:1 56:1 62:1 63:1 64:1 65:1 66:1 67:1 68:-1 69:1 70:1 71:1 72:-1 73:-1 74:1 75:1 76:1 77:1 78:1 83:1 84:1 85:1 86:1 87:1 88:-1 89:1 90:1 91:1 92:1 93:-1 94:-1 95:1 96:1 97:1 98:1 99:1 103:1 104:1 105:1 106:1 107:1 108:1 109:1 110:1 111:1 112:1 113:-1 114:-1 115:1 116:1 117:1 118:1 124:1 125:1 126:1 127:1 128:1 129:1 130:1 131:-1 132:1 133:-1 134:-1 135:1 136:1 138:1 144:1 145:1 146:1 147:1 148:1 149:1 150:1 151:1 152:-1 153:-1 154:1 155:1 156:1 157:1 164:1 165:1 166:1 167:1 168:1 169:1 170:1 171:1 172:-1 173:1 174:1 175:1 176:1 177:1 184:1 185:1 186:1 187:1 188:1 189:-1 190:1 191:-1 192:-1 193:1 194:1 195:1 196:1 197:1 204:1 205:1 206:1 207:1 208:1 209:1 210:-1 211:1 212:1 213:1 214:1 215:1 216:1 217:1 224:1 225:1 226:1 227:1 228:1 229:-1 230:1 231:1 232:1 233:1 234:1 235:1 236:1 244:1 245:1 246:1 247:1 248:1 249:-1 250:1 251:1 252:1 253:1 254:-1 255:1 256:1 257:1 265:1 266:1 267:1 268:-1 269:-1 270:-1 271:-1 272:-1 273:-1 274:-1 275:1 276:1 284:1 285:1 286:1 287:1 288:-1 289:-1 290:-1 291:-1 292:-1 293:-1 294:-1 295:1 296:1 304:1 305:1 306:1 307:-1 308:1 309:1 310:1 311:1 312:1 313:1 314:1 315:1 316:1 317:1 324:1 325:1 326:-1 327:1 328:1 329:1 330:1 331:1 332:1 333:1 334:1 335:1 336:1 337:1 346:1 347:1 348:1 349:1 350:1 351:1 354:1 355:1 
0.8038751375125106 0 0 0 0 0 29.86438990442726 0 1.547027491579229 0 17.11268030273926 0 0.2972912182322842 0.3833627471491508 0 6.968812799041309 10.53646418573912 0.2175054176437233 0 0 22.6507322531782 0 0 0 6.406271115437046 15.84151961227465 0 0 0 0 12.82637615268906 30:1 31:1 32:1 33:1 34:1 46:1 47:1 48:1 49:1 50:1 51:1 52:1 53:1 54:1 56:1 62:1 63:1 64:1 65:1 66:1 67:1 68:-1 69:-1 70:-1 71:-1 72:1 73:1 74:1 75:1 76:1 77:1 78:1 83:1 84:1 85:1 86:1 87:-1 88:1 89:1 90:1 91:-1 92:-1 93:-1 94:1 95:1 96:1 97:1 98:1 99:1 103:1 104:1 105:1 106:1 107:-1 108:1 109:1 110:1 111:1 112:-1 113:-1 114:1 115:1 116:1 117:1 118:1 124:1 125:1 126:1 127:1 128:1 129:1 130:1 131:1 132:-1 133:-1 134:1 135:1 136:1 138:1 144:1 145:1 146:1 147:1 148:1 149:1 150:1 151:1 152:-1 153:-1 154:-1 155:1 156:1 157:1 164:1 165:1 166:1 167:1 168:1 169:1 170:1 171:-1 172:-1 173:1 174:1 175:1 176:1 177:1 184:1 185:1 186:1 187:1 188:1 189:1 190:1 191:-1 192:1 193:1 194:1 195:1 196:1 197:1 204:1 205:1 206:1 207:1 208:1 209:1 210:-1 211:1 212:1 213:1 214:1 215:1 216:1 217:1 224:1 225:1 226:1 227:1 228:1 229:-1 230:1 231:1 232:1 233:1 234:1 235:1 236:1 244:1 245:1 246:1 247:1 248:-1 249:1 250:1 251:1 252:1 253:1 254:1 255:1 256:1 257:1 265:1 266:1 267:1 268:-1 269:1 270:1 271:1 272:1 273:1 274:1 275:1 276:1 284:1 285:1 286:1 287:-1 288:-1 289:-1 290:-1 291:-1 292:-1 293:-1 294:1 295:1 296:1 304:1 305:1 306:1 307:-1 308:-1 309:-1 310:-1 311:-1 312:-1 313:-1 314:1 315:1 316:1 317:1 324:1 325:1 326:1 327:1 328:1 329:1 330:1 331:1 332:1 333:1 334:1 335:1 336:1 337:1 346:1 347:1 348:1 349:1 350:1 351:1 354:1 355:1 
10.84269857717205 17.770284225476 0 7.026045341924872 0 0 40.70018243821062 17.54200404033527 0 0 0 0 0 14.60923068460048 0 0 0 0 24.27988985582924 0 5.487316178921161 0 6.162403482448667 0 0 7.35293172381766 0 20.1507262775537 13.37179341616568 0 0 30:1 31:1 32:1 33:1 34:1 46:1 47:1 48:1 49:1 50:1 51:1 52:1 53:1 54:1 56:1 62:1 63:1 64:1 65:1 66:1 67:1 68:-1 69:-1 70:-1 71:-1 72:1 73:1 74:1 75:1 76:1 77:1 78:1 83:1 84:1 85:1 86:1 87:-1 88:1 89:1 90:1 91:-1 92:-1 93:1 94:1 95:1 96:1 97:1 98:1 99:1 103:1 104:1 105:1 106:1 107:-1 108:1 109:1 110:1 111:1 112:-1 113:-1 114:1 115:1 116:1 117:1 118:1 124:1 125:1 126:1 127:1 128:1 129:1 130:1 131:1 132:-1 133:-1 134:1 135:1 136:1 138:1 144:1 145:1 146:1 147:1 148:1 149:1 150:1 151:1 152:-1 153:-1 154:1 155:1 156:1 157:1 164:1 165:1 166:1 167:1 168:1 169:1 170:1 171:-1 172:-1 173:1 174:1 175:1 176:1 177:1 184:1 185:1 186:1 187:1 188:1 189:1 190:1 191:-1 192:1 193:1 194:1 195:1 196:1 197:1 204:1 205:1 206:1 207:1 208:1 209:1 210:-1 211:1 212:1 213:1 214:1 215:1 216:1 217:1 224:1 225:1 226:1 227:1 228:1 229:-1 230:1 231:1 232:1 233:1 234:1 235:1 236:1 244:1 245:1 246:1 247:1 248:-1 249:1 250:1 251:1 252:1 253:1 254:1 255:1 256:1 257:1 265:1 266:1 267:1 268:-1 269:1 270:1 271:1 272:1 273:1 274:1 275:1 276:1 284:1 285:1 286:1 287:-1 288:-1 289:-1 290:-1 291:-1 292:-1 293:-1 294:1 295:1 296:1 304:1 305:1 306:1 307:-1 308:-1 309:-1 310:-1 311:-1 312:-1 313:-1 314:1 315:1 316:1 317:1 324:1 325:1 326:1 327:1 328:1 329:1 330:1 331:1 332:1 333:1 334:1 335:1 336:1 337:1 346:1 347:1 348:1 349:1 350:1 351:1 354:1 355:1 
-0.4535130653512657 0 6.065855128667811 0 0 0 0.5733837855495668 0 0 6.382639264769403 2.92992243588894 0 2.453790264625892 0 14.49782955223326 0 0 0 0.8427168021905621 1.287145696282654 0 0 0 0.4811309134258389 0 0 0 0 0 0 0 30:1 31:1 32:1 33:1 34:1 46:1 47:1 48:1 49:1 50:1 51:1 52:1 53:1 54:1 56:1 62:1 63:1 64:1 65:1 66:-1 67:-1 68:-1 69:-1 70:-1 71:-1 72:1 73:1 74:1 75:1 76:1 77:1 78:1 83:1 84:1 85:1 86:1 87:-1 88:-1 89:1 90:1 91:-1 92:-1 93:1 94:1 95:1 96:1 97:1 98:1 99:1 103:1 104:1 105:1 106:1 107:-1 108:-1 109:1 110:1 111:1 112:-1 113:-1 114:1 115:1 116:1 117:1 118:1 124:1 125:1 126:1 127:-1 128:-1 129:1 130:1 131:1 132:-1 133:-1 134:1 135:1 136:1 138:1 144:1 145:1 146:1 147:-1 148:-1 149:1 150:1 151:1 152:-1 153:-1 154:1 155:1 156:1 157:1 164:1 165:1 166:1 167:-1 168:-1 169:1 170:1 171:-1 172:-1 173:1 174:1 175:1 176:1 177:1 184:1 185:1 186:-1 187:-1 188:-1 189:-1 190:-1 191:-1 192:1 193:1 194:1 195:1 196:1 197:1 204:1 205:1 206:1 207:-1 208:-1 209:1 210:1 211:1 212:-1 213:-1 214:1 215:1 216:1 217:1 224:1 225:1 226:1 227:-1 228:-1 229:1 230:1 231:1 232:1 233:-1 234:-1 235:1 236:1 244:1 245:1 246:1 247:-1 248:-1 249:1 250:1 251:1 252:1 253:-1 254:-1 255:1 256:1 257:1 265:1 266:1 267:-1 268:-1 269:1 270:1 271:1 272:1 273:-1 274:-1 275:1 276:1 284:1 285:1 286:1 287:-1 288:-1 289:1 290:1 291:1 292:-1 293:-1 294:1 295:1 296:1 304:1 305:1 306:-1 307:-1 308:-1 309:-1 310:-1 311:-1 312:-1 313:1 314:1 315:1 316:1 317:1 324:1 325:1 326:1 327:1 328:1 329:1 330:1 331:1 332:1 333:1 334:1 335:1 336:1 337:1 346:1 347:1 348:1 349:1 350:1 351:1 354:1 355:1 
-0 10.68201232436793 0 0 0 0 0 0 11.95261184769522 0 0 0 0 0 14.66999737525062 0 1.070805286901214 0 0.3729145074082409 0 0 0 0 0 0 0 0 0 0 0 0 30:1 31:1 32:1 33:1 34:1 46:1 47:1 48:1 49:1 50:1 51:1 52:1 53:1 54:1 56:1 62:1 63:1 64:1 65:1 66:-1 67:-1 68:-1 69:-1 70:-1 71:-1 72:-1 73:1 74:1 75:1 76:1 77:1 78:1 83:1 84:1 85:1 86:1 87:1 88:-1 89:-1 90:1 91:1 92:-1 93:-1 94:1 95:1 96:1 97:1 98:1 99:1 103:1 104:1 105:1 106:1 107:1 108:-1 109:-1 110:1 111:1 112:1 113:-1 114:-1 115:1 116:1 117:1 118:1 124:1 125:1 126:1 127:1 128:-1 129:-1 130:1 131:1 132:1 133:-1 134:-1 135:1 136:1 138:1 144:1 145:1 146:1 147:1 148:-1 149:-1 150:1 151:1 152:1 153:-1 154:-1 155:1 156:1 157:1 164:1 165:1 166:1 167:1 168:-1 169:-1 170:1 171:1 172:-1 173:-1 174:1 175:1 176:1 177:1 184:1 185:1 186:1 187:1 188:-1 189:-1 190:-1 191:-1 192:-1 193:1 194:1 195:1 196:1 197:1 204:1 205:1 206:1 207:1 208:-1 209:-1 210:1 211:1 212:1 213:-1 214:-1 215:1 216:1 217:1 224:1 225:1 226:1 227:1 228:-1 229:-1 230:1 231:1 232:1 233:1 234:-1 235:-1 236:1 244:1 245:1 246:1 247:1 248:-1 249:-1 250:1 251:1 252:1 253:1 254:-1 255:-1 256:1 257:1 265:1 266:1 267:1 268:-1 269:-1 270:1 271:1 272:1 273:1 274:-1 275:-1 276:1 284:1 285:1 286:1 287:1 288:-1 289:-1 290:1 291:1 292:1 293:-1 294:-1 295:1 296:1 304:1 305:1 306:1 307:-1 308:-1 309:-1 310:-1 311:-1 312:-1 313:-1 314:1 315:1 316:1 317:1 324:1 325:1 326:1 327:1 328:1 329:1 330:1 331:-1 332:1 333:1 334:1 335:1 336:1 337:1 346:1 347:1 348:1 349:1 350:1 351:1 354:1 355:1 
-0.7819101956682102 0 0 0 0 0 15.83408045409243 5.776492897768556 0 0 6.801078564815353 0 0 4.118149314188541 0 0 0 0 0 0 0 10.48656022294814 0 0 0 0 0 0 0.3430337115423054 0 0 30:1 31:1 32:1 33:1 34:1 46:1 47:1 48:1 49:1 50:1 51:1 52:1 53:1 54:1 56:1 62:1 63:1 64:1 65:1 66:1 67:1 68:1 69:-1 70:1 71:-1 72:1 73:1 74:1 75:1 76:1 77:1 78:1 83:1 84:1 85:1 86:-1 87:-1 88:-1 89:-1 90:-1 91:-1 92:1 93:1 94:1 95:1 96:1 97:1 98:1 99:1 103:1 104:1 105:1 106:1 107:-1 108:-1 109:1 110:1 111:-1 112:-1 113:1 114:1 115:1 116:1 117:1 118:1 124:1 125:1 126:1 127:-1 128:-1 129:1 130:1 131:1 132:-1 133:-1 134:1 135:1 136:1 138:1 144:1 145:1 146:1 147:-1 148:-1 149:1 150:1 151:1 152:-1 153:-1 154:1 155:1 156:1 157:1 164:1 165:1 166:1 167:-1 168:-1 169:-1 170:1 171:1 172:-1 173:-1 174:1 175:1 176:1 177:1 184:1 185:1 186:1 187:-1 188:-1 189:1 190:1 191:-1 192:-1 193:1 194:1 195:1 196:1 197:1 204:1 205:1 206:1 207:-1 208:-1 209:-1 210:-1 211:-1 212:1 213:1 214:1 215:1 216:1 217:1 224:1 225:1 226:1 227:-1 228:-1 229:-1 230:1 231:1 232:-1 233:-1 234:1 235:1 236:1 244:1 245:1 246:1 247:-1 248:-1 249:1 250:1 251:1 252:1 253:-1 254:-1 255:1 256:1 257:1 265:1 266:1 267:-1 268:-1 269:1 270:1 271:1 272:1 273:-1 274:-1 275:1 276:1 284:1 285:1 286:1 287:-1 288:-1 289:1 290:1 291:1 292:-1 293:-1 294:-1 295:1 296:1 304:1 305:1 306:1 307:-1 308:-1 309:1 310:1 311:1 312:-1 313:-1 314:1 315:1 316:1 317:1 324:1 325:1 326:-1 327:-1 328:-1 329:-1 330:-1 331:-1 332:-1 333:1 334:1 335:1 336:1 337:1 346:1 347:1 348:1 349:1 350:1 351:1 354:1 355:1 
-29.5475227422049 5.044442433301488 7.132586188603779 14.29376328949201 7.71373682554616 19.35952551366146 5.756101952343447 70.83568680970781 3.094827756612339 17.21886348056485 20.26029118149272 0.8572133754398406 22.93192232358589 7.298179994180406 25.70531729280276 23.41007202516389 10.14445712927347 8.192185430269939 24.07649420348405 2.937042667211402 8.727257750029013 21.15409183525316 11.96115642938387 11.2930531238266 30.29542727835917 10.90115236413902 18.90583480552555 5.370564060935679 25.05542606610056 6.079236171845135 4.360096033115131 30:1 31:1 32:1 33:1 34:1 46:1 47:1 48:1 49:1 50:1 51:1 52:1 53:1 54:1 56:1 62:1 63:1 64:1 65:1 66:1 67:1 68:-1 69:1 70:1 71:1 72:1 73:1 74:1 75:1 76:1 77:1 78:1 83:1 84:1 85:1 86:-1 87:-1 88:-1 89:-1 90:-1 91:-1 92:1 93:1 94:1 95:1 96:1 97:1 98:1 99:1 103:1 104:1 105:1 106:1 107:-1 108:-1 109:1 110:1 111:-1 112:-1 113:1 114:1 115:1 116:1 117:1 118:1 124:1 125:1 126:1 127:-1 128:-1 129:1 130:1 131:1 132:-1 133:-1 134:1 135:1 136:1 138:1 144:1 145:1 146:1 147:-1 148:-1 149:1 150:1 151:1 152:-1 153:-1 154:1 155:1 156:1 157:1 164:1 165:1 166:1 167:-1 168:-1 169:1 170:1 171:1 172:-1 173:-1 174:1 175:1 176:1 177:1 184:1 185:1 186:1 187:-1 188:-1 189:1 190:1 191:-1 192:-1 193:1 194:1 195:1 196:1 197:1 204:1 205:1 206:1 207:-1 208:-1 209:-1 210:-1 211:-1 212:1 213:1 214:1 215:1 216:1 217:1 224:1 225:1 226:1 227:-1 228:-1 229:1 230:1 231:1 232:-1 233:-1 234:1 235:1 236:1 244:1 245:1 246:1 247:-1 248:-1 249:1 250:1 251:1 252:1 253:-1 254:-1 255:1 256:1 257:1 265:1 266:-1 267:-1 268:-1 269:1 270:1 271:1 272:1 273:-1 274:-1 275:1 276:1 284:1 285:1 286:1 287:-1 288:-1 289:1 290:1 291:1 292:1 293:-1 294:-1 295:1 296:1 304:1 305:1 306:1 307:-1 308:-1 309:1 310:1 311:1 312:-1 313:-1 314:1 315:1 316:1 317:1 324:1 325:1 326:-1 327:-1 328:-1 329:-1 330:-1 331:-1 332:-1 333:1 334:1 335:1 336:1 337:1 346:1 347:1 348:1 349:1 350:1 351:1 354:1 355:1 
-0 0 5.61250051179695 0 0 0 0 10.18430494743799 0 5.675547195776931 0 0 0 0 14.08194247219166 0 0 0 0 0.700551949108956 0 0 0 0 0 0 0 0 0 0 0 30:1 31:1 32:1 33:1 34:1 46:1 47:1 48:1 49:1 50:1 51:1 52:1 53:1 54:1 56:1 62:1 63:1 64:1 65:1 66:-1 67:-1 68:-1 69:-1 70:-1 71:-1 72:1 73:1 74:1 75:1 76:1 77:1 78:1 83:1 84:1 85:1 86:1 87:-1 88:-1 89:1 90:1 91:-1 92:-1 93:1 94:1 95:1 96:1 97:1 98:1 99:1 103:1 104:1 105:1 106:1 107:-1 108:-1 109:1 110:1 111:1 112:-1 113:-1 114:1 115:1 116:1 117:1 118:1 124:1 125:1 126:1 127:-1 128:-1 129:1 130:1 131:1 132:-1 133:-1 134:1 135:1 136:1 138:1 144:1 145:1 146:1 147:-1 148:-1 149:1 150:1 151:1 152:-1 153:-1 154:1 155:1 156:1 157:1 164:1 165:1 166:1 167:-1 168:-1 169:1 170:1 171:-1 172:-1 173:1 174:1 175:1 176:1 177:1 184:1 185:1 186:1 187:-1 188:-1 189:-1 190:-1 191:-1 192:1 193:1 194:1 195:1 196:1 197:1 204:1 205:1 206:-1 207:-1 208:-1 209:1 210:1 211:1 212:-1 213:-1 214:1 215:1 216:1 217:1 224:1 225:1 226:1 227:-1 228:-1 229:1 230:1 231:1 232:1 233:-1 234:-1 235:1 236:1 244:1 245:1 246:1 247:-1 248:-1 249:1 250:1 251:1 252:1 253:-1 254:-1 255:1 256:1 257:1 265:1 266:1 267:-1 268:-1 269:1 270:1 271:1 272:1 273:-1 274:-1 275:1 276:1 284:1 285:1 286:1 287:-1 288:-1 289:1 290:1 291:1 292:-1 293:-1 294:1 295:1 296:1 304:1 305:1 306:-1 307:-1 308:-1 309:-1 310:-1 311:-1 312:-1 313:1 314:1 315:1 316:1 317:1 324:1 325:1 326:1 327:1 328:1 329:1 330:1 331:1 332:1 333:1 334:1 335:1 336:1 337:1 346:1 347:1 348:1 349:1 350:1 351:1 354:1 355:1 
-0 0 0 0 0 0 0 41.27353827733769 25.41712735063092 0 0 0 0 0 3.605883285431009 0 0 0 0 14.53125795749125 0 37.26363212854646 0 15.66544932599964 0 0 0 0 0 0 0 30:1 31:1 32:1 33:1 34:1 46:1 47:1 48:1 49:1 50:1 51:1 52:1 53:1 54:1 56:1 62:1 63:1 64:1 65:1 66:-1 67:-1 68:-1 69:-1 70:-1 71:-1 72:-1 73:1 74:1 75:1 76:1 77:1 78:1 83:1 84:1 85:1 86:1 87:-1 88:-1 89:-1 90:1 91:-1 92:-1 93:1 94:1 95:1 96:1 97:1 98:1 99:1 103:1 104:1 105:1 106:1 107:-1 108:-1 109:1 110:1 111:1 112:-1 113:-1 114:1 115:1 116:1 117:1 118:1 124:1 125:1 126:1 127:-1 128:-1 129:1 130:1 131:1 132:-1 133:-1 134:1 135:1 136:1 138:1 144:1 145:1 146:1 147:-1 148:-1 149:1 150:1 151:1 152:-1 153:-1 154:1 155:1 156:1 157:1 164:1 165:1 166:1 167:-1 168:-1 169:-1 170:1 171:-1 172:-1 173:1 174:1 175:1 176:1 177:1 184:1 185:1 186:1 187:-1 188:-1 189:-1 190:-1 191:-1 192:1 193:1 194:1 195:1 196:1 197:1 204:1 205:1 206:1 207:-1 208:-1 209:1 210:1 211:1 212:-1 213:-1 214:1 215:1 216:1 217:1 224:1 225:1 226:1 227:-1 228:-1 229:1 230:1 231:1 232:1 233:-1 234:-1 235:1 236:1 244:1 245:1 246:1 247:-1 248:-1 249:1 250:1 251:1 252:1 253:-1 254:-1 255:1 256:1 257:1 265:1 266:1 267:-1 268:-1 269:1 270:1 271:1 272:1 273:-1 274:-1 275:1 276:1 284:1 285:1 286:1 287:-1 288:-1 289:1 290:1 291:1 292:-1 293:-1 294:1 295:1 296:1 304:1 305:1 306:-1 307:-1 308:-1 309:-1 310:-1 311:-1 312:-1 313:1 314:1 315:1 316:1 317:1 324:1 325:1 326:1 327:1 328:1 329:1 330:1 331:1 332:1 333:1 334:1 335:1 336:1 337:1 346:1 347:1 348:1 349:1 350:1 351:1 354:1 355:1 
-0 5.223681206490176 0 4.143376348200031 0 0 0 0 8.897560445871056 0 0 0 0 0 0 0 0 0 0 1.315867102189933 3.208588512754836 0 0 0 0 0 0 2.615396628838708 5.309707082785321 0 0 30:1 31:1 32:1 33:1 34:1 46:1 47:1 48:1 49:1 50:1 51:1 52:1 53:1 54:1 56:1 62:1 63:1 64:1 65:1 66:-1 67:-1 68:-1 69:-1 70:-1 71:-1 72:1 73:1 74:1 75:1 76:1 77:1 78:1 83:1 84:1 85:1 86:1 87:-1 88:-1 89:1 90:1 91:-1 92:-1 93:1 94:1 95:1 96:1 97:1 98:1 99:1 103:1 104:1 105:1 106:1 107:-1 108:-1 109:1 110:1 111:1 112:-1 113:-1 114:1 115:1 116:1 117:1 118:1 124:1 125:1 126:1 127:-1 128:-1 129:1 130:1 131:1 132:-1 133:-1 134:1 135:1 136:1 138:1 144:1 145:1 146:1 147:-1 148:-1 149:1 150:1 151:-1 152:-1 153:-1 154:1 155:1 156:1 157:1 164:1 165:1 166:1 167:-1 168:-1 169:1 170:1 171:-1 172:-1 173:1 174:1 175:1 176:1 177:1 184:1 185:1 186:1 187:-1 188:-1 189:-1 190:-1 191:-1 192:-1 193:1 194:1 195:1 196:1 197:1 204:1 205:1 206:1 207:-1 208:-1 209:1 210:1 211:1 212:-1 213:-1 214:1 215:1 216:1 217:1 224:1 225:1 226:1 227:-1 228:-1 229:1 230:1 231:1 232:1 233:-1 234:-1 235:1 236:1 244:1 245:1 246:1 247:-1 248:-1 249:1 250:1 251:1 252:1 253:-1 254:-1 255:1 256:1 257:1 265:1 266:1 267:-1 268:-1 269:1 270:1 271:1 272:1 273:-1 274:-1 275:1 276:1 284:1 285:1 286:1 287:-1 288:-1 289:1 290:1 291:1 292:-1 293:-1 294:1 295:1 296:1 304:1 305:1 306:-1 307:-1 308:-1 309:-1 310:-1 311:-1 312:-1 313:1 314:1 315:1 316:1 317:1 324:1 325:1 326:1 327:1 328:1 329:1 330:1 331:1 332:1 333:1 334:1 335:1 336:1 337:1 346:1 347:1 348:1 349:1 350:1 351:1 354:1 355:1 
-0.4061703638745069 0 0.5403863601600423 8.190501215250947 0 0 0.4559501714442776 0.5059855254046159 0 0.579063757618603 7.50437569416642 8.088370040900696 22.15159058300226 0 0.3777638477457991 0 17.30830662565571 19.10589076236903 0.2694338111316401 0.3795390473614511 0 0 0 0.3972101692422754 0 0 23.01561130625347 0 0 8.544834033466609 6.150866083048532 30:1 31:1 32:1 33:1 34:1 46:1 47:1 48:1 49:1 50:1 51:1 52:1 53:1 54:1 56:1 62:1 63:1 64:1 65:1 66:-1 67:-1 68:-1 69:-1 70:-1 71:-1 72:1 73:1 74:1 75:1 76:1 77:1 78:1 83:1 84:1 85:1 86:1 87:-1 88:-1 89:1 90:1 91:-1 92:-1 93:1 94:1 95:1 96:1 97:1 98:1 99:1 103:1 104:1 105:1 106:1 107:-1 108:-1 109:1 110:1 111:1 112:-1 113:-1 114:1 115:1 116:1 117:1 118:1 124:1 125:1 126:1 127:-1 128:-1 129:1 130:1 131:1 132:-1 133:-1 134:1 135:1 136:1 138:1 144:1 145:1 146:1 147:-1 148:-1 149:1 150:1 151:1 152:-1 153:-1 154:1 155:1 156:1 157:1 164:1 165:1 166:1 167:-1 168:-1 169:1 170:1 171:-1 172:-1 173:1 174:1 175:1 176:1 177:1 184:1 185:1 186:1 187:-1 188:-1 189:-1 190:-1 191:-1 192:1 193:1 194:1 195:1 196:1 197:1 204:1 205:1 206:-1 207:-1 208:-1 209:1 210:1 211:1 212:-1 213:-1 214:1 215:-1 216:1 217:1 224:1 225:1 226:1 227:-1 228:-1 229:1 230:1 231:1 232:1 233:-1 234:-1 235:1 236:1 244:1 245:1 246:1 247:-1 248:-1 249:1 250:1 251:1 252:1 253:-1 254:-1 255:1 256:1 257:1 265:1 266:1 267:-1 268:-1 269:1 270:1 271:1 272:1 273:-1 274:-1 275:1 276:1 284:1 285:1 286:1 287:-1 288:-1 289:1 290:1 291:1 292:-1 293:-1 294:1 295:1 296:1 304:1 305:1 306:-1 307:-1 308:-1 309:-1 310:-1 311:-1 312:-1 313:1 314:1 315:1 316:1 317:1 324:1 325:1 326:1 327:1 328:1 329:1 330:1 331:1 332:1 333:1 334:1 335:1 336:1 337:1 346:1 347:1 348:1 349:1 350:1 351:1 354:1 355:1 
-30.97506564435875 0.4058610912704562 7.21976869739685 0.5410366710249905 18.77162805903248 15.66250165480058 0.4067483009076531 0.4991032079858067 21.89109904094111 10.90496653715386 0.6248159888181021 15.55803496040917 8.423998934788388 0.4097567765086829 0.3857726400332598 0.6288913642447676 3.720575260968526 11.0917513442233 0.884839065587456 50.33695167199677 19.99326086581334 0.4464727167133343 15.13001118625323 42.27745293017633 53.2671343488114 17.98945234718122 10.29324581435831 0.437967615215818 0.3497353525533147 13.12763405657345 5.372183015992333 30:1 31:1 32:1 33:1 34:1 46:1 47:1 48:1 49:1 50:1 51:1 52:1 53:1 54:1 56:1 62:1 63:1 64:1 65:1 66:-1 67:1 68:1 69:1 70:1 71:1 72:1 73:1 74:1 75:1 76:1 77:1 78:1 83:1 84:1 85:1 86:1 87:-1 88:-1 89:-1 90:-1 91:-1 92:-1 93:1 94:-1 95:1 96:1 97:1 98:1 99:1 103:1 104:1 105:1 106:1 107:1 108:-1 109:-1 110:1 111:1 112:-1 113:-1 114:1 115:1 116:1 117:1 118:1 124:1 125:1 126:1 127:1 128:-1 129:-1 130:1 131:1 132:1 133:-1 134:-1 135:1 136:1 138:1 144:1 145:1 146:1 147:1 148:-1 149:-1 150:1 151:1 152:1 153:-1 154:-1 155:1 156:1 157:1 164:1 165:1 166:1 167:1 168:-1 169:-1 170:1 171:1 172:1 173:-1 174:-1 175:1 176:1 177:1 184:1 185:1 186:1 187:1 188:-1 189:-1 190:1 191:1 192:-1 193:-1 194:1 195:1 196:1 197:1 204:1 205:1 206:1 207:1 208:-1 209:-1 210:-1 211:-1 212:-1 213:1 214:1 215:1 216:1 217:1 224:1 225:1 226:1 227:1 228:-1 229:-1 230:1 231:1 232:1 233:-1 234:-1 235:1 236:1 244:1 245:1 246:1 247:1 248:-1 249:-1 250:1 251:1 252:1 253:1 254:-1 255:-1 256:1 257:1 265:1 266:1 267:1 268:-1 269:-1 270:1 271:1 272:1 273:1 274:-1 275:-1 276:1 284:1 285:1 286:1 287:1 288:-1 289:-1 290:1 291:1 292:1 293:1 294:-1 295:-1 296:1 304:1 305:1 306:1 307:1 308:-1 309:-1 310:1 311:1 312:1 313:-1 314:-1 315:1 316:1 317:1 324:1 325:1 326:1 327:-1 328:-1 329:-1 330:-1 331:-1 332:-1 333:-1 334:1 335:1 336:1 337:1 346:1 347:1 348:1 349:1 350:1 351:1 354:1 355:1 
-0 14.0061400077371 13.43336414478969 0 4.13016981367127 0 0 0 22.00067880273357 0 0 6.015449270095079 0 8.162863600714985 0 47.17823506425507 2.073855205963822 5.881989717334498 1.976608252052068 49.553111613932 10.0459812950724 0 0 9.443850588198341 17.36359725080851 4.531979519517825 0 0 0 6.048492183126232 0 30:1 31:1 32:1 33:1 34:1 46:1 47:1 48:1 49:1 50:1 51:1 52:1 53:1 54:1 56:1 62:1 63:1 64:1 65:1 66:-1 67:1 68:1 69:1 70:1 71:1 72:1 73:1 74:1 75:1 76:1 77:1 78:1 83:1 84:1 85:1 86:-1 87:-1 88:-1 89:-1 90:-1 91:-1 92:1 93:-1 94:1 95:1 96:1 97:1 98:1 99:1 103:1 104:1 105:1 106:1 107:-1 108:-1 109:1 110:1 111:-1 112:-1 113:1 114:1 115:1 116:1 117:1 118:1 124:1 125:1 126:1 127:-1 128:-1 129:1 130:1 131:1 132:-1 133:-1 134:1 135:1 136:1 138:1 144:1 145:1 146:1 147:-1 148:-1 149:1 150:1 151:1 152:-1 153:-1 154:1 155:1 156:1 157:1 164:1 165:1 166:1 167:-1 168:-1 169:1 170:1 171:1 172:-1 173:-1 174:1 175:1 176:1 177:1 184:1 185:1 186:1 187:-1 188:-1 189:1 190:1 191:-1 192:-1 193:1 194:1 195:1 196:1 197:1 204:1 205:1 206:1 207:-1 208:-1 209:-1 210:-1 211:-1 212:1 213:1 214:1 215:1 216:1 217:1 224:1 225:1 226:1 227:-1 228:-1 229:1 230:1 231:1 232:-1 233:-1 234:1 235:1 236:1 244:1 245:1 246:1 247:-1 248:-1 249:1 250:1 251:1 252:1 253:-1 254:-1 255:1 256:1 257:1 265:1 266:1 267:-1 268:-1 269:1 270:1 271:1 272:1 273:-1 274:-1 275:1 276:1 284:1 285:1 286:1 287:-1 288:-1 289:1 290:1 291:1 292:1 293:-1 294:-1 295:1 296:1 304:1 305:1 306:1 307:-1 308:-1 309:1 310:1 311:1 312:-1 313:-1 314:1 315:1 316:1 317:1 324:1 325:1 326:-1 327:-1 328:-1 329:-1 330:-1 331:-1 332:-1 333:1 334:1 335:1 336:1 337:1 346:1 347:1 348:1 349:1 350:1 351:1 354:1 355:1 
-0 0 0 0 18.16367591876903 18.76020943643475 0 0 0 0 0 0 0 0 0 0 0 0 0 0 11.91002976601155 0 5.838954590297905 0 0 24.94563285645912 0 0 0 5.528873485440845 7.387435949111469 30:1 31:1 32:1 33:1 34:1 46:1 47:1 48:1 49:1 50:1 51:1 52:1 53:1 54:1 56:1 62:1 63:1 64:1 65:1 66:-1 67:-1 68:-1 69:-1 70:-1 71:-1 72:1 73:1 74:1 75:1 76:1 77:1 78:1 83:1 84:1 85:1 86:-1 87:-1 88:-1 89:1 90:1 91:-1 92:-1 93:1 94:1 95:1 96:1 97:1 98:1 99:1 103:1 104:1 105:1 106:1 107:-1 108:-1 109:1 110:1 111:1 112:-1 113:-1 114:1 115:1 116:1 117:1 118:1 124:1 125:1 126:1 127:-1 128:-1 129:1 130:1 131:1 132:-1 133:-1 134:1 135:1 136:1 138:1 144:1 145:1 146:1 147:-1 148:-1 149:1 150:1 151:1 152:-1 153:-1 154:1 155:1 156:1 157:1 164:1 165:1 166:1 167:-1 168:-1 169:1 170:1 171:-1 172:-1 173:1 174:1 175:1 176:1 177:1 184:1 185:1 186:1 187:-1 188:-1 189:-1 190:-1 191:-1 192:1 193:1 194:1 195:1 196:1 197:1 204:1 205:1 206:1 207:-1 208:-1 209:1 210:1 211:1 212:-1 213:-1 214:1 215:1 216:1 217:1 224:1 225:1 226:1 227:-1 228:-1 229:1 230:1 231:1 232:1 233:-1 234:-1 235:1 236:1 244:1 245:1 246:1 247:-1 248:-1 249:1 250:1 251:1 252:1 253:-1 254:-1 255:1 256:1 257:1 265:1 266:1 267:-1 268:-1 269:1 270:1 271:1 272:1 273:-1 274:-1 275:1 276:1 284:1 285:1 286:1 287:-1 288:-1 289:1 290:1 291:1 292:-1 293:-1 294:1 295:1 296:1 304:1 305:1 306:-1 307:-1 308:-1 309:-1 310:-1 311:-1 312:-1 313:1 314:1 315:1 316:1 317:1 324:1 325:1 326:1 327:1 328:1 329:1 330:1 331:1 332:1 333:1 334:1 335:1 336:1 337:1 346:1 347:1 348:1 349:1 350:1 351:1 354:1 355:1 
-0.428126546889397 0 6.677175387275215 0 0 0 0.4116992378514514 8.597142360890892 0 6.45042303072478 0 0 2.45379026462598 11.4177173488345 14.49782955223381 0 0 0 0.8828339763032114 0.9857439807231321 0 0 0 0.3540858433759574 0 0 0.2704031074981301 0 0 0 0 30:1 31:1 32:1 33:1 34:1 46:1 47:1 48:1 49:1 50:1 51:1 52:1 53:1 54:1 56:1 62:1 63:1 64:1 65:1 66:-1 67:-1 68:-1 69:-1 70:-1 71:-1 72:1 73:1 74:1 75:1 76:1 77:1 78:1 83:1 84:1 85:1 86:1 87:-1 88:-1 89:1 90:1 91:-1 92:-1 93:1 94:1 95:1 96:1 97:1 98:1 99:1 103:1 104:1 105:1 106:1 107:-1 108:-1 109:1 110:1 111:1 112:-1 113:-1 114:1 115:1 116:1 117:1 118:1 124:1 125:1 126:1 127:-1 128:-1 129:1 130:1 131:1 132:-1 133:-1 134:1 135:1 136:1 138:1 144:1 145:1 146:1 147:-1 148:-1 149:1 150:1 151:1 152:-1 153:-1 154:1 155:1 156:1 157:1 164:1 165:1 166:1 167:-1 168:-1 169:1 170:1 171:-1 172:-1 173:1 174:1 175:1 176:1 177:1 184:1 185:1 186:1 187:-1 188:-1 189:-1 190:-1 191:-1 192:1 193:1 194:1 195:1 196:1 197:1 204:1 205:1 206:1 207:-1 208:-1 209:1 210:1 211:1 212:-1 213:-1 214:1 215:1 216:1 217:1 224:1 225:1 226:-1 227:-1 228:-1 229:1 230:1 231:1 232:1 233:-1 234:-1 235:1 236:1 244:1 245:1 246:1 247:-1 248:-1 249:1 250:1 251:1 252:1 253:-1 254:-1 255:1 256:1 257:1 265:1 266:1 267:-1 268:-1 269:1 270:1 271:1 272:1 273:-1 274:-1 275:1 276:1 284:1 285:1 286:1 287:-1 288:-1 289:1 290:1 291:1 292:-1 293:-1 294:1 295:1 296:1 304:1 305:1 306:-1 307:-1 308:-1 309:-1 310:-1 311:-1 312:-1 313:1 314:1 315:1 316:1 317:1 324:1 325:1 326:1 327:1 328:1 329:1 330:1 331:1 332:1 333:1 334:1 335:1 336:1 337:1 346:1 347:1 348:1 349:1 350:1 351:1 354:1 355:1 
-27.85940654392198 0 2.852535916279296 4.517196046223614 13.17423521388487 10.62050300829805 35.007518389891 59.0827657328478 14.75511780291096 9.432311271282487 23.139187636642 12.27235494491347 19.0908011409852 9.662340961382371 0 24.22499279566824 13.85051516535512 15.51741302210466 30.4086490204951 53.27918067905989 23.09390426652436 22.24196025579963 18.20926269453335 42.83006201058205 49.0976359852207 21.68826559462338 19.20169571352761 12.62861254333252 14.57405926383636 13.11800267537799 14.29219167460036 30:1 31:1 32:1 33:1 34:1 46:1 47:1 48:1 49:1 50:1 51:1 52:1 53:1 54:1 56:1 62:1 63:1 64:1 65:1 66:-1 67:-1 68:-1 69:-1 70:-1 71:-1 72:-1 73:1 74:1 75:1 76:1 77:1 78:1 83:1 84:1 85:1 86:1 87:1 88:-1 89:-1 90:1 91:1 92:-1 93:-1 94:1 95:1 96:1 97:1 98:1 99:1 103:1 104:1 105:1 106:1 107:1 108:-1 109:-1 110:1 111:1 112:1 113:-1 114:-1 115:1 116:1 117:1 118:1 124:1 125:1 126:1 127:1 128:-1 129:-1 130:1 131:1 132:1 133:-1 134:-1 135:1 136:1 138:1 144:1 145:1 146:1 147:1 148:-1 149:-1 150:1 151:1 152:1 153:-1 154:-1 155:1 156:1 157:1 164:1 165:1 166:1 167:1 168:-1 169:-1 170:1 171:1 172:-1 173:-1 174:1 175:1 176:1 177:1 184:1 185:1 186:1 187:1 188:-1 189:-1 190:-1 191:-1 192:-1 193:1 194:1 195:1 196:1 197:1 204:1 205:1 206:1 207:1 208:-1 209:-1 210:1 211:1 212:1 213:-1 214:-1 215:1 216:1 217:1 224:1 225:1 226:1 227:1 228:-1 229:-1 230:1 231:1 232:1 233:1 234:-1 235:-1 236:1 244:1 245:1 246:1 247:1 248:-1 249:-1 250:1 251:1 252:1 253:1 254:-1 255:-1 256:1 257:1 265:1 266:1 267:1 268:-1 269:-1 270:1 271:1 272:1 273:1 274:-1 275:-1 276:1 284:1 285:1 286:1 287:1 288:-1 289:-1 290:1 291:1 292:1 293:-1 294:-1 295:1 296:1 304:1 305:1 306:1 307:-1 308:-1 309:-1 310:-1 311:-1 312:-1 313:-1 314:1 315:1 316:1 317:1 324:1 325:1 326:1 327:1 328:1 329:1 330:1 331:1 332:1 333:1 334:1 335:1 336:1 337:1 346:1 347:1 348:1 349:1 350:1 351:1 354:1 355:1 
-0 8.89188608240722 0 9.545790340403025 0 0 9.840763193499935 40.04292902106021 0 0 20.76015909497786 0 0 13.21231205236346 9.81377871766748 6.455528543481403 0 0 37.66017729066518 0 0 17.53235721837061 0 0 0 0 0 3.710834814267094 20.72703191709661 0 0 30:1 31:1 32:1 33:1 34:1 46:1 47:1 48:1 49:1 50:1 51:1 52:1 53:1 54:1 56:1 62:1 63:1 64:1 65:1 66:-1 67:1 68:1 69:1 70:1 71:1 72:1 73:1 74:1 75:1 76:1 77:1 78:1 83:1 84:1 85:1 86:1 87:-1 88:-1 89:-1 90:-1 91:-1 92:-1 93:1 94:1 95:1 96:1 97:1 98:1 99:1 103:1 104:1 105:1 106:1 107:1 108:-1 109:-1 110:1 111:1 112:-1 113:-1 114:1 115:1 116:1 117:1 118:1 124:1 125:1 126:1 127:1 128:-1 129:-1 130:1 131:1 132:1 133:-1 134:-1 135:1 136:1 138:1 144:1 145:1 146:1 147:1 148:-1 149:-1 150:1 151:1 152:1 153:-1 154:-1 155:1 156:1 157:1 164:1 165:1 166:1 167:1 168:-1 169:-1 170:1 171:1 172:1 173:-1 174:-1 175:1 176:1 177:1 184:1 185:1 186:1 187:1 188:-1 189:-1 190:1 191:1 192:-1 193:-1 194:1 195:1 196:1 197:1 204:1 205:1 206:1 207:1 208:-1 209:-1 210:-1 211:-1 212:-1 213:1 214:1 215:1 216:1 217:1 224:1 225:1 226:1 227:1 228:-1 229:-1 230:1 231:1 232:1 233:-1 234:-1 235:1 236:1 244:1 245:1 246:1 247:1 248:-1 249:-1 250:1 251:1 252:1 253:1 254:-1 255:-1 256:1 257:1 265:1 266:1 267:1 268:-1 269:-1 270:1 271:1 272:1 273:1 274:-1 275:-1 276:1 284:1 285:1 286:1 287:1 288:-1 289:-1 290:1 291:1 292:1 293:1 294:-1 295:-1 296:1 304:1 305:1 306:1 307:1 308:-1 309:-1 310:1 311:1 312:1 313:-1 314:-1 315:1 316:1 317:1 324:1 325:1 326:1 327:-1 328:-1 329:-1 330:-1 331:-1 332:-1 333:-1 334:1 335:1 336:1 337:1 346:1 347:1 348:1 349:1 350:1 351:1 354:1 355:1 
-0 0 0 0 0 0 0.5030579348842411 0 3.875873232152961 0 0 0 0 0 0 0 0 0 0 0 0 0 0 0 0 0 0 0 0 0 0 30:1 31:1 32:1 33:1 34:1 46:1 47:1 48:1 49:1 50:1 51:1 52:1 53:1 54:1 56:1 62:1 63:1 64:1 65:1 66:-1 67:-1 68:-1 69:-1 70:-1 71:-1 72:1 73:1 74:1 75:1 76:1 77:1 78:1 83:1 84:1 85:1 86:1 87:-1 88:-1 89:1 90:1 91:-1 92:-1 93:1 94:1 95:1 96:1 97:1 98:1 99:1 103:1 104:1 105:1 106:1 107:-1 108:-1 109:1 110:1 111:1 112:-1 113:-1 114:1 115:1 116:1 117:1 118:1 124:1 125:1 126:1 127:-1 128:-1 129:1 130:1 131:1 132:-1 133:-1 134:1 135:1 136:1 138:1 144:1 145:1 146:1 147:-1 148:-1 149:1 150:1 151:1 152:-1 153:-1 154:1 155:1 156:1 157:1 164:1 165:1 166:1 167:-1 168:-1 169:1 170:1 171:-1 172:-1 173:1 174:1 175:1 176:1 177:1 184:1 185:1 186:1 187:-1 188:-1 189:-1 190:-1 191:-1 192:1 193:1 194:1 195:1 196:1 197:1 204:1 205:1 206:1 207:-1 208:-1 209:1 210:1 211:1 212:-1 213:-1 214:1 215:1 216:1 217:1 224:1 225:1 226:1 227:-1 228:-1 229:1 230:1 231:1 232:1 233:-1 234:-1 235:1 236:1 244:1 245:1 246:1 247:-1 248:-1 249:1 250:1 251:1 252:1 253:-1 254:-1 255:1 256:1 257:1 265:1 266:1 267:-1 268:-1 269:1 270:1 271:1 272:1 273:-1 274:-1 275:1 276:1 284:1 285:1 286:1 287:-1 288:-1 289:1 290:1 291:1 292:-1 293:-1 294:1 295:1 296:1 304:1 305:1 306:-1 307:-1 308:-1 309:-1 310:-1 311:-1 312:-1 313:1 314:1 315:1 316:1 317:1 324:1 325:1 326:1 327:1 328:-1 329:1 330:1 331:1 332:1 333:1 334:1 335:1 336:1 337:1 346:1 347:1 348:1 349:1 350:1 351:1 354:1 355:1 
-5.673936689539731 0 0 0 0 0 48.39990258164426 0 0 0 0 0 0 0 0 0 0 0 33.51554325348043 12.69232404386986 0 0 0 2.262673041897241 0 0 0 0 0 0 0 30:1 31:1 32:1 33:1 34:1 46:1 47:1 48:1 49:1 50:1 51:1 52:1 53:1 54:1 56:1 62:1 63:1 64:1 65:1 66:-1 67:-1 68:-1 69:-1 70:-1 71:-1 72:1 73:1 74:1 75:1 76:1 77:1 78:1 83:1 84:1 85:1 86:1 87:-1 88:-1 89:1 90:1 91:-1 92:-1 93:1 94:1 95:1 96:1 97:1 98:1 99:1 103:1 104:1 105:1 106:1 107:-1 108:-1 109:1 110:1 111:1 112:-1 113:-1 114:1 115:1 116:1 117:1 118:1 124:1 125:1 126:1 127:-1 128:-1 129:1 130:1 131:1 132:-1 133:-1 134:1 135:1 136:1 138:1 144:1 145:1 146:1 147:-1 148:-1 149:1 150:1 151:1 152:-1 153:-1 154:1 155:1 156:1 157:1 164:1 165:1 166:1 167:-1 168:-1 169:1 170:1 171:-1 172:-1 173:1 174:1 175:1 176:1 177:1 184:1 185:1 186:1 187:-1 188:-1 189:-1 190:-1 191:-1 192:1 193:1 194:1 195:1 196:1 197:1 204:1 205:1 206:1 207:-1 208:-1 209:1 210:1 211:1 212:-1 213:-1 214:1 215:1 216:1 217:1 224:1 225:1 226:1 227:-1 228:-1 229:1 230:1 231:1 232:1 233:-1 234:-1 235:1 236:1 244:1 245:1 246:1 247:-1 248:-1 249:1 250:1 251:1 252:1 253:-1 254:-1 255:1 256:1 257:1 265:1 266:1 267:-1 268:-1 269:1 270:1 271:1 272:1 273:-1 274:-1 275:1 276:1 284:1 285:1 286:1 287:-1 288:-1 289:1 290:1 291:1 292:-1 293:-1 294:1 295:1 296:1 304:1 305:1 306:-1 307:-1 308:-1 309:-1 310:-1 311:-1 312:-1 313:1 314:1 315:1 316:1 317:1 324:1 325:1 326:1 327:1 328:1 329:1 330:1 331:1 332:1 333:1 334:1 335:1 336:1 337:1 346:1 347:1 348:1 349:1 350:1 351:1 354:1 355:1 
-18.69730101020896 11.37632774082574 0 0 0 0 11.09801357508269 4.654401983320026 5.127113421777592 0 35.61256194977722 0 0 11.54377969860932 0 57.25436707056246 0 2.902338320462576 0 24.94260626437735 3.693885999399288 9.577240731161096 9.812922544185122 25.99107842845169 58.73451606593334 0 0 11.46116254711919 14.11270700141798 0 0 30:1 31:1 32:1 33:1 34:1 46:1 47:1 48:1 49:1 50:1 51:1 52:1 53:1 54:1 56:1 62:1 63:1 64:1 65:1 66:-1 67:-1 68:-1 69:-1 70:-1 71:-1 72:1 73:1 74:1 75:1 76:1 77:1 78:1 83:1 84:1 85:1 86:1 87:-1 88:-1 89:1 90:1 91:-1 92:-1 93:1 94:1 95:1 96:1 97:1 98:1 99:1 103:1 104:1 105:1 106:1 107:-1 108:-1 109:1 110:1 111:1 112:-1 113:-1 114:1 115:1 116:1 117:1 118:1 124:1 125:1 126:1 127:-1 128:-1 129:1 130:1 131:1 132:-1 133:-1 134:1 135:1 136:1 138:1 144:1 145:1 146:1 147:-1 148:-1 149:1 150:1 151:1 152:-1 153:-1 154:1 155:1 156:1 157:1 164:1 165:1 166:1 167:-1 168:-1 169:1 170:1 171:-1 172:-1 173:1 174:1 175:1 176:1 177:1 184:1 185:1 186:1 187:-1 188:-1 189:-1 190:-1 191:-1 192:1 193:-1 194:1 195:1 196:1 197:1 204:1 205:1 206:1 207:-1 208:-1 209:1 210:1 211:1 212:-1 213:-1 214:1 215:1 216:1 217:1 224:1 225:1 226:1 227:-1 228:-1 229:1 230:1 231:-1 232:1 233:-1 234:-1 235:1 236:1 244:1 245:1 246:1 247:-1 248:-1 249:1 250:1 251:1 252:1 253:-1 254:-1 255:1 256:1 257:1 265:1 266:1 267:-1 268:-1 269:1 270:1 271:1 272:1 273:-1 274:-1 275:1 276:1 284:1 285:1 286:1 287:-1 288:-1 289:1 290:1 291:1 292:-1 293:-1 294:1 295:1 296:1 304:1 305:1 306:-1 307:-1 308:-1 309:-1 310:-1 311:-1 312:-1 313:1 314:1 315:1 316:1 317:1 324:1 325:1 326:1 327:1 328:1 329:1 330:1 331:1 332:1 333:1 334:1 335:1 336:1 337:1 346:1 347:1 348:1 349:1 350:1 351:1 354:1 355:1 
-41.21839341058752 -24.74677198943311 11.59425914595342 11.44101772079531 21.35603074382382 14.73162811585129 57.47632577285945 26.6748078125426 43.62095073123056 18.07327867993905 36.54447963274156 10.58113166138393 17.62530866747842 29.68437818283557 23.29697126026405 18.5722938228459 17.58030239673369 16.4968689984875 18.92931123430073 22.65357543576758 25.89130054527728 29.12497937376699 20.29623468050131 23.58796132897048 27.10365626150255 23.95601681966648 21.71801570060591 8.705929056469662 18.77040307627607 15.45078538828239 15.43235736204601 30:1 31:-1 32:-1 33:-1 34:-1 46:1 47:1 48:1 49:1 50:1 51:1 52:-1 53:-1 54:1 56:1 62:1 63:1 64:1 65:1 66:1 67:1 68:1 69:1 70:1 71:1 72:-1 73:-1 74:1 75:1 76:1 77:1 78:1 83:1 84:1 85:1 86:1 87:1 88:1 89:1 90:1 91:1 92:-1 93:-1 94:1 95:1 96:1 97:1 98:1 99:1 103:1 104:1 105:1 106:1 107:1 108:1 109:1 110:1 111:1 112:-1 113:-1 114:1 115:1 116:1 117:1 118:1 124:1 125:1 126:1 127:1 128:1 129:1 130:1 131:1 132:-1 133:-1 134:1 135:1 136:1 138:1 144:1 145:1 146:1 147:1 148:1 149:1 150:1 151:1 152:-1 153:-1 154:1 155:1 156:1 157:1 164:1 165:1 166:1 167:1 168:1 169:1 170:1 171:1 172:-1 173:-1 174:1 175:1 176:1 177:1 184:1 185:1 186:1 187:1 188:1 189:1 190:1 191:1 192:-1 193:-1 194:1 195:1 196:1 197:1 204:1 205:1 206:1 207:1 208:1 209:1 210:1 211:1 212:-1 213:-1 214:-1 215:1 216:1 217:1 224:1 225:1 226:1 227:1 228:1 229:1 230:1 231:1 232:-1 233:-1 234:1 235:1 236:1 244:1 245:1 246:1 247:1 248:1 249:1 250:1 251:1 252:-1 253:-1 254:1 255:1 256:1 257:1 265:1 266:1 267:1 268:1 269:1 270:1 271:1 272:-1 273:-1 274:1 275:1 276:1 284:1 285:1 286:1 287:1 288:1 289:1 290:1 291:1 292:-1 293:-1 294:1 295:1 296:1 304:1 305:1 306:1 307:-1 308:-1 309:1 310:1 311:-1 312:-1 313:1 314:1 315:1 316:1 317:1 324:1 325:1 326:1 327:1 328:-1 329:-1 330:-1 331:-1 332:1 333:1 334:1 335:1 336:1 337:1 346:1 347:1 348:1 349:1 350:1 351:-1 354:1 355:1 
-0.03073714815726273 -0.5777880596756039 14.20544570061223 11.62274430086496 0.9466098977405308 0.8668051990368881 0.8899504133204076 0.5996461769571295 0.6575161907722924 0.5396211130829713 0.7406995999490014 1.071284447382927 0.6388921991938006 0 0.6141627954062521 0.8012986148840926 0.5589808173781083 0.8079789156217798 0.5928755464377346 0.5943251768643203 0.5128602049170068 0.537921668621099 29.54919365271574 0.5272373223692095 16.63884378167318 0.5718985500463165 0.7106347998364873 28.1154217067029 17.28254789480969 1.030297268994576 0.6831502536941683 30:1 31:1 32:1 33:1 34:1 46:1 47:1 48:1 49:1 50:-1 51:-1 52:-1 53:-1 54:1 56:1 62:1 63:1 64:1 65:1 66:1 67:1 68:1 69:1 70:1 71:-1 72:-1 73:1 74:1 75:1 76:1 77:1 78:1 83:1 84:1 85:1 86:1 87:1 88:1 89:1 90:1 91:-1 92:-1 93:1 94:1 95:1 96:1 97:1 98:1 99:1 103:1 104:1 105:1 106:1 107:1 108:1 109:1 110:1 111:-1 112:-1 113:1 114:1 115:1 116:1 117:1 118:1 124:1 125:1 126:1 127:1 128:1 129:1 130:-1 131:-1 132:-1 133:1 134:1 135:1 136:1 138:1 144:1 145:1 146:1 147:1 148:1 149:1 150:1 151:-1 152:-1 153:1 154:1 155:1 156:1 157:1 164:1 165:1 166:1 167:1 168:1 169:1 170:1 171:-1 172:-1 173:1 174:1 175:1 176:1 177:1 184:1 185:1 186:1 187:1 188:1 189:1 190:1 191:-1 192:-1 193:1 194:1 195:1 196:1 197:1 204:1 205:1 206:1 207:1 208:1 209:1 210:1 211:-1 212:-1 213:1 214:1 215:1 216:1 217:1 224:1 225:1 226:1 227:1 228:1 229:1 230:1 231:-1 232:-1 233:1 234:1 235:1 236:1 244:1 245:1 246:1 247:1 248:1 249:1 250:1 251:-1 252:-1 253:1 254:1 255:1 256:1 257:1 265:1 266:1 267:1 268:1 269:1 270:1 271:-1 272:-1 273:1 274:1 275:1 276:1 284:1 285:1 286:1 287:1 288:1 289:1 290:1 291:-1 292:-1 293:1 294:1 295:1 296:1 304:1 305:1 306:1 307:1 308:1 309:1 310:1 311:-1 312:-1 313:1 314:1 315:1 316:1 317:1 324:1 325:1 326:1 327:-1 328:1 329:1 330:-1 331:-1 332:1 333:1 334:1 335:1 336:1 337:1 346:1 347:-1 348:-1 349:-1 350:-1 351:1 354:1 355:1 
-0 -3.401255090494173 1.062712991499179 3.567571612998136 9.905544710180596 0 0 10.20676680932844 17.41017607330419 0 4.258195691001874 6.831749742585656 0 41.8714997072675 7.270857639635762 0 0 0 0 0 3.590043203293404 13.4615344455284 5.780666962466748 0 0 0 1.972773960817477 9.997026454886045 13.25036214662291 0 0 30:1 31:1 32:1 33:1 34:1 46:1 47:1 48:1 49:1 50:-1 51:-1 52:-1 53:-1 54:1 56:1 62:1 63:1 64:1 65:1 66:1 67:1 68:1 69:1 70:1 71:-1 72:-1 73:1 74:1 75:1 76:1 77:1 78:1 83:1 84:1 85:1 86:1 87:1 88:1 89:1 90:1 91:-1 92:-1 93:1 94:1 95:1 96:1 97:1 98:1 99:1 103:1 104:1 105:1 106:1 107:1 108:1 109:1 110:1 111:-1 112:-1 113:1 114:1 115:1 116:1 117:1 118:1 124:1 125:1 126:1 127:1 128:1 129:1 130:1 131:-1 132:-1 133:1 134:1 135:1 136:1 138:1 144:1 145:1 146:1 147:1 148:1 149:1 150:1 151:-1 152:-1 153:1 154:1 155:1 156:1 157:1 164:1 165:1 166:1 167:1 168:1 169:1 170:1 171:-1 172:-1 173:1 174:1 175:1 176:1 177:1 184:1 185:1 186:1 187:1 188:1 189:1 190:1 191:-1 192:-1 193:1 194:1 195:1 196:1 197:1 204:1 205:1 206:1 207:1 208:1 209:1 210:1 211:-1 212:-1 213:1 214:1 215:1 216:1 217:1 224:1 225:1 226:1 227:1 228:1 229:1 230:1 231:-1 232:-1 233:-1 234:1 235:1 236:1 244:1 245:1 246:1 247:1 248:1 249:1 250:-1 251:-1 252:-1 253:1 254:1 255:1 256:1 257:1 265:1 266:1 267:1 268:1 269:1 270:1 271:-1 272:-1 273:1 274:1 275:1 276:1 284:1 285:1 286:1 287:1 288:1 289:1 290:1 291:-1 292:-1 293:1 294:1 295:1 296:1 304:1 305:1 306:1 307:1 308:1 309:1 310:1 311:-1 312:-1 313:1 314:1 315:1 316:1 317:1 324:1 325:1 326:1 327:-1 328:1 329:1 330:-1 331:-1 332:1 333:1 334:1 335:1 336:1 337:1 346:1 347:-1 348:-1 349:-1 350:-1 351:1 354:1 355:1 
-0.5890744128599003 -0.6042370104263113 0 0 0.6402352590277838 0.5732821814308705 0.8899504133208874 0.9183516758666896 0.6735057601287012 0.9561367119806241 1.060463830210112 0.9002063691482261 0.986045268463797 0 0.5319318130744981 0.6116052360981019 0.9787488107432264 0.6476667521644366 0.9732379122245601 0.5756262804144653 0.7181424103950407 0.6427673740533325 0.5791176866815389 0.5541978441252113 0.6365528936719893 0.5418873368892818 0.5578245151914294 0 0 0.6428647487883209 0.5341643079217321 30:-1 31:1 32:1 33:1 34:1 46:1 47:1 48:1 49:1 50:-1 51:-1 52:-1 53:-1 54:1 56:1 62:1 63:1 64:1 65:1 66:1 67:1 68:1 69:1 70:1 71:-1 72:-1 73:1 74:1 75:1 76:1 77:1 78:1 83:1 84:1 85:1 86:1 87:1 88:1 89:1 90:1 91:-1 92:-1 93:1 94:1 95:1 96:1 97:1 98:1 99:1 103:1 104:1 105:1 106:1 107:1 108:1 109:1 110:1 111:-1 112:-1 113:1 114:1 115:1 116:1 117:1 118:1 124:1 125:1 126:1 127:1 128:1 129:1 130:1 131:-1 132:-1 133:1 134:1 135:1 136:1 138:1 144:1 145:1 146:1 147:1 148:1 149:1 150:1 151:-1 152:-1 153:1 154:1 155:1 156:1 157:1 164:1 165:1 166:1 167:1 168:1 169:1 170:1 171:-1 172:-1 173:1 174:1 175:1 176:1 177:1 184:1 185:1 186:1 187:1 188:1 189:1 190:1 191:-1 192:-1 193:1 194:1 195:1 196:1 197:1 204:1 205:1 206:1 207:1 208:1 209:1 210:1 211:-1 212:-1 213:1 214:1 215:1 216:1 217:1 224:1 225:1 226:1 227:1 228:1 229:1 230:1 231:-1 232:-1 233:1 234:1 235:1 236:1 244:1 245:1 246:1 247:1 248:1 249:1 250:1 251:-1 252:-1 253:1 254:1 255:1 256:1 257:1 265:1 266:1 267:1 268:1 269:1 270:1 271:-1 272:-1 273:1 274:1 275:1 276:1 284:1 285:1 286:1 287:1 288:1 289:1 290:1 291:-1 292:-1 293:1 294:1 295:1 296:1 304:1 305:1 306:1 307:1 308:1 309:1 310:1 311:-1 312:-1 313:1 314:1 315:1 316:1 317:1 324:1 325:1 326:1 327:-1 328:1 329:1 330:-1 331:-1 332:1 333:1 334:1 335:1 336:1 337:1 346:1 347:-1 348:-1 349:-1 350:-1 351:1 354:1 355:1 
-42.25397550572139 -12.62381339362816 0 0 12.69142266641596 19.16587911244244 47.35721891751904 8.363829916116593 15.98943383921566 20.48242666755686 19.53815724383649 4.94851814641384 14.90089902601368 0 6.148848142022304 19.60884190574151 12.1896330480192 8.543717482792594 18.71929280012914 20.35738429344286 26.90971664680478 12.19195102465737 1.382491907989514 18.13912021230281 5.572771327008638 26.64816839436016 10.76635367171189 0 0 17.44622674033885 10.09258824903456 30:1 31:1 32:1 33:1 34:1 46:1 47:1 48:1 49:1 50:-1 51:-1 52:-1 53:-1 54:1 56:1 62:1 63:1 64:1 65:1 66:1 67:1 68:1 69:1 70:1 71:-1 72:-1 73:1 74:1 75:1 76:1 77:1 78:1 83:1 84:1 85:1 86:1 87:1 88:1 89:1 90:1 91:-1 92:-1 93:1 94:1 95:1 96:1 97:1 98:1 99:1 103:1 104:1 105:1 106:1 107:1 108:1 109:1 110:1 111:-1 112:-1 113:1 114:1 115:1 116:1 117:1 118:1 124:1 125:1 126:1 127:1 128:1 129:1 130:1 131:-1 132:-1 133:1 134:1 135:1 136:1 138:1 144:1 145:1 146:1 147:1 148:1 149:1 150:1 151:-1 152:-1 153:1 154:1 155:1 156:1 157:1 164:1 165:1 166:1 167:1 168:1 169:1 170:1 171:-1 172:-1 173:1 174:1 175:1 176:1 177:1 184:1 185:1 186:1 187:1 188:1 189:1 190:1 191:-1 192:-1 193:1 194:1 195:1 196:1 197:1 204:1 205:1 206:1 207:1 208:1 209:1 210:1 211:-1 212:-1 213:1 214:1 215:1 216:1 217:1 224:1 225:1 226:1 227:1 228:1 229:1 230:1 231:-1 232:-1 233:1 234:1 235:1 236:1 244:1 245:1 246:1 247:1 248:1 249:1 250:1 251:-1 252:-1 253:1 254:1 255:1 256:1 257:1 265:1 266:1 267:1 268:1 269:1 270:1 271:-1 272:-1 273:1 274:1 275:1 276:1 284:1 285:1 286:1 287:1 288:1 289:1 290:1 291:-1 292:-1 293:1 294:1 295:1 296:1 304:1 305:1 306:1 307:1 308:1 309:1 310:1 311:-1 312:-1 313:1 314:1 315:1 316:1 317:1 324:1 325:1 326:1 327:-1 328:1 329:1 330:-1 331:-1 332:1 333:1 334:1 335:1 336:1 337:1 346:1 347:-1 348:-1 349:-1 350:-1 351:1 354:1 355:1 
-21.9720878757775 -13.67648534274275 11.56739718016268 12.71758688078984 4.563682602770621 11.8037153820361 18.60051914912637 15.71693158561399 14.09539447996252 7.012494941574142 16.0896605154581 5.858964538815328 6.135815066274653 29.86201684117283 11.24410146983004 13.8668860092399 6.088933990024957 12.52110482892997 5.932780847999898 9.589314202437539 9.179580662530862 12.91627225362659 3.127742920522786 7.432200303399879 8.570311061155747 9.143402945941052 11.48276854984739 0 13.64405390342411 9.668789076768384 9.958106616540452 30:1 31:1 32:1 33:1 34:1 46:1 47:1 48:1 49:1 50:1 51:-1 52:-1 53:-1 54:-1 56:1 62:1 63:1 64:1 65:1 66:1 67:1 68:1 69:1 70:1 71:1 72:-1 73:-1 74:1 75:1 76:1 77:1 78:1 83:1 84:1 85:1 86:1 87:1 88:1 89:1 90:1 91:1 92:-1 93:-1 94:1 95:1 96:1 97:1 98:1 99:1 103:1 104:1 105:1 106:1 107:1 108:1 109:1 110:1 111:-1 112:-1 113:-1 114:1 115:1 116:1 117:1 118:1 124:1 125:1 126:1 127:1 128:1 129:1 130:1 131:1 132:-1 133:-1 134:1 135:1 136:1 138:1 144:1 145:1 146:1 147:1 148:1 149:1 150:1 151:1 152:-1 153:-1 154:1 155:1 156:1 157:1 164:1 165:1 166:1 167:1 168:1 169:1 170:1 171:1 172:-1 173:-1 174:1 175:1 176:1 177:1 184:1 185:1 186:1 187:1 188:1 189:1 190:1 191:1 192:-1 193:-1 194:1 195:1 196:1 197:1 204:1 205:1 206:1 207:1 208:1 209:1 210:1 211:1 212:-1 213:-1 214:1 215:1 216:1 217:1 224:1 225:1 226:1 227:1 228:1 229:1 230:1 231:1 232:-1 233:-1 234:1 235:1 236:1 244:1 245:1 246:1 247:1 248:1 249:1 250:1 251:1 252:-1 253:-1 254:1 255:1 256:1 257:1 265:1 266:1 267:1 268:1 269:1 270:1 271:1 272:-1 273:-1 274:1 275:1 276:1 284:1 285:1 286:1 287:1 288:1 289:1 290:1 291:1 292:-1 293:-1 294:1 295:1 296:1 304:1 305:1 306:1 307:-1 308:1 309:1 310:1 311:1 312:-1 313:-1 314:1 315:1 316:1 317:1 324:1 325:1 326:1 327:1 328:-1 329:1 330:1 331:-1 332:-1 333:1 334:1 335:1 336:1 337:1 346:1 347:1 348:-1 349:-1 350:-1 351:-1 354:1 355:1 
-0 -7.496825277593172 -13.27753380619046 15.42291769931943 10.91052897488379 13.23951965836537 4.568198598769586 10.64778547802847 8.700844930211055 0 9.019059994513007 0.4230217893153276 0.6065144641632094 17.54395591268636 12.93914399038548 0 0 11.00412535216961 0.4617367378054873 0 0 13.96277683231292 6.971481528304876 7.527303065902718 0 0 13.65694196616718 0 19.36365158917439 7.11905259288241 14.4043343859103 30:1 31:1 32:1 33:1 34:1 46:1 47:1 48:1 49:1 50:1 51:1 52:1 53:1 54:1 56:1 62:1 63:1 64:1 65:-1 66:-1 67:-1 68:-1 69:1 70:1 71:1 72:-1 73:-1 74:-1 75:-1 76:1 77:1 78:1 83:1 84:1 85:1 86:-1 87:-1 88:1 89:1 90:1 91:1 92:1 93:-1 94:1 95:1 96:1 97:1 98:1 99:1 103:1 104:1 105:1 106:-1 107:-1 108:1 109:1 110:1 111:1 112:-1 113:1 114:1 115:1 116:1 117:1 118:1 124:1 125:1 126:-1 127:-1 128:1 129:1 130:-1 131:-1 132:1 133:1 134:1 135:1 136:1 138:1 144:1 145:1 146:-1 147:-1 148:1 149:-1 150:1 151:1 152:1 153:1 154:1 155:1 156:1 157:1 164:1 165:1 166:-1 167:-1 168:-1 169:1 170:1 171:1 172:1 173:1 174:1 175:1 176:1 177:1 184:1 185:1 186:-1 187:-1 188:-1 189:-1 190:1 191:1 192:1 193:1 194:1 195:1 196:1 197:1 204:1 205:1 206:-1 207:-1 208:1 209:-1 210:-1 211:1 212:1 213:1 214:1 215:1 216:1 217:1 224:1 225:1 226:-1 227:-1 228:1 229:1 230:-1 231:-1 232:1 233:-1 234:1 235:1 236:1 244:1 245:1 246:-1 247:-1 248:1 249:1 250:1 251:-1 252:-1 253:1 254:1 255:1 256:1 257:1 265:1 266:-1 267:-1 268:1 269:1 270:1 271:1 272:-1 273:-1 274:1 275:1 276:1 284:1 285:1 286:-1 287:-1 288:1 289:1 290:1 291:1 292:1 293:-1 294:-1 295:1 296:1 304:1 305:-1 306:-1 307:-1 308:-1 309:1 310:1 311:1 312:-1 313:-1 314:-1 315:-1 316:-1 317:1 324:1 325:1 326:1 327:1 328:1 329:1 330:1 331:1 332:1 333:1 334:1 335:1 336:1 337:1 346:1 347:1 348:1 349:1 350:1 351:1 354:1 355:1 
-3.022231737842942 -10.94766681763158 -2.788933289384182 5.17115708789266 10.50859598196643 9.000757592998287 2.710172985962453 15.85508942240244 11.07649799935831 13.65943390720445 12.87392847519599 13.87767303309459 19.65963097822045 7.609423382908378 17.50212845673226 0 13.01192110048953 24.04154069965747 0 12.18928983402475 0.2677612842404635 17.99358595016739 7.099733753344067 9.626489660827275 12.37549820474577 0 21.17349235292836 0 13.07663624631256 25.19039571398132 3.961592135410739 30:1 31:1 32:1 33:1 34:1 46:1 47:1 48:1 49:1 50:1 51:1 52:1 53:1 54:1 56:1 62:1 63:1 64:1 65:-1 66:-1 67:-1 68:-1 69:1 70:1 71:1 72:-1 73:-1 74:-1 75:-1 76:1 77:1 78:1 83:1 84:1 85:1 86:-1 87:-1 88:1 89:-1 90:1 91:1 92:1 93:-1 94:1 95:-1 96:1 97:1 98:1 99:1 103:1 104:1 105:1 106:-1 107:-1 108:1 109:1 110:1 111:1 112:-1 113:1 114:1 115:1 116:1 117:1 118:1 124:1 125:1 126:-1 127:-1 128:1 129:1 130:-1 131:-1 132:1 133:1 134:1 135:1 136:1 138:1 144:1 145:1 146:-1 147:-1 148:1 149:-1 150:1 151:1 152:1 153:1 154:1 155:1 156:1 157:1 164:1 165:1 166:-1 167:-1 168:-1 169:1 170:1 171:1 172:1 173:1 174:1 175:1 176:1 177:1 184:1 185:1 186:-1 187:-1 188:-1 189:-1 190:1 191:1 192:1 193:1 194:1 195:1 196:1 197:1 204:1 205:1 206:-1 207:-1 208:1 209:-1 210:-1 211:1 212:-1 213:1 214:1 215:1 216:1 217:1 224:1 225:1 226:-1 227:-1 228:1 229:1 230:-1 231:-1 232:1 233:1 234:1 235:1 236:1 244:1 245:1 246:-1 247:-1 248:1 249:1 250:1 251:-1 252:-1 253:1 254:-1 255:1 256:1 257:1 265:1 266:-1 267:-1 268:1 269:1 270:1 271:1 272:-1 273:-1 274:1 275:1 276:1 284:1 285:1 286:-1 287:-1 288:1 289:1 290:1 291:1 292:1 293:-1 294:-1 295:1 296:1 304:1 305:-1 306:-1 307:-1 308:-1 309:1 310:1 311:1 312:-1 313:-1 314:-1 315:-1 316:-1 317:1 324:1 325:1 326:1 327:1 328:1 329:1 330:1 331:1 332:1 333:1 334:1 335:1 336:1 337:1 346:1 347:1 348:1 349:1 350:1 351:1 354:1 355:1 
-0 -0 -0 0 3.819463482778899 0 0.9701593560906591 0 0 0 0 3.562473750399779 4.450035252754288 0 0 0 0 2.162361714513436 2.342365311418494 0.3628390511884982 0 0 0 6.139442198273573 4.755986416065385 7.255213594800077 0 0 0 0 0 30:1 31:1 32:1 33:1 34:1 46:1 47:1 48:1 49:1 50:1 51:1 52:1 53:1 54:1 56:1 62:1 63:1 64:1 65:-1 66:-1 67:-1 68:-1 69:1 70:1 71:1 72:-1 73:-1 74:-1 75:-1 76:1 77:1 78:1 83:1 84:1 85:1 86:-1 87:-1 88:1 89:1 90:1 91:1 92:1 93:-1 94:-1 95:1 96:1 97:1 98:1 99:1 103:1 104:1 105:1 106:-1 107:-1 108:1 109:1 110:1 111:1 112:-1 113:1 114:1 115:1 116:1 117:1 118:1 124:1 125:1 126:-1 127:-1 128:1 129:1 130:-1 131:-1 132:1 133:1 134:1 135:1 136:1 138:1 144:1 145:1 146:-1 147:-1 148:1 149:-1 150:1 151:1 152:1 153:1 154:1 155:1 156:1 157:1 164:1 165:1 166:-1 167:-1 168:-1 169:1 170:1 171:1 172:1 173:1 174:1 175:1 176:1 177:1 184:1 185:1 186:-1 187:-1 188:-1 189:-1 190:1 191:1 192:1 193:1 194:1 195:1 196:1 197:1 204:1 205:1 206:-1 207:-1 208:1 209:-1 210:-1 211:1 212:1 213:1 214:1 215:1 216:1 217:1 224:1 225:1 226:-1 227:-1 228:-1 229:1 230:-1 231:-1 232:1 233:1 234:1 235:1 236:1 244:1 245:1 246:-1 247:-1 248:1 249:1 250:1 251:-1 252:-1 253:1 254:1 255:1 256:1 257:1 265:1 266:-1 267:-1 268:1 269:1 270:1 271:1 272:-1 273:-1 274:1 275:1 276:1 284:1 285:1 286:-1 287:-1 288:1 289:1 290:1 291:1 292:-1 293:-1 294:-1 295:1 296:1 304:1 305:-1 306:-1 307:-1 308:-1 309:1 310:1 311:1 312:-1 313:-1 314:-1 315:-1 316:-1 317:1 324:1 325:1 326:1 327:1 328:1 329:1 330:1 331:1 332:1 333:1 334:1 335:1 336:1 337:1 346:1 347:1 348:1 349:1 350:1 351:1 354:1 355:1 
-20.52756937095626 -7.496825277591925 -4.655281568717298 0 0 0 16.92426825528883 2.43781299691687 8.660833891485451 23.27774320651226 8.794531570348092 0.4201508584564487 0.5394064944884851 0 0 76.73682010889475 22.12914231219406 0 0.4618546860248252 17.79137116827124 22.68909312399319 0 0.8741925077748399 7.368795138316862 11.59246775624384 14.61142640680124 0 22.4318421188477 0 0 0 30:1 31:1 32:1 33:1 34:1 46:1 47:1 48:1 49:1 50:1 51:1 52:1 53:1 54:1 56:1 62:1 63:1 64:1 65:-1 66:-1 67:-1 68:-1 69:1 70:1 71:1 72:-1 73:-1 74:-1 75:-1 76:1 77:1 78:1 83:1 84:1 85:1 86:-1 87:-1 88:1 89:1 90:1 91:-1 92:1 93:-1 94:1 95:1 96:1 97:1 98:1 99:1 103:1 104:1 105:1 106:-1 107:-1 108:1 109:1 110:1 111:1 112:-1 113:1 114:1 115:1 116:1 117:1 118:1 124:1 125:1 126:-1 127:-1 128:1 129:1 130:-1 131:-1 132:1 133:1 134:1 135:1 136:1 138:1 144:1 145:1 146:-1 147:-1 148:1 149:-1 150:1 151:1 152:1 153:1 154:1 155:1 156:1 157:1 164:1 165:1 166:-1 167:-1 168:-1 169:1 170:1 171:1 172:1 173:1 174:1 175:1 176:1 177:1 184:1 185:1 186:-1 187:-1 188:-1 189:-1 190:1 191:1 192:1 193:1 194:1 195:1 196:1 197:1 204:1 205:1 206:-1 207:-1 208:1 209:-1 210:-1 211:1 212:1 213:1 214:1 215:1 216:1 217:1 224:1 225:1 226:-1 227:-1 228:1 229:1 230:-1 231:-1 232:1 233:1 234:1 235:1 236:1 244:1 245:1 246:-1 247:-1 248:1 249:1 250:1 251:-1 252:-1 253:1 254:1 255:1 256:1 257:1 265:1 266:-1 267:-1 268:1 269:1 270:1 271:1 272:-1 273:-1 274:1 275:1 276:1 284:1 285:1 286:-1 287:-1 288:1 289:1 290:1 291:1 292:1 293:-1 294:-1 295:1 296:1 304:1 305:-1 306:-1 307:-1 308:-1 309:1 310:1 311:1 312:-1 313:-1 314:-1 315:-1 316:-1 317:1 324:1 325:1 326:1 327:1 328:1 329:1 330:1 331:1 332:1 333:1 334:1 335:1 336:1 337:1 346:1 347:1 348:1 349:1 350:1 351:1 354:1 355:1 
-0 -0 -0 0 0 12.02195725196732 0 0 0 0 0 5.766272726980011 0 0 0 0 0 7.610223020872013 0 0 2.425985572917791 0.6438059396613751 4.193656526604116 0 0 5.464984732746585 0 0.5612379543948569 0 6.911584354587472 0 30:1 31:1 32:1 33:1 34:1 46:1 47:1 48:1 49:1 50:1 51:1 52:1 53:1 54:1 56:1 62:1 63:1 64:-1 65:-1 66:-1 67:-1 68:-1 69:1 70:1 71:1 72:-1 73:-1 74:-1 75:-1 76:1 77:1 78:1 83:1 84:1 85:1 86:-1 87:-1 88:1 89:1 90:1 91:1 92:-1 93:-1 94:1 95:-1 96:1 97:1 98:1 99:1 103:1 104:1 105:1 106:-1 107:-1 108:1 109:1 110:1 111:1 112:-1 113:1 114:1 115:1 116:1 117:1 118:1 124:1 125:1 126:-1 127:-1 128:1 129:1 130:-1 131:-1 132:1 133:1 134:1 135:1 136:1 138:1 144:1 145:1 146:-1 147:-1 148:1 149:-1 150:1 151:1 152:1 153:1 154:1 155:1 156:1 157:1 164:1 165:1 166:-1 167:-1 168:-1 169:1 170:1 171:1 172:1 173:1 174:1 175:1 176:1 177:1 184:1 185:1 186:-1 187:-1 188:-1 189:-1 190:-1 191:1 192:1 193:1 194:1 195:1 196:1 197:1 204:1 205:1 206:-1 207:-1 208:1 209:-1 210:-1 211:1 212:1 213:1 214:1 215:1 216:1 217:1 224:1 225:1 226:-1 227:-1 228:1 229:1 230:-1 231:-1 232:1 233:1 234:1 235:1 236:1 244:1 245:1 246:-1 247:-1 248:1 249:1 250:1 251:-1 252:-1 253:1 254:1 255:1 256:1 257:1 265:1 266:-1 267:-1 268:1 269:1 270:1 271:1 272:-1 273:-1 274:1 275:1 276:1 284:1 285:1 286:-1 287:-1 288:1 289:1 290:1 291:1 292:1 293:-1 294:-1 295:1 296:1 304:1 305:-1 306:-1 307:-1 308:-1 309:1 310:1 311:1 312:-1 313:-1 314:-1 315:-1 316:-1 317:1 324:1 325:1 326:1 327:1 328:1 329:1 330:1 331:1 332:1 333:1 334:1 335:1 336:1 337:1 346:1 347:1 348:1 349:1 350:1 351:1 354:1 355:1 
-0 -0 -0 0 0 0 0 0 0 0 0 0 19.26233379111691 0 0 0 0 0 27.53853515070789 0 0 0 6.001674874757188 0 0 0 0 0 0 0 0 30:1 31:1 32:1 33:1 34:1 46:1 47:1 48:1 49:1 50:1 51:1 52:1 53:1 54:1 56:1 62:1 63:1 64:1 65:-1 66:-1 67:-1 68:-1 69:1 70:1 71:1 72:-1 73:-1 74:-1 75:-1 76:1 77:1 78:1 83:1 84:1 85:1 86:-1 87:-1 88:1 89:1 90:1 91:1 92:1 93:-1 94:1 95:1 96:1 97:1 98:1 99:1 103:1 104:1 105:1 106:-1 107:-1 108:1 109:1 110:1 111:1 112:-1 113:1 114:1 115:1 116:1 117:1 118:1 124:1 125:1 126:-1 127:-1 128:1 129:1 130:-1 131:-1 132:1 133:1 134:1 135:1 136:1 138:1 144:1 145:1 146:-1 147:-1 148:1 149:-1 150:1 151:1 152:1 153:1 154:1 155:1 156:1 157:1 164:1 165:1 166:-1 167:-1 168:-1 169:1 170:1 171:1 172:1 173:1 174:1 175:1 176:1 177:1 184:1 185:1 186:-1 187:-1 188:-1 189:-1 190:1 191:1 192:1 193:1 194:1 195:1 196:1 197:1 204:1 205:1 206:-1 207:-1 208:1 209:-1 210:-1 211:1 212:1 213:1 214:1 215:1 216:1 217:1 224:1 225:1 226:-1 227:-1 228:1 229:1 230:-1 231:-1 232:1 233:1 234:1 235:1 236:1 244:1 245:1 246:-1 247:-1 248:1 249:1 250:1 251:-1 252:-1 253:1 254:1 255:1 256:1 257:1 265:1 266:-1 267:-1 268:1 269:1 270:1 271:1 272:-1 273:-1 274:1 275:1 276:1 284:1 285:1 286:-1 287:-1 288:1 289:1 290:1 291:1 292:1 293:-1 294:-1 295:1 296:1 304:1 305:-1 306:-1 307:-1 308:-1 309:1 310:1 311:1 312:-1 313:-1 314:-1 315:-1 316:-1 317:1 324:1 325:1 326:1 327:1 328:1 329:1 330:1 331:1 332:1 333:1 334:1 335:1 336:1 337:1 346:1 347:1 348:1 349:1 350:1 351:1 354:1 355:1 
-23.36665400805174 -23.59285496215296 -17.70806635393555 15.88629175759013 26.86776235541191 20.66179156742933 19.71270071010463 19.43407919675744 20.09366563763804 27.4380216184096 23.57533113615294 22.54302512590709 32.48660589127836 26.048839346844 23.20332901863585 76.43540160252634 31.63300388822432 30.13168652695402 25.31802255608762 27.55270277552994 21.13362708332896 20.82101796150324 19.92295374396995 20.14766661535751 28.45149759084051 25.79957397488716 25.50218312619476 10.92246503356506 16.8261898316125 23.75897240789224 16.29099611722108 30:1 31:1 32:1 33:1 34:1 46:1 47:1 48:1 49:1 50:1 51:1 52:1 53:1 54:1 56:1 62:1 63:1 64:1 65:1 66:-1 67:1 68:1 69:1 70:1 71:1 72:1 73:1 74:1 75:1 76:1 77:1 78:1 83:1 84:1 85:-1 86:-1 87:-1 88:-1 89:1 90:1 91:1 92:-1 93:-1 94:-1 95:-1 96:1 97:1 98:1 99:1 103:1 104:1 105:1 106:-1 107:-1 108:1 109:1 110:1 111:1 112:-1 113:-1 114:1 115:1 116:1 117:1 118:1 124:1 125:1 126:-1 127:-1 128:1 129:1 130:1 131:1 132:-1 133:1 134:1 135:1 136:1 138:1 144:1 145:1 146:-1 147:-1 148:1 149:1 150:-1 151:-1 152:1 153:1 154:1 155:1 156:1 157:1 164:1 165:1 166:-1 167:-1 168:-1 169:-1 170:1 171:1 172:1 173:1 174:1 175:1 176:1 177:1 184:1 185:1 186:-1 187:-1 188:-1 189:1 190:1 191:1 192:1 193:1 194:1 195:1 196:1 197:1 204:1 205:1 206:-1 207:-1 208:-1 209:-1 210:1 211:1 212:1 213:1 214:1 215:1 216:1 217:1 224:1 225:1 226:-1 227:-1 228:1 229:-1 230:-1 231:1 232:1 233:1 234:1 235:1 236:1 244:1 245:1 246:-1 247:-1 248:1 249:1 250:-1 251:-1 252:1 253:1 254:1 255:1 256:1 257:1 265:1 266:-1 267:-1 268:1 269:1 270:1 271:-1 272:-1 273:1 274:1 275:1 276:1 284:1 285:1 286:-1 287:-1 288:1 289:1 290:1 291:1 292:-1 293:-1 294:1 295:1 296:1 304:1 305:1 306:-1 307:-1 308:1 309:1 310:1 311:1 312:1 313:-1 314:-1 315:1 316:1 317:1 324:1 325:-1 326:-1 327:-1 328:-1 329:1 330:1 331:1 332:-1 333:-1 334:-1 335:-1 336:-1 337:1 346:1 347:1 348:1 349:1 350:1 351:1 354:1 355:1 
-1.089634237749649 -0 -0 -0 7.55576322220443 0 0 0 0 0 0 0 0 0 0 0 0 0 1.455618006446305 1.546218406705887 16.9404456546297 0 0 2.464790853165074 0 0.7898155458102779 0 0 0 0 0 30:1 31:1 32:1 33:1 34:1 46:1 47:1 48:1 49:1 50:1 51:1 52:1 53:1 54:1 56:1 62:-1 63:-1 64:-1 65:-1 66:1 67:1 68:1 69:1 70:1 71:1 72:1 73:1 74:1 75:1 76:-1 77:-1 78:-1 83:-1 84:-1 85:1 86:1 87:1 88:1 89:1 90:-1 91:-1 92:1 93:1 94:1 95:1 96:1 97:-1 98:1 99:1 103:-1 104:-1 105:1 106:1 107:1 108:1 109:1 110:-1 111:-1 112:1 113:1 114:1 115:1 116:1 117:-1 118:1 124:-1 125:-1 126:1 127:1 128:1 129:1 130:-1 131:-1 132:1 133:1 134:1 135:1 136:-1 138:1 144:-1 145:-1 146:1 147:1 148:1 149:-1 150:1 151:-1 152:-1 153:1 154:1 155:1 156:-1 157:1 164:-1 165:-1 166:1 167:1 168:1 169:-1 170:1 171:-1 172:-1 173:1 174:1 175:1 176:-1 177:1 184:-1 185:-1 186:1 187:1 188:1 189:-1 190:1 191:-1 192:-1 193:1 194:1 195:1 196:-1 197:1 204:1 205:-1 206:-1 207:1 208:-1 209:1 210:1 211:1 212:-1 213:-1 214:1 215:-1 216:1 217:1 224:1 225:-1 226:-1 227:1 228:-1 229:1 230:1 231:1 232:-1 233:-1 234:1 235:-1 236:1 244:1 245:-1 246:-1 247:1 248:-1 249:1 250:1 251:1 252:-1 253:-1 254:1 255:-1 256:1 257:1 265:1 266:-1 267:-1 268:1 269:-1 270:1 271:1 272:1 273:-1 274:-1 275:1 276:1 284:1 285:1 286:-1 287:-1 288:1 289:1 290:1 291:1 292:1 293:-1 294:-1 295:1 296:1 304:1 305:1 306:-1 307:-1 308:1 309:1 310:1 311:1 312:1 313:-1 314:-1 315:1 316:1 317:1 324:1 325:1 326:1 327:1 328:1 329:1 330:1 331:1 332:1 333:1 334:1 335:1 336:1 337:1 346:1 347:1 348:1 349:1 350:1 351:1 354:1 355:1 
-0 -0 -0.2686084983808453 -15.21705133209754 0.4583579106120335 0 0 9.562016954166175 0 0.4465438311990073 0.1820854666476762 0.5260229520280308 0.4627420633237079 16.58567362728743 0.4102428762339992 0.4917084174549911 0 0.1862533042807483 0.07676406854512803 0.4763539577862523 0.07095943773839704 0.06585536104888856 9.613702031227151 0.1589279272123673 13.16294773868981 0.449257085894285 0 14.3694114195504 15.26043140558872 23.62109584716871 0.4530833787880431 30:1 31:1 32:1 33:1 34:1 46:1 47:1 48:1 49:1 50:1 51:1 52:1 53:1 54:1 56:1 62:-1 63:-1 64:-1 65:-1 66:1 67:1 68:1 69:1 70:1 71:1 72:1 73:1 74:1 75:1 76:-1 77:-1 78:-1 83:-1 84:-1 85:1 86:1 87:1 88:1 89:1 90:-1 91:-1 92:1 93:1 94:1 95:1 96:1 97:-1 98:1 99:1 103:-1 104:-1 105:1 106:1 107:1 108:1 109:1 110:-1 111:-1 112:1 113:1 114:1 115:1 116:1 117:-1 118:1 124:-1 125:-1 126:1 127:1 128:1 129:1 130:-1 131:-1 132:1 133:1 134:1 135:1 136:-1 138:1 144:-1 145:-1 146:1 147:1 148:1 149:-1 150:-1 151:-1 152:-1 153:1 154:1 155:1 156:-1 157:1 164:-1 165:-1 166:1 167:1 168:1 169:-1 170:1 171:-1 172:-1 173:1 174:1 175:1 176:-1 177:1 184:-1 185:-1 186:1 187:1 188:1 189:-1 190:1 191:-1 192:-1 193:1 194:1 195:1 196:-1 197:1 204:1 205:-1 206:-1 207:1 208:-1 209:1 210:1 211:1 212:-1 213:-1 214:1 215:-1 216:1 217:1 224:1 225:-1 226:-1 227:1 228:-1 229:1 230:1 231:1 232:-1 233:-1 234:1 235:-1 236:1 244:1 245:-1 246:-1 247:1 248:-1 249:1 250:1 251:1 252:-1 253:-1 254:1 255:-1 256:1 257:1 265:1 266:-1 267:-1 268:1 269:1 270:1 271:1 272:1 273:-1 274:-1 275:1 276:1 284:1 285:1 286:-1 287:-1 288:1 289:1 290:1 291:1 292:1 293:-1 294:-1 295:1 296:1 304:1 305:1 306:-1 307:-1 308:1 309:1 310:1 311:1 312:1 313:-1 314:-1 315:1 316:1 317:1 324:1 325:1 326:1 327:1 328:1 329:1 330:1 331:1 332:1 333:1 334:1 335:1 336:1 337:1 346:1 347:1 348:1 349:1 350:1 351:1 354:1 355:1 
-13.03150704278318 -14.60654825891765 -6.011988176712432 -0 0.3317566020983886 0 7.709022340837083 14.65174587751054 0 0 4.426246722980428 4.23188853231775 2.205278949171255 8.737000536538087 1.035330483009881 6.782930717798948 8.169347603999738 4.328697393767406 0 0.03239647102268446 0 0 4.768331308681971 0 1.695407210362517 2.550394352284327 0 0 0 0.3386390887326657 0 30:1 31:1 32:1 33:1 34:1 46:1 47:1 48:1 49:1 50:1 51:1 52:1 53:1 54:1 56:1 62:-1 63:-1 64:-1 65:-1 66:1 67:1 68:1 69:1 70:1 71:1 72:1 73:1 74:1 75:1 76:-1 77:-1 78:-1 83:-1 84:-1 85:1 86:1 87:1 88:1 89:1 90:-1 91:-1 92:1 93:1 94:1 95:1 96:1 97:-1 98:1 99:1 103:-1 104:-1 105:1 106:1 107:1 108:1 109:1 110:-1 111:-1 112:1 113:1 114:1 115:1 116:1 117:-1 118:1 124:-1 125:-1 126:1 127:1 128:1 129:1 130:-1 131:-1 132:1 133:1 134:1 135:1 136:-1 138:1 144:-1 145:-1 146:1 147:1 148:1 149:-1 150:1 151:-1 152:-1 153:-1 154:1 155:1 156:-1 157:1 164:-1 165:-1 166:1 167:1 168:1 169:-1 170:1 171:-1 172:-1 173:1 174:1 175:1 176:-1 177:1 184:-1 185:-1 186:1 187:1 188:1 189:-1 190:1 191:-1 192:-1 193:1 194:1 195:1 196:-1 197:1 204:1 205:-1 206:-1 207:1 208:-1 209:1 210:1 211:1 212:-1 213:-1 214:1 215:-1 216:1 217:1 224:1 225:-1 226:-1 227:1 228:-1 229:1 230:1 231:1 232:-1 233:-1 234:1 235:-1 236:-1 244:1 245:-1 246:-1 247:1 248:-1 249:1 250:1 251:1 252:-1 253:-1 254:1 255:-1 256:1 257:1 265:1 266:-1 267:-1 268:1 269:1 270:1 271:1 272:1 273:-1 274:-1 275:1 276:1 284:1 285:1 286:-1 287:-1 288:1 289:1 290:1 291:1 292:1 293:-1 294:-1 295:1 296:1 304:1 305:1 306:-1 307:-1 308:1 309:1 310:1 311:1 312:1 313:-1 314:-1 315:1 316:1 317:1 324:1 325:1 326:1 327:1 328:1 329:1 330:1 331:1 332:-1 333:1 334:1 335:1 336:1 337:1 346:1 347:1 348:1 349:1 350:1 351:1 354:1 355:1 
-0 -0 -0 -0 7.555571923506522 0 0 0 0 0 0 9.646802218945686 0 0 0 9.744992636797953 12.84821858511325 9.445771836693442 0 0 0 0 3.601516196228385 0 0 0 0 2.301559759598711 0 0.7598902406766681 3.189417465594306 30:1 31:1 32:1 33:1 34:1 46:1 47:1 48:1 49:1 50:1 51:1 52:1 53:1 54:1 56:1 62:-1 63:-1 64:-1 65:-1 66:1 67:1 68:1 69:1 70:1 71:1 72:1 73:1 74:1 75:1 76:-1 77:-1 78:-1 83:-1 84:-1 85:-1 86:1 87:1 88:1 89:1 90:-1 91:-1 92:1 93:1 94:1 95:1 96:1 97:-1 98:1 99:1 103:-1 104:-1 105:1 106:1 107:1 108:1 109:1 110:-1 111:-1 112:1 113:1 114:1 115:1 116:1 117:-1 118:1 124:-1 125:-1 126:1 127:1 128:1 129:1 130:-1 131:-1 132:1 133:1 134:1 135:1 136:-1 138:1 144:-1 145:-1 146:1 147:1 148:1 149:-1 150:1 151:-1 152:-1 153:1 154:1 155:1 156:-1 157:1 164:-1 165:-1 166:1 167:1 168:1 169:-1 170:1 171:-1 172:-1 173:1 174:1 175:1 176:-1 177:1 184:-1 185:-1 186:1 187:1 188:1 189:-1 190:1 191:-1 192:-1 193:1 194:1 195:1 196:-1 197:1 204:1 205:-1 206:-1 207:1 208:-1 209:1 210:1 211:1 212:-1 213:-1 214:1 215:-1 216:1 217:1 224:1 225:-1 226:-1 227:1 228:-1 229:1 230:1 231:1 232:-1 233:-1 234:1 235:-1 236:1 244:1 245:-1 246:-1 247:1 248:-1 249:1 250:1 251:1 252:-1 253:-1 254:1 255:-1 256:1 257:1 265:1 266:-1 267:-1 268:1 269:1 270:1 271:1 272:1 273:-1 274:-1 275:1 276:1 284:1 285:1 286:-1 287:-1 288:1 289:1 290:1 291:1 292:1 293:-1 294:-1 295:1 296:1 304:1 305:1 306:-1 307:-1 308:1 309:1 310:1 311:1 312:1 313:-1 314:-1 315:1 316:1 317:1 324:1 325:1 326:1 327:1 328:1 329:1 330:1 331:1 332:1 333:1 334:1 335:1 336:1 337:1 346:1 347:1 348:1 349:1 350:1 351:1 354:1 355:1 
-22.10848216513388 -20.99474699978166 -19.41087607017181 -19.94315822211462 17.64607671927943 19.48602032487649 21.19858063668233 23.41989075428236 19.6382845773193 22.92832387650742 24.84953358232306 16.75817454980955 20.24431053091028 24.99370759369886 23.53773711708915 22.52556456846839 19.81108443652277 25.97629215514494 17.94366479277731 18.63732286474334 20.37395616641661 18.97520354324923 15.59872647943249 18.55309317112462 20.59781137459403 23.17247367364496 25.85523674590593 12.49285562476534 26.86498026300323 23.04908140059067 18.35488419665861 30:1 31:1 32:1 33:1 34:1 46:1 47:1 48:1 49:1 50:1 51:1 52:1 53:1 54:1 56:1 62:-1 63:1 64:1 65:1 66:1 67:1 68:1 69:1 70:1 71:1 72:1 73:1 74:1 75:1 76:1 77:1 78:1 83:-1 84:-1 85:-1 86:-1 87:1 88:1 89:1 90:1 91:1 92:1 93:1 94:1 95:1 96:1 97:-1 98:-1 99:-1 103:1 104:-1 105:-1 106:1 107:1 108:1 109:1 110:1 111:-1 112:-1 113:1 114:1 115:1 116:1 117:1 118:-1 124:-1 125:-1 126:1 127:1 128:1 129:1 130:1 131:-1 132:-1 133:1 134:1 135:1 136:1 138:-1 144:1 145:-1 146:-1 147:1 148:1 149:1 150:1 151:-1 152:-1 153:1 154:1 155:1 156:1 157:-1 164:1 165:-1 166:-1 167:1 168:1 169:1 170:-1 171:1 172:-1 173:-1 174:1 175:1 176:1 177:-1 184:1 185:-1 186:-1 187:1 188:1 189:1 190:-1 191:1 192:-1 193:-1 194:1 195:1 196:1 197:-1 204:1 205:-1 206:-1 207:1 208:1 209:1 210:-1 211:1 212:-1 213:-1 214:1 215:1 216:1 217:-1 224:1 225:1 226:-1 227:-1 228:1 229:-1 230:1 231:1 232:1 233:-1 234:-1 235:1 236:-1 244:1 245:1 246:-1 247:-1 248:1 249:-1 250:1 251:1 252:1 253:-1 254:-1 255:1 256:-1 257:1 265:1 266:-1 267:-1 268:1 269:-1 270:1 271:1 272:1 273:-1 274:-1 275:1 276:-1 284:1 285:1 286:1 287:-1 288:-1 289:1 290:1 291:1 292:1 293:1 294:-1 295:-1 296:1 304:1 305:1 306:1 307:-1 308:-1 309:1 310:1 311:1 312:1 313:1 314:-1 315:-1 316:1 317:1 324:1 325:1 326:1 327:-1 328:-1 329:1 330:1 331:1 332:1 333:1 334:-1 335:-1 336:1 337:1 346:1 347:1 348:1 349:1 350:1 351:1 354:1 355:1 
-0 -0 -0 -0 0 0 0 0 0 0 0 1.025406303589146 0 0 0 0 0 0 0 0 0 0 0 0 0 0 0 0 0 0 0 30:1 31:1 32:1 33:1 34:1 46:1 47:1 48:1 49:1 50:1 51:1 52:1 53:1 54:1 56:1 62:-1 63:-1 64:-1 65:-1 66:1 67:1 68:1 69:1 70:1 71:1 72:1 73:1 74:1 75:1 76:-1 77:-1 78:-1 83:-1 84:-1 85:1 86:1 87:1 88:1 89:1 90:-1 91:-1 92:1 93:1 94:1 95:1 96:1 97:-1 98:1 99:1 103:-1 104:-1 105:1 106:1 107:1 108:1 109:1 110:-1 111:-1 112:1 113:1 114:1 115:1 116:1 117:-1 118:1 124:-1 125:-1 126:1 127:1 128:1 129:1 130:-1 131:-1 132:1 133:1 134:1 135:1 136:-1 138:1 144:-1 145:-1 146:1 147:1 148:1 149:-1 150:1 151:-1 152:-1 153:1 154:1 155:1 156:-1 157:-1 164:-1 165:-1 166:1 167:1 168:1 169:-1 170:1 171:-1 172:-1 173:1 174:1 175:1 176:-1 177:1 184:-1 185:-1 186:1 187:1 188:1 189:-1 190:1 191:-1 192:-1 193:1 194:1 195:1 196:-1 197:1 204:1 205:-1 206:-1 207:1 208:-1 209:1 210:1 211:1 212:-1 213:-1 214:1 215:-1 216:1 217:1 224:1 225:-1 226:-1 227:1 228:-1 229:-1 230:1 231:1 232:-1 233:-1 234:1 235:-1 236:1 244:1 245:-1 246:-1 247:1 248:-1 249:1 250:1 251:1 252:-1 253:-1 254:1 255:-1 256:1 257:1 265:1 266:-1 267:-1 268:1 269:1 270:1 271:1 272:1 273:-1 274:-1 275:1 276:1 284:1 285:1 286:-1 287:-1 288:1 289:1 290:1 291:1 292:1 293:-1 294:-1 295:1 296:1 304:1 305:1 306:-1 307:-1 308:1 309:1 310:1 311:1 312:1 313:-1 314:-1 315:1 316:1 317:1 324:1 325:1 326:1 327:1 328:1 329:1 330:1 331:1 332:1 333:1 334:1 335:1 336:1 337:1 346:1 347:1 348:1 349:1 350:1 351:1 354:1 355:1 
-5.759828872125254 -5.630368651895309 -13.65744777018316 -1.320156990590056 1.356440745335009 23.3938792261015 14.95094851103501 0 22.30089936249261 19.74572622301041 16.27798513809234 2.811688704685746 13.70112278529069 0 17.28724868106765 2.873802872737434 0 9.361054880561037 16.37674668776315 17.46486868445424 0.3988942198285699 20.95086086066199 0 15.69668426140953 2.603677789905703 14.56264729590085 24.50979347159629 0 13.00164438501569 0.041483691856257 14.99183278104447 30:1 31:1 32:1 33:1 34:1 46:1 47:1 48:1 49:1 50:1 51:1 52:1 53:1 54:1 56:1 62:-1 63:-1 64:-1 65:-1 66:1 67:1 68:1 69:1 70:1 71:1 72:1 73:1 74:1 75:1 76:-1 77:-1 78:-1 83:-1 84:-1 85:1 86:1 87:1 88:1 89:1 90:-1 91:-1 92:1 93:1 94:1 95:1 96:1 97:-1 98:1 99:1 103:-1 104:-1 105:1 106:1 107:1 108:1 109:1 110:-1 111:-1 112:1 113:1 114:1 115:1 116:1 117:-1 118:1 124:-1 125:-1 126:1 127:1 128:1 129:1 130:-1 131:-1 132:1 133:1 134:1 135:1 136:-1 138:1 144:-1 145:-1 146:1 147:1 148:1 149:-1 150:1 151:-1 152:-1 153:1 154:1 155:1 156:-1 157:1 164:-1 165:-1 166:1 167:1 168:1 169:-1 170:1 171:-1 172:-1 173:1 174:1 175:1 176:-1 177:1 184:-1 185:-1 186:1 187:1 188:1 189:-1 190:1 191:-1 192:-1 193:1 194:1 195:1 196:-1 197:1 204:1 205:-1 206:-1 207:1 208:-1 209:1 210:1 211:1 212:-1 213:-1 214:1 215:-1 216:1 217:1 224:1 225:-1 226:-1 227:1 228:-1 229:1 230:1 231:1 232:-1 233:-1 234:1 235:-1 236:1 244:1 245:-1 246:-1 247:1 248:-1 249:1 250:1 251:1 252:-1 253:-1 254:1 255:-1 256:1 257:1 265:1 266:-1 267:-1 268:1 269:1 270:1 271:1 272:1 273:-1 274:-1 275:1 276:1 284:1 285:1 286:-1 287:-1 288:1 289:1 290:1 291:1 292:1 293:-1 294:-1 295:1 296:1 304:1 305:1 306:-1 307:-1 308:1 309:1 310:1 311:1 312:1 313:-1 314:-1 315:1 316:1 317:1 324:1 325:1 326:1 327:1 328:1 329:1 330:1 331:1 332:1 333:1 334:1 335:1 336:1 337:1 346:1 347:1 348:1 349:1 350:1 351:1 354:1 355:1 
-10.37647618361703 -0 -8.093763730199846 -7.26737377779887 -3.954638027147872 6.104971295242 0 0.5599319184652599 2.883800103604926 21.00945052712011 0 17.79532163242724 10.71725345089458 14.56592048668219 7.040047147115176 0 0 8.976958127361092 0 16.41354953435731 6.16047539356618 12.49767899854926 0 11.63418433697193 9.677374792920245 7.826812504721936 16.79253503715269 1.520973495569257 6.159151529412664 12.48749389188467 0 30:1 31:1 32:1 33:1 34:1 46:1 47:1 48:1 49:1 50:1 51:1 52:1 53:1 54:1 56:1 62:1 63:1 64:1 65:1 66:1 67:1 68:1 69:1 70:1 71:1 72:1 73:1 74:-1 75:1 76:1 77:1 78:1 83:1 84:1 85:-1 86:-1 87:-1 88:-1 89:1 90:1 91:1 92:1 93:1 94:-1 95:-1 96:-1 97:1 98:1 99:1 103:1 104:1 105:1 106:-1 107:-1 108:1 109:1 110:1 111:1 112:1 113:1 114:1 115:-1 116:1 117:1 118:1 124:1 125:1 126:-1 127:-1 128:1 129:1 130:1 131:1 132:1 133:1 134:1 135:-1 136:1 138:1 144:1 145:1 146:1 147:-1 148:-1 149:1 150:1 151:1 152:1 153:1 154:-1 155:1 156:1 157:1 164:1 165:1 166:1 167:-1 168:-1 169:1 170:1 171:1 172:1 173:1 174:-1 175:1 176:1 177:1 184:1 185:1 186:1 187:1 188:-1 189:-1 190:1 191:1 192:1 193:-1 194:1 195:1 196:1 197:1 204:1 205:1 206:1 207:1 208:-1 209:-1 210:1 211:1 212:1 213:-1 214:1 215:1 216:1 217:1 224:1 225:1 226:1 227:1 228:-1 229:-1 230:1 231:1 232:1 233:-1 234:1 235:1 236:1 244:1 245:1 246:1 247:1 248:1 249:-1 250:-1 251:1 252:-1 253:1 254:1 255:1 256:1 257:1 265:1 266:1 267:1 268:1 269:-1 270:-1 271:1 272:-1 273:1 274:1 275:1 276:1 284:1 285:1 286:1 287:1 288:1 289:1 290:-1 291:-1 292:1 293:1 294:1 295:1 296:1 304:1 305:1 306:1 307:1 308:1 309:1 310:-1 311:-1 312:1 313:1 314:1 315:1 316:1 317:1 324:1 325:1 326:1 327:1 328:1 329:1 330:-1 331:-1 332:1 333:1 334:1 335:1 336:1 337:1 346:1 347:1 348:1 349:1 350:1 351:1 354:1 355:1 
-34.93018375878958 -24.75138636567005 -20.5243732042693 -19.77926671322046 -17.4097254067925 17.75956708713203 23.83787108476331 20.77554341104371 21.32116947933993 25.59425229137829 31.37730611296216 18.13042291556547 32.30946207903459 23.79759518486418 25.3378665161022 29.24319213804857 23.32497276802654 24.24574824206178 28.37919791410694 31.34123365924857 29.10760629824342 17.31267356741954 32.01714312779249 30.58967007613031 34.73703624988351 25.24843078109839 23.60156511562274 15.6376578337548 21.53875723166377 22.41306463630261 15.63906089885299 30:1 31:1 32:1 33:1 34:1 46:1 47:1 48:1 49:1 50:1 51:1 52:1 53:1 54:1 56:1 62:1 63:1 64:1 65:1 66:1 67:1 68:1 69:1 70:1 71:1 72:1 73:1 74:1 75:1 76:-1 77:1 78:1 83:1 84:-1 85:-1 86:-1 87:-1 88:1 89:1 90:1 91:1 92:1 93:-1 94:-1 95:-1 96:1 97:1 98:1 99:1 103:1 104:1 105:-1 106:-1 107:1 108:1 109:1 110:1 111:1 112:1 113:1 114:-1 115:1 116:1 117:1 118:1 124:1 125:-1 126:-1 127:1 128:1 129:1 130:1 131:1 132:1 133:1 134:-1 135:1 136:1 138:1 144:1 145:1 146:-1 147:-1 148:1 149:1 150:1 151:1 152:1 153:-1 154:1 155:1 156:1 157:1 164:1 165:1 166:-1 167:-1 168:1 169:1 170:1 171:-1 172:1 173:-1 174:1 175:1 176:1 177:1 184:1 185:1 186:1 187:-1 188:-1 189:1 190:1 191:1 192:-1 193:1 194:1 195:1 196:1 197:1 204:1 205:1 206:1 207:-1 208:-1 209:1 210:1 211:1 212:-1 213:1 214:1 215:1 216:1 217:1 224:1 225:1 226:1 227:-1 228:-1 229:1 230:1 231:1 232:-1 233:1 234:1 235:1 236:1 244:1 245:1 246:1 247:1 248:-1 249:-1 250:1 251:-1 252:1 253:1 254:1 255:1 256:1 257:1 265:1 266:1 267:1 268:-1 269:-1 270:-1 271:-1 272:1 273:1 274:1 275:1 276:1 284:1 285:1 286:1 287:1 288:1 289:-1 290:-1 291:1 292:1 293:1 294:1 295:1 296:1 304:1 305:1 306:1 307:1 308:1 309:-1 310:-1 311:1 312:1 313:1 314:1 315:1 316:1 317:1 324:1 325:1 326:1 327:1 328:1 329:-1 330:-1 331:1 332:1 333:1 334:1 335:1 336:1 337:1 346:1 347:1 348:1 349:1 350:1 351:1 354:1 355:1 
-10.37308526313143 -18.24807644363215 -7.901731190179149 -7.010987503886057 -3.932629474941935 6.1446511469557 19.66376789561235 12.31680464900189 21.24745421747706 0 27.78663330871311 3.046142077629169 10.68308501709255 0 7.022842502329799 13.03078897557357 14.67217691192821 8.976958127360971 24.43252550478072 8.886550590790712 9.991280143138368 12.55654394265421 22.54619153692482 11.67131833994285 13.18547527297331 7.844234346758528 0 1.520973495569599 6.164806822806894 4.443952251673212 12.64408976886571 30:1 31:1 32:1 33:1 34:1 46:1 47:1 48:1 49:1 50:1 51:1 52:1 53:1 54:1 56:1 62:1 63:1 64:1 65:1 66:1 67:-1 68:1 69:1 70:1 71:1 72:1 73:1 74:1 75:1 76:1 77:1 78:1 83:1 84:1 85:-1 86:-1 87:-1 88:-1 89:1 90:1 91:1 92:1 93:1 94:-1 95:-1 96:-1 97:1 98:1 99:1 103:1 104:1 105:1 106:-1 107:-1 108:1 109:1 110:1 111:1 112:1 113:1 114:1 115:-1 116:1 117:1 118:1 124:1 125:1 126:-1 127:-1 128:1 129:1 130:1 131:1 132:1 133:1 134:1 135:-1 136:1 138:1 144:1 145:1 146:1 147:-1 148:-1 149:1 150:1 151:1 152:1 153:1 154:-1 155:1 156:1 157:1 164:1 165:1 166:1 167:-1 168:-1 169:1 170:1 171:1 172:1 173:1 174:-1 175:1 176:1 177:1 184:1 185:1 186:1 187:1 188:-1 189:-1 190:1 191:1 192:1 193:-1 194:1 195:1 196:1 197:1 204:1 205:1 206:1 207:1 208:-1 209:-1 210:1 211:1 212:1 213:-1 214:1 215:1 216:1 217:1 224:1 225:1 226:1 227:1 228:-1 229:-1 230:1 231:1 232:1 233:-1 234:1 235:1 236:1 244:1 245:1 246:1 247:1 248:1 249:-1 250:-1 251:1 252:-1 253:1 254:1 255:1 256:1 257:1 265:1 266:1 267:1 268:1 269:-1 270:-1 271:1 272:-1 273:1 274:1 275:1 276:1 284:1 285:1 286:1 287:1 288:1 289:1 290:-1 291:-1 292:1 293:1 294:1 295:1 296:1 304:1 305:1 306:1 307:1 308:1 309:1 310:-1 311:-1 312:1 313:1 314:1 315:1 316:1 317:1 324:1 325:1 326:1 327:1 328:1 329:1 330:-1 331:-1 332:1 333:1 334:1 335:1 336:1 337:1 346:1 347:1 348:1 349:1 350:1 351:1 354:1 355:1 
-21.92839985353942 -18.95398302160161 -13.58365775531101 -18.04872280013564 -9.606974214153505 36.62485122742957 20.60577669150887 19.3014282112169 21.17154145184918 13.9677471908591 23.6696406987544 31.65544329491416 28.78008244911357 18.06985763036322 10.02732540270629 20.41683433731813 9.185164643135737 16.66488936521422 25.78904967582676 23.28007048483175 20.33214366168048 22.62603898211518 63.68826440623112 26.42434420845053 34.82558156735561 20.17934978909297 12.01475953018228 29.47135223316843 16.98042003832686 25.8550382689141 9.151174987118942 30:1 31:1 32:1 33:1 34:1 46:1 47:1 48:1 49:1 50:1 51:1 52:1 53:1 54:1 56:1 62:1 63:1 64:1 65:-1 66:-1 67:-1 68:-1 69:1 70:1 71:1 72:1 73:1 74:-1 75:-1 76:-1 77:1 78:1 83:1 84:1 85:1 86:-1 87:-1 88:1 89:1 90:1 91:1 92:1 93:1 94:1 95:-1 96:1 97:1 98:1 99:1 103:1 104:1 105:1 106:-1 107:-1 108:1 109:1 110:1 111:1 112:1 113:1 114:1 115:-1 116:1 117:1 118:1 124:1 125:1 126:1 127:-1 128:-1 129:1 130:1 131:1 132:1 133:1 134:-1 135:1 136:1 138:1 144:1 145:1 146:1 147:-1 148:-1 149:1 150:1 151:1 152:1 153:1 154:-1 155:1 156:1 157:1 164:1 165:1 166:1 167:1 168:-1 169:-1 170:1 171:1 172:1 173:-1 174:1 175:1 176:1 177:1 184:1 185:1 186:1 187:1 188:-1 189:-1 190:1 191:1 192:1 193:-1 194:1 195:1 196:1 197:1 204:1 205:1 206:1 207:1 208:-1 209:-1 210:1 211:1 212:1 213:-1 214:1 215:1 216:1 217:1 224:1 225:1 226:1 227:1 228:1 229:-1 230:-1 231:1 232:-1 233:1 234:1 235:1 236:1 244:1 245:1 246:1 247:1 248:1 249:-1 250:-1 251:1 252:-1 253:1 254:1 255:1 256:1 257:1 265:1 266:1 267:1 268:1 269:1 270:-1 271:-1 272:1 273:1 274:1 275:1 276:1 284:1 285:1 286:1 287:1 288:1 289:1 290:-1 291:-1 292:1 293:1 294:1 295:1 296:1 304:1 305:1 306:1 307:1 308:1 309:1 310:-1 311:-1 312:1 313:1 314:1 315:1 316:1 317:1 324:1 325:1 326:1 327:1 328:1 329:1 330:1 331:1 332:1 333:1 334:1 335:1 336:1 337:1 346:1 347:1 348:1 349:1 350:1 351:1 354:1 355:1 
-0 -0 -0 -0 -0 -0.03967985171405149 0.5047053664463088 0 0 0 0 0 0 0 0 11.01905849254094 0 0 0 0 0 0 0.7172411292617945 0 1.687398793010907 0 0 0 0 0 2.83643045999312 30:1 31:1 32:1 33:1 34:1 46:1 47:1 48:1 49:1 50:1 51:1 52:1 53:1 54:1 56:1 62:1 63:1 64:1 65:-1 66:-1 67:-1 68:-1 69:1 70:1 71:1 72:1 73:1 74:-1 75:-1 76:-1 77:1 78:1 83:1 84:1 85:1 86:-1 87:-1 88:1 89:1 90:1 91:1 92:1 93:1 94:1 95:-1 96:1 97:1 98:1 99:1 103:1 104:1 105:1 106:1 107:-1 108:-1 109:1 110:1 111:1 112:1 113:1 114:-1 115:1 116:1 117:1 118:1 124:1 125:1 126:1 127:1 128:-1 129:-1 130:1 131:1 132:1 133:-1 134:1 135:1 136:1 138:1 144:1 145:1 146:1 147:1 148:-1 149:-1 150:1 151:1 152:-1 153:1 154:1 155:1 156:1 157:1 164:1 165:1 166:1 167:1 168:1 169:-1 170:-1 171:-1 172:1 173:-1 174:1 175:1 176:1 177:1 184:1 185:1 186:1 187:1 188:1 189:1 190:-1 191:-1 192:1 193:1 194:1 195:1 196:1 197:1 204:1 205:1 206:1 207:1 208:1 209:1 210:-1 211:-1 212:-1 213:1 214:1 215:1 216:1 217:1 224:1 225:1 226:1 227:1 228:1 229:-1 230:1 231:1 232:-1 233:-1 234:1 235:1 236:1 244:1 245:1 246:1 247:1 248:-1 249:1 250:1 251:1 252:-1 253:-1 254:1 255:1 256:1 257:1 265:1 266:1 267:-1 268:1 269:1 270:1 271:1 272:1 273:-1 274:-1 275:1 276:1 284:1 285:1 286:-1 287:1 288:1 289:1 290:1 291:1 292:1 293:1 294:-1 295:-1 296:1 304:1 305:-1 306:-1 307:-1 308:1 309:1 310:1 311:1 312:1 313:-1 314:-1 315:-1 316:-1 317:1 324:1 325:1 326:1 327:1 328:1 329:1 330:1 331:1 332:1 333:1 334:1 335:-1 336:1 337:1 346:1 347:1 348:1 349:1 350:1 351:1 354:1 355:1 
-0 -13.40962039673107 -0 -0 -0 -0 17.79819444153019 0 0.4504228664429759 0 0 0 0 0 0 11.43712920278697 0 0 1.340007715058196 2.810183610743472 14.88376210132102 0 0.9138959521906119 9.755837054636041 3.080792010577703 15.94590773060755 0 0 0 0 0 30:1 31:1 32:1 33:1 34:1 46:1 47:1 48:1 49:1 50:1 51:1 52:1 53:1 54:1 56:1 62:1 63:1 64:1 65:-1 66:-1 67:-1 68:-1 69:1 70:1 71:1 72:1 73:1 74:-1 75:-1 76:-1 77:1 78:1 83:1 84:1 85:1 86:-1 87:-1 88:-1 89:1 90:1 91:1 92:1 93:1 94:1 95:-1 96:1 97:1 98:1 99:1 103:1 104:1 105:1 106:1 107:-1 108:-1 109:1 110:1 111:1 112:1 113:1 114:-1 115:1 116:1 117:1 118:1 124:1 125:1 126:1 127:1 128:-1 129:-1 130:1 131:1 132:1 133:-1 134:1 135:1 136:1 138:1 144:1 145:1 146:1 147:1 148:-1 149:-1 150:1 151:1 152:-1 153:1 154:1 155:1 156:1 157:1 164:1 165:1 166:1 167:1 168:1 169:-1 170:-1 171:-1 172:-1 173:1 174:1 175:1 176:1 177:1 184:1 185:1 186:1 187:1 188:1 189:1 190:-1 191:-1 192:1 193:1 194:1 195:1 196:1 197:1 204:1 205:1 206:1 207:1 208:1 209:1 210:-1 211:-1 212:-1 213:1 214:1 215:1 216:1 217:1 224:1 225:1 226:1 227:1 228:1 229:-1 230:1 231:1 232:-1 233:-1 234:1 235:1 236:1 244:1 245:1 246:1 247:1 248:-1 249:1 250:1 251:1 252:-1 253:-1 254:1 255:1 256:1 257:1 265:1 266:1 267:-1 268:1 269:1 270:1 271:1 272:1 273:-1 274:-1 275:1 276:1 284:1 285:1 286:-1 287:1 288:1 289:1 290:1 291:1 292:1 293:1 294:-1 295:-1 296:1 304:1 305:-1 306:-1 307:-1 308:1 309:1 310:1 311:1 312:1 313:-1 314:-1 315:-1 316:-1 317:1 324:1 325:1 326:1 327:1 328:1 329:1 330:1 331:1 332:1 333:1 334:1 335:1 336:1 337:1 346:1 347:1 348:1 349:1 350:1 351:1 354:1 355:1 
-0 -0 -0 -0 -0 -0.5608837225418757 0.5040734935316867 0 0 0 0 0 0 0 0 5.881895645642751 0 0 0 0 0 0 0.8675455650301527 0 1.093670524875662 0 0 0 5.703610934857926 0 0 30:1 31:1 32:1 33:1 34:1 46:1 47:1 48:1 49:1 50:1 51:1 52:1 53:1 54:1 56:1 62:1 63:1 64:1 65:-1 66:-1 67:-1 68:-1 69:1 70:1 71:1 72:1 73:1 74:-1 75:-1 76:-1 77:1 78:1 83:1 84:1 85:1 86:-1 87:-1 88:1 89:1 90:1 91:1 92:1 93:1 94:1 95:-1 96:1 97:1 98:1 99:1 103:1 104:1 105:1 106:1 107:-1 108:-1 109:1 110:1 111:1 112:1 113:1 114:-1 115:1 116:1 117:1 118:1 124:1 125:1 126:1 127:1 128:-1 129:-1 130:1 131:1 132:1 133:-1 134:1 135:1 136:1 138:1 144:1 145:1 146:1 147:1 148:-1 149:-1 150:1 151:1 152:-1 153:1 154:1 155:1 156:1 157:1 164:1 165:1 166:1 167:1 168:1 169:-1 170:-1 171:-1 172:1 173:-1 174:1 175:1 176:1 177:1 184:1 185:1 186:1 187:1 188:1 189:1 190:-1 191:-1 192:1 193:1 194:1 195:1 196:1 197:1 204:1 205:1 206:1 207:1 208:1 209:1 210:-1 211:-1 212:-1 213:1 214:1 215:1 216:1 217:1 224:1 225:1 226:1 227:1 228:1 229:-1 230:1 231:1 232:-1 233:-1 234:1 235:1 236:1 244:1 245:1 246:1 247:1 248:-1 249:1 250:1 251:1 252:-1 253:-1 254:1 255:1 256:1 257:1 265:1 266:1 267:-1 268:1 269:1 270:1 271:1 272:1 273:-1 274:-1 275:1 276:1 284:1 285:1 286:-1 287:1 288:1 289:1 290:1 291:1 292:1 293:1 294:-1 295:-1 296:1 304:1 305:-1 306:-1 307:-1 308:1 309:1 310:1 311:1 312:1 313:-1 314:-1 315:-1 316:-1 317:1 324:-1 325:1 326:1 327:1 328:1 329:1 330:1 331:1 332:1 333:1 334:-1 335:1 336:1 337:1 346:1 347:1 348:1 349:1 350:1 351:1 354:1 355:1 
-0 -0 -0 -0 -0 -0 0 0 0 0 0 0 0 0 0 0 0 0 0 0 0 0 0 0 0 0 0 0 0 0 4.647357629902691 30:1 31:1 32:1 33:1 34:1 46:1 47:1 48:1 49:1 50:1 51:1 52:1 53:1 54:1 56:1 62:1 63:1 64:1 65:-1 66:-1 67:-1 68:-1 69:1 70:1 71:1 72:1 73:1 74:-1 75:-1 76:-1 77:1 78:1 83:1 84:1 85:1 86:-1 87:-1 88:1 89:1 90:1 91:1 92:1 93:1 94:1 95:-1 96:1 97:1 98:1 99:1 103:1 104:1 105:1 106:1 107:-1 108:-1 109:1 110:1 111:1 112:1 113:1 114:-1 115:1 116:1 117:1 118:1 124:1 125:1 126:1 127:1 128:-1 129:-1 130:1 131:1 132:1 133:-1 134:1 135:1 136:1 138:1 144:1 145:1 146:1 147:1 148:-1 149:-1 150:1 151:1 152:-1 153:1 154:1 155:1 156:1 157:1 164:1 165:1 166:1 167:1 168:1 169:-1 170:-1 171:-1 172:1 173:1 174:1 175:1 176:1 177:1 184:1 185:1 186:1 187:1 188:1 189:1 190:-1 191:-1 192:1 193:1 194:1 195:1 196:1 197:1 204:1 205:1 206:1 207:1 208:1 209:1 210:-1 211:-1 212:-1 213:1 214:1 215:1 216:1 217:1 224:1 225:1 226:1 227:1 228:1 229:-1 230:1 231:1 232:-1 233:-1 234:1 235:1 236:1 244:1 245:1 246:1 247:1 248:-1 249:1 250:1 251:1 252:-1 253:-1 254:1 255:1 256:1 257:1 265:1 266:1 267:-1 268:1 269:1 270:1 271:1 272:1 273:-1 274:-1 275:1 276:1 284:1 285:1 286:-1 287:1 288:1 289:1 290:1 291:1 292:1 293:1 294:-1 295:-1 296:1 304:1 305:-1 306:-1 307:-1 308:1 309:1 310:1 311:1 312:1 313:-1 314:-1 315:-1 316:-1 317:1 324:1 325:1 326:1 327:1 328:1 329:1 330:1 331:1 332:1 333:1 334:-1 335:1 336:1 337:1 346:1 347:1 348:1 349:1 350:1 351:1 354:1 355:1 
-2.417007695682936 -0 -0 -19.68818367532219 -13.28823784262975 -0 0 0 0 0.6998888083209527 0 0 0 7.665069846733438 0 0 0 0 0.9310044606185848 0 0 0 0 0 0 17.58077216094143 0 24.89779039915007 16.6348565473808 0 0 30:1 31:1 32:1 33:1 34:1 46:1 47:1 48:1 49:1 50:1 51:1 52:1 53:1 54:1 56:1 62:1 63:1 64:1 65:-1 66:-1 67:-1 68:-1 69:1 70:1 71:1 72:1 73:1 74:-1 75:-1 76:-1 77:1 78:1 83:1 84:1 85:1 86:-1 87:-1 88:1 89:1 90:1 91:1 92:1 93:1 94:1 95:-1 96:1 97:1 98:1 99:1 103:1 104:1 105:1 106:1 107:-1 108:-1 109:1 110:1 111:1 112:1 113:1 114:-1 115:1 116:1 117:1 118:1 124:1 125:1 126:1 127:1 128:-1 129:-1 130:1 131:-1 132:1 133:-1 134:1 135:1 136:1 138:1 144:1 145:1 146:1 147:1 148:-1 149:-1 150:1 151:1 152:-1 153:1 154:1 155:1 156:1 157:1 164:1 165:1 166:1 167:1 168:1 169:-1 170:-1 171:-1 172:1 173:1 174:1 175:1 176:1 177:1 184:1 185:1 186:1 187:1 188:1 189:1 190:-1 191:-1 192:1 193:1 194:1 195:1 196:1 197:1 204:1 205:1 206:1 207:1 208:1 209:1 210:-1 211:-1 212:-1 213:1 214:1 215:1 216:1 217:1 224:1 225:1 226:1 227:1 228:1 229:-1 230:1 231:1 232:-1 233:-1 234:1 235:1 236:1 244:1 245:1 246:1 247:1 248:-1 249:1 250:1 251:1 252:-1 253:-1 254:1 255:1 256:1 257:1 265:1 266:1 267:-1 268:1 269:1 270:1 271:1 272:1 273:-1 274:-1 275:1 276:1 284:1 285:1 286:-1 287:1 288:1 289:1 290:1 291:1 292:1 293:1 294:-1 295:-1 296:1 304:1 305:-1 306:-1 307:-1 308:1 309:1 310:1 311:1 312:1 313:-1 314:-1 315:-1 316:-1 317:1 324:1 325:1 326:1 327:1 328:1 329:1 330:1 331:1 332:1 333:1 334:1 335:1 336:1 337:1 346:1 347:1 348:1 349:1 350:1 351:1 354:1 355:1 
-29.04934555367871 -29.18820581801139 -7.614472866664737 -29.63229469470385 -0 -28.02610387825107 20.17913146094261 29.21220472456553 30.86559319363822 24.49636537125406 27.437625260101 5.397935190080647 24.85680490883881 7.910199199965851 19.53074829189571 45.73266682253846 19.03807920575684 23.9486453893207 32.1172791817672 32.66314509826195 26.94496629163821 41.673703347395 14.45410427202298 29.96568060439766 34.35035557884098 29.41199721235267 22.14146156163094 5.84757691340007 8.066815476375565 0 11.83423945982388 30:1 31:1 32:1 33:1 34:1 46:1 47:1 48:1 49:1 50:1 51:1 52:1 53:1 54:1 56:1 62:1 63:1 64:1 65:1 66:1 67:1 68:-1 69:1 70:1 71:1 72:1 73:1 74:1 75:1 76:1 77:1 78:1 83:1 84:1 85:-1 86:-1 87:-1 88:-1 89:1 90:1 91:1 92:1 93:1 94:-1 95:-1 96:-1 97:1 98:1 99:1 103:1 104:1 105:1 106:-1 107:-1 108:1 109:1 110:1 111:1 112:1 113:1 114:1 115:-1 116:1 117:1 118:1 124:1 125:1 126:1 127:-1 128:-1 129:1 130:1 131:1 132:1 133:1 134:-1 135:1 136:1 138:1 144:1 145:1 146:1 147:-1 148:-1 149:-1 150:1 151:1 152:1 153:-1 154:1 155:1 156:1 157:1 164:1 165:1 166:1 167:1 168:-1 169:-1 170:1 171:1 172:-1 173:1 174:1 175:1 176:1 177:1 184:1 185:1 186:1 187:1 188:1 189:-1 190:-1 191:-1 192:1 193:1 194:1 195:1 196:1 197:1 204:1 205:1 206:1 207:1 208:1 209:1 210:-1 211:-1 212:1 213:1 214:1 215:1 216:1 217:1 224:1 225:1 226:1 227:1 228:1 229:1 230:-1 231:-1 232:-1 233:1 234:1 235:1 236:1 244:1 245:1 246:1 247:1 248:1 249:-1 250:1 251:1 252:-1 253:-1 254:1 255:1 256:1 257:1 265:1 266:1 267:1 268:-1 269:1 270:1 271:1 272:-1 273:-1 274:1 275:1 276:1 284:1 285:1 286:1 287:-1 288:1 289:1 290:1 291:1 292:1 293:-1 294:-1 295:1 296:1 304:1 305:1 306:-1 307:1 308:1 309:1 310:1 311:1 312:1 313:1 314:-1 315:-1 316:1 317:1 324:1 325:-1 326:-1 327:-1 328:1 329:1 330:1 331:1 332:1 333:-1 334:-1 335:-1 336:-1 337:1 346:1 347:1 348:1 349:1 350:1 351:1 354:1 355:1 
-6.348521982850227 -0 -14.88029695509665 -0 -16.5935349385451 -7.862502106393303 12.64230733646721 0 0 0 0 18.84185020391215 0 15.35634949205046 0 0 0 6.44445978081957 0 0 0 0 28.42804502236347 0 0 5.861975285688782 0 11.32236832976242 15.64874802721594 47.27528362506489 6.143244239873202 30:1 31:1 32:1 33:1 34:1 46:1 47:1 48:1 49:1 50:1 51:1 52:1 53:1 54:1 56:1 62:1 63:1 64:1 65:1 66:1 67:1 68:1 69:1 70:1 71:1 72:1 73:1 74:1 75:1 76:-1 77:1 78:1 83:1 84:1 85:-1 86:-1 87:-1 88:-1 89:1 90:1 91:1 92:1 93:1 94:-1 95:-1 96:-1 97:1 98:1 99:1 103:1 104:1 105:1 106:-1 107:-1 108:1 109:1 110:1 111:1 112:1 113:1 114:1 115:-1 116:1 117:1 118:1 124:1 125:1 126:1 127:-1 128:-1 129:1 130:1 131:1 132:1 133:1 134:-1 135:1 136:1 138:1 144:1 145:1 146:1 147:1 148:-1 149:-1 150:1 151:1 152:1 153:-1 154:1 155:1 156:1 157:1 164:1 165:1 166:1 167:1 168:-1 169:-1 170:1 171:1 172:-1 173:1 174:1 175:1 176:1 177:1 184:1 185:1 186:1 187:1 188:1 189:-1 190:-1 191:-1 192:1 193:1 194:1 195:1 196:1 197:1 204:1 205:1 206:1 207:1 208:1 209:1 210:-1 211:-1 212:1 213:1 214:1 215:1 216:1 217:1 224:1 225:1 226:1 227:1 228:1 229:1 230:-1 231:-1 232:-1 233:1 234:1 235:1 236:1 244:1 245:1 246:1 247:1 248:1 249:-1 250:1 251:1 252:-1 253:-1 254:1 255:1 256:1 257:1 265:1 266:1 267:1 268:-1 269:1 270:1 271:1 272:-1 273:-1 274:1 275:1 276:1 284:1 285:1 286:1 287:-1 288:1 289:1 290:1 291:1 292:1 293:-1 294:-1 295:1 296:1 304:1 305:1 306:-1 307:1 308:1 309:1 310:1 311:1 312:1 313:1 314:-1 315:-1 316:1 317:1 324:1 325:-1 326:-1 327:-1 328:1 329:1 330:1 331:1 332:1 333:-1 334:-1 335:-1 336:-1 337:1 346:1 347:1 348:1 349:1 350:1 351:1 354:1 355:1 
-0 -0 -0 -0 -0 -0 0 5.029604957382839 0 0.5212814598947408 7.852394880370318 18.46381657179824 19.01840253945408 0 0 0 15.07310052499844 6.616469344026675 0.8739252555315213 0 0 0 0 0 0 0 7.790505074911658 0 0 15.74149340096555 0 30:1 31:1 32:1 33:1 34:1 46:1 47:1 48:1 49:1 50:1 51:1 52:1 53:1 54:1 56:1 62:1 63:1 64:1 65:-1 66:-1 67:-1 68:-1 69:1 70:1 71:1 72:1 73:1 74:-1 75:-1 76:-1 77:1 78:1 83:1 84:1 85:1 86:-1 87:-1 88:1 89:1 90:1 91:1 92:1 93:1 94:1 95:-1 96:1 97:1 98:1 99:1 103:1 104:1 105:1 106:1 107:-1 108:-1 109:1 110:1 111:1 112:1 113:1 114:-1 115:1 116:1 117:1 118:1 124:1 125:1 126:1 127:1 128:-1 129:-1 130:1 131:1 132:1 133:-1 134:1 135:1 136:1 138:1 144:1 145:1 146:1 147:1 148:-1 149:-1 150:1 151:1 152:-1 153:1 154:1 155:1 156:1 157:1 164:1 165:1 166:1 167:1 168:1 169:-1 170:-1 171:-1 172:1 173:1 174:1 175:1 176:1 177:1 184:1 185:1 186:1 187:1 188:1 189:1 190:-1 191:-1 192:1 193:1 194:1 195:1 196:1 197:1 204:1 205:1 206:1 207:1 208:1 209:1 210:-1 211:-1 212:-1 213:1 214:1 215:1 216:1 217:1 224:1 225:1 226:1 227:1 228:1 229:-1 230:1 231:1 232:-1 233:-1 234:1 235:1 236:1 244:1 245:1 246:1 247:1 248:-1 249:1 250:1 251:1 252:-1 253:-1 254:1 255:-1 256:1 257:1 265:1 266:1 267:-1 268:1 269:1 270:1 271:1 272:1 273:-1 274:-1 275:1 276:1 284:1 285:1 286:-1 287:1 288:1 289:1 290:1 291:1 292:1 293:1 294:-1 295:-1 296:1 304:1 305:-1 306:-1 307:-1 308:1 309:1 310:1 311:1 312:1 313:-1 314:-1 315:-1 316:-1 317:1 324:1 325:1 326:1 327:1 328:1 329:1 330:1 331:1 332:1 333:1 334:1 335:1 336:1 337:1 346:1 347:1 348:1 349:1 350:1 351:1 354:1 355:1 
